#~,0.42711185775906857,0.03750432990981277,-0.06768382760548732,-0.08953889891567658,-0.38520271364466996,-0.28375962638596064,0.14095891410699482,-0.0761468969924103,0.19827657561056283,0.18983212313514236,0.45504078408866533,0.09237293379403232,-0.47729251493008706,0.08274510308170625,0.5118894503894489,0.3405104592590956,0.049844482959615875,-0.11235845541311529,0.45574535885663936,0.12109469725586529,0.1637228144071567,0.010512643814254924,-0.3427678127201541,-0.47256307898208705,0.31298125952359546,0.03224373262901268,0.41237727096205534,-0.06494360413978174,-0.03222094825051333,-0.2829707929086902,0.012328751170734455,-0.25554556660548544,-0.33532576881495013,0.44913818469463673,0.2680336962419382,-0.19409113669954509,0.26595528019980774,0.10846105369480358,-0.242175405462949,-0.25538829523539186,0.06496509544189402,0.022376579422307842,-0.3994238871583019,0.04388397745225767,0.32163266670251145,0.33706171269472207,-0.38507053300436456,0.2931588836764485,-0.3569395494133589,0.1286274486489005,0.4013285568854833,0.04432945997092191,0.4353944381739415,0.3054621227417934,0.2973829689244023,0.28340874136260397,0.22386882063878294,0.4869931222946493,0.010506701768075494,-0.11384349917598693,-0.04270815902247713,0.2688340818227003,0.33677833252978784,0.41325733635084316,-0.30071864801053017,0.3888718310881707,-0.40212463941374565,0.3355470539168317,-0.380252890196694,0.48367651610183143,-0.37096692183926777,0.027308775733551685,0.024485331299881383,0.06589736132448672,0.01848579324052248,-0.36568403867748256,0.31018940057190747,-0.47173325177660685,0.38649407265506186,0.3185237166183681,0.3688760060790931,0.19389834064839323,-0.03744168756019414,0.08768389505584927,0.2712568943513325,0.13220176016933805,0.17677769939649873,-0.024834597818429425,-0.48039589217945544,-0.18834970998640854,0.2799712686345371,0.3291965400621798,0.44277236832620454,-0.22656871623253605,-0.12238193657525534,0.10370038553084483,-0.42460576188712695,-0.5305067470641317,-0.0013548982284373675,0.10790604343615895,-0.4552540721618311,-0.6272458309128734,-0.025458551454733063,-0.2439801248167052,-0.28034499763875614,-0.03549214720026636,-0.1291933729067087,0.06986193584097512,0.3671326908440363,0.09109798614177005,0.34911930563668514,-0.01764622527849305,0.07631602415875648,0.01340622200729207,0.36389731489283095,0.25169596565020913,-0.014734769864735212,0.13421036875305548,-0.4299067571824142,-0.3500974131843857,-0.501770598957383,0.05245661505288777,-0.36782996936364576,-0.35832004323887146,-0.08555298049288097,-0.070837200779202,-0.7433131165916179,-0.18435796315943867,-0.15332617972682455,0.16798384955861073,-0.2139726795066442,0.23430651552555715,-0.21739674002639928,-0.04026505290403209,-0.24679848416415487,-0.22386253366949896,-0.21720564164413805,-0.05498051352865873,-0.470053728850363,-0.050882100074879484,0.20527745856667529,-0.3291622757453263,0.22659534676192453,-0.3602460455352892,-0.041322972783383205,0.34531946268280234,-0.38949964676123605,-0.5855371198168209,-0.28864839058237657,0.15398637938591145,-0.6472888435410331,-0.9532099310300887,-0.9153120449380934,-0.7753980520266989,-0.6995717044462579,-0.8348863167721874,-1.5277400143500448,-0.6261164267246732,-0.5402765277879461,-0.1451556982900629,-0.525250983229532,0.1450998737980117,-0.04589779431609022,-0.2726065868072284,-0.3153694927277714,-0.38124227898501617,-0.4468695834812275,-0.32532642127175837,0.20852111953237845,0.006214364705887024,-0.1443571924374066,-0.3275366794282406,-0.3647467952019612,0.463900537373127,0.4586431175287832,0.9920976121561295,-0.06002508094058249,-0.5701770807876297,-0.6895245388777094,-0.7943712333992432,-1.9282935681829252,-2.7410221298499784,-2.111013465143723,-1.4278990368858,-1.8066546113270952,-1.9124049585419216,-1.9546732848507529,-2.057445820209317,-1.2557772178171216,-0.18602886322893605,-0.13876350918399377,-0.3339950093410648,-0.3919313361295916,-0.28233739494261095,0.5011217511394414,-0.4304540823734413,0.4587604594189747,-0.01627620733431558,0.020634227874255336,0.420530865423894,0.7951323275229961,0.5991319468933259,1.5457929967145185,1.5716829677366562,0.9858362113871635,1.08488745548026,1.7118238955949132,0.42144410867189597,-0.19367180170203485,-2.5450219246039674,-2.4570620249527844,-1.4689714528468658,-1.0750718927291154,-1.901508235611028,-0.43726544854209715,-0.2297544128031301,-1.0972109111088393,0.2793278473732463,0.4253557497556684,-0.3105804557940318,-0.10351413208678657,-0.5647507170859002,0.2614143891017324,-0.29447591840501397,-0.3838731413389266,-0.16609043430246442,0.4427485968611805,-0.10245953577349563,0.5764419296887248,1.915125156188625,1.8933218329915358,1.6532972205461485,2.043311448281466,2.4346116277672087,2.1276506477082906,0.6713753233203498,0.08379217170683992,0.6439266252438932,1.0944301399868053,1.9529715188702894,1.4593508380677307,-0.41137428383211866,-0.1525941515737581,2.2784804641942293,1.6203236413151136,1.2971544858162136,0.07430731983605582,0.12358163033186548,-0.6715869543325783,-0.5856154701588185,-0.23959363858470126,0.1718546136854101,-0.4836068528602562,-0.04365421689156582,0.3176017227614082,0.23347913365925121,0.9775477653174599,2.47557473568238,2.1621981418642675,2.082103455440718,2.6567988868078944,1.7464591246703574,1.0890105687384892,0.9104275682107764,1.0863572659303078,2.5918643068932252,3.2321435651353005,4.693773983628063,3.536143936448722,2.2113896565209434,1.8813030088556129,1.6317101258872497,2.1290283509268173,2.3690862801992827,0.34928152416505526,0.3376928077590464,-0.009403527884222891,-0.15527823927857537,-0.07157937168047125,0.4931679876046061,-0.036663646592677346,-0.21942053948208307,0.296478840268823,0.561733073276315,0.8781657877043234,2.0584450331898485,2.187506848660728,1.8256856685114518,1.1101197460310261,-0.19851100056608997,0.6145094822981045,2.0805461765088973,3.8299739660514036,3.928693029861859,3.8578435928880515,3.6702022898562627,2.2568620333681477,1.5122783724810778,1.6296571011956629,1.2599416444640434,2.520675959873148,1.6655208515321376,-0.17046930296972151,0.170622884345541,-0.4013986569145173,0.15095591760246277,0.43519759995903295,0.3412998677319349,0.323395710218468,0.09271432602736027,0.2571141631547428,0.24192415445496102,0.644959836973344,1.7651485730598295,2.7576260279327593,1.8704462425557504,-0.4530253665712234,-0.3704145557037874,1.2242826863018788,1.337892987009568,1.911430730663121,1.4402664622893204,1.1242283222415737,1.498642536957854,0.7623141531608121,0.8751715109611035,1.9206864269045716,1.0641411770660625,1.9506972827303193,1.031765300970516,0.18335788376159762,0.10018309432573214,-0.09522018210201065,-0.10237505986423302,-0.22541490793645963,0.3114818512481059,-0.39645856131509605,0.44706148260337986,0.7083387369017488,0.11693169597177555,0.289318448380537,1.26049969030668,1.4072085143174329,-0.6131355869540658,-1.7192609307752587,-0.08614925466011171,-0.8461002966302072,-1.3236433705662254,-0.7521365999711719,-1.67098452614093,-1.7433256069044452,-1.6837477890782806,-0.6697428288831356,0.34581029920680506,1.4191332463528237,1.0832869064987367,0.12649215750358017,-0.27755203714608817,0.13984289018416862,0.03241959209919,-0.07728837967679975,0.4866610743572328,0.18674568782038045,-0.3684538443313373,-0.2396387170849654,-0.33114214254197616,-0.23308184975058557,0.16432593240221327,0.14763576599933276,0.5351138856185207,0.5241689698139712,-0.9341667388900875,-3.151057309989154,-0.930693668941047,-1.8235117779836665,-2.357350938638702,-3.020602003940764,-2.6171747307994466,-2.6971968221478058,-1.8440623558677929,-0.8178370164346412,0.8568653296261561,0.554480914978065,-0.20239335248685766,-0.20860694321164408,-0.02884690848706427,-0.11826717615983735,-0.313281815586803,0.5122531261573603,0.19472794810587205,0.4770381643535081,-0.18735689839373443,0.49315132099232417,-0.28567987398654304,0.45914670575834793,-0.23169199606342067,-0.19642520754755666,0.01875853257608058,0.2266778517815767,-1.6046569198955054,-4.332951641392432,-2.2868338232866265,-2.6266862464441867,-2.2042425513099912,-2.441054564294912,-2.2168083402079652,-2.220286306687486,-1.9950704038366966,-0.3600302668884981,0.2777955392201165,1.1006735813744526,-0.38970274507467545,-1.0727853916141643,-0.13593863283607213,-0.03525157864287284,-0.007343385250384993,-0.502465055967391,-0.06485750408956915,0.2596192067249862,-0.18989791961993557,-0.2886409684240334,-0.13880493867815452,0.3783320881037012,-0.24531894100766338,-0.658209294710834,-0.3103633168489037,-0.20999691609852952,-0.8458065774807837,-3.3486055519589932,-3.5203899409902975,-3.1050981468896106,-2.601161385161649,-2.482738260195657,-2.405647870355453,-2.5025244138760736,-0.6089704422562048,0.7758983932773921,0.1221971823744269,0.8543075463076905,-0.14734143984230913,0.2578707529858355,0.2859487224411253,-0.414308558190124,-0.5032336118000553,-0.12865813040703006,0.1418224432899573,-0.41104447886597767,0.4040085138445185,0.24417680162201347,0.11724275091513102,-0.009395742391761887,-0.03698644014452505,-0.34344654315757717,-0.4746112863183691,-0.5438178457620855,-1.1035476040622776,-2.1594913481256084,-3.6701303816920188,-4.585438817799165,-3.739058896940666,-3.66773156630551,-4.109583997603339,-2.6805615729071963,0.6680155760236604,1.1773087121372312,0.45343099553133603,-0.6227974645827337,-0.3766689011563407,0.09673920053776829,0.16829215400675876,-0.46568707141434384,-0.27047884178126147,-0.20622812046702596,-0.4352011972057721,-0.3806296413144261,-0.3197700084569645,0.2497716284191738,0.310629071461093,-0.13304230929918168,0.29124879902055784,-0.6783152420927272,-0.356264934167571,-0.583939555766392,-0.6772437857967969,-1.0269993065075704,-1.9337994503898812,-2.093047712068031,-2.9095984054568995,-2.4147925951955855,-1.6985043792948287,1.224415415320626,2.263281393876018,1.078450813930307,-0.5614150019694086,-0.6296209793791293,-1.0883545819209728,-0.6655349687321823,-0.010388269444594105,-0.06044272050572931,-0.07500104944503201,-0.20420476591923634,0.40967777387122944,-0.15859083287131565,-0.28187272295732807,0.06634306331517312,-0.366767723660537,0.06932734020102693,0.14315965824239096,-0.548743722532565,-0.5604919698756511,-0.9640605158234598,-0.9537060435482021,-0.4891348924141853,-0.1897549770412075,-1.1060845814007187,-1.524701293098557,-0.9205814308903962,0.3032196637605232,1.0482374672481405,1.0607459013060834,-0.2373782430449646,-0.1392300235417547,-0.30684875598631595,-1.350540122324921,0.3179642681077388,0.014429932330355551,-0.6909866136092112,-0.47783521165874526,-0.08401189583301913,-0.32827370670372025,-0.3964838006238949,-0.0029820069127002996,-0.24840191292663746,0.17913261495571658,0.39403723990507133,-0.15828258140092405,0.026801023510511134,0.11712183503495133,-0.6039056475147906,-0.4978087275419883,-0.9205441315142726,-1.137478511872559,-1.4165589341718294,-0.6848501721981219,-0.38012406217744665,1.08458197801282,0.7017384222993929,0.5999332824203985,0.039124694214207306,-0.08730875441048043,-0.5991871565970878,-1.8716303252690139,-0.7558127182348665,-0.49608695143605097,-0.41818590091091346,0.22342458352006003,0.5451818913348739,-0.26703360874719284,0.24474664326831447,0.17471234781382944,-0.3216805378449584,-0.07187414791323145,0.12217182654498837,0.2905149006993957,-0.4494889345375588,-0.32418667986317057,-0.6247826890023542,-0.6733338675076056,-1.0631433285215135,-0.8580602153492857,-0.37552858355773994,-0.8650240665324445,1.328245389919871,0.20168609286082964,0.14794806537486396,-0.21524085249346228,0.5374213103609645,-0.9772135997225108,-1.3803440259544815,-1.1581875360248193,-0.7891459335191242,0.47370301354089633,0.30060014818982833,0.35123527500702373,0.056655657602296086,-0.20142010086869,-0.41575131704317114,-0.39627540830971897,-0.3901715949319129,-0.24798103262398893,-0.15680209787495494,-0.07675355398333487,0.24910692786744465,-0.7268282498762222,-1.20023248441274,-1.2592357895845123,-1.2129586712903642,-0.4694752910646576,-0.39861365989118214,0.34746346240648907,0.8830159417525925,-0.3366416563916948,-0.7124808380126955,0.6984009141490602,-0.6795990768226771,-0.6789659293838953,-1.2798148867155583,-0.9562723011016101,-0.8066524851401973,0.9739601896670266,-0.2876751639288036,0.06460780994982485,-0.14112744734197216,0.32196683927074166,0.07153824530801615,0.480653387672763,0.25123992859560795,0.2898473743118568,0.29380525631480425,-0.46272087242289656,0.2597913119001735,-0.42317926496884434,-0.9372250007295508,-0.4025715694058676,-1.0865203984449658,-0.2605492361888596,0.2832571560461292,0.4899204599821415,-0.17149784305365856,-0.41000085621003374,-0.9226477086017437,0.37432181767795203,-0.16127112628744536,-0.3265933741100074,-1.0916431467286913,-0.7180620864550832,-0.31470083962068557,-0.08963447703074158,0.5249662319969306,-0.1725514512725065,0.14404975368902137,-0.15818012531656608,0.41413026217947013,-0.431019910342857,0.0859583290356415,0.2613011812653091,0.36423787707835953,0.18425655888267803,-0.17356877810541524,-0.6783951739369665,-0.48054056441813187,-0.3208721332711993,0.14438917537127466,-0.11227810611304215,0.649298969122281,1.5985717034671412,0.3849246053792653,1.125565972680205,-0.49629690222839556,0.7029797627546653,0.3121115820951442,0.47917250639916986,0.36074532006480925,0.08579230082397564,-0.9417808733792693,-0.4175435828889028,-0.04156471028409749,-0.17460681430463218,-0.1202926628447273,0.39967009113809493,-0.014546556091386208,-0.4712403699858644,0.23017397938670908,0.4569243462868462,0.06949457738036748,0.4277674853760862,-0.3566486150009694,-0.28864471567766226,0.16452564043486115,0.31990412007226676,0.2100616797963474,0.8270367660484472,0.8580544909193762,-0.17686043919340425,0.38619838819280283,0.8875906868576158,0.3337393775947658,1.2038135788663047,0.6566509496843742,1.771940623492457,0.28649229642771595,0.10004036375067588,-0.0620559546272764,-0.3041517677875069,0.06858419778549177,-0.4731132678502879,-0.33191689473961483,-0.3878736134333347,-0.007147503371651351,0.13626776678542282,-0.37654427409667446,-0.3797010577955441,-0.3133031874126503,-0.36490078094360767,0.40932948971032723,0.20226259527793272,0.4664222157622917,0.6558275043810546,0.9575076488445603,1.5060334936610738,0.8825128172432677,-0.6919097422700994,-0.33678293916747165,0.6769158311356608,0.2712957206038414,1.2733645879383853,1.46833443346747,2.009601231685005,1.6590412552533038,0.7869984626450491,-0.03154820302849471,0.6529326769052924,0.2880767337714386,0.09887468707413365,0.30841658760088686,-0.3002656922476923,0.05183468908636095,0.16909158865686885,-0.3884748436287464,0.10228586828475093,0.47257616504677147,-0.329343629387976,-0.2480106600456878,0.6853782193128893,0.3288199645947223,0.5471778563813875,0.5502930300447925,0.9953177831279568,0.784119388144842,-0.4171022429932047,0.20930179050265382,1.164111477035671,0.8992787138299482,0.3380862280171059,0.5341375190254453,0.5832289828466497,0.08756753922849014,0.2204916224881927,-0.17542206265031243,-0.04248578257598549,1.1337503000427405,-0.04632131813765941,-0.2835421819491969,-0.04390656087926703,0.15182676784684473,-0.05314569449280468,-0.23998155525112383,-0.3128281435291913,-0.07200749018897724,-0.2795103347522617,-0.39851666458718593,-0.3015401005266064,0.33453083189547883,0.35391062385143224,-0.21503059019355109,-0.39608860529864165,0.5345388255241998,0.23623376234420004,0.7049968747161411,0.6100262636850157,0.23527780270489582,0.04854089545355293,-0.05540717567085953,0.32412796725396875,0.6743988405003348,0.4632301960414268,0.4575898074013591,-0.3087754203957972,0.4646173508692998,0.4190957833185003,-0.15920018197663516,0.10264532911282419,-0.47331898333439404,0.36776900640165244~,-0.14661967375136015,-0.018126329212525497,-0.43288702276635965,-0.48131923667797155,0.16442130083695833,0.45876233735537525,0.3267842038549819,0.0027343162806899705,0.4702117969576864,0.4196817794393271,0.2637225537698617,0.40170641479130503,0.16374396445029069,0.16460077846246524,-0.42662627501675515,-0.06255671858507984,-0.12692648395770864,0.07921145493917447,0.3948609003858718,0.1252920989477112,-0.10112439773905879,0.4547201512050922,0.42601446022880013,-0.3533300671752548,-0.283297838255732,0.28192368137986795,0.17223086098082124,0.39089814033057096,-0.21586678213675786,-0.49208016530818527,-0.5013777501394835,0.44072513577086664,-0.49345851923847783,-0.018785033550032488,0.28114821816748553,-0.07526223359505324,-0.09521015935159843,-0.27140854129456915,0.11267606005115882,-0.3700386714962039,-0.12484308456215135,0.27003107113040825,-0.3332566128670964,-0.2740758881906895,-0.26536042288529793,-0.3671710303467821,-0.10550370866318334,-0.19053355260605628,0.303007828153308,-0.24922652172736248,-0.08710374906830054,0.4654101786548192,0.4940522179816381,0.34512697227412775,-0.15818966248414285,-0.12199246919058518,0.026442064627196345,-0.11013743001694876,-0.4086015348095641,-0.1447982221774527,-0.28411663381756685,-0.4911616180343497,-0.2077190745181053,0.015393994426436578,0.318180579649496,-0.16450299597563905,0.029234989589398967,-0.35398055004605933,-0.33946524093648134,0.3185320406383152,-0.216340115935383,-0.5679200733534877,-0.34543251615389775,-0.09874283651573643,-0.7206637974280479,-1.4324119445136119,-0.30827554954794084,-0.007406508304869093,-0.26362895236148465,-0.024501375555555,-0.06657849072635741,0.34757001074013766,0.4687139446387744,0.12842725752441017,-0.2494716700674645,-0.4818031931931482,-0.19886840518447885,0.4642467728916095,0.40817675734859,-0.4548620935145558,0.41190392783034396,-0.4909471468154789,0.08334510128870228,-0.21795714534541258,-0.19136725013862443,-0.6369700219965346,-0.6125683687713748,-0.06506186972867573,-0.4260107986830136,-0.40847834923884835,-0.8725703420159554,-0.33952214457235336,-1.5231742758130717,-1.7751271827789479,-1.0714773708658165,0.13591671052225002,-0.5434981530538133,0.19025631133283705,0.18749739526945552,-0.1494418246989962,0.3368760568797973,-0.12713684673074407,0.07764267218556942,0.2770431558398743,0.21599180716713057,0.25684775566738854,-0.38173228930529224,0.1211681219022455,-0.217318416074973,-0.33581280565702504,0.29402057662362613,-0.4326697980790281,-0.2980815266871109,0.6734337899426728,0.23758478727914928,0.3822336512684379,0.28195406698319364,0.272271840261662,-0.39826512896559124,-1.5780881646468132,-1.3424346919489982,-0.38921180272930667,0.08382424333017163,-0.39529974878567076,-0.3235118172837498,0.005114416816265468,0.4070141282853542,0.04196629546751043,-0.41764400822151665,0.3668675671478276,-0.24572859121467994,-0.2981207658706027,0.48705669783346256,-0.19589519669315206,-0.20761913666032297,0.11250304225654723,-0.5312054428774545,-0.3885827488324292,0.013535347376339298,0.3798767786086777,0.8884317393467631,0.4450465200058969,1.2224976440540012,1.7984109105376291,2.1005221826871217,1.1356499294027644,0.6457902601246751,-0.7137724226179025,-1.0906173612726808,0.6723173299318544,1.0565910283812814,0.24932541795006213,-0.18914010476567472,0.037271501072101774,0.2941657540974233,-0.21767181453201717,0.34742058456120006,0.35451976762099463,-0.06824435721759747,0.057648742523043334,-0.39914757120616967,0.28329249758964276,0.33820193297295664,0.07630764094296347,-0.5328102884374026,0.33479288512581107,0.6881155355074071,0.5180771274114598,0.7081330994651681,0.6966804952244143,1.8071497810416053,2.2518161161306107,1.2815159609472657,1.0344251328995329,-0.21282166588188886,0.849369990102985,0.16475189814045704,1.104778502624138,0.4543900577734331,-0.2814689087076384,0.09636111380652715,-0.8457873890853242,0.18036166387027988,0.1913171204861871,-0.48940234796151016,-0.27293521044719277,0.08822207862462234,0.42701667390445375,-0.247384329329142,0.14563573861647083,0.013199092713857054,0.1276683685709589,0.23335533818802845,0.20512303600838616,0.2630862570289928,0.7472461615807124,0.82872899932998,0.8491528434669953,1.2878916657907142,0.9207582085754076,0.8692824879313753,-0.0002976338476164482,-0.2841401537214956,-0.9633991308199971,0.18320950318655835,0.09865645255120899,-0.22947895927865608,0.0720200857779982,-0.020838396029153865,-0.5936544136249752,-0.849158229353619,-0.7714403385525972,0.1194518762931967,0.35359558738011404,-0.47502603135699256,-0.4040913401384604,0.04360511398130604,-0.18520563808566692,-0.1879606709870054,0.05412478125649181,0.17423408885194,0.7681148545271096,0.44647693493348706,0.7891855055200832,0.8089893161583724,-0.6387004756941083,-0.3800031485986756,-0.8767254120803859,0.5676556675857392,-0.5305551288432027,-1.2983448850499992,-0.9673586301747182,-0.5146753462444855,-1.210028033678762,-0.7088305599134884,-1.1391009624595347,-1.3239987005065763,-1.3982277750391587,-0.2355045713516305,-0.007279621909902318,0.40047598587844424,-0.3330910040625939,-0.27587340390296494,0.0953653182048505,-0.39218257547436053,-0.023158602304466383,0.45344583925436266,-0.2485748567593418,0.5555168207947586,0.46903055724134074,-0.5441223031030199,0.19539288764978832,-0.3335167389614021,-1.5586910331019423,-2.1494896913216137,-2.6720193335222295,-0.8887364095253365,-0.3793009622280677,-0.1913890820559016,0.3105992976555634,0.4723057087240613,-0.2783514037127959,-0.10775283425159098,0.15253727270644807,-0.2544830875393064,0.6206491006967778,0.4960601102061607,0.5987858290341429,-0.2685832135821589,0.3719031727436975,-0.015315512004341695,0.27528612370391514,0.11901102229818789,-0.4229921888073878,-0.028517810919758108,0.5874120271664931,0.6969771395899443,-0.3859438171295311,-0.14681370901409244,-0.7527074771413463,-1.3895747172024273,-2.129986935347039,-2.438656518000939,-1.9177688094717482,1.1087477648552746,1.1870911010160594,1.912574706453085,2.415279133576223,0.7418828903895187,0.08258610852572174,0.3604687069594074,0.4404099652053013,0.8928275061308157,0.3195564064455687,-0.10694986437173379,0.06408466476704258,-0.11475383070253889,0.4077060290177539,0.3541707952721637,-0.25936450013529466,0.42429483039958477,-0.34385378879918754,-0.06116947880087135,0.7389291705810394,0.44989410291308324,-0.4631790341401779,-1.228202661089616,-1.069373968113439,-1.4724671069018327,-2.1086157366840457,-2.4305194959076193,-0.48207676270357064,1.3759464181292254,2.9087298591755055,1.4976172181208116,1.2258657268732773,0.07934410709342833,0.19285995062174308,0.380865993064977,0.23308436129004687,-0.5645724365149785,-0.2734873490139978,-0.10991770661066341,-0.2870515842160228,-0.5074619522613125,0.08198973253306352,-0.21220041316710642,0.11798191559479357,0.3748274699565639,0.3666040712358141,0.19337759164971433,-0.06763928898817248,0.19567740313820867,-0.622558163433474,-1.0498666166800958,-2.064401143654703,-2.0908223123986125,-2.586715499606643,-2.0960127343625916,-0.0496126365322998,2.7602337519426365,2.5012660387783288,0.43980766340793737,-0.3110896639924799,-0.5709720422770872,-1.2854828610900884,-0.5546462970601895,-0.12747247872708242,-0.7368627914980036,-0.24926760888053381,0.04771372150510051,-0.4492872207868384,0.2257638870260687,-0.17382310466902035,-0.4931931814879599,-0.036309589883422366,-0.2703432391658446,-0.4610565132925968,0.11643832060898465,0.1375213055021727,0.03600038252954681,-0.667401800160169,-1.7926941428579768,-2.050710245720805,-3.0520184788716174,-2.8915793986549825,-1.8298669841352033,1.9311449715624012,3.7597238173596534,1.6803728063121148,0.09847868334090351,-2.0970471763812055,-1.8545600252892451,-2.7085201013718607,-2.160661031882801,-1.2536959709581805,-0.5098207767396877,-0.659651142241223,-0.4123655350956377,-0.02627490831167552,-0.01767099105748079,-0.3547861054040667,-0.1905822815166353,0.4852604737122805,0.18909722354475955,-0.34834251822300755,0.028097210108464093,-0.03692082771233209,-0.07719329908833017,-1.0111090408929313,-1.8387565141770241,-1.9464214898034649,-2.809528117980457,-2.4911132792102064,-1.270222340741562,2.0181971710010833,3.0520015000759426,0.25698458678153563,-1.7240846997348969,-2.3597938486410164,-2.2658660502177246,-1.7351223503814897,-2.3016730553495526,-1.6983702719220437,0.07825333338917968,-0.9202679167411678,-0.2819142066168284,-0.43655019034123027,0.402585131819179,0.08380549329201237,0.3618698444716039,0.0959078259862711,0.3934330952125883,-0.12749679278621587,0.09641966055781655,0.5044720753162514,-0.7133232183887115,-1.362639056694824,-1.6251712026201552,-1.5160479338376789,-1.6992618474679748,-1.3312088455704971,2.419205117051728,3.4333559614174836,2.834465683296533,0.13717837038275438,-1.6820379807674988,-1.737732627054478,-1.1388988889016174,-1.549877314171723,-2.334829777171741,-1.267624819742698,-0.7493033493510229,0.05317694472845556,-0.3716204806621467,0.30494806374243144,0.19925045092199908,0.0028333384472583796,0.2229550267860741,-0.29992086480335367,-0.41982866314215267,0.36222062713703856,-0.37218317219819924,-0.14035384697384998,-0.8515273927466581,-0.871312556233036,-0.5197947105584,-1.8519824543983139,-1.2595391047863942,0.7409464210523062,2.3636346149201,2.960448570548938,2.0932043691321884,1.1198568020544957,-1.4344172076085806,-1.6939311334345093,-1.7589578933887924,-1.3596252016869703,-1.5965083298442313,-0.4251684767211276,-0.08488511393889256,0.2292508048947573,-0.5526375321246805,0.4262328637659971,-0.3125603333560442,0.00013002214114487865,-0.41060940457499656,0.15613280602362392,0.07416230174259875,-0.4120785658364458,0.1685083484212135,0.21693832270852575,-0.12453922965489182,-1.0102237589721075,-2.2753663326235767,-1.73778045821608,-0.26263856789980583,0.011820224994573539,0.9415450016862299,1.3739170371936984,2.6202810216030135,1.9140909132831636,-0.07522418800299882,-2.660234555840597,-1.1897024524035613,-1.0313115672030666,-0.06595940872101631,-0.4060653328436213,0.10475251094758359,-0.27320273243233156,-0.4463659554886099,-0.31984301855497593,0.054386875852255157,0.044223316041401076,-0.3044289114876952,-0.4935917316806706,0.43463027308648977,0.4633443331621208,0.493563562131492,-0.3142684721189136,-0.15924874125767238,-0.8052684789669867,-1.653162597564081,-1.3179761169827788,-0.09548946183420562,-0.13189215699190204,0.532738586718081,1.623804403614142,0.8185145730338463,0.5613676188073353,-0.729481493074473,-1.5315496728507563,-0.2585527798099987,-0.47810298497376863,0.1994094502879098,0.875216340705843,0.08983100546017864,-0.383387164758119,0.3656365195488885,-0.2676457575599858,-0.15552956752930935,-0.3449562884902488,0.3140720908195162,-0.3393090959245524,-0.03021664247086908,0.19803908911271917,-0.07531014218770979,-0.39316286150384466,-0.505396397922813,-0.7828103178015849,-0.3814848117381688,-0.007501105386829147,-0.7276822235946231,-0.5936870297953596,-0.15223759403708909,-0.8830692436460348,-1.4231423877856948,-1.437282600276089,-0.7516145915810001,-0.6157042111454252,-0.49671709174879625,0.10612728772715534,0.423754545145993,0.8815217513259206,-0.28237056577768344,-0.7020941066157735,-0.0968589644494867,0.150309996250453,0.4909254429311668,-0.19487612580934344,-0.24864536533944714,-0.1397680387642183,-0.09076195136575438,0.6292037765548423,0.2842095382957374,-0.22147297900812332,-0.5089484740293121,0.2758544354291309,-0.13042476458912647,-1.8612349031422581,-1.6595056711002296,-1.228702873126257,-2.0428566924081655,-3.1069870693123485,-1.7353780589100614,-0.4579551004076835,0.8016773704459522,-1.407062286051087,-1.1746218087967404,0.6681681282372698,-0.423685643514146,0.40451896398285103,-0.5331848557267572,-0.28435284777814934,-0.47710541261095757,0.1337384042895959,-0.27337918523599397,0.28138636472076956,0.35105218591885395,0.07964603077911725,-0.12395167842164759,0.3017161174279222,0.41504980283778525,-0.03483580538754163,-0.09560594094693742,0.46825716798828226,1.3961893879619682,-0.4748071578711913,-1.5822392790147028,-2.314435926959128,-2.397720451671234,-1.2539031129548426,-0.29090883600513906,0.6221873095487795,0.1419483932046283,-1.1491279058210433,-0.7274946586497455,0.07327539008277993,-0.3222394995405847,-0.024790862933487097,-0.7003667087503148,0.2402796930853634,0.47936345606514796,-0.37058528802527996,-0.38475381572730794,-0.45580656817766835,-0.42343972037988026,0.4051496498955159,-0.016537476134871436,-0.03541028242505345,0.4243630931883857,0.8015936883754105,0.6980951695532276,1.3060969161082918,1.5925802580398245,1.3913842986503655,1.0687281972645228,0.026923498040821326,0.21716838316934953,0.28357317583777986,1.236302735439244,0.4751101381829599,0.11176728868915439,-0.20201302518449737,-0.028731752901614095,0.15082625773202335,0.7522681094501815,0.05812580158741835,-0.11631292829038996,0.28928028347801266,0.42858618216379224,-0.20699824159980357,-0.052082062493289456,-0.17955311347900965,0.1259969699715124,0.2093665353158814,0.1311359112636637,-0.16877908656714322,-0.3657800500215513,-0.1205078233635272,0.3698291578130392,0.07055093344231687,0.485420009226903,0.711123238246375,0.8362857393566985,-0.006918589287633841,0.6409256073157228,-0.033704372391289296,0.6376838675028252,0.8817994469797475,1.327971457778926,0.8590401685627022,0.7288697732668055,1.0202866980095986,0.23185436466199436,-0.1367236513205395,0.32433073888122405,0.4158706678422025,0.31472407924287815,-0.10096993304847487,-0.24063890116726963,-0.02415095245774478,0.38205973538611165,-0.3308449146658015,-0.21541058306564229,-0.3847615072892103,-0.45654377937188256,0.038888625646885354,0.2179844649272715,0.03973555622212684,-0.14362648458659838,-1.0413397282173802,-1.0045615009844986,-0.793735419286258,-0.6101756914537441,-1.2118913381270073,0.5870078503702708,0.2797690962202484,0.5170000941692764,0.6979890500040524,-0.1766180196950583,0.12989368743005225,-0.5046910298759276,-0.34034903456893917,0.09547336871857959,0.25191446701500025,0.15905955921238432,0.32607250052066933,0.26034175772910034,0.3704952914848571,-0.010548203995901053,-0.31894316030541364,0.3522733819576705,0.08987760926121005,-0.07221406298330402,0.36288402908489154,-0.07928984398787112,-0.5371451073515142,-0.08827398368755818,-0.22868176352451183,-0.8775828198860601,-0.5674887357008865,-0.7589858103244203,-0.9999408023630645,0.1172178083454152,-0.20410325151658107,-0.2545194969914049,-0.6424583551326218,-0.2830763447297629,-0.5812783871937083,-0.3621116159367649,-0.4866374491159351,-0.4369178297784937,0.3621590501833022,-0.03837667116481626,0.21991243663478216,-0.2708047804154134,0.36466644636405626,0.1449429756717006,0.3130418201642288,-0.2720406991949595,0.06026466530790778,0.17978410040487333,-0.2592761460902067,0.37333797141088193,0.1606577679346913,0.30443552208850505,-0.5187508220685239,-0.31805274426983116,-0.5511541100063502,0.016741874849819833,-0.4759982443568782,-0.3297573038715056,0.38945420800506725,0.4855762250808652,-0.153501015752796,-0.4776830326743209,-0.16563608307697253,-0.21888223064794993,-0.012975368126132885,0.21430383393058988,0.36593894066571137,-0.21893856255063565,0.30397882035869855,-0.004400887287956243,-0.25568211459105855,-0.36831488733251155,0.14715735542417135,-0.02400134832713195,-0.3090908213129196,-0.28496016587281686,-0.35324334203657676,-0.2548303680093273,-0.07991272035613622,0.12085175281786717,0.23308533563929473,-0.05459318121468165,-0.22809827922134387,0.21020704354306674,-0.25178072466134616,0.03484086188357165,-0.4315277268679258,-0.05188519360625788,-0.3765467532531643,-0.2590541941173914,0.05711921029683588,-0.4005570938672534,0.012714062902156644,-0.19282876910061106,0.1442814252459311,0.3084960798346937,0.4780733555903662,0.45759944782809175,0.10477672772777691~,-0.07342363682458164,0.36912744070894954,-0.046219696153918736,0.07625808737448114,-0.2613643589820339,-0.17010968467686455,-0.20150154129251913,-0.27156248957224816,0.4595962436643033,-0.03955609742071186,-0.4538132754432518,-0.0865738105470567,-0.37810897135167487,0.2430053824191736,0.10144475490001147,-0.19035691319035672,-0.3586890737899655,-0.40068528954408633,-0.1433503313901528,0.4321566323256668,0.2981380032798364,0.1025064910848128,0.40807998882226604,0.2749031575328591,-0.1921985919812031,0.3230138991394642,-0.09960863373969253,0.19268125514908524,0.11994031102583635,-0.4686598016288793,-0.4292945382998541,0.07427816141990196,-0.3171038230729152,-0.1997549045006976,-0.011962265837707098,-0.11954993396099801,-0.1576983466786737,0.23363894055928688,-0.17592516436794728,0.14249317061296596,0.2958926365216982,-0.3439610394838517,0.35384332662230567,0.1126471769292265,-0.15150542834742814,0.5002435956112767,0.336712007702411,0.043596491620909936,-0.3484372907740799,0.3558515355062806,0.00738366302150543,0.030311706106584405,-0.22916629480409018,-0.2803400652230711,0.45089035296670144,0.2289917120046709,0.1744171188474583,-0.31583547745201956,0.06011212164803704,0.28520353563575906,0.19174775875543987,0.06992442986964319,0.29305197421635326,0.1678018386747872,0.12292818508067382,-0.3448338588156038,-0.4201686903913957,-0.49441345724743324,-0.36611383819974513,-0.5094117148161773,-0.07006388860121686,-0.1883884913987833,-0.09626234975136119,-0.1522599189988415,0.01059531929664404,0.44546879331687045,0.2674632611273359,0.05332288173614548,-0.12346743743672604,-0.18786190909019798,0.4519460073702119,-0.1586681952998777,-0.4683218012156688,-0.24576397527756913,-0.21594761757560194,0.431622033283122,0.2004028436022816,-0.2268811344609863,-0.4475387531549927,0.0841183842175365,-0.1453999960847766,0.15239059668832905,-0.41393302004632154,0.343950278936438,0.30802888204790485,-0.318235636271859,-0.0686721470919865,0.005158772204882799,-0.0035996238246584675,-0.5264445416902706,-0.2469449556437476,0.02779125306567296,-0.026993666401887002,-0.1984305357988838,-0.2526806126283562,0.2980084353279611,0.1405883917368317,0.21878112137488767,0.4983983006252502,-0.12116009122172369,0.14049331646104363,0.2813640447080529,0.18685589583355217,-0.3028552363963407,0.3211751491855902,0.09961684268093177,0.10376866146647303,0.40996900821877935,-0.23610366022491971,0.04283009526410074,-0.030118265885302788,-0.16659193113196763,-0.14014544340180685,0.1424887450115515,-0.6637750352583363,-0.14632863645242225,0.29910529843690997,0.2115060752170182,0.42636253831162124,0.4066934794980876,-0.37931354452309873,0.10564904192367067,-0.29217190832502227,0.4590605656180126,-0.3461616112274428,0.20030795735580315,0.33858677683200356,0.43743457620803405,0.14148598000525528,-0.19133710602261916,0.45829356092998275,-0.27491787066179674,-0.23924368328900647,-0.19094859865779468,-0.24793019101395938,0.0517371238273698,-0.288658790168846,-0.32016978626226333,0.26328564823307166,-0.02746153201881036,0.05945741848808268,-0.34808250792565903,-0.5277397813215174,-0.053037432843848556,0.9401433377778899,1.1563532339795661,1.5149944342348136,1.8169279830634044,1.0517979127509935,1.2487585667476078,1.0588510978219825,-0.42576945160325397,-0.550973593370011,-0.6422309848866116,0.19507739355954543,-0.24585010555362075,-0.5122792434086164,-0.2672040555460261,-0.3329717911423278,0.23232475130377145,0.19946623854081996,0.0729873629386913,0.4596129323817895,-0.2885203348752776,-0.5182704116274963,0.3176774157551425,-0.18660906837359945,-0.22832171238563592,-0.09385862097848055,-0.7167617423164367,-0.6258614406298326,-0.12772311404080527,1.2264590586373383,1.121181387525458,1.7054139191055089,2.0538913426690164,1.164603507740623,0.8349195092316529,0.8931337984531889,0.6300375073347929,-0.34894217872668076,0.15678964692282046,0.17792721124258945,-0.2661902832717777,0.3725216719245128,0.10264903456136723,-0.17022913457832956,0.14690938362126327,-0.16799448273326542,0.10231086331851084,0.2760898273907087,0.29506917893707113,0.13270285426088693,0.07732535508428583,-0.5025184009249051,-0.7606290603251034,-0.0391798803029903,-0.22647208778784816,0.6023828665782344,0.9006932800744105,0.9925271482691408,1.3330836233319172,0.85730110132231,1.1243688724040408,1.179747440185526,1.2958250181137576,1.0489415986251325,0.7053989010237632,0.05160385063661507,-0.18628772833615218,-0.2927634765889854,-0.3088250776011967,0.41756030645182035,-0.06592318193085539,-0.23971247019675174,-0.34750589166237716,0.5036847820832262,-0.02557622443506231,0.3166852307021783,-0.19499508749589814,-0.22593385121917828,0.13863018148835896,0.3391754878420898,0.3271298196116575,-0.14131046235336203,0.2810046296959984,0.6742188083988908,1.1892608951696142,1.3633753131045128,0.5207346377107833,0.8594766934475289,1.271007261905275,0.6008443447352332,1.268294455190396,1.477342967175001,1.420154837327396,0.4704514841215383,-0.11736914094982645,0.17139139394124694,-0.44072620433183446,-0.3471545238693535,0.20700347389228063,0.14194264797034975,-0.2701433930440408,0.38192672334940053,0.48240101868271573,-0.06663119669161263,-0.42951285140319956,-0.3903750075911774,0.02002737975153919,-0.4376957562179383,-0.02555153082075484,-0.37453246052999406,0.9477287182562321,1.123347833935654,0.7540752560621481,0.7639501947716202,1.1870923776456288,-0.011617973396492318,0.21844862560035758,0.14115697846668862,1.03741658635261,1.444859029575972,1.104039968287147,1.467069861191116,0.13198448009187985,-0.46623972713476625,-0.13467851057381233,-0.1380384728793654,0.474104363674802,-0.05454108788799586,-0.021131463496923485,0.05946571244665526,-0.4080484087533568,0.24621411972828486,-0.40385437454142636,0.03420480960532304,-0.3529597728379904,0.1713317389316029,0.5273788264652846,0.9232496717975487,0.5535565919929097,0.7562481315351981,1.4426282692330772,1.1520360729819739,0.7171696871157505,-0.33397645123237724,0.05588399804220896,0.4462546269741529,1.4919978712769084,1.977149217655649,1.9799794697751174,1.7808960137142857,0.33491337388166253,0.060278608957152514,0.24682937693153176,-0.35548716356972243,-0.28547448649409357,0.28432780261777896,0.10022649055876211,0.3949687146631348,-0.47353573982035935,0.029956640040379057,-0.23715533930467247,0.6228660032264078,-0.12125899940357027,0.37748646261970775,0.17073739837241012,1.5676512606806485,1.425866546396252,0.6267418659271297,1.0733175425155643,0.7221806437113804,0.01089350292668127,-0.7772755560541028,-0.6149040567325508,-0.11118111520960344,0.9805530843125192,1.4512586048452847,1.9304624714023744,1.0526213200468382,0.7278794733435526,-0.09986506144951324,-0.12617882981840975,0.19520057557106252,0.15621808870078197,-0.05479602975986727,0.21141485446076325,0.2866442299473177,0.29278081031605296,-0.4872433578853793,0.010267395189770065,-0.006286947165449425,0.4507620387468968,0.583792797781201,0.7973174035448984,1.5938221659398306,1.286961109300499,0.1634738297015543,0.06969933535734281,0.16041986876485254,-0.1089515458089651,-0.9318328544085913,-0.6127029049412243,-0.6152274118571422,0.7691098031111587,1.4701994023024862,1.0195408321552712,1.0743608321957743,0.231874014105331,0.26362946679962923,0.43826275480899896,-0.17151308109345456,-0.47880976019685967,0.3921017456522842,-0.03359999614585374,-0.1769394518308676,-0.04216372317571462,-0.461832766165647,0.6223190985755678,0.10987847096951658,-0.13475478768984578,-0.010034938821809617,1.0187789453529748,1.3287600691837447,0.7689196921594355,0.900309949208708,0.14184455711930705,-0.7352832121485279,-0.8587848662129718,-0.14241765264319337,-0.5295069152660474,-0.49121848670927803,0.6535630470776762,0.8420358310511854,1.3719998893911753,0.7241791817610539,0.17829060792962878,-0.17008179765294618,0.27421468028668305,0.31494871825398074,-0.19596897954016085,0.161359025332161,0.11043955629659631,-0.09863270477715537,-0.15560500367646063,0.07489355147529411,0.2456746255116238,0.27716651569945727,-0.353767693563728,0.43443873294601465,1.653247257978173,1.022229472296216,0.4867922763843321,0.32373265088871667,-0.2125039494873483,-0.6871057665513532,-0.22344989514036323,-0.1276309557764592,-0.31707029467600767,0.4094925863457276,0.7419294221259356,1.1214015803562392,1.0381433351241434,0.8211312079210905,-0.17326523438374294,-0.40167509926596195,0.343834413132568,0.013013319185469795,-0.3287456225370915,-0.41326887079346,0.11986508001812624,0.03397108271758831,0.22031806704325238,-0.05920743793180727,-0.13310304845595436,0.2255413537432194,0.2677698704271173,0.2751090825747936,0.665905956799731,1.1291525080560993,0.49881227421214075,0.06313322002432445,-0.5221473933486517,-0.4519513930302125,-0.47702294495870196,-0.9913635519883115,-0.5981089323528981,0.6978150410782465,1.3011185820573632,0.5521537328461525,0.7332696580343712,0.5909615598126885,0.30339430742144,-0.2117353554072053,0.16071672110947596,-0.34809327090681974,-0.20025708622613553,-0.3305101882034577,0.17966667079959442,0.13600614792188304,-0.35279672000780726,0.1615709749601139,-0.17532623987053975,-0.09311348667508605,1.0281409116618596,1.167215281485267,1.1590966868943826,1.2035529268433156,0.5761246639494514,-0.1055079806531982,0.1378240761998611,-1.020860559158665,-1.0723042111127814,-0.12700423136765857,0.42247103229209254,1.2526717346177347,0.9904512838968458,0.6835506677129216,0.2948712018480545,0.6079179785853501,-0.35544789214397005,0.23253084839763333,0.14124116843187026,-0.28869124756907616,0.33649381849058135,-0.32762410848364465,-0.45474182066287683,-0.18007128722596455,0.4636288587143726,0.11330293720739859,0.15494642982228346,0.8848458296826527,0.8277963671721468,1.1601070957628616,0.8989372300982358,0.6836889018594854,-0.025541166719588473,-0.5016639788435625,-0.576512749947433,-0.9084634905136143,-0.06980993183961534,0.354683790736727,0.2967046855566375,1.6111170855191579,0.8263816887425662,0.7644245469588558,0.004673293500669081,0.2275477814022634,0.28397785348665855,0.36519868655925053,-0.34170616011325183,-0.07079558199034529,-0.25340988563004113,0.09929743025748528,-0.3476286887843075,0.12489076717627634,0.2085211663530267,-0.23471750393786026,0.1316907343678715,0.15488728478655323,1.785271780674619,1.477833192268749,1.0905715315951614,0.3330954283434702,-0.2994247795199083,-0.15348828468161713,-0.02104429614595959,-0.9403974670931804,0.43739272177162886,0.294213049381198,0.6145732000606452,1.395974102428907,0.9216836494884123,-0.22197356773537913,0.42760487228471344,0.02408653778461389,0.4713612301119008,-0.46262525825625994,-0.2913700295090982,0.4058828701242847,0.10075547103372422,-0.2433891533968733,-0.20325230464946095,-0.01477986989847258,-0.2623623203192768,-0.3182772304547168,0.3000999128770261,0.7630416045971432,1.4843980750193795,1.4895591741642722,1.4245350579559193,1.3479629038329757,0.03515693265241131,0.2164224287094151,0.7906530793432648,0.38760676252752996,0.47912292482716945,0.6585364187522272,0.6841306482278694,1.5173070399055635,0.7714591151496318,-0.2874859027299457,-0.1397228333094844,-0.022687872407021387,-0.25530631311834934,0.40399886940936625,-0.11817896480141007,0.24077787258129077,-0.3214156738135659,0.274344834379465,0.35209387278136817,0.344534841518332,-0.5332902489579832,0.1782160520277236,-0.083458393295233,0.14347467844930642,1.2413750003224209,0.8581933017354143,1.1677833823680237,0.9169533562521935,1.1814726730150675,0.9881502747145504,0.23539814546122215,0.5456940991156323,0.4393756237119249,0.9669253538022036,0.5792219029304402,0.21708317016919013,-0.4538337876170112,-0.6046421860994373,0.35974983964205043,0.4844007932902598,0.40778810836010276,0.2062880911764008,0.06993364587437169,0.38360942864448816,-0.14014596294740383,-0.2680109220621316,-0.42859179046780194,0.29081477223680596,-0.48470460889656874,0.2791557981432885,0.23389138762611042,0.22628479866393703,1.0881497067178199,1.2957003544228682,1.022106392554864,1.4430823273544573,1.1702836813867359,0.9264730219621373,0.9579030562162965,0.9354416212389217,1.4451644453565429,0.6668648547298562,0.4270991741372932,-0.35181670049660363,0.13442008209840184,0.1972721778743598,-0.22145280996392888,-0.09929194803521912,-0.07681851146831249,-0.2922821671861976,-0.19884152190683616,-0.09369164505388353,0.2469678062287099,-0.3642452481527836,0.47332951896068476,0.16233944580365384,0.24183354874347987,0.08154465010197791,0.07233409861944687,-0.03215442192332077,0.6609820977884662,0.8344046260156069,1.024432113690157,1.7330152410983735,1.8215587105141469,1.8015173923303882,1.0181419004794265,1.4914292588131584,0.3931866597753364,0.3614436004009871,-0.35384876773740903,-0.02252493773268601,-0.42660359065039655,-0.07281684187141416,0.13972482200044697,-0.22697379268963497,-0.37530541559456126,0.278156647463376,0.23022957672834837,0.26288842226777165,-0.3238803718640513,-0.388645806196385,-0.4253766827506875,0.45386948148071965,-0.4279791156029581,0.3466181899773369,0.056039164389066067,0.33149448820620203,0.4746400036533603,1.4078873344204361,0.9864746863823907,1.0229130405638829,1.5817237697250013,1.4978646544267797,1.1041201962608185,0.6444009086688686,0.01835400601171186,-0.11382040306657687,-0.2391582923617687,0.03111829708769298,-0.16835404386414327,-0.6068918380523547,-0.3768654576392083,0.1980720264658421,-0.005616741601495273,0.4668150980069277,0.27759408879912595,-0.2697296840321069,0.14772012967118114,-0.20104652526273664,-0.06200392937352519,0.17092648037382657,0.23136385827672787,0.21951003919037204,-0.13167885218417616,0.4196169666664292,0.3281095611682756,0.7790832237698717,1.3167185602891034,-0.027120125520346112,0.22101814285027013,0.3478777002992096,0.45239064665461254,0.38699231735408923,-0.4330328975415141,-0.012719722610344484,0.11230471194185954,-0.17412455781056183,-0.6880563067637038,-0.372912586631999,-0.34783681168852904,0.3535608500664954,-0.3856476164901384,-0.27004106285515056,-0.36473741283900246,0.21248017151553125,-0.3264601040043392,0.007540550918605813,-0.3784092784190237,-0.4771112020246252,0.3561087246992499,-0.3518856356392245,-0.2633475673155942,0.06069134066565298,0.33953353523850444,0.2844680170020411,-0.14389967004489967,-0.040093624745919265,-0.12800906793776862,0.08440951930713186,-0.035593274689577965,-0.0215414418153178,0.2556739540039163,0.15459241902511794,-0.017946589086291657,-0.12747127082429224,-0.47310276213306285,-0.18909413980748266,0.4049910581318786,0.013136307127545443,-0.4188417821998792,-0.3949772715070931,0.29146744640428224,0.30044607146298313,0.27755568362080896,0.08365747991497219,-0.2938686562019933,-0.49066886884391286,0.4696061796637236,0.4939119518808228,-0.384791186811117,0.3098007268214352,0.08588193175321995,0.11753606567477942,0.04344280593970276,0.15798807324227943,-0.07908746526524656,-0.30921018841761716,0.12673322069363993,-0.42969761723388034,0.04830602045612335,-0.04101395549914149,-0.49259695291092304,0.4395288425187865,0.2271060810007207,0.2452274475206344,0.49263492060099956,0.2721376629353312,-0.0015279604958965886,-0.30107860150284127,0.3270412931713591,0.1601083705313719,-0.21753164780098827,0.12930197544020713,0.44014806009093554,-0.016833843114864907,-0.4770321028529375,0.29513023919249615,-0.10099965166858274,-0.10707104423251303,-0.15662854713201071,0.04124126565384489,0.45547852811915557,-0.15219150133425602,0.21418970659091208,-0.013246863928058466,-0.30727846557066657,0.20355270213455623,0.3577527672045375,0.5027192461779421,-0.16067539771541087,-0.4462854611218689,0.10427376947258277,0.05321063939168985,-0.4111843711836378,0.3948426730059841,-0.03360265778401277,-0.06406212343869444,-0.27804839473068943,0.06279026471312267,0.40200337844963663~,0.2739926506430154,-0.36093541204777496,-0.42713002198251054,0.23145264235509286,0.38197517062081826,0.23740617421967555,-0.46643226833590884,-0.4986931825879078,0.41541216863470826,-0.033479001215231494,0.08172681742370112,-0.47456252679308125,0.10568891540686069,0.41590335155103114,-0.24475430376696855,0.20439191334778303,0.3551599552073614,-0.41120860807858356,-0.3739874395393798,0.2829101836445002,0.23672791663145118,0.252556615226935,-0.21622344825673825,-0.33763254374786683,-0.3891758544811568,-0.2681669739021029,0.10888374675896105,0.2726972620874109,-0.17758719105447765,0.04551576410700499,0.34255776273095856,-0.046004316694389966,0.47567882865144523,-0.07004952423661136,-0.021236713587773175,0.4771272241872913,0.14658976605414786,-0.2592029528308367,-0.44640150638476284,0.24552109217798287,0.06891291831901268,-0.326533553644905,-0.34267640630567936,0.06739833453191547,-0.1124194808262334,-0.033138585063519986,0.03488832882374918,0.11526408180085487,-0.024324141962329147,-0.27711294199258635,-0.13066893984204542,-0.20337578226319558,0.128833889486988,0.096011821133812,0.46121744079597,0.19457297332492415,-0.35243389975124345,-0.2803909618779958,0.3233404056730517,0.2347042484624949,0.23013572505543092,0.052377529737456296,0.24005488229798758,-0.12643535038355277,0.33912398157417284,-0.2358559576881093,-0.2038941433596146,0.33407512576150783,-0.2670069182146069,-0.20632084743192186,0.049720622789644044,-0.5003270030783709,0.38620073962082335,-0.5019169412530965,0.06678671228607264,-0.19676184996754667,-0.09016330213380909,0.12585573979707398,-0.27699526717500234,-0.12318743948263228,-0.14466245169325603,0.20227622038711016,-0.15173837477435828,0.2286341432777724,-0.2543579848686806,-0.19785212805122168,0.2017876497077967,-0.061801651499687214,-0.3677722923218658,-0.3102200435437035,0.009083398789115876,0.37222224562727624,-0.35757996707353756,0.22826962259202416,0.2622243468955275,-0.20210566461858653,-0.029939536781998295,-0.14157251253878714,-0.05056862985646322,0.09409323741459696,0.3179946344277542,0.27086377519348726,0.3823419732450168,0.36458010553029263,0.3457978672609121,0.330834741345991,0.3890735570868718,0.21636543029865396,0.2273341020187973,-0.15129989941328736,-0.012404639514622557,-0.3985711282200148,-0.12062495481041959,0.2070910808462154,-0.15905193168894474,-0.30855528963871276,0.17265404047172936,-0.023234927859928187,-0.43137488485457737,0.09056850070824002,0.2737989704696861,-0.268132549293509,0.3624447918565457,-0.4785714464006197,0.41348403775863457,-0.4392696093810538,-0.4619879501752158,0.10862577294026743,-0.2027133779675727,-0.4463509887095299,0.40059119928075054,-0.4844443895928941,0.07527790886606618,-0.38399487568718854,-0.2970006216156269,-0.006139170106378959,0.4065321152176178,-0.23311666754604116,0.2433143061459877,0.16792478613677994,0.08368680091093993,-0.12329967854700231,-0.10555986490915382,-0.24460191211916812,-0.4821974351427371,-0.30353983591834965,-0.042383846739188415,-0.3573701776739484,0.46779937957766415,-0.18967456304483957,-0.37363855856562556,-0.043251044276118054,-0.4793674065923665,-0.38129890253590354,-0.5367402157300374,-0.36870697071716,-0.4129632602146342,-0.25221823730110043,-0.4130228201475775,-0.1215142640739057,0.09176193809209633,0.31300396291279897,0.15693771943943902,0.16566510673802787,0.4020879380885363,-0.3350620633093346,-0.13087726803915353,0.4669362103545705,-0.012368961553504526,0.08627343812667819,-0.07415720920598014,-0.14393213111221762,0.1477097463825254,-0.33094990540263813,0.6188399090920389,0.6871755351644934,-0.07843715598420041,0.11386399234307433,-0.19726424573803478,-0.23479492429372414,0.08740073953832275,-0.46774131326069895,-0.6003795318614141,-0.6251104210548385,-0.0291057220341687,-0.3370301429483327,-0.3845919029535424,-0.5684776899073769,0.24516344438109364,-0.3793220813983019,0.11576861693416862,-0.05802407475584424,-0.16041964079576285,-0.18362964337764837,-0.29801855700682095,0.43679133821607363,0.40655372328688805,0.07454715177174397,0.30031109565002184,-0.0047460607042761815,0.02682667230205962,0.5968361400424541,-0.10102901015251921,0.33071336307938576,0.5950920031991996,0.3065627393638199,0.4186983018299073,0.27559829151524756,-0.47621651665822473,0.3102493078463644,0.11884703082769649,-0.4999973106926279,-0.4601914756448665,0.11761426115544178,-0.20782369069582488,-0.1456404927904106,-0.17675510909771788,-0.5434204457087305,-0.046778144505738646,-0.10931171625944501,0.34855364110170844,0.2098150782353062,0.46957489449482354,0.3216176291926948,-0.1858178006386281,0.30112585909836626,-0.3699212587360406,0.0019164935491605523,-0.08565266545961807,0.4668596751802408,0.45591874030657364,0.4525162229833537,0.2698715292475462,0.37749290306532246,-0.07599091837156298,0.07979070429088633,0.030284450421434333,0.2558988822554964,0.556647918946237,0.0018385378427661868,-0.06161789971365608,-0.1960901043983715,-0.35250827154876013,-0.12823928288548608,0.4102487149161796,-0.5269762899650484,-0.4787544417382218,0.012302741942040903,0.43701026542555343,-0.09858023399869908,0.2599125595792896,0.48655830220847096,0.20202103506527005,0.16633394698374462,0.3072278496312016,-0.04690873484519788,0.22199798776884413,0.3049415069896786,0.286753475789843,-0.19776927967989683,-0.4249973146324319,0.20976373821707422,-0.2060701616915946,0.19264125913463767,0.45359072588662785,0.04745816707877002,0.2631523017522513,0.41498132510455593,0.7746396390019176,0.022165788160552268,0.41952162153658396,-0.46382203310980324,0.07176618053078519,0.16123159463681766,-0.07150126661281954,0.29899151879768815,-0.07659811519725729,-0.19748834287663541,0.4066812206708471,0.11728356041871539,0.22824413800187915,-0.3442937356734769,0.41186418134669955,-0.306153501255385,-0.28527353183340176,0.3841029935781818,-0.04318785877240786,0.1948270593495709,-0.34004101648992585,0.43345701509267764,0.08463368661752013,-0.08352869616765551,-0.033815116162899214,0.5698271407868661,-0.33673021678953485,0.578712546268001,0.17885424809769943,0.3561481488823627,0.33054214370485707,-0.46889703452787024,-0.24727020284414689,0.4922129023729888,-0.17239200696983745,-0.22855174610907053,0.060384265438989934,-0.08376910068516841,-0.4904567505322679,-0.27019609677800915,-0.3229436732240916,0.2085033549327628,-0.11591324558680531,0.35458258089591393,-0.11152681414249309,-0.2868824196404012,-0.09519846552024058,0.21925735520243475,-0.21149053908741303,0.09921776418665812,0.01084296425053183,0.4894687050667456,-0.20751254032485755,-0.09076981836914201,-0.10482358467082015,0.45358537203291305,-0.08437682748876653,0.6358077855413249,-0.08694214540712676,-0.3773482796773869,0.2090593066902297,-0.1855254901673925,0.012712299846908276,0.43529257155056106,-0.12426128673092132,0.035698004524169547,-0.21937107199430506,-0.4480853985978934,-0.45928026260002625,-0.3723341146787466,-0.32524260967048635,0.41809840778040597,0.3020270002609884,0.4950217605236338,-0.5008766552563859,0.2836174431303118,-0.5002761544762656,-0.2054881214734484,-0.31533979249105903,0.1888805787328423,0.39048774175230544,-0.5066446157238594,-0.05101650751588337,-0.0807949810536961,0.5288439437885945,0.6658781275507437,0.4314273063935246,-0.24398068252621435,-0.16601759202291225,-0.4224821338927731,-0.5225995250026865,-0.28769392931681154,-0.3213145517664724,0.14704128017665793,0.44925705008933753,0.2825277120219891,-0.07512398589463899,-0.43447763533056355,0.09041480772681888,-0.4777436030365405,0.34207209027434565,0.2608725375537707,0.15590711593024711,-0.6784093803724599,-0.7034751301201412,-0.346136619577487,0.08287566887197086,-0.46128561479915514,0.2716156194197719,0.2241109563492902,-0.2234194506470708,-0.02313567487201707,0.1420306061015907,0.4330252074416661,-0.1198498175995714,0.26212262508437395,-0.48984880123892777,0.09914223139070802,0.4080915721709693,-0.1114519418206239,0.4480115488706484,0.433903886479172,0.1136388465754526,-0.3789146199155626,0.09965799058301604,-0.12646694691289398,-0.29809203042721666,0.30623341190456543,0.023421186839819454,-0.4721857808001196,0.18891265499840335,0.2201100032928406,0.10957951204064195,-0.572546896773145,-0.5846526366806923,-0.6294029088426087,0.20979690569826617,0.06315363007151277,-0.6349635488597412,0.26949914993339974,0.229725476714557,0.30137940272416663,0.185899353508999,-0.32424041123723873,-0.2873547119407287,-0.0003483147869036215,-0.3517256212717076,-0.19532731135537124,-0.12289550150827842,0.16328781347506408,-0.21730626149199514,0.46045602519719514,-0.4030761856476714,-0.19394184563973385,0.11332676863229517,-0.39409793825562717,0.2556987106983948,0.2856177937369973,-0.29381252457761003,-0.0698907779175448,-0.4904198112143845,0.19064632671023418,-0.37147230533634645,-0.3269266363643238,-0.27703614885563427,0.018177229484703232,-0.02338492906210267,0.07781812365173194,0.17185121931120936,-0.3593815741100067,-0.3058467306369322,0.3003867817314224,0.028808689723839966,-0.08203371808828723,-0.4105538186318423,0.09957455703752097,0.3914098249503325,-0.4263904971698984,0.3775340391017747,0.4217270915162412,0.24108955618517736,-0.10394001887052283,-0.14198602863977927,-0.40946801848016895,0.41920189673832253,-0.40449319642920123,-0.3549102671614982,-0.18740203081958268,-0.5065854703262787,-0.007294159756032444,-0.2656581707140695,-0.6428839270270075,-0.10643835633124525,-0.15535981866533172,0.167406155112773,0.31929331109585707,0.38157482556265676,-0.40735208865964356,-0.0010764886486119226,0.36617900878126797,-0.23956630940995494,0.10342951294781332,-0.09079436782019819,-0.07806997818199306,-0.176592387629417,0.46330772133140996,0.0015930136762488162,-0.10687392506974194,-0.20235175874767222,-0.2817752938773041,0.2610405643779457,-0.37282830808514794,-0.05278491767441219,-0.14824160499858613,-0.139873582366968,0.06825841470893089,-0.08931783112388067,0.38573031688841136,-0.21185628335079681,-0.22694046160663153,0.16017062869553383,-0.3787391938051667,0.4916715843531696,0.22260357245198306,0.03968625457417823,-0.01907882987603078,-0.44317865434915305,-0.13503912980521968,-0.34546724554622976,0.11292238971274804,0.54000477825373,0.3166301952748997,-0.2330304412552812,-0.4682862901339229,0.2912885269873259,-0.39657878187611595,0.4427513480027563,0.07094770764554097,-0.19264514078403427,-0.42680292247175355,-0.1697573380144053,0.2722817288529505,-0.2691215542772994,-0.2227843729745251,0.16502178108505514,-0.2501226897574474,0.34303724479786096,0.3735810840762161,-0.47585305797040556,-0.2606510365866034,-0.005432193118667298,0.5175595681532993,0.02654981830840242,0.15197675728687304,0.28361885300933215,0.24450439293342824,-0.3629840852824159,-0.13444894407797525,0.29335226666929237,0.302856588369569,-0.11590743007084732,0.03747832334031503,0.303731757560626,-0.17024190406241313,0.18310100360861822,-0.4920652281028417,0.10460228794402573,-0.3588407097429865,0.4905122001164993,-0.11122049717349039,0.40191737581277603,0.29163792297642194,-0.15331775083379867,-0.2594475270005541,0.15382239309881057,0.047006989657309046,-0.08124046845104517,0.09721787513686825,0.6302701335955305,0.1488873521183546,0.17095644233977117,-0.20341715113432154,0.3096579647785348,-0.34709513587660323,0.3286575373024163,-0.07911040837743795,-0.41187074056548145,0.06397637493066138,0.45226059115112177,-0.006073818538833674,0.44988492863759827,0.49953243994581537,-0.009895972930841873,0.0883807201704641,0.08191197071947214,-0.08925489800252798,-0.10700726422375303,-0.2801465023113067,-0.20711570275447125,-0.25230826393611444,-0.17376022151778428,-0.08387850106403659,-0.1822064627292976,0.2364841854773289,0.0950394153093869,-0.04483148806450246,0.4768719907759216,0.07398682806006297,-0.191762057408165,0.4828528834532535,0.2751561010293324,-0.02416982523578965,-0.29725325679173775,0.15601038034368103,0.5578702744653955,0.03948780660091038,0.29508431011214387,-0.32299465581508346,-0.13767550715308907,-0.13652639157532925,0.36294053710233914,0.4945974514646205,0.29387279468770894,0.23828332971002927,-0.47878268882176817,0.2516540968761597,0.37240549502412795,0.24061245094658193,0.20742348595570925,-0.5143093922338937,-0.036200127240401225,-0.10689400850329218,-0.04689842871258436,-0.06382400059523308,-0.4077539993767609,0.008431285482857627,-0.17169973312689232,-0.2500008539661246,-0.07676926674497417,0.33595797950401507,-0.02934557857089804,0.5777649171593201,-0.4050227766783638,0.368299173067112,0.39325992483293604,-0.2676992076351072,-0.49892118437119326,-0.3672212778307558,-0.49814774726685856,-0.028289192178922458,-0.03187137200251882,-0.33942010236940334,-0.3943711482686957,-0.24652635040579635,0.27168960859480124,-0.23491388767501195,0.08437518762353478,-0.4266703945916094,-0.06976051903902619,-0.13515203046975105,0.13049899150073763,-0.32826265848367997,-0.2600961642457913,-0.2741081162850284,0.25619952980250066,0.17354978221036452,0.07502720217070988,0.3006775788823021,-0.41161460397807975,-0.46143168329387224,-0.06605231183701986,-0.20755646927508375,0.11702197577809367,0.4705908426031255,-0.36621606730219597,0.23723584400627498,0.26802745464585126,0.2569740987496784,-0.11218375188171627,-0.1604384943737262,-0.24576305124703868,0.10018520513927956,0.2927459588071261,0.45527817183458924,0.1379673301961439,0.10143191416789767,-0.45718029733471777,0.24287869786903468,0.5300450580921491,0.07970952635205454,-0.2507061365095443,0.3331400225262475,-0.39896224372031214,-0.027568829697015355,-0.2057716735833129,-0.38962014610206136,-0.13183614180906028,-0.24673709306597533,-0.26038609256707124,0.08158047150347301,-0.16777151545554253,0.14502072786552916,0.48688947285412726,-0.1126389494319864,-0.42687184105063786,-0.02420918618147195,0.37348805016509573,-0.1751746705751316,0.4605796060726575,0.14598529215379893,-0.2530569356027116,0.10638893426667023,0.11003816326926522,0.4215419642466098,0.36149135580722286,0.28853436782936054,0.28273260305071946,0.39016014961945933,0.11949037856056116,-0.3643245363915896,0.24153797490255455,0.5278822063656168,0.4946602902407975,-0.23290511319009938,0.10498009039152116,-0.4840568569409774,-0.5029697467451903,-0.3770337730247905,0.20891729131127498,-0.25800291660742697,-0.22376479778244437,0.16196124814828647,-0.3673817251233575,-0.23266473802812784,0.40763943369783534,-0.4565105725192833,-0.22137876211212312,0.14702166977885603,-0.2623003459454869,-0.035465491764222624,0.03877875252299406,-0.17456743408368744,-0.41325729151350693,0.24937612812124488,0.5868857894501733,0.08283069206260647,0.015294250114611488,0.3488720773687826,0.5261162367667102,-0.04612448646407968,0.23054234244725583,0.22933092600263508,-0.1465106359518259,-0.40222792195191376,0.2369572634618801,0.25089664217903684,-0.0610725935858733,0.194026859774715,0.17147816999529453,-0.18117097853396816,-0.0035405501570143034,0.4624949857421365,-0.10244211589231457,0.3352100355490809,0.4110322363599368,0.3158506418348142,-0.006538170008551732,0.03706798199716273,-0.16707308688140962,-0.22495228789443122,0.07150904106736547,0.025336629643817277,0.07731221768078796,-0.14068770443723014,0.5037262014002454,-0.0071214767218926184,0.12550913842934808,-0.19836465451340418,0.21323122286702492,-0.2683116164374091,0.4697948918514153,0.3511933832333339,0.30357760158107866,-0.09499330898651487,-0.1788151275909539,-0.16117458451187497,-0.32186356341050476,-0.09411329145087878,-0.1925027824619923,-0.23001428432715978,0.220045910467862,-0.236381346175802,0.062013321286708584,0.1782516072307261,-0.3071973801311893,-0.1899324953109932,0.19746715293489708,0.1483721376720565,0.16343314975250048,0.32355393490200124,-0.0067679880132260496,0.1969840855814785,-0.4715010740819457,-0.36879194208877064,-0.01588527956445388,-0.4763019005910533,0.09558097367128286,-0.10895633841294992,-0.2958387407792844,-0.24524067656424312,0.04881643413696491,-0.3790041414501819,0.14506113965372533,-0.3337267715536896,0.16006245063561594,-0.4618539552948497~,-0.10066730040678461,-0.02168819565698303,0.41516769936413417,0.05922338999850778,-0.018233847406560404,-0.021364181602272228,-0.04677771357521206,-0.38120705735238497,0.11960446768330948,0.3496855944197768,0.1125653800873856,0.4004908776577016,-0.4163128487076769,0.1899760219687504,0.032260910363859974,-0.37056035658325,-0.47337043825000497,-0.39398433214308765,0.33854693761194904,-0.27076260744010855,-0.36677640387640714,0.25864046258504386,0.41503330342055106,-0.4198225639896184,-0.49699536580674036,-0.3601951631896177,-0.49999650792600336,0.09795728765663193,-0.10740191624243177,-0.07011378051491222,0.1562470913153497,-0.2805475566248213,0.20041144209664202,0.015113330124313453,0.10775100731188167,-0.11168435032333454,0.01425319221797201,0.31482659640873384,0.006720641239588899,0.35711460304718695,-0.2410077684103299,0.21687035456931755,-0.289372457614346,-0.39571103908409205,-0.026509288990966745,0.4595588830159099,-0.33685141034790284,0.14892385569210786,0.21497863810387594,0.09673614756935627,-0.47100952458778983,0.2151952446118436,0.07926889351836532,-0.23241302323586682,-0.10045840008924588,0.0866181465192828,0.1144917689151257,-0.49898149625522,-0.04626344741574846,0.11049046697233135,-0.33735264892103894,-0.006546698761996996,-0.06929720017012592,-0.005948868813691898,-0.0760581247318475,0.22603017197411462,-0.3503470287624674,0.22337169098549234,-0.3994590699252935,-0.36292754357337365,-0.37655995962462013,0.2856623158764115,0.019760675718617962,0.2893995576033937,-0.4345590784450169,-0.5854094464960758,-0.4647823289214158,0.33164327726647447,0.33489048228901547,0.3685534828278767,-0.20771366692558518,0.44739687480619234,-0.06195642711885947,-0.41092585196324244,-0.23771409402696841,0.19903637569717886,-0.48430384445909064,0.27598336360613457,-0.5038528438693963,0.1743561766447556,-0.19045974330086837,-0.3775716220282321,0.19079193639557576,0.10538896973301069,1.034865036668188,0.37503100356849955,0.3189449885216527,0.5003952147787089,0.04910941709766574,0.8521558823225606,0.16305326164247264,-0.0111510464127917,0.30073447589468766,-0.4169322432001722,-0.3831110550957875,0.3533718537707152,-0.43843641469566547,0.45339521650093995,0.3780004885479517,0.4190291964332851,0.16488050882103328,0.2755946001790129,0.4030116439901084,0.21760882881643823,0.285480938693417,-0.5074549901469299,0.04372136687166401,-0.3093863072940356,-0.4767450305035763,0.6172156481547106,0.23405003319749149,0.6220151947523535,0.9813991275770432,0.9228816188530224,1.5819597819820825,0.9367382181781091,0.7800929423879247,1.192899552469047,2.101642115318591,1.4918374812515596,0.8242062779882448,0.179656855483274,-0.0234913951521157,0.2523076401725572,-0.004522516578172119,-0.4987000723449186,-0.5229192193302062,-0.13160860376514713,0.21483256543510326,-0.03416860659427663,0.3857167385411144,-0.3672107129334126,-0.19464070816409423,-0.06579149852407817,-0.2981030134273162,-0.3657316596738487,-0.06348340714555555,0.28923314694236135,0.4982110217275897,1.2668692106178079,1.1803420742744888,1.7779617988556704,2.2225077911864193,2.133269187816454,1.9441473604142738,1.1681499117060246,0.7338473837927078,1.1311176148855626,1.009122445607874,0.23736241791695967,0.644829864111356,-0.24975982644564265,-0.5967504713112123,-0.5684964136711221,0.18811727158441366,-0.28227331610525663,0.10456242745710688,0.32484436221918805,0.1408272412608436,-0.20720863013296015,0.38944241361925486,0.10109024015569011,-0.3308373761664842,0.5543117097843208,0.9080554837805179,0.22233687404276,1.190267218933981,1.3545150924139222,1.9630603875619719,2.2712803472353875,1.550227031023475,2.8012902749406847,3.317791592731635,3.044707658977788,2.0288663245083556,0.764117765979316,-0.36549914186433063,1.3773075618801633,1.1579721032133032,0.6865054583938548,0.0025284941083888375,-0.599580063775895,0.13447014536921967,0.24790769912781463,-0.4147138661446884,0.09453014456152778,-0.0763025547590739,-0.08931942813694421,0.4852418909137592,-0.22838863566372483,-0.10827600533593237,0.6129712926348254,0.9582592535943708,-0.12426079766093846,0.35810211177282253,0.841787643558303,0.856206852565568,1.5953319136887387,1.6979102884277746,2.2749955569454263,1.6061157335077494,2.1388556068021125,2.0084090512004504,1.1855837561721765,0.5331637962014071,2.0386190433556433,1.6509321691012948,0.7650893541822665,0.29898058114481063,-0.21544592905907797,-0.13103431879918714,-0.11376056967267746,-0.37920749680430815,0.02320088515868375,-0.06981064756975411,-0.4337431995409023,0.07101608034819598,0.1538299055937075,0.33581507054360193,0.16952273376138854,0.3847080842546373,0.23736883200212963,0.4454363626297519,0.37769956462087684,0.49247179044372524,0.44742182924984353,0.4500892173303832,0.2500131789313796,-0.7340594067628796,0.035278991077299475,0.813342506067111,2.0054280814442245,1.985674134423665,2.021806464129332,1.2689080815789588,0.7155790509748521,0.39400566165225803,-0.21547516547991513,-0.4545279192251059,-0.12088645110268938,0.4278528312258519,0.29335451219019487,-0.3917772781677487,-0.3393302920955202,-0.2342412361664818,-0.3323595614592905,-0.08925434959232066,0.557644212436495,0.3885148568094712,0.15837918451976848,-0.19108373228040515,-1.497836346120434,-0.06916509416498512,-0.9362116856868585,-1.7509188726452825,-0.9475321318766979,-0.7472953740159524,-0.04003862574737759,1.1037007395119711,2.574477215753391,2.395731235647478,0.03888949006286428,0.23824375719959898,0.33620598447649064,0.2910816778391099,-0.39176678159789224,-0.48935412194689015,-0.5593603429034181,0.1240475935668877,0.2572013534635197,-0.32843858146903476,-0.22312470037340149,-0.108520657526334,-0.45917436457734656,0.33005354221380295,-0.437011355817683,-0.37484828060352426,-0.09865347985515763,-1.1806283742498103,-2.2911659258528156,-1.0681883831798238,-2.4701793666507363,-2.5838548365518257,-2.3289419334643386,-0.1161566218415059,-0.012573024781992462,1.798938823725433,3.297628806651298,2.3796937629121544,0.3383402730166493,-0.8212915080177768,-0.6889900402874439,-0.07733074459616117,-0.030249274780041416,-0.5005772432024312,-0.39430691734910134,-0.06323729783709113,-0.32028584851603836,0.43084113952791253,0.1708349617139183,0.23585966999107852,-0.09779542856211877,0.4078989786510624,-0.6996694493475654,-0.4486221495946361,-1.3195271562597004,-2.3688576661417855,-2.8611461910820175,-2.4171691251821246,-1.663301594641479,-1.331104147708274,-0.9045444852836604,0.5510928205670195,1.5375048476369377,1.884392201517183,2.0850704694831714,1.0381329117708418,-0.2024995255397986,-0.022959390341812394,0.04612743088073539,-0.11037313993828016,-0.47910343328202326,0.12883075763917187,0.4364856259194899,-0.047041933487566565,0.10615354098675513,-0.4245025947719114,0.4248520402574572,-0.1861406350806654,-0.32174153290637086,-0.5817993440792165,-0.6198314735059162,-1.4407392933056407,-1.4358281382335703,-3.4675072925812005,-3.001744375606538,-2.1328693567281998,-1.438002534661007,0.2396373123004137,1.198293422137316,0.8685233784960471,1.3126537387195998,1.0709969405295638,0.9211348180614654,0.27233533817564476,-0.41593950365107374,0.09706176902280671,0.41143108821612623,-0.22853230888858866,-0.678977243471248,-0.5657090205790563,0.4443374101923865,-0.11819886659939251,0.4509954774619887,-0.28025575842992617,-0.2569773899902329,0.4978259516226486,0.03904586945065934,-0.033698172675367115,-0.7414053026399642,-0.536617021271584,-1.9533861971890107,-2.0270379643152694,-2.4260643075586836,-0.4676498447106093,-0.9111341402905511,0.05590820040724468,0.35510580684756726,-0.2761604164497552,0.9306201071307665,0.8659443354596361,1.0788501731838853,0.9913763054486519,0.6912199830229543,-1.037499653247088,-0.45213247720906796,-0.5413787487405374,-0.5984746461096122,-0.1401169323108897,0.4741735316933225,0.055529227371611464,0.15873374448832595,-0.3256437217289965,-0.027934473174374135,0.2289888346732485,-0.2601077624203239,-0.23421001684066298,-0.4790398655074043,-0.41213130812761983,-0.5326335995651903,-1.4607668165923728,-0.17830162029506744,-0.23541539370101733,0.6277151049751307,1.0223002930467944,-0.2530962457237844,-1.1303654044986926,-0.9722646190520519,0.4966759756502496,2.0010692031835418,2.2201711888559363,0.8018666533736989,-0.3585768502414624,-1.1320978036788303,-1.2568262346270056,-0.44942680726535406,-0.05024286331012206,-0.3778680067553604,-0.39051499882148777,0.06013425854173389,-0.1667532058442641,-0.16486063001193849,0.34081056160789064,-0.38823663755795995,-0.26694329884220314,0.1947670431826366,0.1159585735960977,-0.22493940848076452,-0.4208883594441822,-1.168350099934354,-0.6641826936209242,-0.14131234413213384,0.08428628506203437,0.7139803381595584,-0.5656342327058944,-0.5318272088405299,0.20142115401546393,2.1796941862332457,3.802099358364534,1.2118149053187308,-0.44982735840630106,-1.1614568435024566,-0.7360755786256102,-0.39092668870415886,-0.14610697460798505,-0.2973440793576582,-0.4367946295601525,0.09451839307762828,0.03348141838655557,-0.2566321032813433,-0.27708440469563117,0.003978365836896057,0.004598039296798971,0.5787894344781578,0.21246323833309427,0.02173925917633044,0.4638494717382022,-0.7199034052875838,0.24355126656025294,0.5131702485270521,0.21526014048307185,0.025434571602525453,0.5195524942116132,2.2801076113672254,2.476648635528056,1.6786331844217859,2.156365356595952,0.8270812997345707,-0.6415092877971422,-0.4357763912838083,-0.27992606628847927,0.26547590878229543,0.45328576119655833,0.41490412223030687,-0.27287093480047603,-0.0065577695958012674,0.22665066850668297,0.1194840869462756,-0.2656917800268321,-0.09480493580588047,0.9076615532214746,0.5083860110503875,0.45934307709975525,0.5215252135869642,0.6437398726479029,-0.1025555687407665,-0.07151541005595816,-0.48920003848607796,0.650532921349401,0.2623866756143552,0.6391221264528733,2.8012819825582813,2.7095032793225897,2.4740541635181774,1.723922794779344,0.3641925638949689,0.17444045780124812,0.16877630346431355,0.61168026509314,0.13487560839857748,0.10077917588188215,-0.03700206184908689,-0.07654445826252483,-0.16579356850302895,0.150708034810573,0.33209097771129387,0.19892562436106834,0.21706015805110251,1.1889616662718039,1.3787278703814705,1.0531445395493642,0.19842360075252494,0.4592430197974392,-0.30898618087695756,-0.48187233172864513,-0.1178140407592707,0.9136124711173298,0.07462714457193675,-0.552891212904665,1.3265036163828352,2.8699152787588975,3.003207333236933,1.2591421719829266,0.6621840763348649,-0.09061802130585414,-0.21655881533837043,0.0054362204786081204,0.6084857261050124,0.4248712082889107,-0.3499030260481299,-0.24665215196844842,0.35635604224450707,-0.29614948819587655,0.085651049436005,-0.4217412480286969,0.17949868818052367,1.0232164778375836,1.7975291953979942,1.3940741590134142,0.36056784285231996,-0.32524339151197074,-0.5413890722714267,-0.9978787570384754,0.140321185636045,0.756209887633309,-0.14281547435301492,0.03204834652531203,0.404694914538508,1.958385677477676,2.604235607552689,3.301289677877189,0.6259360702016312,-0.38817552704611086,0.9221395435303765,0.5312412950731596,1.3088224886435489,0.4588014245905707,-0.19633696540147463,0.21894028582993083,0.06546334451019803,0.23330258217820238,0.34467425202477014,-0.35540419421018465,0.3304876869539936,0.7411192795901375,1.6363838133390884,2.334845021894531,1.719143662484602,1.136601541387175,-0.46387009629421594,-0.2976355987712496,-0.031311786477710914,0.5464207693401825,0.4139038003346397,-0.15482042239434138,0.8307018982313009,1.8100496060287354,3.358227015647317,2.1702473654002956,1.7522768036499026,0.6645759877251168,1.090856341516741,0.5756594118731967,1.346752614685517,0.6246824246728042,-0.47603026715299623,0.3730843065612944,0.0064201887354639955,-0.46874298923612695,0.4634765025484023,0.2324439838924988,-0.2742489553978965,0.69522210419823,1.4950695088278354,2.1715472212439866,2.0073185270785263,1.2846576528819287,-1.0959250351631722,-1.16410953935234,-0.07720715823222334,0.5129712567856768,0.5302002985244076,0.3346116116921938,-0.0074736800358662205,1.1155807980469907,1.5601403857668374,1.3374063046025835,1.6707350139616053,1.0584903998603508,0.606631905240211,0.5988704141612159,0.5712942015897076,-0.41047468244804847,-0.1140868115743637,0.2532942471760142,0.2089012332659616,-0.11346218270424686,0.2497771187927112,-0.107390233783571,-0.21846244144052493,0.14438697046435886,0.6343746126999594,1.6197769211286017,1.4276356783962838,0.21319253605441948,0.14946869509068084,-0.6457933966243504,0.2724471153136659,1.4576393130215382,-0.09731606870528345,-0.7791667938407689,-1.0819242782718366,0.06761845101211898,0.9922737641165681,0.8046601560405368,0.5416378712059252,0.6008741748977184,-0.41370577399408553,-0.21359228897460392,-0.45874238677565,-0.06832639955294689,0.3478376599466982,-0.45231005170200095,-0.001672422501959686,0.14219448129990125,0.03387192409554635,-0.48387479048948306,0.04814822428665233,0.02260617936881674,0.05119047418665745,1.5016152320863745,1.4244281782030244,1.080089384512107,0.32000603452978643,0.13319417227977878,1.893088719461654,1.7130190860055166,0.9653160366558069,-0.24235488563431715,0.20907008023784798,0.4379770869020352,1.0167272680687571,-0.03331836191060972,0.002873318820304247,-0.0952213935154352,-0.44839092101411726,0.042748033856977403,-0.03376309550453076,-0.005922138534924842,0.4522241376344622,-0.21103065228591467,0.2448603716354696,-0.29287927244699735,-0.3804091254730701,0.14685566296789138,-0.08044072927452789,-0.33029011754401455,0.43270678663648876,0.3545555963133771,1.4072924265268092,1.2674957799122817,0.4130644483455503,-1.2298417841763247,-0.2778452301541177,-0.2666092316322184,0.3304470995022621,1.0969913841879764,1.1336935344893135,0.3816012287351655,1.141684447464174,0.5958739873090223,0.14781059903102226,-0.36255942754927367,-0.5499978633121239,0.27202577735618666,0.2694163935136463,0.09434365587439056,-0.42387974744401086,0.4615387593144021,-0.4449158539094605,0.07172255325177297,-0.4550729795456024,0.06166612906339555,-0.4504234859469091,-0.16428941163492092,0.4150363353580848,0.006001066957171033,0.46015167840278276,-0.08256359097393237,0.3672848905976315,-0.5152427720428008,-0.37476883429077823,-0.354009671404209,0.6219710104738941,0.6270057377764239,1.1999831982988627,1.0216025371542794,1.218178610714372,0.09597413279308975,-0.39448004288276745,-0.1945241187864956,-0.2274169217605658,0.21948032907675377,0.4057583845212991,-0.3964631941360238,-0.0748874336309494,0.3438927380047235,0.3423534698850161,0.39184264182866985,-0.23640397290606138,-0.3642551983590379,0.4750833347828119,0.39129390343833254,0.28650478330278956,0.1576427893414703,0.03150594204143998,0.2739328972387446,-0.2520496865471369,-0.4203137017408692,-0.253921912768361,-0.4804275173217937,-0.11346927048801814,-0.46001052131328285,-0.11299059556756505,0.10760545526937841,0.39568180168341643,0.44621130101669065,-0.19731457150685827,-0.002177349300514366,-0.02513586963567393,0.25918535548639166,0.24337745016722295,-0.0772438669440466,-0.10706139648445977,-0.43778690853506425,0.1133982905755574,0.0829754424538487,0.00541947362032383,-0.47822229323353876,-0.3395239669266172,0.47856922845744626,0.2923788649600075,-0.162779142704849,-0.3044500866035895,-0.29178288550267883,0.2939714087435137,-0.4269618684460115,-0.3839078497325663,0.03388027559886581,0.20485513916266856,-0.018738227630269784,0.39101508052966605,-0.08604070658296874,-0.1404503555713387,0.18254821115875047,0.07632838257518208,-0.36958023327497586,-0.25211298503789026,0.06317529143152792,0.08970097560905284,0.2771586927051733,0.21165820114309214,-0.24085104557466047,-0.22693904785841107~,0.17937320041964916,-0.021473977408852606,-0.31559989023070034,0.34543301671195703,0.379478510228492,-0.3250469926735078,0.053514151880201206,-0.36478582210958543,0.3880377711768377,0.1912280797721388,-0.1275918170209951,0.4894826415289003,-0.4370033724425134,0.3017152488687373,0.4089789635292336,0.17172878175525313,0.16065510166727442,-0.3129243641536865,0.07223160940959229,0.06359734730731723,-0.39486772592095876,-0.2900627889399956,-0.43021831777148667,-0.3518333883284577,-0.4695374139949616,0.06719685048112739,0.42137510756607455,0.23813169856124966,-0.26832620330608337,0.209465542917378,0.46507982600003983,0.3912966625303512,-0.42173017912508626,-0.2450112058463531,0.29599112387478477,0.06594178270350912,0.2591867631648629,0.11088095884107893,-0.24960510646201198,0.04686870491989336,-0.03046013388920789,-0.07814875791116187,0.19464079984156762,-0.04034476079082449,0.22155746677409663,-0.3160404903582667,-0.47328088183730244,0.16369325759250608,0.23882387191551285,-0.3695171297215663,0.13499410592149402,0.01199602607777242,0.13596767675951088,0.32116522002141124,0.43789520796437764,0.012591708431514175,0.10142507427446358,-0.17518865777717557,0.06044063453938626,0.11415886239506846,0.22083288289912323,0.49834576418535437,0.20718459051328147,0.10956921565963938,-0.4023840089162695,-0.3630545008224046,0.41213210966534086,0.33182979366345877,-0.07447069868451023,0.3351442822280375,0.2640724957257265,-0.07847631434203918,0.02174042783757003,0.15496028447479976,-0.11021297902118375,-0.30953241444551366,-0.3325221952250541,-0.18167989324688072,-0.5294816220255107,-0.4771391407656239,0.21413168108218655,-0.1755091496120843,-0.23252433430807656,-0.35044023827686444,0.4407221997146009,0.26122865506957893,0.471455779016806,0.2326369667171268,-0.3078330731124733,-0.09938356452253445,-0.21939324878154662,0.12871782946833418,-0.5104402877788924,0.062182312780707016,0.18707500557845183,-0.3391857490449391,-0.34922681806025574,-0.17569017310989476,-0.36665489321051414,0.14995558524236596,0.038745841824847284,-0.6084510303818659,-0.49051744076821396,0.17487082514081884,0.1511109977706212,0.19632697945645883,0.012968238515857801,-0.12177261779969267,-0.23829449879699938,0.23746737592561218,0.4037218123815195,-0.017901981649825923,-0.43892101131885164,0.26951893978345687,-0.09948060440693827,-0.3748208791428055,-0.014116630514585029,0.3266473461287555,-0.032276243279115484,-0.22977286467168595,-0.10571724900170756,-0.4123186484589467,0.019549167172144874,0.06255949707834575,0.09773643216283602,0.1626053071295444,0.24609531885806923,0.20785428281272178,-0.7549193913805817,-0.29494445371736006,-0.3556258199686646,-0.49826221725870345,-0.5907868261312544,-0.5080045145190797,-0.48298143500331026,0.33485313520634935,0.09737725007305328,0.38125735677281747,-0.06915593092537185,0.1860546406481703,0.15373109686459957,-0.3032267451987384,0.1895648360094198,0.31611060726913187,-0.09273872817746309,0.0068049896408266045,0.131507519591117,-0.12410225786291706,-0.09865083824959998,-0.6431210265286573,-0.2948567783621419,-0.6249366404543151,-0.04265086283076426,0.06403432973043711,-0.1823727317884569,-0.5260249008352915,-0.2627621733164569,-0.567331855024969,0.4624091851753797,0.7389927928759827,0.8742408204653134,0.4997695825424991,0.8173973095011902,0.004930498042925599,0.04955337296029547,0.10724713341332988,0.4377837839933324,0.35222843113163277,0.35150184362840664,-0.01732350251234514,-0.10441680664482061,0.41030291494946486,-0.2617203684153004,-0.701482801742657,-0.8196988007851453,-0.8606743903480554,-0.7438530933287358,-1.1377874764760252,-1.2337862558337576,-0.3739763721290429,0.024792201777183696,0.26353576147425545,0.39693560022887825,0.15710082307456336,-0.35976363393212246,0.05196691609207739,-0.37864809963826934,0.24174380924033073,0.650828257181487,0.726900159769082,0.9551048030265057,0.7708928328668906,-0.01926288699454209,0.43288320686641835,0.03128679672555429,0.07688759961890913,-0.4829507340612455,0.10233914671652487,0.40510791453705014,-0.1648223139601286,-0.48578376825918146,-1.07849973038264,-0.9603336924717497,-0.5892853160683849,-1.297776971857798,-0.7063570331292548,-0.7485106519033351,-0.7282595963064861,-0.25986501726556305,0.011683819731589126,0.012305116567187448,0.15280166930712294,-0.08785962643434006,0.6369244321555991,-0.7287326235814139,-0.36179473998133477,0.6685976229810972,-0.16053841721114528,0.5312806320691476,0.10838323464109803,0.2300297743266219,0.34974047019002563,0.1489696061590901,0.03780369420344321,0.017961058150164574,-0.3127545519331615,-0.027640325461150514,0.06596829235394583,0.052126257171583666,-0.791950643877594,-1.166635697847321,-0.7001127257961759,-0.4986011371562341,0.5806241987932147,0.5314446939666635,0.8728710899158099,-0.521049044104588,-0.44971597140996916,-0.6188467825609937,-0.2738321156443321,0.30918845858240157,-0.4484144919243317,-0.25268599815938264,-0.6314162583760149,-0.03681436135718145,-0.43118771446574883,-0.5569176853613559,-0.20941426806929667,-0.013426715507380997,0.4648214607749473,-0.23660158256636582,0.3582407609036198,0.17518533978271744,0.41793750367135657,-0.5245304816858075,-0.043414520935626665,-0.49706526418005664,-0.30792703571720714,-0.23502900028668477,0.7529065708948144,0.9217360489853111,2.1479497753467505,2.665200035134782,1.671165107604521,0.8717031159416977,0.4430820170325865,-0.5741682815982475,-0.9811445383126544,0.15593417284908123,-0.5039171822119326,-0.48880410867180996,-0.73022136800011,-0.22434313539906656,-0.27200739177369104,-0.04251448385897873,0.12162101136250557,0.44090053761300885,-0.10028036493767768,-0.1269629512761028,0.1672666624460934,-0.027454485319498536,-0.4089744538741767,0.05367050005974959,-0.24722572091385092,-0.3243933932093933,0.23076016463066037,0.5674054874397766,1.0600486756882064,1.625206928601261,2.7795423943643427,3.1233362575088903,1.9012359289638048,-0.015541146006653508,-0.7049329636324395,0.08895602178955926,-0.6422599611434423,-0.7305180046644326,-0.6787052069791908,-0.23322761309655443,-0.27542398355572895,-0.11563880514382797,0.24699027441776722,-0.23897761793231134,0.16462536473734102,0.5795075242205626,-0.42588141948787084,0.2810822381773095,0.35283531187313616,-0.26230024109698163,-0.16606204267267655,-0.4618558578626146,-0.25600115984799227,-0.3843560054608431,0.37459365796304767,0.9003615124759765,0.8987396596736432,2.235188505533661,2.9625816468424357,2.3648187694899563,1.0961424742882109,0.06773476410191127,-0.31282310013728937,-0.21875414101313154,-1.0742446563578414,-0.6128573466668636,-0.19142016603842915,0.02557787683881653,0.08965624852538019,0.08343757075702596,-0.3877607151878759,0.5912898013868545,0.38170842478777145,0.3447481647509958,-0.4072775268273723,-0.08247413254487675,-0.15601176910193337,0.42212511374914874,-0.08303485905466772,-0.14751850447717946,-0.2548243066134767,0.27558124045981863,0.3689995434528057,-0.12242469500896895,1.1122261177877837,3.02343570730901,2.300073220438187,1.5353727111382087,0.4212946658979358,0.5343786039778265,-0.3765117496215699,-0.7828618676833974,-0.7294351184243896,-0.3033109110849181,-0.7263941015495152,0.3726900430364893,-0.24350658301966252,0.6054423952449192,0.6650075529547321,0.4335766846912909,-0.22153866975241754,-0.08990944183415212,-0.44224379039098294,0.11023153562599323,-0.07347261989394403,0.22257787371331866,-0.32953498904534634,-0.2132363921231517,-0.43984880963912176,-0.18394806862020596,-0.1621088283327322,0.21168463674172264,1.2452519758644482,1.9739093109147772,1.377899761771524,0.9627895277928324,0.19678993547418444,-0.6911064536727127,-0.2267729216382152,-0.7434332275348184,-0.5960767007812955,-0.4929417861680668,-0.13006693518672627,0.8892786213323399,0.521470758174408,0.054434502051881856,-0.13040090148344846,0.6860498064863733,0.36906182133578186,0.05250511604077159,-0.3634675564326363,-0.10392556820367092,0.3577837952470244,0.3615393625376385,0.08202595864344932,-0.1928897793586261,-0.14579753041912497,-0.4220913890948488,0.5254487454869922,0.011412646355347172,1.059312102959582,1.9820009298415526,0.9334321724034004,0.5738389762357483,-0.5996134395751084,-0.17332686981451415,-0.6230142918155934,0.06496176238296118,-0.10427505096518987,0.14174517055618419,0.6143079166573497,0.5153167878109383,0.13314416879668498,-0.3633078035776083,0.20556543803919847,0.7085565655913543,0.5279384650858572,-0.3948503141432417,-0.43483043750781114,-0.13692373280874506,0.42744467932930297,-0.4730809598505962,-0.45340450254487513,0.02686806599397529,-0.04491515727373143,0.4493966873561937,0.5600397676417845,0.2578592083563715,0.7700702311767188,1.0226524957516292,0.6542684199956343,-0.5970255129014417,-0.3560347266614735,-0.11126253811952343,-0.8465854776758142,-0.282855936584282,-0.32470088498006255,0.532907280214884,0.4511491909904896,-0.07367246984107982,-0.707822653042442,-0.09757628225202851,-0.21939060813838815,0.17937973204741797,0.36107778537778035,-0.003250725637926784,-0.1578895312532798,0.30203313394437387,-0.33280130794199864,0.017958174097227744,-0.12884938750197877,0.020633468376197135,0.1624230046050655,0.12063842712770989,0.31424919394540995,-0.19158354732372224,0.040161461137574586,0.8255692140035241,0.9011033308303693,0.061925637988593005,-0.1862123435358636,-0.9385914632269489,-0.289672474617151,-0.5932796639928659,0.3204107477794505,0.2035442106722361,0.7663210412349127,-0.2911496715800293,-0.9912471731272587,-0.9788293116886135,0.38058698836539684,0.23932502731991273,0.16445222563805814,0.21022440115032479,-0.4353808010339746,-0.30234987926225837,-0.45650685691394927,-0.46463861365166437,0.43982769480823125,-0.22071795442600955,0.13092800187520368,0.10231375646556132,0.5052976677753384,0.45700449887008765,0.5424687039534865,0.4609709362866439,0.1483403050704826,0.20638956102551267,-0.5707436826969711,-0.4937267192528647,-0.6611228480548957,-0.28215650475729254,0.46449042785494293,1.352142995494632,0.2648426317789032,-0.3482763613215273,-1.4521481986032925,-0.27518849756440417,0.05759407374318677,0.33482793884841694,-0.45412697815538877,-0.18424999068729436,-0.1851883741036407,0.09670956464136038,0.31367092107393313,-0.3508510416519447,0.44116502966756077,-0.2759549588170026,-0.35188636196593165,-0.23737384470168532,-0.2948956023232075,0.15670756318424775,-0.5667660833951389,-0.7915296834114026,-0.36838208514534815,-0.5039696699979023,-0.12615758083686343,-0.02027715162856461,0.24042903340669503,-0.38583818066402964,0.45407168981821067,1.1039255737822127,0.2967255346740233,-0.24902574388424148,-0.18674527827081563,-0.29177511450541227,0.4980062194478255,-0.2578222254345754,-0.08182901343290092,-0.6611542479911492,-0.4939163919843274,-0.13140557693231303,0.4624595035918804,-0.2318599308305606,0.16019605997202274,0.4479473454542584,0.2609560844339035,-0.6481144034048182,-0.33962693202920285,-0.7354527889298637,-0.17428612147462214,-0.783085303474475,-0.5675027773916923,-0.6806534228708621,-0.6207790335577867,-0.8990425751992267,-0.4775676054083575,-0.587206070957549,-0.1613545801911506,-0.1351978180822607,-0.20043282206833388,-0.3141485371190584,0.1249488917386672,-0.2967287517087876,0.5426676102390812,0.34402046657676183,-0.46123274375246026,-0.36582026647971766,-0.12139977970178881,0.4586866350751787,0.4125568966572752,-0.08124380593565216,-0.4943132839199368,0.2161725872810971,0.23978225166705358,0.07316660422004605,-0.24474870650887617,0.18097774046670345,-0.9147084977822267,-0.5986525173913428,-0.6621916846994842,0.13574527524976907,-0.30802155263544323,-0.9991276898287053,-0.5577176638071106,0.26160770750614815,0.39904910817579975,0.4224427214512031,0.1781878517644227,0.015007886063067105,-0.14212108428512238,0.19933485253900324,0.21039485788133927,-0.4865664700495711,-0.7614243286480927,-0.2596074244686811,0.34426049502969136,-0.4393710886424579,-0.32588446162200346,0.1868661929114554,-0.35058703547846776,-0.18124316646369706,0.323775377114233,0.03167242403932744,-0.581061853221126,-0.7459948035289866,-0.5236574974033604,-0.85383750262281,-0.7150997931120108,-0.483784665093316,-0.0009695576822336197,0.027615369333671348,0.2834490589505875,0.8694816525857272,0.1701632872235239,0.8393058827821785,0.672207876282168,-0.48858358913995814,0.466006734889659,-0.02506035780310611,-0.38955463124047274,-0.26333865405828194,-0.3819549779106709,0.054865465820622045,0.38865765586418954,-0.0662639038692633,-0.34876603009109675,-0.06524545940168157,-0.06059493366510555,0.457000999655481,0.30187551640437976,-0.46314025156768074,0.20639615833697658,-0.09343682911013357,-0.8500993577751744,-0.3295230279190582,-0.32035534388986403,-0.5514627658544397,-0.8638525522358157,0.29361887995810965,-0.16572739650539914,0.49064584371218856,0.45112755147452716,0.8888423947129799,0.3092389612346419,0.6465970620909961,0.1429254983302632,0.24007048384638807,0.19462866981084995,0.18426118569277633,-0.5084288244168208,-0.19443204210566278,-0.29319251225662585,0.3212590925452576,0.19159817827024078,0.3840397003006192,0.10149753653773332,0.004057262428629076,-0.34357670425504744,0.1693557599440958,-0.5789277076098357,-0.18092816214536017,-0.9381544881801291,-0.14760769247022285,-0.24293050420802026,-0.38987672351206826,-1.0197441408405827,-0.2416430123808748,-0.03130530924592687,-0.2677551107288558,0.8221818199597616,0.49925619098160107,0.8046023728195645,0.5265961470949675,0.4294118130870768,-0.49259249723714066,-0.24630096405401727,0.15319241239323989,-0.47942421641283045,-0.4761606953919802,0.10527016578197339,-0.3304588729363612,-0.1022605047170254,-0.05007229469478574,-0.07792111460338556,0.18053387218534744,0.2306852653947601,0.10260738950278331,0.025425781881575713,-0.05397685800974434,-0.4147214142975866,-1.0132788203261598,-0.7947755256387098,-0.26675687876504584,-0.8516942488102699,-0.9119289121359262,-0.09256749784013676,-0.6771232867797504,-0.42484937395539346,0.1585010253114308,0.7522643437220272,0.044297491062633663,-0.1335399059546087,0.06405096106112758,-0.19209303693960697,-0.2883048339649043,0.16432052086534246,0.13692153283272104,-0.01860146530491039,0.0048760059855972,0.47048647977780556,-0.4648952833701492,-0.442334040164174,-0.07473222854324311,0.3574923651935393,-0.24038309341181646,0.1015580493641384,0.07092299530010486,0.32460701612019655,0.0392356277934456,0.013206882355036023,-0.5747682312104089,-0.9951280408062122,-0.7128340228053828,-0.33064347826393076,0.005193654649487496,-0.0238788284582441,0.5289976022595727,0.2052781084401527,0.006419040156145734,0.6115699873861294,0.4899098822377826,0.4172899068198684,0.3421237142925282,-0.330880256983028,0.2864332238845723,0.39408420338853317,-0.20108051125348977,-0.05817413751191818,-0.09726618869201241,-0.2745990525870148,-0.19561748685160957,0.4223426015904818,0.4492194521382231,0.46364657907805423,-0.012654006283150651,0.3498097029979603,0.3148361786940353,-0.24602869618804346,-0.46670905672371193,-0.012632490677579222,-0.21293404466907137,-0.4638156606988457,0.40020834846111103,0.36263893019456034,-0.09330795916367071,-0.2753995957653563,-0.33733689365530595,0.23485740330323834,-0.30084893828057624,0.33915764231037515,0.35182069497606705,-0.4725185600239567,0.22002801581808723,-0.228651783633742,0.1445710714709097,0.010559357102395906,0.09069378494260573,0.13481274445643593,-0.47635793382202063,0.3795783962065461,0.4539942256585083,-0.20837251736818763,0.4688294732261201,-0.2013231834270396,0.452077020729022,0.24102215916995118,-0.25051431400447577,-0.03730239822590541,0.023837132875569825,0.10659124743957006,0.48122861999912114,0.15286421251785917,0.1963152312766155,0.32421882897913135,0.24201582273334596,0.24786562987790636,0.007468030066497173,0.1825534370961585,-0.025390692841126144,-0.2901058818659514,0.12986223299573035,0.18454847117512146,-0.4190731085084053,0.3094340829285934~,-0.04588160551591564,0.05104648062659294,0.18280558802148433,-0.32921443593536254,-0.11411465521026405,-0.4018922728862369,-0.20552845523786517,0.08710365919145151,0.10643041435339066,0.46306765843450765,-0.07772434835110449,0.31464883720915543,-0.2984704429871989,-0.09794731869250205,-0.4233458098953002,-0.4114405687488108,-0.1984462374521792,-0.4759538214698967,0.12615382017274476,-0.34959229137088604,0.064377403833499,0.3980261002532534,-0.2917556249489582,0.3735292057683904,0.23432681777311198,0.41060637577515263,0.4242744955885052,-0.020283751065834993,-0.3779269513759895,-0.25093933264892165,0.35806445135594417,0.25375389203329685,0.03749963922624231,-0.32921584804081055,0.20426461301444004,0.16815619141250493,-0.06583412584941242,-0.38677754768716727,-0.46944939334040575,-0.24935833874026384,0.05515256878591134,0.11842939039697857,0.0810686082674713,-0.09044704161321959,0.21965258954673067,0.0018564090469300996,0.28365454975047566,-0.3210986709594082,0.4349556282458206,0.31392953324911704,-0.414158056232031,0.3536524421596496,0.16218033777854862,-0.13356857454898435,-0.298762982068657,-0.36272394671658176,-0.30825187000541737,-0.1636744423822511,0.47504082571761547,0.1484837209456769,0.2334607484254571,0.19517823424593023,0.288167809340009,0.3011560149318125,-0.2997024889274951,-0.39355903765311845,0.18875599722867145,-0.3731023848812782,0.3266241433684459,0.42696077831172213,0.10360920611453758,-0.46378965571947756,0.3251256234861227,-0.4097155406693019,0.4458131486012493,-0.0918527164999399,0.12652024777952497,0.24712257838282725,-0.0962547378426622,0.15230307755401004,0.22940213855574682,-0.01542649812478439,-0.3281476530800728,0.001437800004504776,-0.06580706661180696,0.3826426780855903,0.026214778101342803,-0.20683975951855554,-0.4424070431996074,-0.25040184520789116,0.19750051405749952,0.15911438322993668,-0.46430221694884694,-0.4552208573696423,0.23164135774900446,-0.34879369725065684,0.09579820886032316,0.30267337112076587,-0.10189820336619464,-0.08988715272863715,-0.5046003294288429,-0.08777772252539914,0.035119791784964334,0.09265546847103964,0.04060963651447055,-0.19408333741471775,0.3367688281846714,0.032691989522274416,0.07275993238161065,0.1907802513708043,0.16023720536199265,0.15820428222481847,-0.38373879417673734,0.41606204488591375,-0.35538000257137387,-0.1715388521160472,0.23896352895038087,0.334024309502674,-0.09283212949811148,0.36528249252446754,-0.46902381005578686,0.06923628672709693,-0.8357354048078726,-0.8896578889883081,-0.41240890634402066,-0.1793125795893404,-0.025362436696213634,-0.4086773079060784,-1.4275674644410685,-1.296614133279172,-1.23768506890263,0.22849617586907034,1.7591758195671916,2.0137672117268015,1.0810989869817555,0.05732805413761534,0.4682791006344195,-0.057610080785186306,0.4902100333140887,0.49340028694128274,-0.39536118474743615,-0.3168763484613684,0.19740322614041816,-0.48469648096583134,0.4014130723434854,-0.25419257538674594,-0.356771035638008,-0.5824249155826957,-0.8339591219815383,-0.9787683548108321,-1.2859005442057352,-1.1951159656465622,-0.46574209376728243,0.03753021621575754,-0.26678920775171944,-1.2949877558886682,-1.8459418953912685,-1.4237881652670963,-1.1520368887941494,0.2661793071608029,1.3549075940953323,1.0904719364683966,0.6121090818765618,-0.4035344977804921,0.37613117043827,0.3850531153426239,0.11914611579509182,0.2986185141695991,0.18786736578383306,-0.29174933919559914,0.488155495890432,0.31816227323299834,-0.05153019151729843,-0.2568167879327861,-0.531531829998163,-0.41032908456579953,-0.5262360194565989,-0.5413084568000974,-1.0384075888624962,-0.9274708555922921,-1.0047755695960627,-0.175201684448785,-0.3754505182922791,-0.372967160243182,-0.8129042336742894,-1.7971895699428018,-0.5590245399442458,0.8694460806328715,0.7728779911141791,-0.2507316202082223,0.5013348850240441,0.5167382303150846,0.04282221819079821,-0.3218586640662394,-0.06879254041422146,-0.050829086427978835,-0.16272171115720618,0.2181635921094153,-0.3769162999781271,0.008170429699724242,-0.3178705050457644,0.05488739646500117,-0.1976610791126945,-0.25939862373159667,-0.5086963239983493,-1.4671337338064527,-1.818301673670323,-1.6302484523367236,-1.9727097853852262,-1.3445784793150386,-0.4380689908315296,0.23631877692506767,-0.28601646889089094,-0.20531257633583722,0.18491366153138666,1.0437385374877026,0.4629959538067501,-1.353117866194011,-1.503261398014347,-0.8992767046271398,-0.6101648995384149,-0.23299893804394578,-0.43220072075191185,0.3302585608285256,-0.2857998189909497,-0.22167329258821267,0.13151304347707024,-0.13182364853586515,-0.00210844000482362,-0.031413181254832945,-0.592748632825708,-0.7969922677988895,-0.971316990827804,-1.9698236927513764,-2.2784945251119537,-2.569244064470195,-2.4171732458425845,-1.6131129924760976,0.4289958372145572,0.7388660703369715,0.28763703106323274,0.4910431196910247,0.3639497559453722,-0.35264868750569717,-1.1976558935000512,-1.3141190709439423,-1.9273411176945776,-1.3156259064169589,-0.26080224995279727,0.3429209897946386,-0.3213631706448934,0.4510413504545246,-0.3999209911425718,0.42443450835640734,-0.3973760890508547,0.04837521340092508,0.021810523382039572,0.2281104362647257,-0.8521424853959446,-0.6974128865106246,-0.8187485633371768,-1.116744709283595,-1.855399169072274,-2.72455474437142,-1.8657758168645178,-1.230571360155084,1.459609662379678,1.8095361332691846,1.116615367455786,0.38778843712729977,0.17660878154284732,-0.44306194329419024,-0.4812327077247006,-2.4032855257973464,-1.5240868454594296,-0.1603046791487819,-0.014121681247530165,-0.4275052431420824,-0.05861280979198013,0.21675339714491998,0.3329714962939047,-0.1738574638158446,0.3022764007378999,-0.2064594280914012,-0.39912385785513943,-0.45109782511215946,-0.4092915360357433,-0.34949139929236517,-0.7403839036513226,-1.3315296985778668,-1.427259855890604,-2.311259653429943,-1.8007478006643785,0.2223661464534653,2.1827158771351622,2.371692246111441,1.140604417764018,0.8609809451665259,0.19832275501367852,-0.0431765175331389,-1.338569344357593,-1.9397040083330719,-1.2297083333967984,-0.2446705887715053,0.4344884361401025,-0.13218275642344168,0.2677856256461545,0.35757779021839925,