#~,-76.38171549862906,-77.40978298629321,-76.13478343801063,-77.14355790371559,-77.87347497092713,-77.80561393043126,-77.50212778594567,-76.12685045511324,-77.00595423796662,-76.309940752432,-77.16501226507836,-77.87995020232947,-84.4652932927855,-115.29567890068321,-101.17774717481547,-76.93111558132941,-76.1758755095261,-77.81638533027626,-76.72661173485187,-77.40281475377489,-77.10303239396282,-76.7223890699058,-77.66116182424079,-77.26212355751997,-76.02463113348537,-75.89249541185194,-77.60308223991768,-75.98436469318713,-77.24974577579846,-77.12965022640753,-76.71303298955425,-77.33434925802538,-77.95711592402084,-78.05318381325273,-120.39678328417978,-171.74485280176876,-125.96710525399126,-78.81096240406785,-116.52848682876616,-129.3164240932497,-169.8478102826058,-158.44594284912094,-34.76705401229053,-70.04358077838116,-159.2273978806858,-73.79209968248352,-4.048761788122572,-32.50412651627728,-33.86430521262583,-53.510385480127354,-78.28652446083434,-79.74915509901477,-77.57304083005656,-76.46111924569655,-77.65090421424617,-76.09125292714563,-77.85591691163907,-77.78846463055856,-78.28103624735797,-80.28626147344505,-65.37332535013046,-73.05768998064535,-52.92306061848877,-131.62387430484614,-46.75084662158519,240.0800647463919,411.3584682126993,371.057505104113,566.265644687135,1121.3040133097406,1928.3250940107398,2458.34699884822,3054.612553372467,3485.3128292553033,3590.9336202511104,3113.582514825477,2122.9560717335426,1210.8344364377242,594.492556774025,156.10229347662496,-4.832161691772128,-64.72051687477459,-77.76010388282694,-76.20809937269436,-76.56151804478256,-77.55123320306492,-88.02794560258477,-82.78432217233093,-63.46858759230314,-132.27001045309902,-139.2726300388819,-294.97283114641147,-346.9673114707507,-440.892651532005,-875.6721005625022,-1922.57090195895,-2908.5792301177967,-3287.861035112616,-2017.9027723636898,-540.0647117944413,1359.8003461505432,3730.1999872065794,5580.5021724244,5912.719885509017,4613.279586818716,3017.621505845444,1675.9407782397684,723.2790391009293,236.84772963085192,-47.919034464234606,-62.64304915083335,-76.12494185753982,-76.50468881025279,-75.75908759168456,-102.636723949026,-99.94494849189822,-41.06305908340224,-308.5532652924739,-678.8384852122747,-1184.8907754444324,-2209.562082924135,-4461.779834405871,-7917.245845933954,-13242.37543593118,-19430.5637607178,-24957.286181478346,-28475.65429801527,-29263.48547802455,-24954.17068934664,-17537.956844310633,-10141.049090885928,-4575.905658183658,-812.1895766494144,1385.3115467030752,2579.349170198086,2797.7918903276095,1438.7353003209143,214.2350573665368,-66.6452564678386,-74.05834448683834,-76.77467682534825,-76.23115202838275,-61.05908530767191,-149.71116037377655,-121.10990862452697,-769.1606998757131,-1885.687331012058,-3477.3026024176957,-6248.614287242799,-11304.059729222437,-19692.821592182056,-30091.302243848495,-41722.43686977971,-52850.92470065307,-59715.21241732592,-62248.41890498174,-59315.77914266888,-50308.90827666334,-38434.052810957066,-27108.98663718514,-16081.247681954786,-7024.820769158156,344.720586507505,3975.2231587581696,2627.4156947140186,495.7573105720467,-84.69556824526718,-64.75671000008123,-76.4999148240573,-78.89126167250095,-67.0828244303856,-278.17025732885145,-532.0858501510784,-1965.140700345413,-4581.67463256985,-7414.716265034798,-12498.7485096478,-18378.4261168885,-26763.905224097944,-35488.819158619786,-40941.933947837475,-40021.266150580814,-35087.6552032937,-31479.89095429051,-29159.43050798836,-30130.45834042283,-31007.695720405503,-30375.158985025755,-25696.096716604912,-15674.123825468028,-5089.75806937228,2153.0091997146906,2558.5985118471017,446.7038523471514,-60.56574284581725,-103.9528657047715,-77.53810106497795,-111.70916282348246,-73.05973186246622,-476.8645992817223,-1440.2217721007908,-3470.361255363913,-7023.772580071989,-10816.448188364438,-14385.549000755125,-19250.77015149795,-22758.231052041032,-21672.99033300015,-14732.688053378724,-3123.0702413715003,6018.915127344358,8550.310367899681,5625.72867405057,-4553.750837760585,-16225.388055077656,-25324.059348116698,-26900.260589600468,-19547.19082567965,-10924.231062063345,-1804.9890062264192,1379.0180162587208,276.5401223211832,-189.9667985466508,-151.62989895938367,-102.88936253661139,-181.06369965301295,-131.08322547856824,-856.1066068249123,-2231.836167517011,-4272.574283253599,-7875.5561360174715,-10530.01094716351,-11769.435963049127,-12200.03905808996,-7929.491080019012,-159.89965976099708,5512.077048221854,9302.124840757986,6202.2836623362,1724.1172686270006,463.29172914159966,-3948.794590395544,-12121.952917034918,-23018.031816052342,-25747.87093361557,-21012.01898651357,-15577.903705648712,-7012.289273339482,-962.6893523646083,-119.50282955499272,-351.70790476711903,-153.0281880365816,-91.24186075073703,-186.35518449893374,-231.47463329518084,-1247.035201716848,-2745.4196280102556,-3746.601526805574,-5224.902675512186,-5439.560651381904,-3213.8622815583753,2333.8337600716345,10203.029330903915,13485.381594909033,9771.498999958943,-2715.4058045984125,-16330.428959935372,-20736.580437015244,-15242.958004273049,-8345.518191655741,-10058.949608927214,-17933.948339281258,-23017.81599360403,-24197.738639117328,-22136.292661310556,-14867.975282930183,-5705.918548850129,-1239.7199418184719,-581.7663209587874,-176.22443600958647,-91.86720220181473,-146.9314323600874,-380.1621291959974,-1043.1213679284695,-1329.1461530520296,-622.1567746067292,767.8126629568243,4278.8213908027965,11494.712473907757,18075.701810858736,20413.138643883445,13727.609822756902,172.29854089873282,-19371.314933203612,-31065.54393861537,-27815.44956824089,-14916.012286892144,-2296.846776893258,-2569.9286878150942,-7726.363980662319,-16764.89554533145,-23324.685257843154,-25376.55489858114,-19358.341335439865,-7818.173061068891,-1582.659092223002,-517.903806932933,-218.51167309586623,-83.183034841279,-160.1872061486935,-460.25060468738883,-429.7696813028315,1060.2349521509789,4217.587819158813,7762.832867953535,14698.238790158995,24820.550751533236,28467.890747141002,22468.564800700304,6658.98888341417,-11491.074649534941,-27408.38474197285,-31316.762385704795,-20930.81227361542,-442.77627509181417,13312.591236690274,16082.803978659169,9539.50689534945,-3953.685176697691,-16681.89683562388,-22407.264802644295,-18808.624059761045,-8022.273302856699,-1281.8977595911167,-293.1811708560498,-104.26124507281953,-78.74170420649347,-185.51529212036823,-316.2949077050791,340.3839851664038,3554.8636666187326,7663.208987428757,13669.52857300677,23821.1578698122,34362.54339914904,33659.96073039892,20321.132683871085,133.7238504730903,-18538.168826106652,-28253.75296185723,-26664.669223634082,-8595.784242479032,17004.50454982409,33208.49342165041,37726.41868783262,26338.684503929453,7486.044713364724,-8955.727947635578,-16947.851052341863,-15573.274297182861,-6766.982664552566,-655.6859087904305,-274.74789942905676,-99.69408071898931,-77.64426393658081,-136.78282425127944,-205.14462760806785,753.0822450090787,5065.164995899432,10179.882971294259,17428.70760808432,29262.809012421927,40140.9941324539,36365.19788490036,22128.351997619735,1411.577778651358,-17875.610216706344,-26023.84310807981,-16536.139048972396,6041.206526291453,31829.173392247318,50425.95252974549,50153.90100560345,34031.71214402731,11899.763678260833,-4776.911872367533,-13184.715896037307,-13079.675486471288,-5588.381167906144,-477.2991781561119,-281.2760939285664,-127.86502929633667,-80.35713361323283,-96.13389031531008,-98.97371954172856,1187.0267276686193,5150.0397107339495,8668.787627190452,16122.093714582383,28261.900175774037,39480.96115806815,39401.90970346284,27815.47699031077,11033.887907817209,-5962.12827819182,-13778.98926506786,-3726.0828081631407,16627.03776359949,41384.868853212545,57175.12676587534,47543.965771333584,28301.34526944983,8049.6022345480815,-4912.244017052887,-10688.012662346646,-10441.090444345771,-4766.572034352884,-357.9116147309836,-363.27910654243686,-81.85163933356674,-78.7887998296554,-73.310289326793,-126.1942024299149,1077.3567084691113,2887.462255062922,2995.0575095876547,9217.301029320182,20187.45399827715,33379.90361568294,37681.47357834301,31489.374011508986,18388.53206701904,3421.7704885874596,-2305.286823027278,5819.053963020396,24443.93410686659,46616.075395822976,53389.49002518776,35118.675877121495,13915.534991420154,-1119.3925535827889,-7245.119233445093,-9560.764219861781,-8623.176928764778,-4258.555664633151,-597.5524180107069,-413.81841131249115,-104.67668820085972,-79.87312291971634,-77.36470957371378,-148.62763246947077,480.1619152625377,-600.7724472310322,-4660.846383389042,-2178.7877892837655,7983.201053700422,20819.19362188664,26966.97132871544,23098.887374571965,13244.162761703117,5156.133893712092,5083.649489372954,15208.457482454296,32251.219013524427,43123.022736112966,38578.46488622128,17870.025457966516,-1591.017619885754,-10364.190987632086,-12263.952157856413,-10607.771774986133,-8614.28405140306,-3792.2407915730196,-1041.1829648658706,-579.703943550646,-106.51053759332882,-77.76744059482058,-88.34784080413621,-137.8352635789944,-631.7843980741585,-4754.236903510193,-12955.916861545627,-13845.465093671504,-7444.187034200276,2156.9942956144255,6091.730494913156,2970.296600820756,-774.0178190458047,1125.2189818406775,8964.9663780582,20576.875649089478,30965.05907436309,29183.30507388117,17855.683705102492,121.3952921283005,-14396.99413283097,-17838.83740270518,-16217.339916390845,-13539.013078085807,-8557.190863824419,-4547.636832647155,-1739.7817016202105,-597.7023342698864,-143.9356679765621,-82.58569122618727,-90.30005651771529,-191.40865905639424,-1331.79690686906,-7405.327519712196,-17756.96868493913,-23264.873735437282,-22314.695897463556,-20038.492356234616,-20640.554784962333,-21989.680576824983,-16607.076039901276,-6138.343593022681,5904.930676649208,17073.774059847867,20036.584596872028,13838.646939162849,669.3699006149305,-12703.427028085509,-21540.930301399283,-21555.85437083374,-18588.490928141164,-14670.194773733387,-8733.898146655854,-4779.6660577669145,-1721.6174623711556,-334.7946835679559,-115.2230439233648,-76.13863334382813,-103.19275046545472,-279.5457337213498,-1648.955763930349,-8548.011915046409,-18905.057977051027,-28514.291419887584,-35112.062392603475,-40103.55071340037,-44356.05285195265,-39705.88604652983,-27216.814727473582,-13568.894915591274,727.8090073523196,9341.037093851803,7923.181058573593,493.8398488878333,-10573.816277274665,-20224.779614087223,-24033.485623901986,-20994.139491563958,-18133.516462639254,-13505.147630910136,-7551.732867418489,-3528.609020504222,-1270.8732653948541,-295.2213240654468,-93.0569732629087,-76.33105472018056,-98.69805377833815,-259.26245965771096,-1728.4296930807402,-8162.976425797328,-18269.92828993965,-30355.693928460947,-41718.01994875019,-49728.36208532221,-53887.15630143645,-46950.83069570338,-33604.86649739447,-18627.117947994004,-5294.638085339747,-284.7345212006792,-4225.602008511479,-10929.852343654855,-17684.67819953671,-22722.87372881237,-21536.7713353659,-18335.182615103884,-14636.429914621312,-9618.009051402041,-4730.640035801226,-1899.5347221474753,-650.5123382279551,-192.0532321371473,-79.04470361220477,-77.87870551469604,-77.40545748733916,-234.32993578894366,-1330.222907199137,-5956.022740677098,-15208.612398205945,-28634.678753110926,-40990.945274569836,-49044.082098071405,-51796.48591616488,-47926.800249750086,-37789.690073277874,-26700.48830932794,-18360.170789484182,-17425.432371447183,-20193.607729172152,-21591.355794947227,-21473.96504395078,-20815.19533407595,-16171.931696896738,-11688.463668881926,-7419.160479319872,-4024.0891160200267,-1873.8898635927146,-745.8542920169988,-448.9077388516304,-141.2386913593846,-77.76854493782255,-76.03403177638538,-76.2749314289658,-233.815454197048,-805.716536648695,-3072.910398670722,-10087.392069483105,-21300.867596754008,-32794.765229883546,-40260.167865558586,-45344.962640986916,-46922.39800098309,-47412.13016878291,-44470.09310369171,-41853.13596776568,-39901.4586372978,-35701.77295670563,-27330.171121703646,-18767.177479983795,-11668.83738653879,-5656.552261947075,-2138.508298189288,-39.338766058105755,-115.75736994756804,-282.9388048776303,-205.06620116376513,-221.50544914870878,-92.40869566599225,-77.9454884204296,-76.93549059463842,-77.29146376703866,-106.74875562565427,-298.4297817943669,-1040.4239944346145,-3783.598060978714,-9662.782478931804,-16225.234042261607,-21976.367976097124,-27785.355354076142,-31259.688176583346,-34522.76767113424,-38067.060969693186,-39099.48096913967,-36652.12342381115,-29876.38602343769,-16178.1102300652,-4357.677129186992,3497.6489623666175,5990.807002176262,5926.083633920481,4361.841368631551,2407.0766059527837,955.596047000642,129.3879596261825,-131.7259271247118,-106.22296838309165,-76.8134683473285,-77.23721592261373,-76.96547063716673,-67.79789792394286,-166.6981970050434,16.090086744960722,286.37963913927103,-163.3777104262849,222.21643361616213,-891.9304495176754,-2712.4045399056167,-4266.206729125178,-5656.303038959654,-7257.339663590847,-8930.208160418724,-8440.980098853224,-3491.431672529185,4561.197164311558,11336.669331684627,13774.892869719473,11664.839453184692,8794.54024813892,5353.487807508857,2800.444517871605,1193.007183172264,24.81865857462046,-76.25525789209647,-90.1665125107721,-76.6118577951722,-77.37852482452726,-77.54219170989549,-71.6869699795762,-104.10502187201547,184.61420811379224,1210.7991789972334,2298.1686940670143,3905.275220378807,5800.148162947845,7191.651929445931,8294.201960136123,8834.20701953938,9799.150308366163,10008.021776687907,9301.610089229272,9415.152123261965,12030.132202360126,13138.873208181485,11843.729010133136,8633.067547902203,6015.31335173418,3145.364299368282,1227.11519053198,448.89339436204557,-98.5827985440478,-76.61182105736734,-90.33541304758597,-77.23403569938563,-75.91904994094861,-76.04268802837854,-76.00411316930533,-71.14552401540357,177.1483121838235,366.72040822459644,418.26112415813816,-22.407567917493434,-325.48504725460026,-318.8339214737845,-420.20587308116404,-148.51124170843744,708.2207351695954,1513.671442826186,2161.4258836957465,1719.4314902076158,2731.8003615887997,2983.2120596849986,2696.919507492124,2092.1640588778555,1712.918714289248,634.746697935526,59.27547728632645,-34.44515129243083,-76.49499171202285,-77.77582623327508,-76.21116740484459,-77.67758117545984,-77.8060171369622,-77.43048469331134,-77.74548207608555,-76.90568194329865,-76.12205339083467,-81.2673923573193,-83.64908335885256,-114.65968921910404,-215.92347558121872,-270.64672150350947,-361.8710251840834,-511.7167440711302,-610.0976872153193,-766.2786347500426,-665.3846553773428,-592.6132527481828,-355.3704010597411,-335.7940032423486,-324.21925754927344,-99.58086216980375,22.591767996837056,-18.29223229234197,8.706072794951638,-57.81356175105748,-75.90703361854892,-76.78298575129216,-77.1544935616505,-77.09855124428674~,27.225136787908287,25.970374495291512,27.12996715217516,27.038207222384887,25.714100167631205,25.89004794175005,27.1563200081178,25.93470912884518,27.380221541339328,27.12220445601083,26.464216500813603,26.408629592238466,25.297258163853765,31.104619334791966,33.380112391678765,25.833315795238175,26.846778574037042,26.742160537095632,26.981256615603147,25.87229148990158,27.29642790627739,26.727087112833313,26.252256747868596,27.034066866760416,27.322607336345886,27.025247277275188,26.176308402936765,25.465949609027593,26.82673638075359,25.860730120660673,27.270418329461467,27.377596792877657,26.312502172760844,23.797844294852485,-7.386563446120756,-43.65683491320696,-49.64491534416708,-67.60534754495147,-172.91847731306697,-198.52252789965888,-199.4082017779921,-143.28099537756765,-96.43589722596404,-105.2800588497738,-55.94536143775233,-66.6841090065336,-68.85712837234044,-44.32099446428265,-32.47530074593173,-8.022098807711606,7.163576340583558,20.97857740503238,25.637652131518845,27.275217059153267,27.240224163823054,25.4107061253946,26.247172156001096,26.52284707203268,26.3050349939292,25.358817109646477,18.27301772947099,20.90057581882465,-44.026863768515994,-162.38644828326647,-208.27676424704111,-317.80630337580965,-666.7776656598645,-812.3384906793542,-1130.915287736174,-1514.5220172045651,-1877.9802639363297,-2110.67369882312,-2329.4129547083076,-2306.5706796460304,-2126.324420795286,-1694.7663891521834,-1065.9224923438012,-603.401041800924,-329.7600557056345,-104.73259846569759,-4.21455912822698,24.41338624827211,25.62225275478897,25.713848395374914,25.522306165525666,26.887654673189214,22.400007686382775,22.71188114025697,26.339014553775097,144.81069227009755,165.00132166185975,229.49792307963423,488.90387061778335,992.0295547893129,1606.1933991353235,3119.161389939464,4386.120720571352,4306.631245576497,4119.024728360771,3003.5902497168513,1560.662397588034,104.74526013997551,-1121.6707098734355,-1380.2146465830517,-1103.4603691899974,-927.3037432786786,-581.9368331581774,-283.96086670164135,-133.76826060898534,16.042669908497857,30.636499517329725,25.850495718437724,26.242911283497303,26.869665482880784,19.262074091398976,42.617603149028135,238.72414023272336,1009.5334094602456,2063.210673509265,3990.347845765131,6942.412367741457,10411.481041402523,14125.366143646834,17755.086069073383,18453.855233934963,16668.182638988463,12135.591999017272,7779.633205115016,4035.383422157362,854.9995772501213,-432.03411897915186,-1415.2700667649215,-1782.8434107301969,-1341.2313178041695,-415.054392674778,-332.86319635765767,-32.38654584904754,36.84782948549068,19.913433097215457,17.432814187679778,26.53426166425074,26.80715725164892,21.043999593325857,231.07400514868857,1273.2473242288618,3863.0884237234995,7969.922790810014,13127.311358568653,19835.678669919376,26603.21179590552,31212.06953748511,31966.175945795065,27642.5077992868,22402.121949588523,15972.080608488406,9712.79082545073,4327.326854883022,-510.092955249858,-2141.2362507188477,-1707.799432228732,-436.1059978011135,-765.797765196104,-782.7730105214214,-518.016716005152,-306.13068196278385,-71.62196482019766,-14.681973002463957,24.247348784750912,26.236525082590088,26.73196251077011,58.07888315750997,741.7887274473612,3005.4441086983416,7345.246391204908,13861.711581534319,20879.984172183962,27935.442660447545,32479.97468251312,32003.132631580145,25341.48214409428,16486.41225933387,7610.225979346162,1177.0843571796602,-1820.515172637381,-1813.072237232305,-1534.9025863945867,-678.1324147655997,-571.609971960435,366.890330978102,-224.2395702101758,-1516.657430175422,-1870.680978437784,-870.0495270263106,-289.7236198897447,61.80310655171338,32.88324118698637,25.92099281344206,67.40704332406143,12.811726134336944,1078.9703029887235,4587.6683305081115,9483.272674219625,15326.397329464658,19903.72141078907,21401.533345916214,19051.53867022539,12001.725693464236,2881.0951383297684,-7487.008585696023,-15670.391807499587,-18289.628718048778,-15658.56995302895,-8099.16010262574,-886.4355848995854,1675.9426884461577,3392.4284116559334,2580.903872040899,-316.35998388760083,-2958.8310249753945,-4324.749880956245,-2544.127365316373,-405.6738250056134,54.83420907054176,25.604268462795005,23.551504246934414,64.896962979571,-52.67049667622605,1250.9560566526998,4882.035508748797,8337.83601523246,10592.29541342677,9263.460679386044,4555.536318290769,-2879.835471841457,-12649.27428022315,-21798.475438293844,-28322.002436476923,-29323.3112596997,-23326.560444749706,-13361.84348556632,-1396.2468111999285,8900.94452850355,11658.118372380837,8297.911111430425,3674.463793884373,-1948.6716216778686,-6526.023233065423,-7725.854237656492,-4124.322064042299,-909.8744822348064,-170.83965083233443,0.46706971414353216,30.239944210883582,53.025092213380816,-31.09398424302039,985.9694795009593,3452.142977035456,4449.403594056513,2557.21502199589,-3897.3442000082123,-13937.52350291293,-24956.795111164167,-34668.41460543203,-39344.663774376284,-37383.17814360035,-27345.68549535465,-13474.083135523495,1516.9329906795017,13763.793752460619,20815.74130723125,18455.011999053757,9522.703205155858,372.8497911516276,-7468.680152138368,-11328.954683959551,-10587.107525986892,-5215.9331254266135,-1040.8153555779008,-229.6578210075703,26.945795697475912,28.037324416792394,-58.50825675003931,-133.3475703760631,828.7308402818293,1364.488387484196,-108.5108787047134,-6029.453732285059,-16319.321007001454,-28318.671983928085,-39168.19030576557,-46109.97024437203,-44521.08763640334,-33348.875765660276,-16269.703389469525,1575.0144512896998,15945.184243408208,25363.31129237545,27561.10544143501,17748.525298079046,4075.829773057017,-8168.950452318905,-15771.852391212627,-16645.521321046275,-11784.378376618148,-4846.620936648937,-982.1674606216972,-150.74607495614018,-4.505755958176992,27.423107125319124,-73.80297969468339,-163.17347470782136,475.96610265436925,-250.22713928616176,-3881.5425026513844,-11565.157783910494,-23074.067103884696,-34148.70078504675,-41493.895680122936,-41443.19409409967,-32695.728802654296,-20268.8488683575,-5081.378934277477,10051.345920570333,21741.4100917621,27136.1885081709,23080.37654820751,8291.53542368066,-6568.329739780553,-18263.49136483382,-21917.62777458079,-18668.24300409789,-11647.55963239874,-4514.452826533645,-730.6921792093532,-164.0580138109511,16.302081849617288,26.396861408662577,4.7136793092164,-114.100133117387,-270.09897022399815,-1365.7761823991245,-5514.856070336112,-12832.404870924502,-21726.940264528876,-28563.196913358766,-29501.59498530891,-22042.45600964777,-12431.459931813986,-4764.058225222194,3575.845882416713,12142.733355161465,15740.372823435915,17167.823929085032,11572.41297514472,168.61979519169935,-12085.81005547179,-19999.03974524356,-21516.29094015601,-17005.14640081003,-10541.240158035254,-3632.142530886462,-305.93981784805936,-25.977369166453656,11.700015359077296,25.371525569535837,21.956890568196332,-45.524122932194764,-338.77505881733265,-1406.1024425188723,-5209.342269754386,-10077.424197634782,-14612.178046077406,-16009.188561177583,-11453.644266712485,-1251.9784707499568,5568.034220558798,7429.466258135356,5561.6737816029645,2133.4290354166938,-682.3318007777773,5054.453192356966,8273.640722962204,3545.3267110191587,-3443.876095243059,-9905.34595989226,-13705.501036736709,-13192.200924514857,-8880.497802789108,-3063.45846752795,-101.02605296949898,104.18973708911078,49.61034457780275,25.64842294146595,51.2756140863281,-32.20498237094058,-119.84602478608282,-634.2040944649834,-3012.216458264716,-4706.081173377232,-5446.321627816851,-3886.5937065708904,1950.8804999398012,10399.974043414533,13980.984274033668,10096.709226673496,-2802.5812470017468,-10795.212465636754,-8843.03525376584,5033.587445424163,16204.762403304863,19553.89594072208,15703.153991695383,6539.007459777154,-2662.277443146699,-7386.214188635871,-6045.132926237114,-2460.8324928766265,-32.801584177814064,196.68008084064726,31.146583327739048,26.48201519019086,64.60724409798279,162.49957889824242,584.8488602582124,856.0287591064863,848.4546390663144,1722.4117708795764,1647.6042764516035,2209.7694144560323,4018.661593913039,7888.155341551713,7937.695369820631,-1400.9390076687594,-12648.460756139873,-15041.608784299522,-6319.29355512017,10635.005607744833,26194.949128255284,32802.71360339748,29827.6577458337,18762.803390519748,6130.9262432073465,-1334.4750904639006,-3426.1833344060406,-1374.7477400836385,249.85285804958707,318.8776697744784,54.20280498180973,27.093898875232636,53.11608889866732,472.20003309578806,1540.2414886674017,3217.8222675888674,4893.032021838229,6985.723612017805,5756.016439995261,1227.6490258584106,-3934.4833760500724,-9744.14085027579,-15511.875551233978,-22855.79604351755,-23672.251524559008,-16041.981976046076,-2787.714395798601,13752.606670911593,28926.34102552128,36544.292413075236,31534.16202803047,21339.40607309118,10943.147682613178,2588.2889037681243,-1053.491379725517,-279.6017262929718,632.962749233738,326.2373697227609,59.18760400726863,25.873861771015452,57.82826843510965,662.3120735742123,3152.069337244054,6607.261128795899,8541.255510346376,8804.013345120089,5213.320654606089,-4755.055479153616,-19662.981112534042,-31033.419664704325,-37557.45366075766,-36495.51713301192,-26324.853264326946,-14017.457012068948,-1074.4447513600314,11767.247739658354,24271.09109584217,28848.253338851675,25778.625943742438,18091.018148803523,11484.91431097758,4882.286600048734,1262.4964108039635,468.48310687207277,915.4288983649529,290.68423978548213,36.4587932031761,17.94776253266078,51.49970323390499,832.708033833438,5331.606139707027,10698.466299203756,12736.810317045716,11084.154903094395,3159.326014502543,-12413.756727355925,-29863.276154738604,-40874.99453807753,-41940.02374613468,-31904.92491271653,-18976.540951571333,-10687.309185967943,-2106.6437101361425,9007.793679233266,18884.878709981924,21617.0189406159,21134.570625360204,16600.470180604738,12697.548417569004,6787.5479942831935,3013.0875371687775,1529.2541334893776,1041.034456730361,179.59024338426937,48.557622294435404,25.845082696767346,46.77544282705196,1251.1396743935297,7307.839585405514,14376.12016624915,17272.30286212531,14761.89008338363,4200.390347737742,-12653.577631363347,-28377.92003027171,-35193.41818755696,-30975.32079976033,-21004.34539491215,-11979.584338986784,-7635.003128139461,-2029.805836931209,7790.479253253962,17186.360765438178,19772.594621219992,19647.14646662579,16496.912024181634,12573.634145796503,6564.004286257532,3078.7549239739838,1836.029427782604,1020.4721864118357,219.15090050817616,40.07655832031131,26.786507342867605,57.18714854450482,1301.2462664314771,8092.52440221894,16237.84079363753,20291.344436943637,18241.414172337216,9640.491326939447,-3041.748728023545,-14856.822554430826,-20383.277269463288,-16681.65312765162,-12034.924767296,-7870.597323397222,-4034.690493730226,1596.5418649137555,9781.222457638929,17069.529209386445,18433.788775583525,16313.80848000734,14159.797549079265,9362.17546354766,4719.228448894932,2482.16123131054,1600.4113112444036,657.817370958391,168.77683033817115,24.381823083580347,26.7438085744548,51.78758779958664,1071.5464025288468,6501.424440052862,14158.194511439766,19035.26692219571,19461.569687820807,15237.65254659028,8308.607990053262,-1078.2671157186724,-6742.376831831585,-8196.1258012395,-7980.246151876842,-6441.500761210872,-1624.0559995981982,5366.987031773247,10775.484987427742,13548.026398667238,12377.987638294639,10996.1701835444,7837.538595682497,4889.457296900849,2244.825642694889,1513.3031852187723,1027.244706629629,421.0538014141468,87.37350273636805,25.103787601303456,25.61724976680063,28.2695789164911,825.2757034518278,4075.8356508979855,10076.366810309031,14267.465852487403,16859.791184884016,16568.94204354071,13012.722809637327,8341.296018025656,2664.565819752842,-2439.473860584077,-5444.1237554552845,-4934.008787053932,-1807.878677951574,3679.5925756002252,5580.851198326127,4675.410414833376,3626.226871700777,3195.1688895814077,1914.3491077414762,1246.2215391594777,937.0432110097381,740.6610901399681,430.93123920455645,122.53252711498779,40.00985508047862,25.870573984960007,27.01717293598036,25.455566559396903,368.19846450710406,1814.202576915354,5494.152763472203,8927.485843512275,11717.090984616529,13243.69917867317,11203.676060706644,8151.408489318863,3129.794510541487,-3391.609048808215,-8521.44942323974,-9583.821119838432,-7666.35830161204,-4876.0064079608455,-4803.775691718778,-4249.437219878212,-2845.548635120227,-2315.1969142328835,-1841.3359153115287,-898.0447763533867,-386.4125412528242,-188.22664337089597,-35.878592876279455,19.047571634949477,29.06887032638534,26.539305153116576,26.419252537012365,26.30441801872775,140.19941316384742,700.4466285041291,2137.937108963707,3978.2309458752798,6049.598740473938,7342.0829078289635,7132.318285409207,5798.352345748427,2618.453388259461,-646.0756918613927,-4190.584768737924,-5520.0337827459,-5160.656347471752,-5264.046631082256,-6025.182640355643,-6505.004813854274,-6977.614614751174,-5589.094972362794,-3745.554902149004,-2027.6555066917924,-955.6830174417305,-419.33418652360956,-54.80603081198592,30.921431473489637,28.10953002187414,26.58369339285961,26.509436338175735,27.25011876657575,35.21590277754978,73.31476581538195,268.7142427047647,487.34570222222504,865.2390715448265,1035.8350827751603,1031.328922418406,467.49725566393516,-443.4601897472984,-1438.052755466805,-2557.2900682576924,-3489.1118668753734,-4075.7194467638114,-4942.354431838965,-6370.111503400085,-7340.823206960198,-6823.282813243335,-5235.770847229304,-3535.27185906378,-1983.5955300402948,-772.0460896764131,-258.6686214781979,-14.310691106893417,25.425450203961283,27.840619135225072,27.181846328752197,26.99076324505241,26.801444231698884,25.70167903861115,26.054849288077566,36.69713508855077,54.08556452156461,53.465076848406994,151.91311359346403,-3.4617220074017974,-392.20159297242947,-761.4853165378328,-1218.8534322722846,-1756.2304028113288,-2075.925079461966,-2368.8669592408173,-2104.770973064689,-2286.276355434142,-2181.2161132439282,-1998.3373482426714,-1754.1314800556697,-1312.7483028616837,-548.1427717240871,-99.41639682461177,1.532415457830034,23.479481980271785,25.847764459448374,25.450936172060782,25.470138655641154,26.563720205917466,25.52247664541655,27.135258761876326,26.922259496179716,26.646707698625182,26.57828217992273,23.83687842596622,7.330733995701045,-0.8572892415388612,-14.141613258315553,3.352019803207337,81.80064620035952,89.23026338220215,92.7614634978818,-0.6334213772970275,31.225185241062547,-7.514446593786564,15.615236787537308,-6.853500162631028,-43.957804111170134,-35.345560577674526,1.6830288516672511,25.0582239194283,28.550554311497113,25.92303830448955,26.08155570609109,27.35686910351824,26.00557281694039~,-38.46010450399482,-38.85575785497503,-38.590377361441604,-39.787731489320485,-39.90580989955519,-39.18468155721447,-38.526952529246905,-38.84795915765036,-38.871662238629845,-39.07810850234613,-39.2095405974816,-39.48721163148317,-10.640340995336919,31.940094466301776,-27.56435546232574,-38.06198452195304,-39.69559943039982,-39.3568898617112,-39.54022349775973,-39.830323386420254,-39.60581174543349,-38.35948758587042,-38.35190282830205,-39.88744805051899,-39.82073471313873,-38.83700902689291,-39.551291870663285,-39.71726085935237,-38.53710131751898,-40.09574089492806,-39.99334771997085,-40.07731447355267,-37.52897687693668,-30.501478389677597,76.35085757253356,250.77576739381678,373.0271850143266,492.40879600625004,1123.6737859936395,1322.4938539041814,1167.9612724508393,1044.004258224128,850.5866625076721,885.1318828506314,954.5173949800618,841.0394769577811,579.0731900260365,402.6635514991659,317.00135608556104,152.24597023566946,77.4849537267621,8.232289895800339,-38.88938300177413,-39.95849849558633,-39.90233178340568,-38.92678510809642,-39.796470738025,-38.2868863520895,-35.98367855944321,-41.43679426293028,14.539926266029939,0.7918771426242059,338.5901933022725,966.2076148570771,1406.5443857627981,2475.9004583687943,5040.312228177918,6612.731567566239,9189.408009714825,11954.673079750131,14302.724829387984,15359.256143696575,16296.22679906808,15533.662076086694,13258.92867639851,10121.31135912416,6437.284016508454,3690.1266896420243,2018.4346174492093,683.040202920718,150.16823882555983,-20.458172451879864,-38.505421144864776,-39.1305529966695,-38.697261006030025,-38.41658065802651,-49.631934714155236,-35.243437247081346,5.790704386267915,75.14492909131353,415.7755900971983,1187.6413542068808,2056.9748309025163,3978.1729894316895,7033.4231368335495,9214.316473232051,12231.05196221396,17400.981242107107,23326.21673386256,27836.919249741837,30174.519477112444,30468.819027552618,27516.791387997007,21620.480712493463,13965.814601238706,7638.407554572326,3604.946540696899,1556.7502185999813,596.9259845816326,-46.75770693099021,-31.808952977435162,-39.69540686709542,-38.782704948257596,-38.68100793834018,-96.30960865293372,-51.33113173501452,-6.794511035237013,143.25931297724674,437.62638250685296,1165.1948222440178,2881.854883810471,5091.659684024651,8278.109307952254,10107.580406294142,14694.167176774496,19455.850494148846,22233.607999156906,24271.196681910787,27509.637508309377,28233.610932264728,25142.9877456256,19279.124247028158,11875.925817056144,5355.071907531414,1518.763154982074,-476.97437941741657,-890.430905130719,-477.4547698899721,-84.51679527319926,-24.892171192869146,-39.71250494631686,-39.595480963327,-2.48199267387404,-84.84660333236394,-50.500177060499205,-73.87848252115232,208.06594619025333,1633.9198840313122,3695.512137731854,5708.395418219514,8025.5426140513055,8515.015181012079,12060.611461837656,13571.901689650862,14389.389425187817,13887.348013684517,12308.51952684151,8915.633776385017,3953.60316499022,-1043.6706748648405,-5195.468482060389,-7726.154306823395,-8670.240143496667,-6944.786243258624,-4149.125583342342,-1565.3224472076542,-310.3462419267019,-22.896158611915187,-38.50233217896001,-39.22154424142027,-3.785698609166941,-143.30066885770142,-149.7771166527529,-157.355314193638,522.1639817058689,2446.243390565796,3764.0386214363284,3851.7727664878043,1836.3971826824388,989.7005503210133,1788.5183987938783,-1824.794886046962,-5660.003802882066,-9644.89521830844,-14144.265015688652,-19420.007932036388,-23389.128142216952,-25785.640957084048,-25564.193397073974,-23297.232264983366,-20535.26625858449,-15808.219793994032,-8753.824793066477,-3507.7522085294236,-781.4064691257456,-48.42289690376133,-39.77106168218746,-21.350947704713565,37.230113161282986,-65.46607316919558,182.63958920144415,203.13310685764606,1001.462979547909,2566.1676609319725,2047.8343067904627,-1297.2365444120285,-6710.03028071473,-9129.55674635836,-11463.58682516379,-14072.039945939585,-17046.863541302842,-21920.229701455366,-29595.879259608428,-35165.79818204756,-36935.13707045329,-36518.46141324837,-34603.6348473666,-31823.4288094012,-27343.45308975662,-21457.939918584707,-12403.636773354989,-5035.087531257085,-910.2000973417884,-103.00785107827312,-34.85603019463135,24.224215392604354,144.26044496250842,336.9234178245057,561.2237731643488,417.00476446605444,346.6475573221178,819.6295057412752,-2427.5375363148523,-9962.791287700898,-16716.68887357026,-17788.289480418538,-16223.9887603127,-10964.880379983044,-9384.222345498485,-14938.911325235837,-25119.64554671158,-31800.994094727765,-36616.28189101709,-37753.472307293254,-37340.8354899209,-35311.17244385772,-30716.412946930977,-23626.294577475073,-14798.234481119658,-6140.319849328005,-1156.9426232852222,-104.59430394413252,-32.94135748302524,32.548806567362895,266.19638596613055,628.3044952444625,800.5794585266741,-301.0591764761694,-1729.9225754787965,-2992.3640996545714,-9590.578067238457,-20298.218071737214,-24772.826659345596,-22128.069369220826,-9992.630321832874,192.95603301142353,2959.7375095742345,-4847.367532858921,-16209.00362749542,-25755.92778579267,-32884.916563077444,-36577.61639493384,-37793.1844928222,-34971.228825095845,-29770.93962196684,-21318.32388616386,-13455.5743146968,-6069.858893078865,-1322.715708304392,-150.24044342267388,-31.467353313685866,45.315065722137255,308.56894842189774,743.3202027720633,-33.52783168931946,-1973.239625166966,-4615.484136959427,-9261.368736183102,-17676.285707778552,-27065.444946400574,-27842.46856755636,-20299.601066206564,-7470.091124889132,3188.5669053616284,2510.7708248552126,-5527.599101340461,-14141.753956143786,-21097.287799937112,-28060.32522578839,-33210.26553823853,-32165.028511053893,-27763.508190195458,-21473.4215562026,-13970.203556801767,-9167.067804073185,-4471.121969178269,-1086.5269463534742,-81.53317194918803,-37.05359393530181,42.05519047327542,313.5187582246272,359.52874562116676,-896.0708432707738,-4238.2617595214715,-8368.881887201525,-14229.99303439233,-22317.600781396053,-27673.203278061614,-26295.835988694955,-19543.96525318098,-10387.743879684596,-5049.232595382221,-6634.7422795002385,-11029.61195035657,-13507.746709714396,-17162.295514769045,-20046.90377004147,-21629.972134466894,-18156.864235430956,-12250.579564187583,-8332.699494029872,-4368.306815471526,-3496.756371875989,-1857.1181669433108,-620.4987328259904,-32.64547132332641,-40.70619342356959,13.479796441240799,166.19719460693375,-58.52619214142522,-2135.0955784643297,-6387.856875873576,-10938.779618674645,-15797.465238949331,-20924.11831388571,-22201.577960824725,-20186.892525011037,-16774.432028423817,-16639.99008039634,-18261.0917981209,-15598.099195741992,-13168.913348224329,-11570.425628911718,-11091.636136553592,-8691.822030581168,-3891.2267676697584,1835.769325964276,6198.993686792167,6047.821275702171,4430.5004344605595,1736.1944404847045,-118.93176296902372,-324.2322423146455,-29.47013992879315,-38.70525075727119,-20.506138444542103,41.570206471504385,-356.4786773931383,-3250.949110660207,-7959.501767064463,-11058.971184518683,-13449.12280447025,-13741.655758931247,-12035.310103940505,-10081.777953809016,-14094.105778623387,-23765.39140284712,-25226.03029454043,-15830.292008816745,-6721.071792035205,-4223.478458895664,-3584.0254945225065,1409.3480163640215,10877.376652757453,16098.9996485694,19331.00766495088,17322.409292695513,11539.076098842925,5254.801029411492,558.2478542293452,-301.2318610815108,-73.26777636840015,-38.091968863180874,-32.45201367385997,-17.59259000918184,-517.1726150838529,-4211.557445054097,-8567.303981390225,-8881.02706052462,-6213.424085188757,-1757.2616370722205,2660.436928335477,1252.8654705054294,-9733.763795260898,-22582.400239925177,-18909.551546776285,-3908.828351458562,6294.823637626266,5609.04136935545,-471.5083420904251,4499.39950383306,15765.02857925436,21545.612341096014,24814.284672921185,23001.4775045857,13881.600166546225,6187.55391668616,1174.0292799111185,-286.933688472941,-44.994086847926994,-38.686795831006954,-42.792445753321935,-33.83527851283607,-702.9983646168417,-4456.029111049781,-7746.909963666497,-4990.903866537413,1663.4730914700076,9105.667512833183,15292.09400689875,10741.61921168834,-2227.954541690998,-11697.113895409932,-1706.8348197875982,14018.723551842906,14704.493704456841,1863.4576958396565,-6049.856280283232,584.985765259812,12628.371396382076,21758.440541979042,27229.340696533967,21889.41388753383,13505.390413524305,6225.759425085377,1527.6861554028906,-452.5906179800081,-98.69525429856446,-38.40604939109594,-43.84660172270341,-51.00820169282436,-712.1432517786714,-3590.6515360082685,-6369.98815246328,-2773.0967430827195,6503.5762013457725,16736.944690242748,24605.20273227173,21589.29921906357,10667.415663297375,3453.405323896682,14766.5631608808,20594.783887418947,6532.579325825163,-11792.325632027188,-15138.015449242841,-1962.5230883182799,13368.320500382737,22858.49906589537,25342.876304091424,18943.137168235527,10489.1792685338,4531.951205099727,1100.9010760902484,-328.61253348154025,-74.71010898212367,-39.55483606406701,-48.40587771230172,-79.96689201502427,-479.162403823295,-2792.9299694836654,-5891.216675590298,-4331.650080044843,5451.544032532109,19149.374885360834,29335.64925227044,34039.565050000965,27737.197402200098,22757.82863578994,26533.63231313468,18478.654585144406,-1966.407761817207,-16923.08482339626,-10266.671017502968,8876.596315630703,23198.994392424152,26989.712775858425,23971.523500871626,15464.236529879481,7453.006873580523,2140.4295007336677,496.53636462161546,-416.5961617638113,-72.99586951082937,-37.066116302652354,-51.281103731558645,-77.85081283593314,-225.6482464236198,-2016.676159093845,-5887.865988561749,-6680.527528976066,1640.3215856369386,14960.552329236545,30277.54971139697,42468.1279379227,44180.029752699724,40532.57513911978,33219.76184260153,17456.71642470406,2657.4457835514604,458.77683272547046,11983.048557381884,26392.461011407737,30254.693839311694,25782.35070773357,18737.582993109132,9672.350836382266,4304.592348932055,1050.183952811202,225.04277920617005,-324.2266207910202,-109.23393061737906,-38.32447527203396,-55.773976918731265,-92.2741457482192,-48.88938363162381,-1185.9406443207845,-5090.095846299979,-7625.58056473531,-4174.724527127677,6540.909994872529,23684.62361980204,42502.888326726694,52753.016202124076,51013.08774583809,40881.974865442746,29197.449744206344,23546.22563235581,25564.867866564386,30360.18730922344,31261.804646418346,25805.498582278637,17838.745254260695,10173.30870856062,4900.602375819713,1651.8865443277061,775.5584591499772,52.74684419711239,-220.60321425497145,-81.1675573534255,-39.99716437719905,-69.57327697413581,-68.16976643528827,374.24045318780344,262.1397375939486,-3233.565260585766,-8046.815461208916,-9545.896582936817,-4617.308882036412,8386.475420138282,27497.79132893187,42358.704666568665,48020.227430926185,45753.22323403571,41294.71373081624,36601.07792184514,32905.35566403926,26136.60834389612,19287.638682449673,10135.784544419539,5074.874603432909,2066.8424827949607,509.53517824915224,1397.664230375268,1396.4869605942963,290.21156451465674,-43.63828024777588,-39.572290474597274,-38.34872926621497,-34.91635536128018,53.396297595330125,759.5453154373256,1279.194447895565,-264.6669946657939,-4977.563998294061,-10477.154374239515,-11978.129720184299,-8271.29216210291,1151.573892328279,12925.757102234022,21964.888039755275,26622.451313257083,24768.137180282927,17836.811962438984,9659.051815501603,1333.6528217057821,-4576.594604983086,-5721.14823995737,-4343.879742055018,-2716.3403564516643,-237.01800012559886,1485.826420734261,1517.3760979446336,434.2016061401411,28.01491648224438,-37.760503691148166,-38.77621579193052,-39.86359934775529,93.41882237086405,647.2871143297918,1569.4943832962492,1978.1218421435156,22.804219281962908,-4436.116538012089,-11064.90218475406,-18378.24925501397,-24966.80044053798,-31005.154032921837,-32076.960526327057,-31319.59221205195,-27847.727594268283,-25337.356167037266,-25306.47202237932,-23789.068527974814,-18737.88088513784,-12230.2966950726,-6509.084912995775,-2573.548046446977,-433.40541047763,373.05889848137866,568.7931818723383,72.08302828122123,-39.32489487498943,-38.51491436762429,-38.66323653662683,-39.733557355757746,15.09687295033499,206.408983103951,1142.2446788746834,2010.2716564599064,1499.7354983489852,-1074.2523574547977,-6794.165350037643,-14872.989747487669,-25431.124645933887,-35799.14445596638,-42699.55844218094,-44479.183500988685,-41334.79611987327,-35743.24784457607,-30739.207833834604,-24708.63196897727,-17271.768611132495,-10807.499915259092,-6176.305621688473,-2878.725496977298,-1179.6575606801441,-520.6460074238081,-208.04514679354347,-69.41822905521114,-49.96669946365607,-40.139629704181395,-39.02398458921805,-39.94013862373226,-19.203013932528687,29.10428932724235,257.63418958325235,417.51861330094226,-363.2339562368348,-2427.2562184081985,-5941.139931945407,-10822.85061879936,-16455.96045896852,-21656.493860006725,-25253.40758711667,-26245.24684649204,-24020.828029528173,-20872.992299679376,-18278.310640299376,-15021.577548925166,-11844.520705243716,-8211.75053817874,-5035.921018009246,-2615.9733962445243,-1404.0511941581235,-695.6663593034388,-97.98929853563219,-5.738857170533668,-32.82916427726564,-39.802410871796134,-38.45605564366509,-40.056419448754845,-40.58221709888847,-34.736116886008915,-58.37250167814214,-253.41603497154833,-579.8105543373126,-1028.55787258775,-1760.8010130207083,-3178.5819557498867,-4796.792529536698,-6435.365950214437,-7780.807729419279,-8361.255527519741,-7593.535580808731,-7361.032432494826,-7510.800647798466,-7046.428273837617,-5851.857321737966,-4129.562006417027,-2607.2511410832426,-1390.5856682578901,-686.2660502862308,-378.9738705720376,-69.70914449122667,-39.440270930049124,-32.74838101161756,-38.22284071375021,-39.99853843890816,-38.39978305735843,-39.60956627522902,-41.05249097072565,-94.06051638505296,-112.26930651991333,-47.31689916455894,220.93757340464938,489.771461696589,602.9646580606126,703.3669845136327,581.8794168146119,124.13246987268863,-171.33848250285624,-221.78964739431643,-244.39579843857237,-704.8057131347574,-937.2579829212802,-913.555079214171,-791.2914109749745,-759.4227128934624,-300.5623683673229,-40.04550689454277,-39.832472842875255,-39.78508866741439,-39.75518862183812,-38.187923724467105,-39.44949583898198,-39.7697898276817,-39.390218878360805,-39.90145070835141,-39.85919443767306,-40.38613362376589,-34.06289070167314,-24.551257672023812,-3.9323091170341353,42.098882125386346,88.06345200279904,160.4918143304707,220.62413389807145,291.268893628381,443.080079323854,498.21008401701295,406.46794414944503,323.3376300527236,230.63912338037073,136.5766665529588,13.891477052092624,-35.74715618038929,-28.634746657951855,-24.55317329311772,-36.4985559633083,-38.841566544492856,-39.20172255565101,-39.18959148327763,-39.31034094112828~,-21.072267752486514,-20.315022288206844,-19.936088978541118,-20.67357334521269,-20.148736329938547,-21.592270130438553,-21.794729144953624,-20.294554534170455,-21.133087063737268,-20.74700285760341,-20.249046719990073,-20.72541459595094,-26.28836388391448,-42.30585095868397,-31.968346637055898,-20.866408990387217,-21.433445133946396,-20.512722864214734,-21.434526951944658,-20.840828227007695,-20.3446183789581,-21.01236545353345,-21.532455731649232,-20.819946809623143,-21.01187643128954,-20.957656110896014,-19.842121518642646,-21.52849252412968,-20.36091978498413,-20.304791185234134,-21.393453535444177,-19.982076982464758,-21.98698676117491,-22.76119050347029,-83.97785690884703,-158.0088564789671,-169.5774114421915,-195.6932642392153,-441.93574039296635,-470.41744722285597,-415.4238462732151,-349.9047921353378,-232.30717371441017,-251.28963280139607,-253.21241221802265,-189.48287766544854,-138.20502095456612,-107.21808316925016,-88.026617327005,-65.53530695974203,-58.627470388609815,-33.85674660759005,-20.731499579602644,-20.97561588937256,-20.37279043622502,-19.980462848964184,-20.75138796472932,-21.605547167032743,-21.856119005037538,-22.587542870881745,-28.609965143885876,-30.311761154251517,-130.99701404336938,-362.3047467602276,-462.21552706184286,-672.4244028627543,-1345.1417071414687,-1835.627337262007,-2321.678665455579,-2610.6612590944596,-2697.8938540167655,-2614.7161942981006,-2362.8855688187036,-1952.7079284543452,-1476.8324075771225,-996.6946816380912,-591.4826339116887,-348.7765465389411,-242.0259167920483,-119.47405618905819,-52.807623605391555,-29.107238721809043,-21.048257100844406,-21.17010653395295,-21.77066288703902,-21.521733179289665,-24.555857124886867,-27.040016174257985,-25.128422149148168,-58.33337144257315,-194.5924577686611,-524.450652058425,-777.2964806252664,-1437.6019975063825,-2327.937360613294,-3108.9396963578524,-4086.3437489430576,-5242.621025914059,-5623.81775841711,-5557.116550108259,-5233.020050145434,-4437.902333914687,-3207.064936259796,-1572.3096815805143,-389.3492605475683,79.5683667389187,189.04415676469193,165.94649745326626,32.43061037958252,3.12471906497624,-16.316613904378592,-21.408587260978255,-21.174933445311733,-20.47049261727209,-33.1087222283868,-30.409333847483328,39.08096807346658,4.708391952664293,-146.99203227716035,-150.9829680722516,-213.4956082738224,-1021.2345127142586,-2187.507740622776,-2993.6963479761507,-5312.63069154158,-7698.697402032156,-8818.111258929897,-8718.30090843107,-7395.316772008942,-5052.787505051459,-1773.8259088451678,1448.9835973730842,3956.294439804634,5032.328566566707,4922.625888077009,3715.3967179928122,1774.2475719073525,370.8141816678677,5.462861659640217,-25.516779137215376,-21.420041522153983,-20.48496662698597,-25.458726791239076,2.2847200831823837,260.0370897979702,456.8545945726072,1052.825384271372,1868.2272100343262,3065.9808003083567,4332.731163136615,4111.138203812883,3060.1671828857625,-58.773941773927206,-3563.041185569745,-5381.541239997888,-6278.86846779605,-2976.5364306969614,2469.4824972287597,8634.562182378242,13382.98187111234,16304.46035142904,16699.041007945405,15399.835663417394,11850.740418898475,5799.364767911283,1307.3185766209772,108.0315548338826,-15.888580672191274,-20.263489431736826,-20.11478665441845,-45.610394094320554,-110.02275729598078,329.70168334610725,732.2268080542699,1552.1754594444997,3357.6503043577522,4915.157417872404,6893.548578306476,6513.278435602728,2319.3912797528965,-5485.483693984192,-15339.399553712794,-23114.965758026803,-26340.775210055624,-20770.602927760665,-9151.178799986834,3115.1954362680526,14428.093227130767,19860.087066794655,22720.803254374092,22397.576215894824,17968.635456293654,9289.113954382543,2692.363780859439,505.4654919008903,-7.937983100336915,-20.621085063241356,-14.846681724133088,-107.63293263808744,-289.4524778303486,-229.90917773402666,-1.874240497593573,327.4258591731219,2064.7289285363468,3349.8672846186414,3381.0120030924395,25.133691912201417,-8721.765452156105,-21519.362499050756,-34374.09625249662,-45643.684910146316,-48992.26829949008,-39945.24091689756,-23129.65507246963,-6229.839788269796,6811.450380070441,14472.53691438571,19323.51804228061,20347.56916890549,16866.37108528932,9534.287204437478,3382.126406663348,615.3274308375803,-3.739854443695772,-28.590133748609592,-73.6811396426326,-364.5707529434398,-857.9052043010997,-978.8346792758971,-1275.1797901804264,-1573.807982195823,-1299.3614881735086,-1429.5879879559932,-1887.2108781899456,-7491.175905980115,-15620.078295709787,-26975.317751540133,-37212.35007811297,-45788.53749782636,-47018.3834555641,-37518.333661843004,-21832.348461299927,-7237.774953402503,2222.927417549132,8914.734140006776,12429.6720116483,12932.059164371347,10884.297957440529,7108.842973128486,2757.499679659219,343.5982252243781,-9.742057068932118,-26.742481525991565,-93.91339938852106,-538.0501669603185,-1520.7810637010955,-2324.6923695488026,-3155.7729975176208,-4124.157668919833,-4248.433489465312,-3890.332381050286,-5025.072938811353,-8721.521428581924,-12282.995274278679,-17563.139070413796,-24013.723125272794,-31536.62470189646,-31536.067283623037,-24214.793305902618,-14105.15012768701,-5867.502329970652,-936.2805217295323,2122.6203955759142,3484.010964994424,3434.8622587970885,2975.5790405223242,2575.9552508396896,1497.8253462987045,162.74254216367487,10.340904337473837,-27.534411704037137,-158.93880741031992,-757.8523297621373,-1736.535151797334,-2615.0395700676777,-4249.164108544679,-5927.32619640955,-5593.351229038157,-4980.688548272176,-2314.564489042094,-1593.568558196213,-342.95550837858906,-937.9242657590141,-10242.678016140157,-18454.631226218826,-18399.880848836685,-13856.179325060772,-7799.695787269919,-6933.604795379806,-7456.142146187024,-7615.6323668917885,-6596.228015085007,-5619.751327505409,-3146.077375458436,-38.44255355209773,687.9700194598113,122.95183831896266,-14.106130598395602,-25.302552006992155,-270.3984838065516,-1026.5446714344096,-1597.7663274124036,-2887.4366168536453,-4598.729636976959,-5407.993229401487,-5123.871462845953,-1741.7317173765164,4306.950279458032,11068.620110116071,16393.440536890495,11823.777588024472,-1632.3293782544717,-10698.325713010983,-10155.740968312179,-5033.308525798188,-5056.094103372459,-11076.780621269812,-15224.225083678462,-15786.43930549717,-12995.425216240179,-10414.59761329833,-5948.166655463352,-1741.4050134549616,26.97394721116478,57.088506589707634,-27.9449590359504,-26.093907415926406,-188.76356029911727,-708.6797610302398,-1512.981720091051,-2740.4617157200714,-3813.8335362772327,-2849.6085879831844,-379.6998676073826,5441.551350326558,14187.031922772372,25636.564484788356,30259.889337209006,21479.026214858804,6292.2471782652965,-3851.9327126857847,-4283.50221141589,-492.64281891998013,-4159.471567046363,-12781.174128522329,-17443.74713405806,-16455.276163593622,-12932.81757724092,-9888.189549642515,-5934.474407544871,-1901.2110844701574,-124.5886741514965,-26.68480083609623,-48.00676847907721,-21.413620360515406,-86.68113750905817,-292.9523571641704,-909.3928506397903,-1390.889872444786,-888.4062905906061,2219.819850267856,6967.598201422994,12533.406274075089,22300.034090943627,35251.18480406053,36760.45096187003,25340.09493099769,9821.06369503547,-1655.5422646886345,-3644.8325664679546,917.3696753431663,-1139.9904831073222,-8595.78320338673,-10654.560301849351,-8529.625703041687,-7753.908936089529,-6448.03894353922,-4512.458446775756,-1689.900763373495,-122.94663638851,3.2671659621223164,-26.575836145974026,-19.045368394319805,-46.638187122927725,-160.45630110643916,-379.04932234720854,421.2477634617245,3298.1950882113506,9215.974596784463,13773.717287365687,16534.074703075228,22829.859593193996,31938.05567231514,33642.84953687636,24175.312674741566,8369.593851234793,-1328.4567749491298,345.4052083300245,6572.260964301983,4882.51352024905,1465.1387059107474,3801.6404558288123,3823.0219877322484,-34.643647692369086,-1762.5131873173812,-1326.0946977622625,-988.5545045289085,-247.17747580786886,-71.02523629529388,-21.15932828634083,-20.14278719541193,-15.911932662212319,-74.06224781696777,133.28243144825285,1599.974526235428,6706.970527364161,14171.0313194355,16821.612376763274,16845.978775232416,16204.108409972843,19444.144201465893,22048.21584319851,16282.63544755211,7079.888261708918,5174.389023233296,11052.552288304576,14922.273503814882,12732.192981058131,13564.052551119008,15406.745400486145,9885.443179466318,3973.0413507041494,1023.4180942035288,-292.3098690077207,-784.917199086025,-267.5140084011912,-10.393966026382008,-27.69435160146401,-20.254579427015226,-20.02907542324289,-17.54064251072963,90.37630403729662,1179.909491051675,6938.034242209832,14829.231603049568,16286.910784366877,13018.686795802108,7364.2088964519435,4326.401234504742,4409.739636713651,4433.208258862639,5080.695787442042,12351.632620400404,19302.44287360696,19071.308054843255,16717.648602349953,16709.630329197127,13525.684878159263,7638.966597277177,2792.743696229304,-182.11051151064012,-985.4769003239305,-717.6052152396503,-336.2822330660177,-160.9298612045514,-35.883242532416624,-20.13831618192749,-17.28268417767842,49.65500950918502,-249.1634852932525,327.55706420082095,4573.758042572546,10394.30972859213,12101.712413336953,7837.291523656878,-403.07248616911494,-7017.858008834021,-7880.394079233204,-4042.2490960417986,3547.412342352049,12225.167405461198,14545.248405468377,12417.761084566873,9072.51205553491,6451.63202670467,2265.9763591505384,-798.1843533363265,-2237.6766731183393,-2887.2180065486173,-1837.8813956229671,-1295.595459810209,-682.3309384762172,-164.31179707714264,-41.624667258839445,-42.29042861466815,-17.48364861076898,37.87520163098418,-218.4540856870361,-550.8909055359433,1476.041973780994,4068.0112606874795,4494.701680131706,305.8860235060904,-7431.508387413008,-14144.868657664743,-14517.083648595812,-7562.491132763247,-179.4372321634799,4134.159579789318,3781.6983812098674,1807.2483269319291,-1910.4703597215341,-5263.132167954101,-6313.484034214103,-5032.2126312903765,-4253.395483031438,-3591.5615927250565,-2328.0474865996553,-1387.3889619543202,-609.0854205888497,-51.02721706163549,-25.79216947434948,-20.570188960063845,-32.934323019192966,48.56721448056534,-8.095252189212623,-821.5019278744506,-359.44473141744015,185.45395274862733,-1614.3499891482754,-6356.2426652457025,-13017.151967184796,-17483.271412062317,-16076.608616996115,-10759.702907192443,-5423.026356813784,-3658.634596028136,-4346.262081709009,-5787.234023196934,-6227.702229485577,-7751.369452253628,-6948.881585363332,-4068.8990284172187,-2769.0418206431705,-3045.144516623452,-1798.1284017217347,-978.5542098857601,-309.45510202008893,-17.35612771335973,-21.93206494897861,-21.50209376964249,-16.985038831806676,70.39318628318615,-75.7863712865167,-1102.9278930103974,-1695.1298350679378,-1666.4438186642951,-3149.415057638925,-6930.0059544986825,-11329.40317214807,-13640.29746950097,-11467.805488530723,-9232.709903753199,-8080.903452299521,-8008.544524975416,-6686.7534080333235,-6277.142994672303,-4701.401254658218,-4181.743475642318,-2730.599870062455,-1110.2264777208302,-998.1556917229663,-1177.7442881433171,-799.1240637030683,-552.2758257607928,-189.17153157107532,-8.067742254616556,-22.119751864600467,-21.57492923753401,-20.816132137717606,24.71469014071763,-53.37796709053319,-872.1573870668458,-2187.5795115743126,-3344.0016068198115,-3612.5144547423806,-4632.476526741269,-5666.296225617446,-5688.321963767309,-4470.162890889899,-4600.021866221317,-6213.777238056645,-5461.457220474704,-2515.89879963399,-1089.309364270824,1089.8158477907004,1586.8326387288657,1897.4501132653322,1241.6514654928167,1094.0417378650313,58.35268934116112,-304.8529597157823,-265.2937628822441,-111.89602748419406,-31.92435142277003,-20.783533992307365,-21.47901974314104,-21.255760867933585,19.64333932491634,4.598518531182855,-492.99466902300856,-2163.809539906648,-3810.389673889975,-4610.476559961334,-3941.18303266216,-2480.017610859941,-1161.379603098067,10.145328167156144,36.56932099923979,475.69293745907254,1554.2315076532889,5470.923768055284,6528.637247330614,5856.097918903134,4789.77074915803,3795.127939655469,2040.1269656911377,1522.3116084023002,-20.52413163205193,-428.7106315613974,-138.46255481910262,-31.706168950636247,-9.66938993033693,-22.119289423940725,-20.618416043321954,-19.932096614786065,3.6820947022668316,64.65208247490554,-260.8187531134394,-1395.2733912052981,-2881.3052561377713,-3627.0235419877185,-3338.939833155998,-2708.3619255427657,-1708.5926779064173,-963.6910329629621,-411.1379141303913,1225.0331766151164,4007.2750461578107,6990.110243379817,5792.411402244127,3639.186873449395,2205.3989617958364,1263.1427416646134,677.2758521064095,245.62178212615598,-450.61674769721947,-457.48802961146885,-163.95204232312452,-4.6542966053399715,-17.638282115396233,-21.408164405584525,-21.20235161099391,-19.87369434590538,-6.059451598674563,21.363167224721106,-252.6450986048288,-720.7349022703107,-1255.7220607246343,-1570.16654517391,-1982.1395259496803,-3186.8377068292266,-5372.977161025986,-5584.112433868987,-6121.64373378318,-5056.454509118457,-2319.0879731961513,-1617.982919907725,-4137.362514128001,-6812.578266739681,-6369.266423968933,-5091.51071767188,-3455.6712016897545,-2012.1898093377108,-910.9119628781924,-500.65247061783515,-209.27481979178026,-31.041293399857075,-28.209017888846613,-20.116054998905593,-20.3226980411338,-21.396176311983492,-19.091260154258656,-3.496565663089237,-126.44936650542493,-583.9181344507949,-1154.660310230859,-2064.8454203250712,-4351.470073009794,-6847.777830491418,-9357.03016404967,-11986.534384418444,-14150.63435197184,-14067.164231740244,-13090.674958868376,-13238.770434542284,-14601.354098416057,-14436.135699706037,-12370.103393422229,-8931.101823478179,-5717.1786705302975,-3198.618612417001,-1108.3050821753343,-375.3617009784491,-123.54200578715789,-27.5849049136828,-28.37796001968783,-21.356710274668774,-21.149756670096895,-20.491944152198034,-21.442348777258832,-20.879122120488592,-57.26838919707395,-248.10500141467915,-553.3159834178826,-808.5276897269283,-1734.4304718752226,-2842.549068167631,-3839.6541781291253,-5139.314616532044,-6224.6775585545565,-7184.965095650201,-7597.076147756276,-6883.607474366868,-6637.08963618826,-5433.646356648825,-4210.604424374345,-3371.677892276906,-2349.3384057672033,-1015.3068949389839,-256.9550644666046,-54.28154472523779,-29.005109423100052,-21.347146666989467,-20.998558196620426,-19.844560774955408,-20.88226722709648,-20.779630949213367,-21.032786249057633,-21.56260454304888,-21.01903484438584,-21.05721966837311,-31.099320489305924,-90.311475450674,-167.97593204069736,-232.33585259714812,-382.107729425447,-351.2583010718158,-470.0789067433916,-602.1962124254507,-799.8085601203635,-593.5814946574751,-600.1767950455279,-489.31855901051495,-408.5889120904976,-239.03713768984355,-113.68665702263426,-64.4021405956724,-47.562897995748294,-23.444179249261044,-21.65702693829618,-20.66598415291519,-21.57539164868383,-21.053779416450293~,41.48864063782143,41.83678265653745,42.516679594137486,42.51722273492278,43.09965200555449,41.25117042914934,42.60893049574297,41.95753666600521,42.396924332357926,42.39299766313384,41.43321016665655,42.76715652551141,43.141749101345695,44.55233560389398,41.45874166226277,41.710330775150894,42.399197962806326,42.41979379489963,42.13840044164698,41.878293787814684,42.12121303000184,42.341670752221304,42.30866396148461,41.66038241806224,41.36426435516066,41.81240900306156,42.286546526458466,41.507723657728405,41.29243375745148,41.61963182345637,41.3034136428261,42.7679185498923,43.351873474800136,42.61874518699731,47.279408154361604,57.19733027479058,62.03551436131568,73.03354444220693,113.55819373819453,130.74523918008373,126.06249523034457,103.0491242644148,104.88852122942089,134.88143029098325,80.92535481635565,82.43108712009065,73.5643156646013,60.669346774076885,56.54420075935993,51.04339552189465,48.015646850541735,43.514044574321424,41.290697495674024,42.828260359965086,41.21915338309083,41.96954601516528,41.65210517691682,41.82465485733658,42.17154974553614,42.84996773284688,45.641631605182184,43.90273369421654,51.225733308510776,73.13087055387305,51.24619085374189,46.26203727661957,155.87431039184864,137.32122668128451,205.12893168684502,331.65219882620033,469.8724874065316,573.998693238336,679.5288049394007,674.5528583150187,639.0248387733395,566.1777558741667,398.93156850174444,243.27546933313917,153.31751504670038,73.63696552945072,40.28913944473615,36.96330652165163,41.94548948016973,42.658649225844755,41.6746927034804,41.919112273691155,47.6532987582698,43.22092087520183,42.24496498292184,4.346460216353805,-41.22972700846643,-162.21112840376645,-443.0785175540296,-880.3873734631912,-1253.7419127462024,-1880.2679376931974,-2390.3415058981695,-2309.4801130065434,-1914.9057860983473,-1410.9100005868256,-957.485432948105,-355.53773321069605,324.6148476026998,738.0381003119631,779.346502916607,653.3063808179365,439.1681538712209,236.19632877649494,110.92955645968136,53.28979700262581,39.91286002217716,42.057998866756506,42.3388897353871,42.527457019287,57.32414319737408,37.39406955399575,8.934111305492165,-146.01010121875797,-424.7292765237953,-1041.9782346140728,-2028.929733769601,-3072.236512563505,-3938.488547265872,-4806.5592737187735,-5052.069741312678,-4915.806364615027,-4342.5210605364055,-3572.0646374492626,-2342.9355388742697,-461.77722489572193,2016.598661812643,4034.5866370272975,4899.548042541977,4627.42466761955,3205.8389609178093,1859.488317622342,702.7409011354854,154.48171712443045,61.074027531102345,42.472142767001486,42.91441935330393,41.85111106675218,44.498869156464835,19.321375168654065,-132.78249983035613,-512.0435791307576,-1333.4036428161355,-2642.1768593914585,-4412.75819072965,-6082.773189959207,-7189.21117647229,-8150.225718174536,-8238.460767489429,-8353.637183993316,-8889.56757468272,-9596.763301062952,-8480.204631331542,-5187.831826536721,-98.09727141790196,4823.307053236217,7579.953789391999,7990.405336137182,6375.724377328708,4286.6310254679265,2135.722237747884,590.8546606592193,178.6890903293573,46.43399483466446,41.38097505102395,41.91962177128061,43.56563366094852,-22.463659097698294,-384.44690667160626,-1071.696164433965,-2262.679209763167,-4153.3518678285045,-6148.866760208526,-8171.023195975167,-9484.637188978879,-10155.903590523301,-10598.729384702045,-12104.166032218864,-14378.37045857871,-16568.128043506273,-16181.869752437058,-12816.691592320089,-6855.461426480339,-217.71034081284776,4359.51492063744,6181.975845036811,6434.364286169188,5545.020711096947,3572.218669066326,1431.3843319252605,385.19092272946745,66.88492626536748,41.69680372659522,44.309552297536385,53.20959590151716,-88.39064770944758,-646.9050040079729,-1442.2699515640568,-2880.1595226517934,-4544.736943543221,-6419.354024790066,-8109.127521083075,-9501.716289292966,-10516.490484457241,-11240.690280017097,-12367.09244722334,-13655.100991413894,-14704.672419959796,-14880.025583939792,-12803.550111107243,-9553.595637851973,-5574.064469737108,-2245.9762479743,486.17378564692234,3004.2253512128873,4860.9696968966555,4138.683587367723,2100.2525615054456,493.55261497468666,65.50236252580817,44.73445102468656,49.92042841845584,94.19701021844753,-55.16910749161594,-686.0139673492279,-1519.433024067634,-2845.5126203933028,-3922.983666588239,-5267.726387440276,-7159.314166980635,-9608.273218633962,-9590.328782136166,-8459.780932981374,-5901.877298935285,-3200.9346660048327,-2435.9164734851092,-4760.6595064733865,-6845.976219925642,-9510.057036532782,-10558.67769693835,-9288.070237629334,-6001.1935226628375,-1606.843617780817,2796.224601324886,3719.9040765231134,2142.1439227986057,474.3961155366897,56.262704104756644,43.908870368456036,58.52308544167568,139.97010767908898,55.104936316014424,-447.79875988666026,-1307.1267261961032,-2439.010643014939,-3014.740124422555,-4070.4836466939087,-6645.854647589411,-8553.561022260737,-6695.787887126336,-2065.3288408640424,4276.2001068448135,8852.069852727991,9166.128534747384,3832.722326110896,-4410.713324924135,-11858.271454984708,-15850.351912365395,-15652.820985762086,-10800.770458715075,-4668.403920558781,463.19023612149107,2554.469885900637,1745.7226279793201,352.44398516433637,71.71129039395619,43.66275558000159,78.66715122817246,158.54831784317264,102.08381836755338,-307.98007699880816,-1165.1076625050387,-2096.7891080346753,-2791.7976559754447,-4319.315631708284,-5730.326515201004,-6010.443475268646,-2871.7360478226005,3386.876008266329,10588.126857989726,15146.567366124282,14182.353586316647,5017.305032784065,-8156.29129570043,-17914.869531883363,-22316.072805124564,-19822.109693605937,-13156.581120990993,-6531.489390133654,-1649.9912210076504,727.3136185466029,928.584783029378,255.02808317497912,51.74685406072199,41.83876432067331,69.64963996622703,153.03228545363694,48.62630437523225,-364.38782532441564,-1203.9778625154202,-1944.948333520604,-2806.138878288929,-4227.369250770974,-4687.963578142474,-3344.993818934127,-149.5865300085162,5070.4092331440825,12009.018719593265,17244.36732885286,14468.41351470983,657.1887208554715,-14745.006677304795,-24023.675355535797,-26225.648797361315,-20438.309599453834,-12733.450039538355,-6722.42613823878,-2429.371003128425,-413.75244988553936,260.45807214024836,71.87871478097865,50.576521619856955,42.485829479038934,48.70350889705769,89.8755744033779,38.30346889633234,-519.0066108902181,-1205.271258122188,-1803.4182674680142,-2737.918331014974,-3493.705600543009,-3028.2264273912565,-1120.0401410646048,633.9448880601104,3429.1698488544566,10482.197407559375,16818.112161388595,10758.09098048272,-5246.937278896949,-19168.234243270548,-25812.96865642157,-23489.77044201197,-16124.207230420872,-9508.229539547656,-5003.855345300074,-1960.069833464943,-650.865221742882,-30.86272368756938,24.58375327755782,47.45170794097794,43.41155334308522,46.81813034550894,54.752309997324566,-13.667614495724614,-649.5943976844918,-1433.231404559811,-2256.3998151496594,-3319.3981785893807,-3852.6121388256943,-2560.7844456046037,-970.8775716828338,-1873.086723574098,-654.0714839076124,8054.531679611472,12780.216421638872,5325.059496538852,-8823.588820891395,-20294.150234505316,-21733.072761646017,-16181.3726859503,-10260.360500290815,-6004.765309145764,-2778.456507931993,-954.7314243558134,-286.7989388113871,-106.09988918341591,-40.253692719602874,25.54967407253503,43.2805906666278,43.63574567551518,49.58113563378243,-53.348478918132734,-769.9985486217661,-1861.6687895932878,-3430.2965510261956,-5313.289721234981,-6133.885710243892,-5187.846577573697,-5058.03064538453,-6941.181685201338,-4519.630582643725,4816.255597096258,7722.656240031927,2379.0054155151884,-10512.573571659424,-19098.865189277418,-15944.405029070816,-10052.286072556002,-6034.437533048342,-3394.1543027230937,-1222.9008540937875,-314.6973274102718,-35.54921403172278,-170.40920758984674,-88.77058847224431,36.54265782467006,42.11232754387544,38.01962160407264,47.832638989578214,-118.23971506270814,-954.1094938987724,-2605.5859763433546,-5172.161004864771,-8269.316890923434,-10422.915468806927,-10934.499199244841,-11584.905735022778,-11526.81194159876,-6977.215081102244,1446.6084256638862,5157.48060762816,-186.63298065120475,-12144.729179463675,-16845.170433239735,-11963.3099292875,-6896.088915488931,-4111.974730169097,-2154.4512383378756,-807.1266446181768,-141.46026739196344,-125.97959513065035,-302.5321602319401,-136.79198271924642,21.31695595633554,43.59352664738424,40.51732954579083,34.4553800598905,-259.0276196925545,-1353.1208580528698,-3574.34242452384,-6744.813019158526,-10710.567678137071,-14245.675344679008,-15731.94357786854,-15335.278488714916,-13167.655445369372,-7521.159746548261,1181.9491124633919,4893.890576568572,-3213.0331928127084,-13205.620814666592,-15645.763820434944,-10905.367213057893,-6161.989754286246,-3906.7745346879237,-2460.4929504326033,-1421.1828926705814,-836.9041181343508,-652.3035484841331,-595.829128035736,-157.42778847039284,18.09866713691232,41.833203837828776,45.69522973886493,6.445959480798629,-542.0898954208818,-1946.3110896603753,-4381.64941414374,-7312.305053824893,-11294.387385821168,-14276.835758578503,-15017.615825074281,-12803.139366854084,-9650.132681510599,-4025.298480777435,3440.6845237181797,4075.1103956266375,-5022.326276991524,-12497.642660909707,-14224.66701913855,-10621.684643737926,-6743.494555133055,-4600.348169911502,-3186.4681406703608,-2322.722759201387,-1745.340074917009,-1276.1682678841066,-834.482010292217,-154.76675937657967,31.849809525211853,44.75394237952576,44.55419482024773,-20.66075105520289,-879.8602885938899,-2756.193210480882,-5312.445021164649,-7346.141945539942,-9953.128658353191,-11427.010135531675,-10109.689181844618,-7360.338242747286,-3529.14970830346,1933.2210817122586,6084.010629134909,3679.743526253048,-4172.16896123473,-10274.285227776107,-12342.63368587308,-10931.508461978807,-8107.7795360565415,-5647.31833631844,-4417.803575912092,-3648.932687311428,-2883.940016494866,-1737.4799326826742,-825.6728926336077,-75.45023091733317,30.79802387959042,42.82255154277698,50.58882826727216,-69.03301309147156,-1125.898083200084,-3362.124839834761,-5803.368548307424,-6983.8642532101385,-8033.369938679241,-7508.465186943188,-4902.213957608889,-1316.9982010374956,3320.118235676302,6805.292081195121,7945.907215235865,4350.744845346052,-1566.9051221697898,-7363.494710258442,-10548.69228457746,-10559.250567335668,-8440.983963854113,-6486.0254391004755,-5448.132913500166,-4538.311237029759,-3258.5452366787094,-1823.028391790892,-786.7927531622183,-126.05889855508887,34.078810406932845,42.7483380831482,34.24999659605214,-89.98844314271042,-1192.1920126571656,-3627.4090449954697,-5870.475731542937,-6532.191025904244,-6388.512677906244,-4415.111817817262,-1074.0241184171527,2620.944583163946,6791.464835491848,8516.496888306943,8020.361320882056,4762.048286883321,128.23364162711107,-4446.4016358882,-7807.288170189936,-8521.335427340107,-7529.987538451244,-6306.80258786678,-5408.317167386131,-4151.1124915348755,-2746.2831364312024,-1568.2406768627034,-531.7156864045443,-66.62778084151857,44.38152515599552,42.252264853329805,35.658212169246326,-86.41475026850446,-918.0854009381322,-2790.904857867816,-4675.390722430054,-5233.682091951127,-4635.998372819352,-2865.0084049866523,-479.53238840158224,1962.5941298985722,4283.193386327037,4694.155377640403,4257.189720389349,2735.0216986026307,219.47803464929558,-2821.045769263016,-5175.672854204283,-6280.850418751316,-5930.06089228826,-4914.9863610438815,-3839.3149379480683,-3042.3702642499584,-1972.1891587023742,-991.5424475787411,-232.53290858612343,4.864575943911016,41.69390101275786,41.71394485352093,40.91818173670139,-62.65611281778075,-529.9559430536392,-1497.7025039113532,-2169.7475952728983,-2949.000180525302,-2647.49520282022,-1665.8077848629164,-952.9511916866583,-1736.8703968383204,-2735.9868045585813,-3597.7975383835055,-3231.2438402567604,-2134.68751533764,-1493.5876583441698,-1911.0542599084552,-3026.4690664696627,-3703.396507311762,-3654.120951021439,-3196.8533868074783,-2626.4330122260344,-2012.441527471269,-1187.6170678749013,-452.1764324292715,-12.882999522356787,51.23451061242795,41.80206598868152,42.373448480146806,42.68333200035366,3.818641720008333,-151.858723886305,-331.3149333327535,-122.96734866841011,61.50875405888452,169.2244176045769,-16.937715786200958,-1150.6854459630413,-4011.2643267218946,-6798.424301836283,-8052.195056837685,-7381.575886835713,-4607.229880063131,-2016.2977113033817,-1569.1181180989727,-2262.0977310600283,-3105.452119994358,-2771.3327094156416,-2228.0001717496207,-1776.2226342575434,-1132.548302837683,-535.8234972216629,-94.65704268961066,55.904490514445776,65.73406225339478,41.57045061921255,43.091138188569076,41.71375074524097,35.2044200842426,16.7256269755526,-68.27251510621099,-24.578705716246045,-100.67896913447255,-485.06662284878234,-1446.6253680138027,-2803.302921376771,-4879.982843785031,-6612.379921932141,-7527.942536118712,-6839.666290418067,-5280.483269022583,-3957.515343802965,-4155.832812843467,-3925.503699991041,-3385.8038528876964,-2542.351320302952,-1773.7250126722101,-1034.9578508284783,-512.6646728542046,-218.59826452085085,13.794447551092462,28.124434999943844,40.862389791218945,41.20338203625006,41.46339813949315,41.39804280768969,40.24915314656369,62.78158559453577,17.04101458545991,-110.40488593555025,-228.0894285387467,-400.4418180587644,-783.0459211251116,-1189.3361045080658,-1743.5004780208474,-2033.3812302730416,-2348.2030168782962,-2511.7545619146026,-2537.8596437309584,-2681.286756376185,-3154.069736628795,-3039.2170962743694,-2600.6102899283956,-1853.0573592073847,-1235.8552297194096,-606.1530532674244,-161.06400325419693,-29.772901618187017,64.69862284295229,37.49732478971156,42.393498816931825,42.154336462127745,42.02919699713789,42.76735415057384,42.23741881082515,40.0820378338874,3.612375566159599,-21.412790178791017,-13.349798493655877,74.11067088560634,111.5811481194576,77.95565455524316,114.44723449538142,71.54688335199117,-141.91638768489227,-366.38847571402107,-605.2280648999989,-593.0902506366006,-785.2328820310719,-721.80162790012,-593.0195660773326,-477.5839187384702,-356.9740182888306,-116.47132676685445,25.393065794238517,33.46294029481097,42.10414929243104,43.40156784280033,42.08658076208444,42.47561174583552,41.65890101643066,42.88685756997029,41.84791147967229,41.460286774265825,41.6125041051245,42.00947494376601,41.15632692819011,43.42474181915339,70.92773762251082,97.53503206980832,105.88714267163917,121.2102020620407,125.17577831991,153.23510014247856,125.47053447331773,88.61087060698799,49.08753659214797,41.118194417502636,46.40718483094971,23.1276009579031,22.060185153441225,34.25556770004498,42.308260800160895,42.566072592473006,42.73289423808758,42.39526008183684,42.77706943449979,41.41465350090722~,-71.93946976280212,-73.24568892737354,-72.22082986505647,-71.65249863595882,-72.67698910611692,-71.38630606134238,-72.80496157319489,-72.86631980520512,-73.04639180841103,-72.30603288009515,-73.22766667055619,-73.01319619549322,-71.97380438058109,-88.2186983782532,-91.87842305492158,-72.59871048185637,-72.59795524836984,-72.13830259578536,-71.8847595123966,-73.23548155027235,-71.85929728007021,-71.41981380170778,-72.06381884420797,-72.09371297892197,-72.99542369202929,-71.50034538146362,-72.77740520206002,-73.07300433307823,-72.19570334568415,-71.84569218244907,-71.83643881288505,-71.30964944235787,-72.1883793956858,-72.00582935523629,-75.432813377531,-63.58487307199842,11.841721128767157,102.62213618327898,287.5711052689469,308.9131091045565,219.4279375989833,154.44124919367374,195.27942688715336,212.72578041869008,156.62551002645898,197.4104354656766,192.50000600054517,107.22313022597508,71.50740897874351,3.1660985065503007,-39.714427762496854,-62.34426847939029,-71.85561570532765,-72.42079368628062,-71.36192781112452,-71.71023023687049,-72.56108087697662,-71.8735208339797,-71.06334039189984,-75.79782233862707,-44.72603513368668,-56.196571277493845,68.23254416255894,163.1743522424635,300.34427030049613,845.0824432513413,1806.299521253092,2272.3435555086207,3274.6375431066567,4481.350776818156,5873.871673332292,6842.821219433296,7858.371807430067,8105.556275885091,7623.682667475556,6257.303765447056,4196.11372826614,2415.967732759925,1248.5766146337035,366.12836357610036,37.846681774303086,-62.612067460179915,-71.33356578874508,-71.98558548894259,-71.50026544213044,-71.34701368349202,-83.75705011454369,-80.99043026034926,-43.93576867385131,-40.966644808567445,44.687636761819405,116.18037104686209,128.6406928641197,439.48775895739107,927.2809166005756,863.7848681925259,1141.3565516534022,2125.1034647715564,5208.05741997996,8162.196009512963,10525.071599793668,13228.463741482532,14457.042880571596,12786.335033537069,9304.368101486343,5754.376587731238,3059.1411429141044,1353.8480483514804,486.34618833698505,-20.206380300255287,-50.42288831428268,-72.29775288042352,-71.79129270572697,-71.96324755356288,-112.2734120824469,-93.29434407105235,79.03955680968161,333.6074048228007,632.1665136331934,1181.8962869204101,1647.9211233071264,1763.3861014049526,1529.0665040911458,-1717.2183711537907,-6816.275262079137,-12218.516080168525,-16904.27385300895,-19122.36472057118,-16222.888865466819,-10569.272156119257,-4189.531485266375,-627.7024248977807,1467.161550740529,3250.397350222641,4077.1563581681244,3652.7532170514755,1922.304718540767,402.38415508427653,-23.18665899459583,-67.07155344047419,-72.89201577904161,-72.3507357358895,-48.33873001937802,-24.27629014408414,649.5748102473806,1465.139642245379,2518.916746847933,4040.622548835195,5542.065489559189,5585.326329638882,2316.6851752998004,-5108.767468501442,-15139.560744240387,-26551.31543602153,-35963.94194039741,-42340.43786427081,-44573.761702205775,-41733.6184286492,-34374.28886101757,-24220.44748566903,-13431.282257270641,-4993.111342963789,1992.6775649679591,5485.538021581634,3786.6971611651984,1158.7655164402022,118.9525906100614,-50.864023173642664,-72.68596287380986,-72.97906702544628,-74.67741417575489,97.41845270342888,1060.3185076426114,1717.473060959935,2492.86468647133,3508.9385743843754,3689.4211534516817,1497.764591844716,-4546.902898314319,-12359.37976587406,-17233.29004815835,-18382.609173953137,-16422.791515755638,-16336.11854986944,-19712.315017968423,-28429.756473632064,-34379.69521587864,-34645.77266044844,-28015.287910238254,-16831.727685962647,-4704.792336521572,4177.44363396666,5378.260135277413,2112.7513994130286,415.8604779256234,-47.02642110573566,-72.50922466446785,-80.16077753849953,-208.1855344739037,-244.63605468754236,362.3079426303573,-440.3177705289262,-1672.6869193441676,-3511.315233904529,-5910.902171108131,-11847.068334553,-17457.66213079993,-16892.139983788442,-11394.148872760437,-1862.162160154122,6503.576749341002,7785.687594754874,-273.58712527807717,-17501.94908251837,-34359.181010740016,-42234.57488222643,-39150.54985666206,-28537.261918423537,-15893.70413876944,-1178.5857098714823,5536.657639647956,3256.117225205024,522.8375563403224,-106.29938273812412,-95.6703795688152,-211.579608366695,-624.692888281735,-1150.9814651636254,-1506.2196639371818,-3877.804710097579,-7416.040433258705,-12635.468564660541,-16983.65810578927,-22040.246199060333,-22572.23095111258,-16819.40715538222,-12276.52700090037,-6864.684862223638,-6986.1213176338015,-10292.30384006654,-15353.516011716212,-24699.654588864592,-37133.541424508716,-48890.4098741509,-48743.476918862776,-39541.101913102466,-27712.583687252427,-9954.85290726737,2967.172065190488,3557.5781784254464,458.23211626704375,-82.09700252002091,-96.66410933312451,-268.85676372624346,-872.0547270323543,-2158.0084255365095,-3764.0488085851334,-6815.015757544924,-10350.851147370193,-15856.624603963883,-20066.283889738297,-22261.663419035198,-19015.26216370775,-15929.29197774623,-15681.697249338582,-20663.59678708175,-25990.011664488015,-28734.66996048201,-27165.277091837845,-26284.632340321583,-34722.09361648531,-49113.94211509808,-55549.55431640915,-53178.01792944453,-42602.245792569454,-22656.60635281812,-4037.393623765707,1408.275863974832,-71.13260635327053,-140.13599416045983,-102.60830048036692,-317.302091822057,-1101.187346138656,-2073.6052424377676,-3678.40456895009,-6498.355446252522,-9863.792236772202,-13623.320405831157,-13896.187972015041,-13426.507207068715,-11279.093731738534,-12119.92924495577,-14305.280874529943,-19466.50755795604,-22798.261274494183,-20309.097690140155,-13595.207771178004,-10973.30639359023,-23402.6695263624,-41339.347805176134,-57176.30933757323,-62055.44883098981,-54320.62502288045,-32471.996860081315,-9755.957858516467,-456.61821751269946,-225.55161764142892,-184.7251739174214,-87.93796519608402,-332.6625888080516,-1123.3704183487764,-1487.7512203907795,-2102.748484323971,-3299.655924154321,-6506.692891949325,-8157.289721302303,-4373.856681300273,-1351.343033525866,267.4270182829537,748.2863183754856,666.3043259153444,-1160.8502205596499,-440.0006332974301,5403.669873321132,15555.916821865861,14994.194138074605,169.55858580128307,-23124.47274174005,-47279.179772443014,-59211.39268206519,-54656.31720756722,-35371.134503307745,-12342.446539735298,-876.0310066805491,-260.27093152870214,-88.16816703638328,-81.12854373936985,-259.9902344403521,-787.5530859730043,-881.3341204931929,-209.43955404290378,-1556.7697689544768,-3278.9568932068214,-1550.6775668709865,6503.620956219011,13841.318869233924,18917.1477791929,22258.60548361517,22759.8622944257,22770.208197137537,25119.478148301445,33019.59987831706,43051.11521007967,42761.37463022819,29922.926644022573,1484.244404189665,-28781.15304862453,-46308.918238716746,-46731.38186626593,-32850.77659055092,-12004.556615657733,-682.6139809670555,-312.58339666552763,-99.74054513679096,-73.0120902390822,-161.92550267833826,-436.0691563036771,-226.84957650596718,1007.1723386668206,-1362.7680388076712,-2941.718930562683,2306.09380982268,16539.249240709585,28724.86649434072,39383.06171939257,43960.05893827886,42068.74470453391,38514.95347609979,41785.85813611581,49792.24615150299,60565.41356371395,66189.90539282949,52625.06191869814,22374.361471135242,-12366.178998062056,-33122.76388722538,-37730.13617148254,-28608.041964676508,-10823.338968442667,-729.845040760484,-422.98708062434747,-134.0767657102089,-75.38129410514665,-82.40828266490354,-206.38677206256006,456.18287340335917,710.7329073952852,-5687.913822142554,-8532.69160230848,-1061.8034566376507,16851.506508710292,36540.678003527464,50851.1009537972,56068.55401002477,50381.60259775221,41692.593495505134,44251.91400832117,50595.75667893306,64879.80167084716,72115.3848897755,55815.706046522304,26995.051953771916,-4301.955675922975,-24321.378376513512,-29416.43550370299,-24110.38486182688,-9756.411513379473,-774.7758353660435,-469.572821455322,-81.79976837281417,-73.04271550743844,-42.619125112661756,-25.448987170416096,762.061417725918,-1464.4781001660426,-13369.049250640199,-19091.517894553344,-13355.998158298571,5952.413596009535,28437.3413596736,44505.764742271,47517.36346316446,37004.4845872378,29385.599054882445,30534.903523121004,38690.59899350347,55391.015335307624,60311.2371522904,42729.27360958581,17263.122140668987,-5119.036246931411,-17985.327342779543,-22430.220663818338,-18866.146654262673,-8270.397163428166,-810.1798313152005,-539.5255310514792,-125.46694659377314,-75.20502968080744,-54.62715751683912,214.788850473672,963.132555642124,-4176.942687892995,-21799.620548422597,-31876.080482146564,-28791.399573553517,-13025.537368889587,7552.05182828232,20156.63216336723,19263.10814804698,8964.13683079367,5703.039985807743,9949.444114017502,21815.458848285332,35572.19936154354,38088.27477100441,23852.603009071652,4541.423815809346,-8269.97266964509,-15591.083398503903,-17325.47234294095,-15287.709577869986,-6871.238582367424,-1482.549300915989,-734.7658787511205,-131.37672965372784,-73.11086356159494,-56.81506891724373,330.62445307510575,1010.7999033432078,-6303.106623091914,-27950.04267389486,-41360.6186538045,-42678.46393415258,-31692.294269520182,-18212.257556123175,-8326.800387964522,-10092.117945753787,-14534.52766876973,-12196.609539151872,-4815.804245166579,7660.692635964345,16044.067482515256,18292.52598595933,9466.900783066005,-1831.3335022909528,-9710.203648779823,-12753.212116605582,-15053.314380438058,-12117.287095455516,-7363.581641229523,-2628.2397938166764,-876.9769383872444,-151.01689890148614,-84.14411918933448,-56.256566094457845,421.7888604001376,1750.850872988358,-5942.073216183947,-27026.5913173505,-42012.48541517704,-48955.56366999384,-46695.69421322419,-39465.14045186613,-31313.524486751172,-26218.14268641321,-23246.56633335146,-19308.92738904577,-10860.077105069453,-1207.1666227388944,7595.35447867999,10062.69250843112,4858.601187179233,-3128.4154906125978,-8834.343404634788,-11372.9615109642,-13780.062671784231,-11091.729251399704,-6987.128711272389,-2589.1230093487943,-550.8485738100727,-139.19569093302673,-71.36435401897079,-96.8569430286954,667.7592003753983,2611.1800629025793,-4050.5068439432052,-20437.16798433692,-36044.28222073358,-48880.35048456427,-54627.48628734802,-54038.58510761505,-43561.68657673795,-31390.5840412335,-23752.726669123145,-15387.273934956109,-6900.681618958272,923.4824558671041,7834.069676190505,9213.824734502663,3907.0958130368335,-2925.327951612639,-7009.921052745678,-11330.195246011544,-12763.861126716914,-9950.65914500201,-5592.467933347405,-2276.1469680765017,-534.8088590204178,-107.133267852266,-72.40490619172867,-91.50286027192982,702.1501971605854,3254.006990062944,-1308.249828495678,-13384.767651938195,-28751.34438291224,-43317.892509190606,-52891.08656062818,-56005.42719650045,-47527.42646555312,-33031.727911607384,-19688.18623978151,-5902.212491779173,2597.373219394013,6254.488926449118,9184.925061473416,9109.255880339404,3772.8479786645194,-2283.349643798926,-6983.26491186272,-11059.239019764731,-10387.391265487562,-6856.442844978267,-3698.54674533076,-1341.7182646067242,-342.7602099327253,-73.06005805809558,-71.6618484912972,-56.50669430100789,603.892540433976,2874.6452896886512,1147.4233651392808,-7347.082931779074,-21027.10980133029,-34731.908512681446,-44559.50846239564,-51324.324949956324,-48063.98896466264,-36221.82877310871,-21041.146325886322,-7401.568580269212,-1673.658617876293,-336.06078742974876,2006.434480600064,3561.22348558024,-243.59135692145495,-2315.178257857818,-5558.969943142593,-6862.242561500164,-5628.141790494939,-3659.0989890189626,-1912.3521600277725,-767.9135127606022,-180.86733869493395,-74.27022359574184,-71.39495543119752,-70.31051349281068,416.7440624470609,2131.027641764226,3346.4833992575686,-1842.5083000376565,-11582.236828850804,-22841.09959175566,-32359.650437013763,-39750.89482225268,-44417.67396754063,-45506.27811595668,-39926.29046793206,-33898.772638906536,-28917.83426310714,-21197.627611806154,-11277.726825630056,-3756.2985478345718,327.53978403555874,1382.7258611742127,245.6553446066666,-1122.6421837195837,-1715.1936228950005,-1443.9325105126154,-757.3894214690719,-314.0872250934869,-91.69964516736489,-75.72823354682544,-72.4911414150409,-71.65118711223325,180.64664131652162,1113.4397158496688,2757.1703850635754,2423.2254594351602,-761.3372850954125,-6138.619062958461,-12392.254803174244,-19702.951718825265,-25842.54783837462,-31400.87042523044,-35361.42058642372,-34482.524755525956,-31261.626106165197,-23368.72623225863,-10236.661866315526,691.8744929845217,7802.946079433801,8272.420307203392,5716.675794182604,3043.9984964720766,1279.6846064395115,455.3662638091623,-53.124451420600124,-140.18335975675947,-96.178429159609,-72.89344157383526,-73.17352355838936,-73.18022332608184,30.79984491181533,314.82961168206293,1076.521384566716,1909.9594365141013,2596.298291494583,3454.231066626722,2871.205919745356,1611.0751630518678,-514.559507489203,-3017.760721595045,-6048.236286049329,-8646.020906347117,-9277.156512711097,-5836.309831845056,2736.7590746316496,9818.795085104792,12094.348444864989,10409.941157517222,7757.220511715762,4481.671163892642,2229.6600358272417,1073.1581684718503,64.18620399560844,-76.35460970243103,-80.87238896326826,-72.94870936235641,-73.14372046154172,-71.62480797613874,-57.99555068431588,-100.2099268569684,12.665955368597329,496.26170063310553,772.0654475717336,1168.5454574407975,2112.199852691876,3165.0455490845266,4013.949624429507,3751.559902429519,3969.8852487292856,3017.382976045993,1925.5119168389188,2704.9569462383033,6947.975032775637,9482.826385473376,9675.809164297829,7611.10403638719,5498.3785049804355,2920.1045810309765,1110.040555063077,494.3097599113846,-28.288312152663487,-70.80017828110672,-81.54550628772155,-73.22880944632477,-72.51211239871525,-72.20982965155734,-72.58659977892027,-65.26554601312934,106.38492131559201,149.79430615840175,-106.8041299161589,-834.7722585329838,-1505.827791071074,-1962.342497086718,-2710.6062123532256,-3095.4280391040147,-2805.595774059315,-2881.8418087680175,-2465.8727831981746,-2051.401098538402,-193.09546089081596,970.9327433193083,1501.9501150647902,1676.7701308299875,1699.071740148534,614.1048919255929,21.740969542591202,-28.886652577452033,-70.30699836680341,-72.49731028779178,-72.192362297124,-72.9686037735275,-72.91994632521799,-72.1941346873811,-72.37227737600686,-71.37817316961078,-73.97456714814298,-87.9150259796043,-98.33436286868134,-126.56805117823517,-259.5858555681306,-383.0467776052001,-590.9566301382275,-697.0432103041597,-859.5985546312535,-1217.0739498273629,-1231.3204003220976,-1079.0603287003314,-915.6502883675323,-825.8025560589903,-622.5403495820366,-213.2043416489321,-24.769682015367398,-49.03603254186796,-42.47091236661172,-65.90570564104604,-72.8638791602033,-72.73627039631084,-72.20781267238236,-72.31341245919042~,-49.586299574467034,-50.05230999473926,-51.51424967990732,-50.27511035690003,-50.65325753063155,-50.68134830146765,-50.923718605768585,-51.05412453788577,-50.017013812524524,-50.35622336186182,-50.13722170331644,-49.74392940333156,-74.52217691835004,-124.27142147212406,-73.55890614126353,-51.15953955489417,-49.59241479491405,-51.048594284083364,-49.65135489658405,-51.10879165853527,-49.955345708568856,-51.083737075283935,-51.43788616074876,-50.49717775162736,-51.465597161556516,-51.14417443755795,-50.274133431531325,-49.73248370367082,-51.1315398550781,-51.24818069999303,-49.98148295765675,-50.38574987823293,-51.47921232184285,-56.93092980385278,-130.64119955157946,-243.6752944455289,-281.4889088931511,-303.9543260881686,-618.1232948568927,-787.0428357779912,-753.8876293563434,-723.1584221233204,-499.9193212126075,-474.02996317339597,-632.5839593687406,-538.0593547772202,-344.83771333483065,-268.6478248234272,-227.24884692049753,-137.69077874115726,-112.04631970084777,-81.1522496463163,-50.717463876075755,-50.61719721965646,-50.274167845794636,-50.75480423416455,-51.51327636327463,-49.73551668547364,-53.43820441317418,-51.990301037662476,-74.57770079266169,-69.11673639990292,-219.57481861661205,-610.8747392387398,-776.2874979108964,-1097.871502365765,-2326.9616165584903,-3219.8536291961877,-4532.799550928967,-5827.099921302276,-6564.854579816319,-6597.942805763586,-6866.864858331241,-6306.044014432881,-4877.899935582491,-3425.9394343416557,-2027.6707545261777,-1188.1736361095323,-690.7432041957339,-291.2421099310301,-109.80302810592707,-54.28358893810581,-50.36578026438397,-49.83799137453663,-50.20784072133743,-49.63001235512681,-42.93613174912983,-56.736288281720306,-65.07426787684977,-142.720496337241,-310.4020608564576,-788.4083736437334,-1382.7232061975822,-2443.395297999338,-4767.232617562001,-7080.232226224503,-9837.521037309183,-13312.845089066228,-16158.06433652943,-17713.20699050692,-17641.953096433437,-15944.680541899877,-12447.193321622222,-8824.6435643673,-5167.78108882784,-2392.2627679950565,-933.2881370528073,-431.0656419898242,-210.6756826217531,-41.51874850466721,-56.279530437319266,-51.10975720281695,-50.70616006830187,-49.25142976960082,-3.3623572138332314,-54.659743707229005,-25.110749443243645,-167.06073973564753,-387.97117934756864,-1000.802448950447,-2754.379010293847,-5433.358309853004,-9277.079444881334,-13786.518362890549,-20894.300162942094,-27937.179651303748,-32448.052038743066,-35852.33045694631,-35850.948416779225,-31888.432600217857,-23920.307877193743,-15009.946452079417,-6449.837560154473,-612.5279563705047,1760.528966607886,2610.0317812438448,1582.7968098236183,461.56352504466344,18.52785305474546,-53.93477105879842,-50.46154165895069,-50.02001356586794,-54.09797730103617,-35.7542186536951,84.50384658132052,-108.42955900445632,-956.7228370232276,-2889.785378546229,-6267.272048934993,-10978.027630138351,-17300.852924388564,-23037.3691478471,-30837.45101210943,-38655.1740061674,-45058.58313163154,-48892.28127271159,-49469.756427213455,-43524.54552724761,-32082.112705305306,-18173.131829841554,-5858.980139891892,2033.930376398041,6497.320767957893,7535.501607863415,4679.418894988778,1509.4735162242232,212.58495516792382,-47.0600481123484,-51.376880300565986,-51.396886218489726,-78.39078443575909,-15.854731309587644,-127.94868686978916,-1187.939297085439,-3647.6163043372953,-7432.153116289826,-11818.512111533517,-16488.42825710399,-20416.389427663675,-23490.675456411675,-24382.9010410775,-19587.675796355168,-14564.578084212384,-11814.358938687257,-12699.85884128988,-15924.16676797879,-15475.77052629269,-10417.399341286615,-4247.521689463315,1677.6044307449154,7902.041715061168,11642.720441641666,8419.642937421018,3148.682957890033,588.2185554583644,-60.901935088490376,-50.579604221228195,-85.31169097386461,-152.52265840221077,-440.8416295172329,-1156.4679086560827,-3415.4946218479477,-7260.847929525182,-11854.983744069452,-15044.03995023494,-18479.178910715647,-18112.96448761349,-14280.78665147238,-4534.358677617966,7830.726932993234,16942.70865668269,20861.0755870421,16908.22278009892,4857.6209273838585,-5615.985747550964,-9933.781789551305,-7725.832917402198,-2074.1748627940674,4295.332308651384,11841.89070602735,11003.554988164411,4663.483611347919,657.1901327182733,-77.94456608408336,-72.21445739319834,-200.21563929976264,-415.4943426242435,-1170.1077165494935,-2368.8907078979882,-4891.735444290344,-8213.269405769905,-12429.72291052401,-13837.613118221412,-12495.183963686186,-8317.569806910718,-2298.0531180510857,3574.8351597731103,6629.4775247979305,6393.182775492229,7873.084923030293,7851.926025143879,2069.340805281415,-5497.645779192332,-13303.818195831233,-14661.34093759905,-8807.27065322981,-1522.5537133213827,7564.848164746057,11195.313633469477,5903.917292579996,973.8814211275019,-18.42053399212213,-75.15115421297939,-237.28384735053757,-616.3858618054232,-1729.8290227663374,-3104.2316096274653,-4370.107350705742,-5503.750136873708,-7744.817097828618,-5641.458588893952,496.18201874031456,4926.756262731975,4945.100210052362,-1942.1245567164194,-10844.386069373417,-14274.57373164844,-9529.22984511035,-2263.443057078698,1205.1680168424446,-2796.300391981151,-12593.10719225955,-18898.35040011424,-18477.83446866736,-12320.47951363477,-2489.4592157910006,5693.9327190761005,4635.106604443426,865.326436911856,-22.44577588904868,-79.90361834579983,-206.69976125352758,-715.2215767491149,-1538.3050702475537,-1626.7766693974152,-1375.7150150489194,-582.2967419394589,1339.8306868967825,7589.738593434081,13745.582577886911,14217.66653789538,5919.332729309886,-4934.278203496742,-12660.198070622755,-9412.328821415182,1233.7051307808877,9992.457743516527,12169.75831096689,6302.36751061515,-5956.064974034689,-20623.05718024886,-26353.23206778766,-24530.265182591877,-14530.087955252304,-1046.4648461532267,2733.5365878241123,607.1016447863049,-73.24509351841606,-63.18983779441564,-194.4331472901435,-696.1056738748706,-739.5124659988984,793.0606778877641,3382.2403066308984,4676.375969997152,8234.44364061669,16614.16319421693,20409.43290367998,15958.887188656698,6991.318378705166,3787.2960944189826,7576.2983999425105,18620.13253581446,29691.09770271253,34304.06240544467,32296.441093812362,22485.6379926331,3415.063473044537,-17912.606913978507,-32532.575396008353,-34244.898241029696,-24480.303170986073,-6855.878677941091,901.6595884827801,335.48789213722176,-58.829342382783565,-56.09824221885084,-174.379076246612,-459.6156735222515,193.73381482979286,3257.57586605128,5365.136413621753,6221.50044102547,9663.549850661666,17233.9677808821,18395.535666837306,12017.812269121805,9205.243117823034,18362.272909562893,35952.87410188752,48813.84662234625,55485.512616890745,56154.646415441275,50307.16707727284,35066.4637315911,9350.589603983426,-18843.24514984042,-38363.07012016173,-42084.31691809184,-31147.76022606868,-11471.556075988177,-224.74546903669437,89.95405781378784,-58.21123922943538,-49.68263995759419,-113.86339244615482,-274.58846411419995,673.2589682709395,4251.200515275892,4351.031544246353,2351.3630240444986,4324.672540390291,10334.764891212799,10079.607182029997,7139.1901119822,15311.24423453829,35686.44521147956,56558.67886626845,66169.95061408149,67604.32603252042,63829.90984553593,55200.67593441625,36778.08184151344,6755.443918743816,-24341.40793922774,-44520.54075694571,-47814.98112949241,-35433.723154385836,-14231.464397532565,-852.887794019553,-29.660665644411292,-63.21605766790056,-52.402910312511494,-74.66733594455668,-111.69427048950416,1067.540260324989,3734.144696754328,-1284.1200112054748,-7952.051946612081,-9482.442946641297,-5416.264918864965,-1961.6262053840521,4193.002209087333,22870.51544061224,47208.58599952907,63325.86330273737,64830.95380625392,59082.827134478364,53643.01237709603,47025.179599675736,25151.238728787575,-6050.096629282003,-33581.72391462081,-49215.07548075963,-49256.55847822518,-35308.1425910615,-14595.608035399682,-1331.9503689809144,-89.34935090386968,-53.510186409831306,-51.79470028641154,-48.780732060742466,-51.38504870163443,1071.1836916918821,1132.7299410072837,-10444.992565411401,-22297.224577666744,-27669.52176353681,-22809.767806142263,-13664.878123548653,2410.1919181433636,25985.543481814937,46520.87983388845,52036.352423404096,45222.32695869563,41118.1390452003,43109.95923831414,34955.325522497886,8612.930521529323,-21268.897090567625,-42414.35001567394,-51227.385347078256,-45335.105889729784,-31294.674616164208,-13442.51734425471,-1730.536778684682,-67.98036552758589,-26.23687450607661,-54.45503755410233,-49.81151593524065,-7.114201849666112,897.3073168819382,-2447.125738395334,-19808.104797088436,-35853.11522015801,-43530.89067449917,-39002.12446231843,-25161.83296007236,-4139.753212102321,19194.106732609267,34393.12048323641,31493.18516330805,26179.53668943741,30272.344948833157,35573.139141620544,22315.451187819956,-8111.724699696428,-35298.970973682946,-48683.039588845975,-49554.375034490266,-39008.16582280975,-25014.49811897668,-10308.101931757652,-1777.95917073625,-193.545729827965,-34.43921495130798,-50.34090285113594,-48.069943604329126,-13.813119088747365,270.19658494602555,-6023.950649884646,-26188.526762994767,-42641.12496129483,-52356.434700037746,-49785.196099535235,-35960.994330108435,-17948.03156221632,192.005264868536,10490.423303261381,9124.679880045456,12057.600513717916,21183.29735579085,21875.67559514629,2367.9139502818457,-26754.595052821587,-46871.86243089125,-51012.21620939829,-44272.39451494443,-32349.816069027074,-18326.637570028426,-7414.590749751858,-1917.969708609874,-210.22886877212812,-85.27273462605324,-51.88844139549705,-42.77796419473552,2.972071432744778,-200.241056326194,-7872.086352688122,-26566.743351833586,-41892.09446487017,-52683.28291366274,-53000.52310967552,-45794.36510731664,-36189.815671339486,-24734.87281156668,-17783.68447609065,-12990.440233457555,-2252.072864937342,3708.726259065743,-2811.4936860873404,-22772.361431442074,-42706.809218802555,-51060.35883548835,-46129.31609221724,-36427.3610665508,-24368.035914572338,-13167.89402275351,-5632.525089086642,-1686.9459017645831,-94.5031922660087,-27.71499158698362,-50.171518676026054,-63.416082752901765,-10.485670541990482,-629.6680593581646,-8477.733160985648,-23104.54945877933,-36433.3383489616,-46156.55621309429,-49445.50845167139,-50945.91737676241,-50169.047280882885,-47075.81598707448,-42253.18119354491,-31507.324864754934,-21666.470485106147,-19855.80631146886,-27222.846551213814,-39885.91499398561,-46609.144743658384,-43805.39630098632,-35189.742897697906,-26473.209756628527,-17136.001946005428,-9159.12193670282,-4431.189581289031,-1527.3462477272924,-177.69624441435994,-33.30034835978708,-49.928692854814415,-66.89363978101089,-64.51501778482013,-1018.923521684216,-8022.189070987479,