#~,0.44217058214311994,0.18894541615800997,-0.3075171283971367,-0.10466809553508946,0.06788032767690869,0.17083972132839997,0.24472700602282516,-0.34125249673610397,0.4726173139433732,0.09846868717727822,-0.16113060654303035,-0.34228694567700985,0.32213809549669575,-0.0005464044995625571,0.37243863252126524,-0.47373196341317136,-0.12021861600353498,0.23603784559461294,-0.22594812707381873,-0.14785053008771987,-0.39795594279613383,0.48515943095308073,0.35755706592694975,-0.3055044291845645,0.19436505715127783,-0.4940335296197876,-0.4161060158407602,-0.4048743451018109,0.07892400331140673,0.28315741415915524,-0.2793665817088871,0.05494711574322437,0.29433252602178867,0.10259975705145419,0.1148651325961515,0.21098815950634497,0.18689415725554628,0.4330417392704695,-0.06111447052110097,-0.24748999095619764,-0.04875458515212074,-0.13043519233069117,-0.052964398935522364,-0.13978911863834012,-0.0024999691447066125,-0.47371570795266177,0.21834071624827453,0.005705140009357036,-0.302945901898826,0.38589854766009174,-0.17034208188431316,0.12778385395362363,-0.07988368241117602,-0.07431509734825112,-0.3086252447585636,0.05532338533704168,0.22358155227282306,-0.03723301917381799,-0.20588122977655438,-0.23185584025784087,0.25873879901919644,0.3096252881869543,0.314812568416953,-0.4220501090978922,0.24704383915658362,-0.12882034208812418,-0.3174867577846713,-0.36038609267176536,0.12120731426377802,0.46443063916797467,0.557719186657401,-0.20615674625796396,0.06477234694024173,0.32810963805338234,-0.2317246889062396,-0.22143865097523513,0.07002194605125454,-0.49943553857218514,-0.10519601084170499,-0.08552174386818792,0.10284881088556141,0.06610658287198919,-0.30339993008782046,0.06309401037604427,-0.23022555440386971,-0.4459056652040941,-0.40651100054601175,-0.08722262279013888,-0.40065413708902453,-0.29368851893052017,-0.3307043210887764,0.33203457351767074,0.44374597403897625,0.3732094456186305,-0.3258495512186545,0.4875158945842233,0.47463019874421725,0.6435836054987661,0.382689108480456,0.7328736057366992,-0.5357025866433387,-0.2637568697579318,-0.335323872213895,0.056993072787027324,-0.1307331534322866,-0.8804116573503504,-0.7917165767740886,-0.23273963933876285,-0.30740417062138436,0.03606447000377492,-0.5020664922083072,-0.19298504870229272,0.37708118602129775,0.3415740328223114,0.04510966352552343,0.22147968351827665,-0.19955322281627583,-0.1549753649636805,0.44625017715674237,0.4173443169051613,0.03175364192565925,0.35041227659296015,-0.22640190335260943,0.6661995721641725,1.1787775280413253,1.290819173277551,0.6675205059301558,0.42985958892081566,0.37906926354394055,-0.35560217305582004,-0.20222535777911133,-0.7009380748240713,-0.4044632719663921,-0.35321321221037033,-0.41227750715994915,-0.42249874883633826,0.12317885938802826,-0.060921833155544836,-0.22783447720634184,-0.2534396592704095,0.20241043522784863,0.12682998873574106,-0.2214166853603533,0.23589449177436048,-0.19705539210913567,-0.1668844417216877,-0.4072563691591832,0.13966520817213962,0.5934246623100112,0.5748787005235931,0.7446820898218208,0.5449181047349909,0.7495524349982013,0.20768098945841157,0.405627293085114,-0.2021782937138991,-0.5146715620550659,-0.34007341893688237,-0.6969591043121274,-0.08734460007920977,-0.2948351076379596,-0.022395904705504514,-0.4199792016588891,-0.02087636015997876,-0.38280724064306104,-0.3818609688543944,-0.28770410292896226,-0.3342744244886918,0.0643081135958252,0.21949705584159257,0.02339182886615829,0.027413786226728375,-0.032854351751934234,0.5372646374694898,-0.0008372372612617712,0.09019705899167335,0.626719030572808,-0.007307987864161823,0.6487208585724816,0.6899262539977469,1.1600731546845997,1.1934361638545412,-0.2802234611578894,-0.7451865355175995,-0.591694443876644,-0.7562074083806142,-0.6997674418888158,-0.1650782729566674,0.004448389738704932,0.5834518142892996,-0.4132763392264958,-0.49497597903480894,-0.06261821770498811,0.383226727382932,-0.3489088659508887,-0.12543098195629948,0.1282823472757729,-0.36297380067172835,-0.4716938033139877,0.0076881068398832126,-0.07837237016526527,-0.0667735788989843,0.07226694583177998,0.4313726981169409,0.298345094895345,-0.0012136313624668865,0.7643887671916086,1.2941038627656918,1.3850877504563828,0.5239612004461127,-0.28366577189983894,-0.4102013329025937,-1.0077339705747692,0.023446204195945085,-0.38704254189080006,0.4155165577990322,0.2135630810538399,0.7101947605753681,-0.3404885299464063,0.1859655324358653,0.17024694548377434,-0.24084741577370214,0.45947614132457043,-0.3597138050971345,0.4164901892679685,0.25765184643112543,-0.32202606480994117,0.4710246032898526,0.4103205636853736,-0.4031648841701415,-0.054459859980145735,0.23870042940240221,0.42682053861483593,-0.12645345574314362,1.304234691085269,1.628886656298078,1.0807665262741997,-0.6972816764894872,-0.9079097048887015,-0.8475306004115389,-0.2901245973457054,-0.41597635915102893,0.48590179280641316,0.10256621138917169,0.3682569928110722,0.6063670675060708,0.5621580244643134,0.46593341691006906,0.35763439724202095,-0.008593045209573448,-0.12762955367787032,-0.13328761569571226,0.3063186285019008,0.3326329134143727,0.4450820700437749,-0.248226047376393,-0.3676185244043793,-0.5537142628054023,-0.10160531216090223,-0.5565235671365414,-0.2852517755991018,0.7878309399048756,0.8527260840145191,1.1106796508664434,0.9049069128678852,-0.5146625763097213,-0.45358398289021085,-0.19093185915872224,-0.0422731378883972,1.0116408838445834,0.9764268576341425,0.2603894173227053,0.6439225390208607,0.7505285928701062,0.35393395109261433,-0.12664266144634873,0.46159460678628905,-0.13306110718182976,0.10305592605497206,0.31513466996687994,0.4921719254222451,-0.27744062639018024,-0.14323087079286725,0.45200975943018173,0.32332903468756585,-0.3738089327902124,-0.9019814879666843,-0.3145926061105816,0.4577179984270673,0.5992512907800732,0.9091666685668678,0.8972794567373764,0.33846664999498655,-0.3839222635000466,-0.8970928638518756,-0.7346348374234747,0.46998504872822894,0.03904218254388105,0.8006108391597955,0.8046270331114592,0.4208877793567206,0.835090979606234,0.47566363314902693,-0.2688241300509574,0.46717068315103283,-0.40794035642635595,-0.38568153360029195,-0.3187677644041643,-0.30412452148105096,-0.0218663810901311,-0.2417789073891296,-0.3503251921780103,0.03192333166140708,-0.47748399475906184,-0.5196678073096236,-0.4956361273014805,0.14929712764352415,-0.13727211526078284,0.4875295375035167,0.6689451655944898,0.19860394195391168,-1.131623989406613,0.007551351666717655,-0.3360235061677452,0.10040343264948273,-0.036728041808686725,0.8383369814326082,0.49280899549869045,0.33097203696360095,0.8496534802408602,0.6185916095978597,-0.2694812022934208,0.4116637880096645,0.16114196884195617,0.05358213248763888,0.30169078800337257,-0.06650547478895401,-0.41078100802777817,0.22273389008868683,-0.5399573050474834,0.02989735795212567,-0.5656849356277014,-0.5141979443987366,-0.6832716660755015,-0.24847327092026866,0.0005928483646611895,0.8707077497375182,0.47217725959714635,-0.5475671396875204,-1.5308150573282069,-0.48137532455742055,0.5170293140836172,0.5884001655287531,0.3522891829510704,0.30253297310346444,0.6250076012797633,0.5974708692417712,0.26331954496818427,-0.24281063412510676,0.25633626167804485,-0.26569953901663657,0.1421181878258558,-0.4269889522454999,-0.18605910065026743,-0.4914207091116307,-0.09938980555418808,0.3601561058393113,-0.1670557625180954,-0.6904199876091428,-0.37831110355119657,-0.28418919932977144,-0.26585214834393944,-0.6113078824769554,0.15381745002621094,0.3203295603207834,0.1034588243871246,-0.3945224392787588,-0.8625679775929961,-0.06766603368610855,0.25449527819055046,0.2528381272094749,-0.08710529238200407,0.27167979926551755,-0.6423672449608159,0.004069725416647286,0.37422714748500785,-0.20956782386870923,-0.41037328281995017,0.2759902379116342,0.5583356216163308,0.18537144685834414,0.43661866750722145,0.19593386083722392,0.1237001974037317,-0.4350825877961319,-0.05351920484381822,-0.037280017018281555,-0.2464670309231557,-0.4649510697145364,-0.4326850619367526,0.4715258195932524,0.14767123852609623,0.7753522194542176,-0.0023565669747348376,0.059603066042403265,-0.5309743387373033,0.3987265465399693,0.14977102388831937,-0.42395985011369464,-0.3101394043489097,-0.3058484216324099,-0.7050730829755886,-0.19617186976003748,-0.16645298655287813,-0.07330342169107429,0.191370100082123,0.01832848835498847,-0.2706028764160579,-0.21927752183228738,-0.38805577908155797,-0.45495416187392174,0.32229467306153503,-0.31622759413870843,-0.1590048289135469,-0.09424089542447371,0.2060511348727548,-0.4735393745769907,0.09794604225161783,-0.3416890313067431,-0.31981209036370584,0.12210927649153006,0.2892485268418344,-0.05442771517983654,-0.10933661311059548,0.017044655085851637,-0.4785049098124667,-0.5369000473946955,0.22963844875652822,0.14405696078589006,-0.43771551198405967,0.04999488893978436,0.353492206325527,0.5652060432314043,0.590314056700953,-0.3036694095678194,-0.23956628358952875,-0.43671826049819856,-0.3821655514715381,0.4288263557691473,0.06164623718521949,-0.28703147404847706,0.324843616804589,-0.20024914683234085,-0.105293281766136,-0.08540698335314723,-0.4686793932535267,-0.07949823130391435,-0.8519362063175904,-0.014757940227036838,-0.3484176388675576,-0.23030050639407884,-0.6449518242335034,-0.681064943696173,-0.7518523436890383,-0.46279472308336006,-0.10196269557568464,-0.8224662722417972,-0.5736875518037158,0.19352243751159337,0.9731265065562998,0.1689703987400551,0.7535893665009172,-0.28921718325285656,-0.17452811780737304,-0.2668556088932646,-0.1884356655124375,-0.08831397905742308,-0.20618857286234102,0.2404290120692879,-0.5209287304896143,-0.12110049047696343,0.005060004894742774,0.3147473313895901,0.4655303273539304,0.1842378893803232,-0.05017052515266083,-0.19724911503211032,0.4100983651921038,-0.6427072628560901,-0.13460295355067536,-0.2998054621546122,0.118251183306974,0.5053042207458526,-0.4481865602902232,-0.308330129842585,-0.25004564381141603,0.40808292623270637,0.08256631457345058,0.25113723317372577,0.33811862020355204,0.40115412455784727,-0.12698978235525693,0.17281056116428387,0.31909493027042407,-0.2408709665917446,0.05360005052023618,0.14114992676281185,-0.3456803723715691,-0.08510207002177184,0.12010313196383764,0.2486406500776171,0.11444043441226935,0.13673436066231062,-0.06882162889310182,0.5716896210171604,0.8850626636953647,-0.33529483812834787,-0.3059097023496407,0.5991278130462911,0.34733790743819565,0.20145059849883756,-0.7923616152129402,0.14021344306396413,0.3271075168958237,0.4405846787735195,-0.03472957163318729,-0.01637018116869239,0.7842974856850949,0.3819141560187557,0.18236637144720355,-0.3654247826642329,-0.08567888291036876,-0.38679967046973374,-0.027019414006184978,0.35089184789530287,0.2834050958901396,-0.0519577321152468,-0.016444075780710797,0.9492768381109009,0.41271855898050935,0.17322612579328583,0.41383564934463585,0.8883373991835584,0.129219897593205,-0.4949577122819007,0.23619542924303763,0.4258942479495466,0.07863525470398272,0.09623708509002131,-0.33056343419718326,0.0037334193997227076,-0.04809826695487247,0.27616216186188175,-0.27732855385700866,0.6714603513555192,0.09017945901101326,-0.09261826057598598,0.3753643865273976,0.2900095050680529,-0.23282704612630126,-0.42711723341322844,-0.05226474604430365,-0.10501461651014861,-0.09964688838788119,-0.08140749551872807,0.15857731320481128,0.38896756754066264,0.5551308951569344,0.5111856811652803,-0.039320156745468994,0.041466766796849214,-0.01672711137747865,-0.2701721136345749,-0.14869990353897816,0.24562224910608144,-0.1266081994745168,-0.23010139936225313,0.2096673962627437,-0.20310161197001267,-0.00667457211498597,0.09497762959310503,-0.0489388661452234,-0.16842692708515972,-0.28180989848352334,-0.4614557200065541,0.12217139942721923,0.29377350054311646,0.2294793492591203,0.3542446777366164,0.323303965358041,-0.1443531799216458,-0.3435212239025922,0.36713334479941145,0.5499547066257541,0.11519826300914789,0.582406493589666,0.22806226700219862,0.29568194800558956,-0.09619920967554528,-0.6276280423733763,-0.4304444239517166,-0.019880873677256414,0.5447193533662462,0.8339519040094068,0.14024768096514506,0.40295501680218476,0.31880474050270396,0.2743281448004232,0.002438921858366827,0.09812336053983486,0.16922323008973214,-0.4686495528211005,0.24814812063085664,0.2954542477090087,-0.22772987850837284,-0.3578960470358737,0.3922852619817789,-0.3182986087838689,0.3033737158633345,0.22865029086093686,0.24370260600610402,-0.2774638651035452,0.5062786745757049,0.6982022424411366,-0.14475942481530224,0.5520996180726536,0.3372780717909379,-0.1301381907483076,-0.30829113262689134,0.27476391149703583,0.008868665484388178,0.13915618182986347,0.16580399730744916,-0.04289386257498447,0.4134739223889776,-0.39148005881068776,0.0008261724562156277,-0.12461195922962527,0.0369710455036142,0.22044001005765534,0.3033283814491344,0.19661079108699422,0.36948774979933297,-0.12134603079090095,0.022016350146122972,-0.2317049582653241,0.10450164393150257,0.4395255137875755,0.055790857099658184,-0.15555312652692277,-0.22441780352225602,-0.6306845185730031,-0.5812710527386137,-0.28226977451201857,0.41128213109159173,0.23345429567747264,0.5407964092418819,0.6732669387450427,0.5033911635034223,0.13271788873516563,0.4613545198780445,-0.1839910218000465,-0.02019601774771807,-0.24801553769137216,-0.8739316220188672,-0.7554074107055907,0.049869435691443566,-0.10118287270497552,0.16020938884290728,-0.20282354990469534,-0.031142854151142273,0.3459527025988847,0.41577313870504556,0.38824479722896615,0.32312074224095405,0.306122810400386,-0.006931701566436419,0.1010978310814146,-0.3056553676270999,-0.4106313174546362,0.06220409144352708,0.15812475594682923,0.021119097905762278,0.16114228687696008,0.010956547119926762,0.21780386095156826,-0.488745303053312,0.2562415722859883,0.008197525478412626,-0.3168782916657911,-0.4067384496817599,0.1337608865192455,0.28341760000310257,-0.17436233749230073,0.3381194067141324,-0.3879079281072731,0.25167968891632464,-0.22796041912189127,-0.07726453931647295,0.46108963864723324,0.17688530236088584,0.18868636407106865,-0.06357843655270808,0.130024647057026,-0.4954115722787505,-0.28366866573205207,0.27442466109177555,-0.1528061310609773,-0.7247423961197158,-0.43389498434441026,0.6653308991678564,0.314629813217322,0.07617808057864581,0.2832267660558095,-0.28545114983432684,0.3172342067052462,-0.19718724986186378,-0.16299666764894086,-0.5314837488794227,-0.2658555545718376,-0.15158010930936108,0.1941232488804562,-0.20458860262513417,-0.025529888538356346,0.44369978542693966,-0.49184188402268103,0.11606690681949983,0.2943244343803331,0.23402851832740657,0.27515939424631614,0.48170664055273477,-0.08176258549861842,-0.1207808012849795,0.15535182459457342,-0.4988724178359558,0.2592758103802831,0.24812428117494414,0.16040100502367508,0.19500865974706694,0.13627032059256167,0.1874268177442526,0.49716792946616106,-0.2131792489558532,-0.0969879709347773,-0.2065362150583782,-0.2403608951375371,0.6132803856167532,0.3582141254193888,-0.25757134688321176,0.22710135682036808,-0.2573816583493534,-0.31668761608697893,0.33865797312306545,0.2857445224121816,-0.4898421260735321,-0.403358822668104,0.3478062180029294,-0.1126478946501904,0.20753572195146885,0.16123871449138372,-0.07183379365141125,-0.1376392819109562,-0.05741179421790589,-0.4683084610336438,-0.025204985640480168,-0.10990130271112888,0.30254770991774493,0.1935030332898673,-0.05637999000100613,-0.32938298748884554,0.3173880625315067,-0.14377111369535858,0.08763721940689045,-0.16058816834217338,0.3092748269988902,0.1968787260550066,0.34795675673812915,0.2759657585870647,0.01437401274784777,-0.41399040116163993,0.29503615198907834,-0.2947940702112651,0.35977643658824804,-0.04670370682041985~,-0.18588849027804916,0.1263695330235426,-0.35609851314584706,0.05734451537862772,-0.4246763515302483,-0.3894673518338946,-0.3650178627926802,-0.048475216024553756,0.19479891324915072,-0.44755442961850167,0.1697357911153276,0.2564860196454608,0.22473873748485923,0.18491419650290006,0.26260016686737275,-0.22982484754627697,-0.170701938203408,-0.24875800132464704,0.12015089488192005,-0.443254635813777,0.09292729067059535,-0.39348572756984457,0.14922108705222664,-0.02340886589027503,-0.31557506844798355,-0.44427941135875537,-0.43938223611295313,0.17470159184572026,0.31957614042264937,-0.20639602457325662,-0.4515325684872986,0.07707770200062602,-0.4629734332912969,-0.1337463945676095,0.25730108524719086,0.08719998362866255,-0.22184215194274942,0.5138956092328636,0.06704733913570882,-0.35232659825346074,-0.13895236478358605,-0.117774561454848,0.08576751416704753,-0.1145611510824,-0.19733886207682722,-0.19133215554613248,-0.3695339854494599,-0.4941254862858993,-0.08201073156435303,-0.1066439325134666,-0.20611769252510045,0.1655377420637572,0.3887881419488588,0.06657594160207528,-0.15598987201180786,0.3942934825131271,0.3264945312857569,-0.31044994221790045,-0.06120152749775996,-0.0589378039416039,-0.20932864001257345,0.060299400598912485,-0.43880227684872175,0.5703971855592695,0.8124208594526674,0.5178250025464807,0.3758634947260304,0.49037366269724814,0.4655903047666585,0.30560168106983066,0.20372931285183996,-0.6840327799915505,-0.012264320654581481,-0.2937991985352544,0.3825170771019419,0.6347078865257532,-0.3539678001310547,-0.22181607885773408,-0.2796570322535619,0.19228007282172135,0.332908266569071,-0.3839155641592731,0.03559357171749402,-0.3104831725880527,0.06842705371653954,0.0622944590866592,-0.058102680437663874,-0.48949836213969083,0.2468639562363926,-0.18388485031774635,0.21673833897004244,0.10127157763168913,0.9580760941492599,1.331585326855919,1.5396978988715346,1.1431337882582182,1.2324949401582912,2.1385372191832834,-0.14405930658744348,-0.31790616837072233,0.659144036314118,0.46606030045347774,0.47707339297756285,1.0781076829248595,0.5779970235038724,0.3965895822588769,0.3208396847726108,0.02678978194025614,0.4274964117137776,-0.4943516345415666,0.3057834943311719,0.4185697071432546,-0.10231084628822651,-0.3057234177385989,-0.3066100004818575,0.31800237473635873,0.11953816692790449,-0.1901966705654878,-0.8815535460796314,-0.0036688075675120127,1.582112470374555,0.7932045289994042,0.3964561729973166,-0.5652886699939889,-0.1503185931020825,-0.5631112328155562,-0.9387058132058916,-1.0785095880774687,1.315510421394842,-0.1262732954916043,-0.7477344035577594,-0.7549898612570664,0.24612549866295205,-0.027004775042898405,0.41145936127826716,0.03655806613131497,-0.5163012968952712,-0.5752178047429218,-0.051339865411234774,-0.21863923341567132,-0.16021629415202893,0.19429924258422698,0.22407637388886378,-0.19828382715293177,-0.3048586867134218,-0.26985202667007235,-0.09661694949639882,-0.11711050521988217,0.6334207086826491,0.7214434637037485,2.6943193956008553,-0.3336285090552041,0.7315106349019124,0.7008830818651312,1.3921415297805209,1.6257955050231483,0.7191747597192765,0.7692988819987131,0.703293949664083,0.004687740877875975,-0.11534424844095922,-0.16808347687366046,-0.5189250359112167,-0.646381626170373,-1.2803166987447032,-1.4489649355018681,-0.6157725330897668,-0.11425187928728782,0.0419803650952895,-0.42794812797754855,-0.3272319426082501,-0.0646043217521541,-0.16387802193033607,-0.9781942234183871,-0.2873445036822385,1.4150701955924156,0.7416683499598747,1.1940357203117622,0.7266390517393158,0.6694492806111113,0.857761866367557,0.4426591064256312,0.22009918799605654,0.6503351690980889,2.246119155783957,1.1845545028906088,1.977844858671032,1.0739320086724387,0.3769546121910431,-0.05368907983702328,-1.6322261015569697,-2.5519366751293937,-3.2406027951571383,-2.8189353422833823,-1.8167081494799282,-0.31332623074246185,0.08948825193956589,0.4649134178072206,0.24515665736986253,0.2175731323377364,-0.4475618485619809,-0.723785200037186,-0.2639705475954452,0.6131250965135263,0.013232616678215714,0.10698126693271093,-0.4452091706064063,0.5896315687702824,-0.0022535168563380366,0.14610224986516374,0.9751182328139099,0.4615724885118438,0.7001256293266133,-0.05871166319028644,-0.9538185685650215,-0.2780676098734148,-1.6471164721084064,-1.9559649721479901,-1.9973230025056865,-2.2392346504356473,-4.565571123698145,-2.8793306750847374,-1.3287208835841133,-0.5216784585053316,0.3466832789686329,0.43682408712481624,0.1515312452940394,-0.9466612842572257,-1.3185052030394782,-0.3791404866948891,-0.15993850994338757,-0.0432936046504219,0.12561662820118322,-0.2996645621034182,-0.7176190723038256,0.9989859246929438,0.4646159675356545,-0.1321344299582009,1.3528869663362981,1.4419559320710786,0.8884477610334555,-0.5515294648490424,0.36485997751328514,-0.8094931898679285,-0.5022639782349836,-1.5447965713573435,-1.759686539545683,-1.3388659486007966,-3.9841114588358764,-2.925311787258234,-0.978085209612597,0.05144881973499447,-0.4550314808400135,-0.11024094404818835,-0.12241617454434864,-0.8310796279304821,-0.982182535213466,-0.5198346262204673,-0.3325869811252015,-0.20425473301996647,0.07533269923477864,-0.6731681000355417,-0.1646172160038364,0.31001692673153675,0.01713196147137156,-0.6205744146216532,0.7991000004049343,1.140514489704664,0.8366694925444416,-0.9765557433667331,0.4995164274572636,-0.25317250684255505,-0.05714065432192261,0.2503061690961727,-0.6533498720178688,-0.8623131253916301,-3.380656187442508,-2.4978398571087657,-1.3372140220906592,-0.3149517433965412,0.1787188379494602,-0.3592026919463181,0.17179059464121546,-0.2984705323337444,-0.9273518982711738,-1.0667524924030916,-0.27902236441011496,-1.2501391290639365,-1.710796076427487,-1.808729158007828,-1.9625339963627308,-0.3967162194162093,-0.7920718952731722,-0.896395625923426,-0.8359408443958344,0.2041050721496697,1.3179608692723952,-0.04635712846307734,0.08152206604590806,0.15624499313736942,-1.4370414258198851,-0.5416949794008081,-1.3461489162083267,-1.5670175320209647,-2.5090167355826556,-2.6342201679606823,-0.9950448555282883,0.28472243219130206,-0.20918223589026452,0.2099459290929618,-0.022278360354274173,-0.013596025062731895,-1.9941644072390783,-2.0942703182437588,-2.421452356534635,-3.106022698426692,-1.7657809943016403,-1.0785342415991692,-1.1630106402158171,-0.998737420803771,-1.2996763416253458,-2.393447552666521,-3.3171835868531954,-2.32234426640023,1.7888202120420154,-0.36966259207763363,0.29578715613768203,0.9465669798892534,0.8508767130518177,0.3906353302243761,-0.37448658975515664,-0.3666398160464811,-1.2542055909404517,-1.845492168470951,-0.6042579418489201,0.20267731340128334,-0.5190426229620886,0.26741905700950214,0.3878216558768436,-0.08379624079385002,-2.033951273660453,-1.9176241254090802,-3.24381654379159,-3.8924134702942634,-1.6521688450501377,-2.4952371797285866,-2.423482265576128,-1.8995771074717696,-1.3344026217513834,-3.7057865667917946,-5.231699594872343,-2.5536004790185536,0.394068062358129,-0.8973080453211292,0.6401338141381817,0.8669450069244132,-0.3614012360832738,1.1361286324316413,1.6101047597026295,0.6842472807908909,0.9467721314575899,-0.5642273182408505,-0.23243091361727794,0.14862744774431863,-0.015080437745844905,0.32728063476296515,0.21763831167968814,0.1254931831365252,-1.473588926402714,-1.7106470688318407,-1.5010787315809757,-2.182922348760275,-2.8067706946294457,-1.1093814267903672,-1.0781287300460127,-1.847202589864328,-3.423316273205739,-3.9329592929788793,-2.6690357339358215,-3.0399481550542133,-1.6866987876740855,-1.415354267646676,-1.2886280138317154,-0.5038229875103455,-1.3806034094257364,-0.763549125365334,1.080741892592135,2.037534480103186,1.2392121184375118,1.122358885491961,0.2384772484207994,0.3162135869309821,0.18645049730086974,-0.07986460329557273,-0.4029135980278271,-0.13338559019882348,0.2627658247231581,0.3408118246546034,1.8817198847163088,1.60933218061648,-0.9171362390633296,-0.3874280165819924,0.48570110044633874,-0.31814699450208256,-2.0785695747336876,-2.6257152876529113,-2.876043864362193,-1.9148707689064952,-0.8972056935895654,-2.7290198066927025,-1.4384619747028724,-0.6621321041182882,-0.10402623267926307,0.3023610239510912,0.8372717611954491,2.0228539735959927,1.9040916564304693,0.30060914814937956,0.323252914095422,0.10079832776505591,0.4104042079218825,-0.07249531066079895,-0.5524848669917672,-0.25338949282529116,0.241382480213788,2.4775665530725024,3.4283294772136106,3.9282807943338547,2.6654254072508965,-0.38980700885466835,0.21890774654657796,-0.5887670451465551,-1.9573679736640834,-2.451257435758641,-1.9599815444854756,-3.375698454373266,-1.1488236549989645,-1.594333304600694,-1.5981368505497853,0.21563152986491604,1.4110712118473152,1.5666123002166925,0.7231365243935012,0.6843464357309297,2.173369529726816,0.05717626909455585,0.14981239813555805,0.12929308938830095,-0.319399333813849,0.14717746339228063,0.29622797339575296,0.05668406475605051,0.7351050589041997,2.25183550891119,4.478440478127904,3.7025889892086545,2.933210712485214,2.455599617799563,0.4897144487934893,-1.758365927165307,-0.32466142757430017,-0.8052574492466046,-1.3495460660157426,-1.5197882354803292,-1.7183496608382522,-0.9985138871361028,0.3757087208807612,2.0924956616457933,2.3517538431226948,1.5097067370273978,-0.025278345208752166,0.44841013443593497,1.5236354819842821,1.4173730574778614,0.249939477008102,0.5125804221508479,-0.17984551015882327,0.30004358764081035,-0.1708886193518927,-1.1965649119662407,-0.32068984907075815,2.1498196065625392,2.125058462165566,1.4179078992912812,2.2953165378927918,4.017753604375455,2.3137281636355556,0.0384477354580567,-0.32145256436004643,-0.9083847835286052,0.09637096432673775,0.8800747563248079,0.23918112012823559,0.6605352690737246,2.0266046043529657,0.8653769484912704,2.3891595320493995,0.9328242505155321,0.3160609200414423,1.9152792095979043,3.4017929013134287,2.6237038914576867,0.794240538884253,-0.1599746623134364,0.034556763474604735,-0.20391603144075673,-0.18639372872236873,-1.0302663236852212,-0.37721016822284514,1.4427192048513122,-0.5368715869392835,0.904167516956308,1.2015208249398153,2.5431505205483877,5.003720948561297,2.3157903132209805,2.107005670148567,0.7415711427091461,0.4021789177367042,0.4338760488358499,1.400908499251894,0.7289944245332723,1.5124429505304777,1.8847873925267142,0.6909720148926557,0.6656012336827085,1.3136982577708576,2.485129099851238,3.6389448226718857,1.8878145708633238,-0.3958372537952491,-0.31271632781793457,0.1802223713395366,-0.4613204413829316,-0.3486948666567797,-0.3077111339051796,0.5908436586386068,1.8521195400086359,1.3653278612338762,0.2257945230783789,0.9104152554864138,0.2525926067620342,2.282604521154271,4.294356727622471,1.526643151259539,0.8326273574067335,-0.1998925218135088,-0.30484620855393546,-0.1592783634143111,0.39573934873000133,0.1780088151666961,0.13558523669810224,0.41228668303495847,0.215157403028116,0.10519238682085608,1.1024815911076737,2.75644149813361,1.4143089759812009,0.7632989358062146,0.46189266931108486,0.37124873147672954,0.24745095898010433,-0.19609820585684126,0.31738571030655915,-0.035284194298362666,2.5944554374865545,1.7562542478032537,0.8511284362421876,0.5493116113157112,1.2420984499115129,0.9754655152891204,1.5173975160967317,1.3365957193007725,0.13056683798008015,1.632763903600579,1.1513355667879064,0.8377044273736882,-0.37094360496926426,0.9253636916510395,0.8337440261058318,1.1013136239229682,0.9933659540907065,0.8231265160248364,1.6908304936516205,2.5647798280828873,0.1544851736464207,0.2410386968948477,0.1442365985526916,0.26707560100963945,-0.2499644196180125,-0.46731250419911713,-0.4273411079938287,0.18352468475098607,1.7987084726498126,0.6509432145450225,0.3742114245088401,-0.7209231224867951,1.0322751069444165,-0.75370258926505,1.9235413819720066,1.1477897324550725,0.8404482953260722,0.11448073748366609,0.0872940246896079,0.979548084757505,0.7871827958599316,1.1732529360560051,0.40574565266029583,0.49856771999233285,0.6735980743866155,0.8656540142645737,1.9702873491825839,1.605676141582792,0.5190407931577201,0.42434667476309146,0.3698588913670757,-0.48367032678942695,0.4462555959686804,-0.30733963090654715,-0.29765948543008636,0.8337381381162093,1.2386293364072567,0.5095147375590866,1.3442261877112605,-0.5229130731301485,0.42668365726783997,0.2435372880364228,0.9000779763016892,1.1474452212310584,0.5214773680526078,-1.0641717687868057,0.6695365905856453,-0.09867772584132883,-0.3898383265005226,-0.46426579802836276,0.5039325875132976,1.4766062227075079,1.997462223749157,2.1844919911755043,1.9895436605173125,0.8315228412750377,0.08520705819885714,-0.4451339013808186,0.20991021755893013,-0.37538118358715145,-0.26146570994670626,-0.020758875373542124,-0.45718509821376996,0.2740251743818503,-0.15987612457222658,0.15137823983768908,0.36448360160881804,0.26313421269419957,-0.014256946965655486,-0.17881870069567454,0.3212885178008328,-0.30486568828367505,-0.9788349167595026,-0.21807097385308616,-0.5251948561042026,-1.5891311474491447,-0.6639306724474471,0.5184441623804367,1.4354023056190435,2.5017932803656246,2.713744789713671,2.0463063008560214,0.3109979584414102,0.18171751786825585,-0.1702323808167064,-0.3137981279122936,0.2706675778149439,-0.1703615649959042,0.23872652800044608,0.3392647867250758,-0.3974859225423599,-0.48050754029837084,-1.0484722907089508,-1.6626515768514312,-1.7969372868153446,-0.35438732851379645,0.7190060103426659,-0.5308558496419045,-0.6379411506287991,1.310112490294576,0.19222911276568613,0.13202273800631262,0.10577300636920146,-1.7710649723173613,-2.3325105377993722,-1.0481094823319501,-0.8645279823758192,0.12903920914882394,0.047418546330372804,1.1301766080787365,0.08983388775551197,0.018620403467570355,0.5645735918429547,0.27775840123346945,-0.3809988190795238,-0.0017452216083427747,0.06221024521840154,0.07322772647186801,0.2568965983664271,-0.29889446461893715,-0.04960371054135875,-0.8868863435063093,-0.7170621681865176,-0.6386329873209013,-1.4456159095881669,-1.7346027363616106,-1.8987968764524303,-2.095290325750006,-1.4587060382028298,-1.9871049299769146,-3.0084535001501314,-2.0684111559264036,-2.1676008169738687,-2.099386276400172,-0.9020033049687727,-0.21727675117827663,-0.012906609389520898,-0.5725665102217423,-0.10207507527526108,0.0226532265284207,0.04034442785316983,0.24134062089085317,-0.4862331953065031,-0.41673994224280886,-0.3273972316665046,-0.09346557973323677,-0.43462948223759335,0.08405880543476685,0.020787991337370523,-0.32907430185706754,-0.36853021388484364,-0.12015618237838968,-0.6482128096973218,-0.569046156785298,0.17298539291645226,-0.31097741605160895,-1.1728992142094496,-0.9133856833316095,-0.9899727440993216,-0.44053268533051015,-0.797444761901535,-0.7838182312440791,-0.7335520334249896,-0.2874666983788369,-0.2992270271390707,0.3899476753562724,-0.17589416738200153,-0.40124752548553105,-0.5040168002696666,-0.19533092884930853,0.014497818652811465,0.4296648586980296,-0.47655020042718343,-0.4897120399060336,-0.3662351092767657,-0.5048623153077196,0.18961174532575673,0.4702960775395239,0.41831984332310185,-0.18539139332127755,-0.1965973296229731,0.38069799293280243,0.0748124973030501,-0.30850926484832114,0.31947400783980595,-0.20042075284220315,0.03916745437074103,-0.0039545378715523695,0.02558342249046993,0.11118119857002765,0.1643347448534905,0.34125347045485593,-0.02470375414438978,0.4505107471127322,-0.046259621388197475,0.29358999637987004,-0.5067394757918191,-0.3298769349903349,-0.04439306146833847~,0.11670372790569121,-0.2845878795952286,0.4829603886429664,-0.17011819491841315,-0.04922864145742582,0.33683942935044187,-0.01593030208268529,0.12967524603042205,0.08465261965493694,-0.23072370968185826,0.15789875373794096,-0.3876248027339293,-0.1274328503744375,0.35235345689185965,-0.28754989811339027,-0.49407993484167706,0.1665563532917458,0.14066585498036702,0.4364155246530418,0.37085026052039005,0.2710437736291227,-0.08944520343689293,-0.05370006630481254,0.4145927542084621,0.3944695414327367,-0.18428365947174982,-0.22276582911637163,-0.4944411685737885,-0.2640761516309291,-0.4114695898602848,-0.14728118697321343,-0.4288558245259678,0.4888994844652549,-0.26274440737007376,0.10334221333456667,0.013849605960365252,-0.05856880474997397,0.5147094791127791,0.6589221092401335,0.24244952266663106,-0.07672062826891987,0.37893209598154126,0.1110040268869435,-0.35832579877319665,-0.12779977226505626,0.09345418799615178,-0.014898047000967547,0.056536935649419306,0.3582194803904344,-0.22332332341702743,-0.2719554090089886,-0.22389735612069767,-0.0755702174628206,0.19276668094152563,0.04684688314326291,0.17846621827079448,0.40140209438420593,-0.3349822484894359,-0.4958957862581338,0.1207076083348701,-0.10583006241950393,-0.16136218171951305,-0.3751205051353903,0.4845808225723061,0.2521491137820259,0.9338374415227809,0.968559151493433,1.2736033379192084,0.9010494053909921,1.2125163488829018,0.6219834533836983,1.4493524870998586,0.8653901342582265,0.4947205756213767,0.3604875607410229,0.3602025801486825,0.7093788912689033,0.6811244966427848,0.4087646347558369,-0.20450532376240652,0.19916746743147926,-0.036880275611300105,-0.38888139008028244,-0.22338722869773373,0.4858067065080389,0.12987534540505954,-0.20754564912639017,-0.07669400127550566,-0.012536421831319165,0.21878416567805709,0.24307581938811743,0.36584901214551385,1.5279742013484585,1.8814219274809794,2.2160109184660444,2.902794698938202,2.4367290820265732,3.486837988658002,3.4700744382049162,3.24526791390262,2.5599616618770837,0.9724104873685425,1.4519601684339218,0.9202960846169862,1.1482183688208238,0.16572488843586655,-0.019353568495352247,0.6115285840315965,-0.06931796498432645,0.4058327407325887,0.08700464764573901,0.05377867377023392,-0.07952708441164107,0.2601467055228298,0.2462295687676833,-0.4398888365911869,0.11410284280975441,0.10928368006049223,0.3204803367268605,0.5279790941231907,1.8971889841592862,2.0774431540261964,1.7853209695526797,1.188944355114937,0.5824817941718468,0.8946671402006874,0.37919575403986977,0.5956333633276164,0.3354042341359412,0.5860301559277208,0.7365754355310289,0.3353587530527632,-0.37257143221840333,0.05996886412667738,-0.10741550686925752,0.06198345812387539,-0.5963344756416489,-0.25143269986386974,-0.25765448354179665,0.33787683314489164,-0.15891509618196717,0.28142449931135105,-0.06797362631097205,0.35035988542179336,0.28579519365611245,0.09539478488583615,-0.27282322940896436,0.09051085174833846,0.7070881623165998,0.5637414558856264,0.7912500189047469,0.015011187672050378,-0.6977571813579885,0.4664192707190901,-0.081537986182195,-1.211665129233556,-0.3645641529136451,-0.8910024177838365,0.4044839410190703,-1.117978035228232,-0.06469300508676996,-0.47471283628493893,-0.18464246074936955,-0.14373856472283525,0.16671999860602726,-0.32729773253903605,-0.23878729547929373,-0.018046626112049602,0.15854680309380245,0.3243176449153082,0.2443649931597205,-0.043754735499844905,0.1409924183147283,-0.17082760889867324,-0.3008019677526985,-0.12608645380452105,-0.4853500652650485,0.25823608625036737,0.6969504435087219,-0.7522811960162316,0.36898694723439485,0.19416310778898221,0.14774118961916405,-0.6363963071861559,0.05377153586800789,0.30654977333924,-0.3775358354445206,-0.8758294848439454,-0.06203413280785941,-0.7661684802435963,-0.736778075860328,-0.03542012920721709,0.7530932093164012,-0.11078244091484755,0.04807258747285042,0.3642564698130019,-0.22818622346550213,0.23865552029298998,0.493746557711434,0.3649799696739469,0.5626454854240414,0.7591547914772885,0.37602287770281584,0.09957902798468395,-0.40625643990544685,-0.3775399643185962,0.11013096419359442,0.3107860274736526,0.5460708554350134,-0.6479750465507836,1.013454117193936,-0.10249855922394681,-0.8424554521485071,-0.5744247959024832,-0.9654164192500184,0.006403560854293256,-0.18829928553558026,-1.0430479098303966,-0.4895208723968326,-1.2655089203124472,-0.5834620332919485,1.0733341351526788,0.07472133767846818,-0.11360210828948071,0.051892075877706445,0.2488324121580218,-0.1748792529085517,-0.08269636378124104,0.2572108100808941,1.2056374598453556,0.17402777968848165,-0.4784220489356489,-0.5676669009534182,-1.5050573450087832,-0.6663244481744003,-0.5779262038459695,-0.8772050115207728,-0.0660796051852217,0.7501865946040241,1.038081157290016,1.3960730150986018,0.6430051487928155,0.20679594507694368,-0.4989604294458699,0.4892745528432017,-0.16401929060511522,0.3102122471672139,-0.6123961126798985,-1.0041312901788189,0.4124772509724005,-0.0402433704075723,-0.09379497005124841,-0.4230965130784249,0.2508425169814785,-0.011348420022725186,-0.380904690153624,0.17050681283101551,0.7308487282544148,-0.5070526693994742,-0.829263780698753,-0.2493199006440694,-0.7906805976176996,-1.2398743488470156,-0.9791165240687325,-1.4460480113732148,-0.24129429844145248,1.724654099666263,1.1345261938982651,-0.3054709859774361,-0.6566206236903923,-0.8133461059868302,-1.0533078070151247,-0.7097107583392718,-0.8260956966637277,-0.5481384440985454,-0.9805174054046258,-0.0035079335294889305,0.3459436455300326,0.1862399035342984,0.37842284492078876,-0.33763453130528653,-0.30577857801569786,0.16612027113016253,-0.20231830258298933,-0.007255816114567269,-1.2064514978826613,-1.6718694515329857,-1.965869961462602,-1.228104651849391,-1.3220050243116257,-2.0900560289098684,-2.1562399108003136,-1.8598832824396874,-1.2535282023470458,-1.3786063890467772,-1.8059078077178272,-2.2647510148512153,-1.3375195457976272,-2.0298964420636594,-3.0580184989290573,-1.0334257968171885,-1.2650866023677259,-1.9406261928783675,-1.372169335739356,0.3594207896364081,-0.2797417294355594,0.047632004098569776,0.0191687196521041,0.2705960403041761,-0.07093046001757419,0.27477808057578523,-0.19392511501002996,-1.0017090656962957,-1.7125487147708756,-2.266734228173384,-2.4642760424191263,-1.4582234531950016,-2.1121003432552374,-1.6374373976851415,-0.44876672082992547,-1.3550620000342453,-1.9435974086841394,-1.737807474750881,-2.2780774921811044,-1.6136878313105991,-0.7348263276191268,-1.7455181229883354,-1.9976596712756505,-2.2503391657805505,-1.1392790546532567,-1.7231879758214153,-1.0765838382377841,-1.021503065285634,-0.5796569308920125,-0.5633458120923371,-0.07909602182174608,-0.360023662508028,-0.04999928534128356,0.127195108188367,0.1044122846654291,-1.132639381144949,-1.7389756541749393,-0.70543501019893,-0.6958808068586807,-0.8145957328375166,-0.47339568150029565,-0.8085409194952249,-0.1414815946098459,-0.060944931818355544,-0.3781666929573371,-0.893133457118382,-1.231160423765033,-0.417839628908379,-1.6175329851240774,-0.7939340658465432,-1.4291076342500844,-1.139696502905393,-1.1573914131016294,-0.6393971247885183,0.7755564776972206,0.4562480166101101,-0.7554388528359657,-0.5495376100151113,-0.4569326657364294,0.38519536883240363,0.08387955674094018,0.15681030145250555,-0.10509506246910555,-0.5416775287240805,-0.9639451871963298,0.5043903228276543,-0.03467564592020123,-1.2524259020464563,0.44434362759500406,1.0702885650277718,0.8218622639111989,0.5593488653671096,0.407707539674703,0.2506007710243937,-1.9289120385415781,-1.0197692173016428,-0.8887621444602931,-0.8485681445334899,-0.5430887835206553,-0.1615884705085716,-0.7686552573047466,0.8191791471009343,1.7901688386449055,1.4065664585829962,-0.644672869874014,0.1348061658164711,-0.2575489921836392,-0.3126919326366012,0.208410735967321,-0.3211794953744654,-0.4526234322973551,-1.2777328180035763,-0.36138690078825725,0.9936516332258597,-0.03902590986393159,-0.013373846616744062,1.0063958633720709,1.4260573055997254,1.0524101245469486,-0.2546351303714728,-0.8867319977169087,-0.9201072181247425,-1.249143035710162,-0.5934024470816474,-0.9782623727173808,-0.4776210580098215,-0.8168159796113267,0.5434683255099259,0.4285408682673188,1.282736586622919,2.357325928466985,1.2726736022053196,-0.2154270356120209,0.4861449204805608,0.11440970950284986,-0.44961544267848585,0.4121832129113335,-0.3969383953607023,-0.2396969983035003,-0.5515939448434027,-0.19380621898433176,-0.09438073630493955,0.7992770601375282,-0.7472616537299643,1.1196516906865226,1.192573270609486,-0.4817387079138249,-0.5741838427599396,0.08410132717904352,-0.8459567223280098,-1.2040157921670833,0.008522090198573315,-0.8880828509192953,-1.4462055062145769,-0.139296098245817,1.0925136992116977,1.7049073276253117,1.1826111492252966,1.0376437667305536,0.5851681671404346,0.4230137408353561,-0.19765461048972363,-0.05049261484034158,-0.39526850067636476,0.12197522846196424,0.26104893940239154,-0.04153589085323697,-0.3898015533262942,0.2204784582063336,-0.8116212816809929,-0.7929885654385064,-1.449012124891543,0.8801998275986345,1.6395383690979408,0.5913784851180057,-0.7058727107483608,0.2538014341931049,-0.41962237143937847,-1.3220820023745659,-0.18958926128774128,-0.4916341974124084,0.16546952841936663,1.5999935802946748,1.7581560920727075,1.0030537969534752,-0.05220560959909609,-0.2087522985830073,0.5921947553609078,0.48312203706516893,-0.3255710280394287,0.2684827779424729,-0.009198264265961634,0.2676292601080915,0.2295562185717596,-0.03516285360935813,0.40412160849172957,-0.6376798800351481,-0.547563206664359,-0.3086785561725347,-1.5568725480176435,-2.0527543953394667,0.894437633868129,-0.4801098776570582,-1.9637515951359106,-2.4428841141454742,-1.2180964466288613,-0.6406330366410862,-1.3232043799750766,0.6410587959998192,1.8228937847257498,0.618713757433619,-0.14751324162110008,0.0448682755447365,0.23846546501700996,-0.2798770799720162,0.2951721526714447,0.5385667926075121,-0.31400133703406513,0.18338738448213024,-0.4796989667473461,0.40361062877780574,-0.4016827467112505,1.0678863749459981,1.1201791926885454,0.0633648442241489,-0.045049185742382605,0.5505721049284625,0.017604373415670758,-1.4940674459603287,-1.5235083943809038,-1.8810061957787438,-1.6498830522143266,-2.240959549178604,-0.26396352294224085,-0.005169636700919673,1.2960805201956722,0.9885320896099062,2.376984147469084,1.0519108087212177,0.12372907200915469,2.0595553535496705,1.5443647803831133,0.9433950426282015,0.6436800059797299,0.14197115623459183,-0.08230404154548003,0.2975262780170312,0.021040567555945154,-0.46985625102577194,0.38965222291923596,1.190706569370238,1.6365816387193954,1.1839438587388145,1.0925592662224395,1.0265881597015982,0.12537340714168455,0.7031474938014591,0.6310775118038935,2.5624263294573435,1.8148854146787152,2.2058777408303554,2.0018109971233735,1.952153766820874,2.3702708077979153,1.6858734277722418,1.6493393719705327,1.9208922796021881,1.8595391748979806,2.7167932829863677,1.1888358933919974,1.6659321608370083,1.1191629153779032,0.37545511105878704,0.15791375013746875,-0.33172608572604856,-0.22068539407919138,0.3036086866655769,0.5204199992051803,0.7400592264637421,2.347300856065566,1.4816065917378396,1.6668720319573518,1.3860675292241094,1.4387351423268218,2.2812646221107933,1.893916177811084,3.6549944503227665,3.0581707789077357,2.8210276324274415,2.9786742240130692,2.2948632034875196,2.0574705631579704,0.9289304846511615,1.8747967437816049,2.3510601685387877,2.0921931139207683,1.9396981134070634,1.1688204939188607,1.52467894013803,0.7854613629846305,0.5578296136586205,-0.19980997138223378,0.2891968871589342,-0.49371693677043377,-0.3440243995938352,0.010269351163010915,1.1586784961994563,1.7407097701509189,1.5621085643781787,1.0935023327517777,0.1505795736977193,1.4477404602611728,1.306927539339416,1.146224648165123,1.7449853290156971,1.7519657470039127,0.8056843759602992,0.8898957973850663,0.7338610147383431,-0.5217001474039838,0.5823959194819696,1.0250536460095176,1.0301649855259198,-0.10732841250503553,0.27239318602794804,0.8731687888109708,1.2210532299797092,0.3650879834301696,0.6181626357268556,-0.2287817307895002,0.2932144470657398,-0.32806574696911084,0.20301104069022669,-0.1707192183015938,0.9141665252564954,1.8063331124204363,0.5844060538182884,0.835471702421378,-0.328241498814438,0.36262610425906894,1.2778431122443976,0.7527687827124286,-0.35067789331403537,-0.15783915861944775,0.41814450204246223,0.06300285627642994,0.4295597342853463,0.13563791554689716,-0.240136577804912,-0.027812746225186934,-0.30683476557847356,-1.0967425527132022,-1.026696088702801,-0.3479760251903174,0.7508773835994861,-0.0020926921973579912,-0.19021739888929107,0.20323582862309938,-0.458811580703999,0.08315480025502182,-0.24972877497745363,-0.2742887203126427,0.5926768862827191,1.6297584601689936,1.5003304511566924,1.2932889245813004,0.6333724262864049,1.0786731802743228,0.9263513444340312,1.0745438965779222,0.3806554025093116,0.7723038876647504,-0.7547017123932283,0.03986524630865423,-0.43633479352029425,-1.2624394665284622,-1.067959837571145,-0.7402352375951078,-1.1428645839608742,-1.0016413021001132,-1.6139324591797493,-0.4165573881785814,0.27348702579082945,-0.5323535105075656,-0.0640626154821182,0.07627828175153015,0.37557154428211803,-0.4661805868486629,-0.19570031386229533,0.323084565829305,0.5162042745458844,1.1168655368245584,0.8553595420069581,0.6437205116061803,0.9242087060619745,1.017252472841016,1.455988738568516,1.0961455396823239,1.8011691957828937,2.3648803964122815,1.2372809825209756,1.65359880808971,1.1464529294853947,1.4137080248374694,1.9704767265781147,0.231550289739704,-0.5491453819747124,-0.7520923358876976,-0.37687360799731773,-0.3057583757971859,-0.04607433714760004,-0.20339306548274425,0.5586791385065888,-0.1990829062531284,-0.3443390874664165,-0.018334542931067236,0.03193875190772806,0.39993783488898144,0.13872656272792971,-0.11379431375758006,0.12040105126184954,0.06618893969772653,0.4312391709633991,0.12041257893078298,0.2757746343943556,0.3736234731451595,0.611072890451258,0.10534679884620156,0.20514972409555668,-0.8201231876974027,0.02072714734153007,-0.5163075823908752,0.5288807069672328,0.16526195767055576,0.022119261631821045,-0.8153810413794906,-0.040250764977372275,0.285286447250913,-0.3593747791183248,-0.43856941345171524,0.11508702328715517,-0.31080153863382987,0.4045077033279696,-0.4340852285304029,-0.22931479211491654,0.251993955895228,-0.42575655568787385,0.4071489747970992,0.3410894618957972,0.3456277562649129,0.12113265965840848,-0.8744421726832678,-0.885434010485759,-0.37076838989704647,0.20200198806914998,-0.13192478908068944,-0.5834513915749425,-0.653993435605823,-0.5145969403058442,-0.4638688458490465,-0.41259621518868445,0.11584119732179775,-0.323982922038686,-0.07066509251981805,-0.10579783279311065,0.1618663522600303,-0.49800113710257665,0.15313024111773335,-0.15453887294842203,0.06565213705558744,0.4059927154329456,0.2782935352446285,-0.13456301539898904,-0.24047888787135716,0.3875286205693962,0.3896368805953476,0.19601282913042256,0.07721797686999902,-0.4667599284239131,-0.018904963362750115,0.19765454555688577,0.0985472547657664,-0.4983664543507106,0.3115326496948748,0.13280520795304024,-0.2722416645165076,-0.17504976150021198,-0.45270277326810643,-0.3481854002549606,-0.053873425446788754,0.3653726285378879,0.14095273579008552,0.03139400357205157,-0.06109179084921916,0.030942573435667177,-0.3739816319316688,0.45410434951127787,0.106453286021935,0.16994627577174373~,0.28027935146959965,-0.44504409991989996,0.1454665844927551,0.5199946471995546,-0.17962555149237455,0.2492733966939726,-0.08685844389607815,-0.3850482679443627,0.4338026815357559,0.16114526486527794,-0.20760220197481435,0.12329687695036225,0.21443259559008185,-0.26612160516880273,-0.13019771257940724,-0.44154447058876717,0.5035708554578736,-0.45363736764726675,0.24450725882189142,0.47485522436708355,0.21825302930516302,0.13631882709523194,0.27653070053742274,-0.34371674242205014,0.35473819405548374,-0.09069200722336683,-0.22290274784172479,-0.43588548922441056,0.36364302836520607,-0.04532951148906927,0.46781210924002964,-0.42486606347634653,0.461599098185361,0.5138547612127088,-0.08678747298234447,0.1475863240825493,0.3211125308749737,-0.24209564865621483,0.49376089191758626,-0.37797699017718206,0.4846233210811229,-0.3519333434768771,0.0986246338323183,-0.27085822230609,0.4674417189659967,0.3167754779684069,0.5212829075925862,0.4547135862217559,-0.15826134883143872,0.4452314381684876,0.04060224707613406,0.25511989222239656,0.41871325249566543,0.05728335422994812,0.42526480060737143,0.17914784546597576,0.4245324363958705,0.2563544993542977,0.3604266914884395,-0.35044496636529476,-0.135862420195698,-0.31315476792921654,-0.42847861351125205,0.29080461968762383,-0.3837445379878685,0.7318028310528871,0.5884174247243226,-0.02407199640999061,-0.03522252611568121,0.6163989532362502,0.16743891920340226,0.22175194819102353,0.21150741017307287,-0.019935404945705466,0.4790557687638187,-0.001794393419422212,0.7850845170859095,0.12497610294596288,-0.41173362116494167,-0.28747591602278827,-0.060811646622484006,-0.017015811794953338,-0.3762501916022161,-0.1426238961535586,-0.012757635914593547,0.43089459352296483,-0.096600409146518,0.2775686911871426,-0.06926500979330309,-0.40691405425206206,0.08599294634116536,-0.07765659737451855,-0.15804623739276963,-0.002771589122684685,0.36814710086880953,0.2705711506121503,0.5945848878974939,0.9117930008120009,0.5735162701682669,1.247233114725638,0.04763129968405267,0.3528458631670046,0.1672403079556438,0.17767152269498193,0.8904540214792223,1.1576428264941485,0.5454196352030236,0.42173106660642373,0.1571816951938758,-0.08581836964801255,-0.09396032309718179,-0.024974898200056418,0.28969219926720174,0.3687002214691368,-0.3444517004880453,-0.3489906869409749,-0.48451993052050657,0.2456442337007213,-0.4085731576035952,-0.3761668501380694,-0.1489026882728226,0.19061747250411454,0.7192610219394759,0.5350505382249424,0.5830122562616507,0.8496782709730388,1.1947686003102531,0.45880855351604194,0.11679871166315708,0.34290992666892045,-0.5873739308965912,0.10271387770845339,0.8245513757995593,0.8617544094116196,1.319471609034889,0.6358690297514538,0.5099683572208641,-0.03650747355372036,-0.03940880991426397,0.5172343034269132,0.0728331270185719,-0.46889539588816725,-0.3950287976339458,0.36802564205778326,0.40194866888187597,0.6732125666752037,0.3480617141970374,0.7054937219852949,0.615244741739345,0.6406239285437273,0.5840036841338928,1.3943328231403294,0.37784712190808,-0.33899792904062426,-0.18304156969606494,-1.0311223531244647,-1.869204651045138,-1.771172719227958,-1.6596676980595608,-0.4017987250456566,0.3522515230447188,-0.22240277113662607,0.7972568018750047,2.2328161330371326,1.3218674824293843,0.4218841691064033,0.5555013668248253,0.10085826626699987,0.3098632763575779,-0.20932575956293742,0.5127284282670043,0.0495737833946328,-0.6828920486636497,-0.2736570509980927,-0.24808589700214473,0.3906324503433276,0.8004241015029155,-0.15192216493928926,0.8150070727064167,1.11080682451642,0.5584798423752494,0.16506378394109353,1.3907395882137796,-0.04045116733400172,0.048647881965682274,-0.17831998965798967,-0.16224128939979535,-0.766515691928076,-0.047169494101662164,-1.5242011309820651,0.17058187100605188,1.8117408588383954,2.1376473791354704,0.4743172191525149,0.46971401619030695,-0.29625477624218083,-0.0004368170336651195,-0.27978251935801945,-0.5239594835782476,-0.39512690811672785,-1.0559331167591655,-0.7854504898644793,0.18590485715464308,1.0643617053952166,0.7054473683683115,-0.2687366812336706,0.47980830315423,-0.4461273025079149,-1.4476913879738156,-0.1243687984493896,0.9184423084554495,1.1451261231448069,-1.7400457647869922,-1.2812301934486088,0.23823433294533314,-0.057233156052691414,-0.13497907941045664,0.3397296809672323,0.4173461260176524,2.1281846790175636,1.3405972978289789,0.9943018428831049,0.3880743157110607,0.39163418297276603,0.09005823381294902,0.07013694330804962,0.19812758679140355,-0.5505008815368937,-0.711311173184108,-0.6068297539857042,-0.7083170268838584,-0.6329142485164927,-0.4064946792160775,-0.49519953988203086,-1.946268126393864,-1.296542647324688,-0.9120636655997182,1.1369230055599584,0.44372797975720496,-0.695303123407165,-1.0432838559860427,-0.990188225479969,-1.56337528060193,0.22614250736102012,-1.2475702562768292,0.47245204924105827,-0.049039871134853745,0.240741671580095,2.1959807174207007,1.7474248581622276,0.7302450401637867,-0.2557551129401877,-0.21930150697095072,-0.6867306145763459,-0.550864395239961,-1.2080717131459109,-2.156514976795587,-1.9032488217325727,-2.2353036331428964,-1.389296321177928,0.40850549509064654,-0.06478492102965383,-0.8388949981703392,-0.2103063421431757,-0.40670132656396435,-0.1187691011485789,-1.6401771996321661,-0.9679444104649042,-2.3164252009550106,-1.7817355024320147,-2.2523127394951152,-0.7624973032243273,0.17490808558480772,-0.5337705296594175,-0.042213360060838985,-0.13709545885200367,2.6170411320498133,0.9714605334734407,0.9542241152647897,-0.03319763739815175,0.2471235421315768,-0.6539485570851475,-0.8705964494008753,-1.523273641664354,-2.4771475510331373,-2.6998842706824977,-1.5837535962008837,-0.3187362295546819,-1.0619500766241836,-0.25186315335954423,0.3551382177899021,0.1651578714006882,0.36837958722562436,-3.3203626795547434,-2.622515716942483,-1.950724976443943,-2.975099732546213,-3.1129678874866595,-1.5336013669073825,-1.1431437738069172,-2.581410490524681,-2.2704022190159456,-0.7978058395042983,-1.7392232778062986,0.18589762078978744,0.4617827386722891,-0.05996251514655919,-0.14845414027935747,0.4104483245673101,-0.3957501000211688,-1.0852689735400474,-2.6984532892993305,-2.3715888524936743,-0.5461521179135986,-1.5113904007193444,-0.6291478798827456,0.7058038059727149,-0.3063231179493744,-0.9116911364113924,-1.9682945438604942,-2.1843022657833533,-1.4668944430599007,1.5734841258504968,-0.11627767387840574,-1.0214100913604358,-2.2892551169208835,-2.5639899957511196,-3.0619731176397416,-2.8980193108265437,-2.655549315313798,-2.517141927681375,-2.2480758893590282,-0.8101620563625007,-0.4047852549846025,0.02638849528716854,-0.4344706729397971,-0.2037518055127057,0.026433403509875802,-0.6400326326179188,-2.2980717714861467,-0.26870845420103945,0.7903934465547674,0.8600284399819398,-0.9003145879377307,-0.7650292153344763,-1.2803602781913614,-0.3844640696308886,0.8239777902230082,0.15670346215163766,3.7115748064118423,6.785905028080337,3.1194939964194086,-0.5963664576149869,-2.9341726501705496,-1.1464031246351631,-0.5411981905676833,-1.5341628990632044,-0.5758799262438982,-2.364962878148062,-2.2768795442044123,-1.0822862926705032,-0.27441436124540014,0.28096759944837785,-0.310878552754186,-0.13773568660530291,0.10478885995419812,0.013394964560042983,-0.20996988765854274,1.509801758988164,-0.27286857272863996,1.4962288908116932,0.9642402905160112,-0.03715836907457113,1.214250991185396,1.0902550418583628,1.1290117418297738,1.863826494757144,5.208702358031847,6.537920302689437,2.7854509119163358,0.1974616269703337,0.5242399858514377,2.0726336161638743,1.3361260563906365,1.6690227156825908,0.11922992027348898,-1.7054088453153724,-2.9819823486338812,-1.062096955605503,-0.5709737126824302,-0.28577594075096924,0.3972298146903227,-0.13226729200056683,0.07258542599637967,-0.17329044873983296,-0.39733779953826787,1.318343193941508,0.13672057568463156,1.3842156201940439,1.0067242573286435,0.8621107411279604,2.7627443805398455,2.0068795850010104,1.8667815553897449,1.86357248560713,4.859135245864319,3.907317358994751,1.622355924498805,1.9483921141408451,1.2714373761601807,1.8321008116105126,0.4097188161564549,0.3628431314133855,-0.6394574024480235,-1.5263482458565656,-1.8372053024431818,-1.7795235614179261,-0.13036789751799785,0.26269484254774667,0.24893408922558768,0.14168762330807935,-0.4661764403421922,0.2513236576251222,-0.029259592057075127,0.8361509043322195,0.4996023644654533,1.6200541727630065,0.7903804304545327,1.323183002022022,1.656234184111031,-0.3546948658586014,2.5806860297582297,2.6627698581793537,4.7227187158251756,1.8229997972156966,-0.12630677126688555,2.752641517383666,1.4990084571850466,-0.15344939202727703,-0.9770258082587396,-2.194253482855288,-1.3428697422300828,-1.4634267782141785,-0.9181470146327203,-1.3108999214458457,-0.21600164414717749,0.2827675217853445,0.3702075797488789,0.4834104350368624,-0.093240798610053,0.39139253472666685,0.018779104602795606,-0.14189119167389044,0.5561216381536511,0.8917692056025266,0.8682803199707076,0.924802975297797,0.9228814394171342,0.7110756470731626,2.500489411765578,4.385302850886366,4.500627117464447,2.0842924995982544,0.39082223504998104,1.2954413147919674,0.5162103311080919,0.6123615708500798,-2.639547630592966,-2.0074464998722217,-0.4219904352160398,-1.1426086516259484,-0.36058333900835876,-1.2158781683260318,0.1912599900271327,-0.21582284001710308,0.2715321358454406,-0.4376151357002785,0.18124597867947434,-0.38648024397863306,-0.4863962746890136,-0.4221031588405202,-0.5319054081321439,0.607822618105803,0.6195404973739049,0.08553020741321057,1.035376554834884,-0.023738851979415398,2.0307655977294905,3.7573885010507744,4.003721195491168,1.3921422355954516,0.9143359648138426,0.2562924427394173,-0.03670210669370274,0.7048610075782011,-0.886579103236841,-0.4341094145421626,0.5894261742965968,-0.33134554373441244,0.5960250441625566,0.03586455481288186,0.07950863235748112,0.5138572355635812,0.22068734710004334,0.2295074538061566,-0.02614251339166843,-0.16118981443081856,0.43326818601072614,-1.5264003475485073,0.010140990390468448,1.1666042342925942,0.1393839785464122,0.11375823392958677,1.579385809473463,0.4041900258285105,0.7547686932850557,2.1329175029243834,2.584595178948196,0.6808282930894672,1.0641831814193836,-0.3351943283099486,-0.5806960465382199,-0.46315116584896476,0.3374145509966986,0.6700976018538052,0.5939547053300761,-0.05220839737896383,0.7244718876287681,0.6685145513520552,0.31807733792542364,-0.01618973571653982,-0.02379882316819533,-0.08364966410621964,-0.022555219689150963,-0.01613808730084003,0.009661218383122857,-0.8013935193808576,0.15471732131589186,-0.05474013199119637,-0.34667914960409574,-0.43698034200284125,0.8575774811718865,-1.0753545425582978,0.27777255239629933,-0.03617735761799231,0.8277832429807087,0.7198351546878154,1.5028910938718973,1.2888396977905203,-0.12911331662511474,-0.12615274343962826,1.0694234899671404,0.2186475055071525,0.19967823954769184,0.8720470501791772,0.9427852015233178,0.585154530409588,-0.12824369718074172,0.2964016430599034,0.2133106077359992,-0.29710646206737784,0.49220292600874904,-0.06337050201222567,0.12907930319702093,-0.8690136234080662,-0.04985643602775109,0.266569208587451,0.01788798250797641,0.23364613480474158,-0.5741673037177019,-1.6692777392357643,-1.7905191774504745,-1.8027213838624008,-0.592187851423868,-0.29047795675575155,1.1533327879630615,1.3250313537413652,0.8667071822989708,0.8824228316555162,1.2859176190712902,0.19081767143276743,0.56740635332257,1.445779616846472,0.8861228279298364,0.4832677418167753,0.42077698158993415,0.5210312200470912,-0.2812108870735062,0.25072570365051794,-0.06415937835155885,0.06169705178425232,-0.04309364219107584,0.0302346788870062,0.2780508263096246,-0.1357198427247022,-0.6512016903196645,-1.2592712919875009,-1.3308652408828043,-0.6369128272627023,-2.174286590647212,-1.3772170793026783,-0.9118861362703964,-1.1029756098613377,-0.042948371134865486,0.8799016257389798,1.0531009858269151,0.7164455871310964,1.156184372231238,1.0516123772693882,0.9786931978671245,1.3842012305372073,1.1962178459926447,0.3838425697680605,-0.12478378730505649,-0.35541068804935566,-0.12776204025604956,-0.10907052031629141,0.2908671830992989,0.12157333367162881,-0.473873763780812,0.28982493272942667,-0.08295276719214192,-0.47946634041031316,-1.5949237941365588,-1.2465416864255365,-1.051812209161288,-0.17031481074301058,-1.5713296239518117,-1.4658355022257454,-1.539819717490073,-1.083406785908942,-1.2468241837507572,-0.5234123993865621,-0.5993191982343842,0.29435122991472346,0.33704421208426044,1.1179265495185005,1.4071840143256493,0.5400285016151755,0.9652503770656475,0.19129678339173706,-0.2896000322174159,0.17150275875292406,-0.07072549512476116,0.07610950286146788,-0.04812418242047834,-0.45449661834254995,0.07499627687700307,0.1213097840675024,-0.26670506475122846,-1.233770175661922,-1.8004868232164202,-0.5602558001059532,-0.40804698337630196,-0.6274316480213749,-1.299020358492219,-1.011089568453131,-0.6334455150208488,-0.6203152997193566,-0.7740074852576304,-0.2090559275144112,-1.0477833175093898,-0.7730501135024498,0.470250896758227,1.056167513187127,1.1706481995796039,1.0215726131575147,0.7097784188295174,0.4790324119030568,-0.3482687363422069,-0.13953505731432606,-0.3159124682774685,-0.07272285825668194,-0.20672810578948894,0.22909285656916725,0.4002774286077598,-0.9632978941451541,-0.7433026940550322,-0.46562087403132735,-0.8403014577756404,0.1983519908213039,0.8421979724326362,1.4670008336712368,0.7325019715432336,-0.16588979781633326,1.479710332244359,-0.13304578972503334,0.5525125762498488,0.39990682050913223,-0.6773994120487083,1.6955210026424152,1.9947123229705372,0.7523401578601164,-0.12668856070291065,0.4863579798734244,0.9508305042851896,-0.10927281641302422,0.12405849491092294,-0.34945327977230994,0.02451884708529637,0.02409322410948709,-0.27304972499261077,-0.4791509157968181,-0.441686637125026,-0.2897353774828843,-0.47372281973417674,0.18993498187406155,-0.0745091009819857,1.0689951616282574,0.40016648107219216,0.6010599795718214,-0.034259097068071745,-0.08434838927650923,0.8882889633355117,-0.5238678843404718,-0.8549079824484482,0.17510446949546526,-0.24466461393428443,-0.05477729000901588,0.8230665711164378,0.4688275018346063,0.030960982833389963,-0.04935248213460188,0.13679579912239231,-0.16101037006393093,-0.034676652014050444,-0.3935593002372409,0.36051748035418346,-0.3020697755953731,0.2952640532858252,-0.0968284221384869,-0.0911611812509718,0.1088366164551319,0.3920357660803856,0.5578458798813077,0.21546740064435013,0.11462152885324778,0.9209242166149462,0.6244418870358456,0.4064102659614862,1.0675819747070392,0.09365199788310574,0.6691590644246789,-0.38388219032368454,-0.6479965739019765,0.6263835074544403,0.5581282439514965,-0.10534095185092082,0.534570065643847,0.709265360117987,-0.25301818169829465,-0.4148942407769923,-0.10270520064847453,0.1206505426298967,-0.3180865625983558,-0.23843910862210124,0.3949803079433561,-0.10632315628711099,0.41994600470056936,0.48591540801589544,-0.25604298686106847,-0.2010509659512947,0.2276748033475501,0.3441182194244685,0.2737620105671584,0.2227662392416311,0.4738657107239808,-0.002119780421809338,0.18526439318001894,-0.5647898244632278,0.34249787383852875,-0.051343006206354715,0.21573779566587498,0.30656180906387004,-0.43551141780853014,-0.3779808357167958,0.10344604445815646,-0.1766617725447355,-0.4272750440460175,0.5066236896417614,0.3181222109925122,-0.2728284586225033,0.24747264423221518,0.42747823003302593~,-0.3962543651595318,0.31780900647857385,-0.03250883016153046,0.47333463238728285,0.1753597558289391,0.13773492827628037,0.09067858117644616,0.2612088741784733,0.3429536539727382,-0.010745574220043911,-0.22898666084230396,-0.1829975799006846,-0.42950254019264744,-0.10745153747431209,0.38578286318948674,-0.36291579877000135,0.3668854536299792,-0.29685749590125116,-0.3901166711012069,-0.45601058706887926,-0.4724250342333211,0.18095805071369636,-0.47842988545316584,-0.2254086570609704,-0.19241155743399146,0.2861970644047918,-0.07720523032654898,-0.14650999816277027,-0.04508434006561983,0.19278478862878795,-0.34163403421134025,-0.26836896324923737,0.4485709867098974,0.18645881975855605,0.5715528984016296,0.10563991192477505,0.5260496750441485,0.28630747523958366,0.6250971925189146,-0.30717762662198095,0.22333179106126527,0.46914153944935194,0.2248073602165313,0.06275628229776609,-0.17065415161377495,0.17954607012156173,-0.4310246645631202,-0.21148644853051093,0.33753158718371823,0.15605351140902105,-0.42672573816811576,-0.04416424994489706,-0.1898303672424863,-0.15881185385746172,0.4458450605786703,-0.30765405087312575,0.26104210938936484,-0.013507163812105923,-0.06992364463591273,-0.35991200064387524,0.060634361706675785,0.3625075049454223,-0.08614572797233308,0.6163003000898626,0.643978916149645,0.6014469927627972,0.6080576052509212,1.1108948433684311,0.8645872623828779,0.9346460128305021,0.4386317611220261,1.4685410871241928,1.2660474636237484,0.03122338061652998,0.22243704852604163,-0.14021190789684504,0.4232698662985158,0.07009193265097648,0.7113183958528713,0.20713897660759126,-0.12158946008091617,-0.2678611227575037,0.5058622135256773,-0.31405193726852837,0.1882613553163603,-0.1633234861340443,0.19522933997649106,-0.23409042364034094,-0.3417764422922858,0.38280448482584284,0.3851021955481447,0.19305560424003623,0.48721801290544814,1.838561413194639,1.7797374254401297,2.0707253359000726,1.3544714297685028,1.565001031099048,0.5888238765280523,0.6199524675044986,-0.09408384505946979,0.4239122725651993,0.40108033546835353,0.07642683831130427,1.3274214540904465,0.9998411147639101,0.7794641011719073,0.6400300808909527,0.40356497667941893,0.04018825535097007,-0.26488837330278614,0.1954809231774864,-0.13051656708395754,-0.27252861612148366,-0.44915490616073306,-0.40151094383640484,-0.21410685586408715,0.5910058156931892,-0.003933402797870938,0.37469912055861915,0.1999368484052651,0.4047563222112129,1.540522737434187,-0.4009407601467838,-0.39110638035839296,-0.36598009943029564,1.0649309387115204,0.6024977445746871,-0.2988316272960371,0.4014663551450264,0.9073263455049217,0.8187235141983042,0.6074417337729995,1.1799531610071974,1.5471098657570013,1.5815293188526425,-0.1600901697657123,-0.5000163244329039,-0.3326814890307553,0.38138446496968365,-0.05162051156929959,-0.07461498544260721,-0.41571258088398727,0.08837649318582043,-0.21334002716152492,0.5079002895351165,-0.030785627288549097,0.40071840819441445,0.17728983331383438,-0.2595635838465467,-0.05452918377619431,-1.2444642875929175,-0.7922758555587341,-0.6743113834323009,0.20137951696848677,1.3815129928674093,-0.6693107722920438,-1.1548763615351387,0.8680333326287165,0.8468974097207527,1.2626199805109823,2.067732768698579,2.048230263774249,0.7742638686896479,0.1359633893955277,-0.8438239127020323,-0.16145077614452716,-0.2711303998254351,0.3664433925495672,0.24038660801595457,0.15877141572642473,0.4082998291859035,-0.23384005326469492,-0.8960862705965847,-0.6495412274330543,-0.3568533334892504,-1.5241832253904617,-1.26186997430417,-1.0091582532459435,-0.8630368660358945,-0.7035030931246725,-0.699041282875147,-0.17655778003176106,-1.70187619267458,-1.3487228841324606,-2.3845395216699274,-1.6401722691608436,-0.30210054181021273,-1.1642050945817761,0.5929647642681081,0.18125525721456281,-0.9384311705593853,-1.030715383966092,-0.9911874034318867,-0.7333466541478307,0.036549577694940515,-0.33110014245007563,0.37060963395233676,0.12376395447550355,-0.01132527778406004,-0.3508228288622426,-1.478968499854644,-1.663288878112282,-1.3359013457931674,-0.9701221543717654,-1.1293825257667585,-1.0756755118321055,-0.7460348856505207,-1.0159305092269897,-1.7861225486355368,-0.05493567706608143,-0.8686922463559833,-1.89378870403036,-2.0059270830342792,-2.269247672566881,-2.001044061935555,-3.0748398614888606,-2.37318042471558,-1.6378068754852582,-1.7699654245951102,-1.207142179573956,-1.7554748227482473,-0.49512638702832523,0.44389894540386543,0.14104547763057879,-0.11633054787780821,0.2934876228810729,-0.3566384288744885,-1.1105194684123987,-0.7784761183826594,-0.7257076849413884,-0.644155176764407,-1.195552649103394,-1.9510785208299788,-1.7182723269375608,-1.8673045040428093,-1.0762860347424057,-0.7207429330437459,-1.3052499553211743,-0.3209145974901433,-3.13920400406872,-0.7956491296896823,-3.581412789738003,-2.5630609602077437,-3.622964199287887,-3.4196213035030425,-2.2553815366833514,-1.9159485339981885,-2.0397184909357153,-0.805552472030967,-0.4850036232981949,-0.48500549386792585,0.19646236887777452,0.2242814581614585,0.24645037674538695,-0.4797859211351025,-0.6136678011101502,-0.5903034059824068,-0.9751758941935748,-0.5155724338556988,-0.8117866873155256,-1.5219981765838906,-0.9335354079653638,0.3141972737440418,-0.007664990936800847,-1.4979101701926165,1.2042977447214323,0.6492027060005502,-1.807553673613721,-2.7959454666434915,-1.7290040679025271,-2.216281112419641,-1.7954087714064255,-2.685305541883319,-3.281427455023421,-2.7427282647019555,-2.1238602546868726,-1.1619468824751338,-0.23741308807673034,0.056599906622732635,-0.4357499747905053,0.16482236883802598,0.3398280303724088,-0.1948073475065392,-1.3611750884582174,-0.049879975028039265,0.27392005720485135,0.9387818654129185,1.566241889575089,-0.6167792709619457,-0.06158186886339066,0.4650828423808397,0.28398510814863287,-0.3503091422142438,2.217988904081332,0.29557845732736104,-1.041213309158902,-1.924683796097902,-2.3826811151225193,-1.7604456670461046,-1.6113988176417557,-1.6711774184293673,-1.5307467217721105,-1.4616457521994344,-0.9664097064554322,-0.4306267714355982,-0.5727179891909076,-0.30465602191443136,0.15069214372448353,-0.3477097927278535,0.23125744225050204,-0.1959352409944668,-0.3641445713608707,-0.04872145958371446,-0.24679032039865528,0.6893029291209442,0.6897591105262264,-0.2488982709920323,-0.37809897296208816,0.17767237421001617,-0.6816753186973509,-0.8992386529166487,1.8880405533089337,0.6987070998764277,0.3533349049039582,-0.5963961468901756,0.25860815358920325,-0.6091358747117447,-0.5667992709635653,-0.15981295466655523,0.3644712518229685,0.9267685674025744,0.4968479949088343,0.6650398823177012,-0.2611628481716836,0.504741303897306,0.47115425082992196,-0.12600325910734111,0.33005597905017514,0.06790343443030433,-0.04328128050813268,-0.08219268788117165,-0.06903243762060038,-0.14538501370081522,-0.6546452305036816,-0.0707999895346455,-0.49564377037681334,-0.8314088172107809,-0.5989991388884438,-0.9328879593712501,1.9945542966318617,2.010493664842009,-0.03270413018703077,-0.14560946925613735,0.17823290987592108,-0.5150256152572499,-0.11455669444242633,-0.039004628268257985,0.1749189355534977,0.013637427048139056,1.0607670393742297,0.06555568979183753,0.1958639104318633,-0.21753822021596295,-0.17561145302250908,0.17205676254656807,0.055578040608074517,-0.22181904840288652,-0.6234958188130029,-1.1482041856869132,-0.5364778350680623,-1.2199611242932755,-0.08661572013060095,-0.5205456649638901,0.3114473271545922,-0.6718818068831787,-0.9645621561224897,0.3232165448415711,2.1626882848268183,0.3011083313991255,0.6218592844994216,-0.6777888930428573,-1.3207154389596731,-1.6699239751266404,-1.2706725868542832,0.350552001448228,0.3675499821591534,-0.03717501795366912,1.7736897765965394,0.3330724170808005,0.21455898019849887,-0.20731448943011205,0.2845038028498613,-0.2927879124501916,0.10710507175209166,0.19510290945065087,-0.7838086884560526,-1.125037892666936,-0.578686918013312,-1.492809644481585,0.5458064224104564,-0.5786587416081878,0.26683874204840835,-0.2445606539665973,-0.3650770844566452,0.6525144499055887,1.2222779956778287,-0.5556090793153751,1.108756680154747,-1.4188121382776098,-0.1693624483337663,-0.15979237202914492,-1.0403371697768076,-0.16924224701551832,0.14563331458744166,0.47887065764649284,-0.1373221156427611,-0.03840416802327892,0.607879713610663,-0.37674081803951154,-0.15359952172868074,-0.1745827928232329,0.15246195915741453,-0.2156852069575465,-0.34439538640405043,-1.0058962871322883,-0.4800022246815659,-0.19634014897415863,0.6885571737436258,-0.4426630285616131,-0.9793977956878607,0.19190496357131628,0.28609821057817225,1.2052654075999096,2.875831069115374,0.42541638340310617,0.04889086159870875,-1.1916280755705706,-0.2763706073368489,-0.4367564433307336,-0.8540916332773957,0.31918504447664464,0.6504540201329289,0.7080539290120134,-0.07674646643350891,0.6534397805735914,-0.4311104877641883,-0.21025630561492176,-0.27138299059140447,0.49586102502207546,0.4427593624257196,-0.4535757789235268,-0.5672572906213592,-1.186632701965617,-0.1267477641870013,-0.6761868922562847,-0.5301342136090663,0.3874540197734111,1.4712729070474195,1.1288471246638854,-0.4921159753772052,0.8035179095935483,2.021036065283082,0.7519542480327157,-1.4546955095922016,-1.9819144922336491,-0.6218956384291229,0.1559260361459705,0.07377237814029838,-0.5237339115776468,-0.31800823507921366,1.6071034057064026,1.4959362555837092,1.0643271962216665,-0.20920378775287193,0.0973981396418642,0.49329282485909415,-0.2706986747321331,-0.26039767415911214,0.24926034690469226,-0.37301839675522835,-0.5303025493476096,-0.6007510684758595,-0.7106208132751273,0.21657058876557383,0.016969100828323785,1.471274839411404,0.00685866398423701,0.7715940086329608,0.2046816959401495,1.5183269374574238,0.17823209992173109,-1.7466829745449353,-0.5175208526802847,-0.30951551738232463,0.4420409637718689,1.4305732759396415,-0.09100592411363816,-0.00852592442347648,0.374011055947035,1.0896162523523027,0.24392245586677144,0.10332830554231012,-0.11396148299227112,-0.3101338340615953,0.3498583677573284,-0.04069039916360213,0.14471395551727398,-0.24241780955680503,-1.33744572512663,-1.7697505210657802,0.10035412702620677,1.0120551380414158,1.5601704130346528,1.9902936951548411,0.7547563725769688,2.460893757218784,1.2390182897897346,1.7543037633409522,0.881767237924913,0.5478535865402044,0.9730134828054974,0.6530109806336006,0.5472500302302328,1.272540499227205,0.5381302382793385,0.11734286468360779,0.46276782348284934,1.038364764910063,0.9282047350098145,0.10485693780162532,0.3955933303523667,-0.05887219109131793,0.2326387856474677,0.27611587464025794,-0.4818129652792685,-0.940225758065132,-0.9368209784585539,-0.30461502387136496,0.6846378247183817,0.9681838272131138,1.6794879885850984,1.89249221915613,2.414929760726292,1.847088159314915,1.9471576646463564,1.299006917469299,0.6316762813722072,1.5864743177058023,0.5297787431566338,-0.7923484321384345,-0.3546555011488265,0.6765781061098901,0.528471906053321,0.5611413727331044,0.4001331669107103,1.0497617983358256,-0.011462624758836366,-0.23562322227862112,0.2349350382848403,0.4012712454239216,0.3022576484289748,0.2691466424047634,0.16776785656543208,-0.7894218501963415,-0.827490463847841,0.7029002450175819,1.354953793047416,1.6146873593569273,1.3264974928947983,1.0179416562626968,2.010084957899781,-0.564931385612053,0.35170705957187864,1.2078383702187037,-0.002597211353793013,0.5787985169709786,-0.1626140455841561,0.05895578033351359,0.19672840793926002,0.9308730806556198,-0.10180317941151112,-0.1038007487937967,0.5640756630400112,1.2095560747036966,0.3870429947161656,0.35800144479336893,-0.3526111115040648,0.03971770164295595,-0.4587575693024498,-0.5578311202896925,-0.008157331375657152,-0.474271993646839,0.5830974014677062,0.723530816770305,1.36473010600202,1.252145114351291,1.291733580863985,2.2329428331936176,1.4094670749258005,0.12528337938414824,0.5606301386737175,1.011835956589604,2.0890194987469712,1.3983181263709408,1.6487972202966246,1.593960418345582,0.6206485431073584,0.6520315807867512,-0.7184319989126361,-0.5616661912887994,0.7885437860357022,0.6389316303719452,0.01941284790745809,-0.13622618925523336,0.361893188885886,-0.3361627491483615,-0.20409000880813416,-0.3230930854674754,0.3914470155110159,-0.27249380717643484,0.8682364999440275,0.7414729514421892,0.16372511740072404,0.4937633300668078,0.32173155959846844,-0.026830156097095187,-1.2136058806962002,0.05306485622768849,-0.5511791575672109,-0.006877274868657363,0.7497679965285039,1.5980138074800752,0.8931002950822597,0.9530430276945391,0.07675717389464315,0.9468310221714524,-0.24446174488937705,-0.23531227650164013,0.3596682089237108,-0.40268425645099215,0.44202934199411925,0.13016000275309664,0.1762614671534276,0.35217983525046265,0.38106339094193126,-0.15600416072912146,-0.7131020911442132,0.11199787440743575,1.020380152706616,0.7092407795902834,-0.28684780587366376,-0.15106444945831674,-0.3366795282564737,-1.0634754437210499,-2.0463767402108686,-0.1655399419262331,-0.7950597853189053,-1.412065589106211,-0.6699818775043271,-0.8941547678074224,-0.12795399733643886,-0.2365800145481468,0.11931486942135841,0.24971854768488896,-0.12218133863922663,0.15109537084845678,0.5171814374574887,0.3919431021649134,-0.3474078288443602,-0.4567468978619152,-0.1903470963776594,-0.3278759369702326,0.21703348413635942,-0.45335654999380665,0.11173766658441213,-0.6276451049198779,0.14180794284060297,0.22046093562963656,-0.18218093567168578,0.06587632674053837,0.9745792657273851,-0.15641112616207106,-0.5041933625985862,-0.2861727819865788,-1.2355408388469464,-0.8415119954533037,-1.943431570190394,-2.1438645116463877,-1.0459636477314647,-0.8661432705684992,-0.45476809064040513,0.162412133792628,0.2499784067786441,-0.2514124776430428,-0.05629068815022348,-0.12821173558880755,-0.2229671651812035,-0.41145441042286685,0.02256928343942036,0.41649782091678295,0.4178429891749204,-0.15667709724163975,-0.34670138373820375,0.2609124069725241,-0.287986616429666,-0.07030088247731711,-0.1865629488268804,-0.2279977084635922,-0.1675150620618868,-0.26149113238476707,-1.0769220950893303,-1.0610945134528738,-1.4569962297704784,-1.5065202797578157,-2.878854932212258,-2.2275434294532173,-1.296232826743437,-0.04637242227146009,-0.4517409109168427,-0.6449502341567744,-0.19274073678931553,0.006384006886742891,-0.12955454986624096,-0.01452835734610361,0.42011124269613,0.12557500644797998,-0.023856276629654092,-0.1760698319204565,0.3001682625782561,-0.13877202261702098,-0.3977697537336816,0.18970453704924223,0.29554246384422694,0.416135780433372,-0.2823890610231791,0.24570625651174652,-0.18207330053290388,-0.24078290195905994,-0.3510641695111337,-0.025915159491564563,-0.685287387656742,-0.7623465706459618,-0.92374316068105,0.1037775819283103,0.2890130559293472,-0.47537786740846233,0.25068256109526466,-0.4741068634406708,-0.16636617014220947,-0.2645887446785499,-0.3832627794838859,0.5088033453727013,-0.3609542031475475,0.47003564757730604,0.10608639090067366,0.15882176674026555,-0.41636966933923975,0.131335015842655,-0.3459399094355697,-0.44355382784275954,-0.0820613639111054,0.17240830108002891,0.03484280122592193,-0.40371710096977426,0.07938624084248617,0.3861636890057482,-0.2306316265018693,0.09121528797807515,0.21236281249849193,0.11123468072760037,-0.6142406252726249,-0.20984388993553305,-0.09170293584749485,0.04846707826080901,0.21814014944408436,0.2300888084919614,0.4211801258007323,0.12688023377454585,-0.4532046858119557,-0.4432896341340508,0.07372961906388235,-0.3474614093898098,0.33003448522552986~,0.5303168753764526,0.18144534241634272,0.33477662563867067,-0.019780338549347614,0.16627256134845728,0.33950612008162956,-0.3910339173684482,-0.011781461559310568,-0.18053514172401877,-0.1675894146908157,0.17014233626127553,0.5437173763683972,-0.24095299368086062,0.3695094308631804,-0.15303591981400377,-0.3565686746628282,-0.015591294017826473,-0.08437920152674251,-0.2974825419662159,0.36301441242508153,0.4903095155095191,-0.16941222603721542,-0.34606440859901094,0.18980545967230314,0.017628611134214222,0.5343001085935529,-0.09147642714877742,0.32570629077210295,0.12048107234470774,0.25761370589014126,0.18295094200678516,-0.11662434101322171,0.05524820060969741,0.15336698085394168,0.3958462932279373,0.23650134652043242,0.335267296952202,-0.11532460579939165,-0.27251676798906327,-0.42323070375155575,-0.2438891951268993,0.10641294219459702,0.5662261552332338,0.5508646729651612,0.5059415478040441,0.5378539166388098,-0.40432234143162366,-0.1616760041497896,0.19577651353271794,-0.18861864202714354,0.5186839287383418,-0.06691204486555537,0.021771689184846874,0.11346500092218269,0.23314072188948495,0.28263664901083557,0.45292941248013313,0.394222531072624,0.08344618601038256,-0.40967506335629056,0.4120019988104423,0.18265077677700878,-0.09418304817908353,0.40058767054639455,0.11777748647234682,-0.18203548963000593,-0.24779765527855244,0.21047465543847424,-0.5403762995737813,-0.4485122405970849,-0.6601548990523153,-0.07559744904800889,-0.1693611172613963,0.05150466492334828,-0.08747878166550256,-0.1431231377672206,-0.16778954464509005,0.32390914384985353,0.6169455402768883,0.39141039386773774,-0.015057218265349111,0.21982361262235023,0.27277381962487307,0.5580083426813304,0.13078525223109697,-0.2719749643432004,-0.19106291731277758,-0.1743287071351364,0.41432411536593716,0.3300637177789275,-0.2807435143830047,-0.5813882787070004,-0.7314364875103273,-1.013818409183505,-0.7553293469003903,-0.7341648164283034,-0.10129436454896351,-0.8042574777567438,-0.8523097001987736,-1.0857009399020578,-0.1824595362084163,0.5670533969918906,0.10149534850905036,0.4429597881868129,0.9384206611276485,0.8723755091597155,0.052534137747309105,0.029807927840035692,0.17926014118603836,0.3752779660765748,-0.03878310796960683,-0.32219306804910647,-0.10183753235969407,-0.22773578988775514,-0.16231847650942918,-0.39148830099221904,-0.4719905976061674,-0.3555592857953756,-0.5031617548723689,-0.6066945757645157,-1.0785355137918065,-1.3879639177377794,-1.4012126205751665,-0.1543062483481759,-0.20354975722516547,-0.27970446713987396,-0.5236197471217329,-0.45288525680519326,0.09265018666959969,-0.06826626541535662,-0.0982426735647375,0.1939225270557325,0.3095724729900996,1.024399073685135,1.5071996768926623,1.0433004753021173,0.9851434053531145,0.14301406411676354,0.41075144580654904,0.46565799455225226,0.30735726468194496,0.0554304226132451,-0.38847752869036584,0.14707873456117623,-0.1255304722271269,-0.3015302796665701,-0.33290978440845914,-1.3293174632498228,-0.4917411503973055,0.7604146286851698,-0.2658963061646752,-0.7869488304630615,0.057773467925391064,0.18331351286762057,1.32419978389868,1.7525377057145832,1.9537225148339938,0.08876444127638525,-0.3910340677653824,0.6381091151088175,0.6627472650994565,0.9453679575185716,1.3090434139979639,1.1993223428518915,0.459404092800214,-0.0194628801097017,-0.08357435205211114,0.551529379064759,0.507281513289255,-0.18613179919997727,0.5204341520032907,-0.5835569884259248,-0.6804364553883531,-0.14622583225304775,-0.11333405705179114,-0.3821949088303099,0.600497549699722,0.13246956767732973,-0.27324662536687666,-0.15256090003324874,-0.643311314993548,-0.323343877269337,0.883749565952006,0.45735457765954707,-0.5293943487543611,-0.9280955293631212,-0.8066205934982978,0.4655377810908956,0.2105050316706069,-0.04897557407359808,1.22171634947247,1.6322374322352657,0.6574514610501369,0.7156495572432362,-0.15343366809972303,0.5455369315519197,-0.23474510777120736,-0.3502427778123324,-0.0024884924628440727,0.33979326732087267,-1.0227949760161539,-0.1299415732972088,0.11366539262737362,-0.24053645073145705,0.7778660283346368,-0.07983891299068958,0.5302548652248931,0.39558447659999785,0.49004212670625485,0.3619521539473556,0.45509358866282085,-0.918371927948884,-0.9765982235189034,-0.040365622191503504,-0.7458878089042462,-0.12243578403917704,0.6012402296531113,-0.05922439629729289,0.3619862275215232,1.1619327464442124,1.1014285627341163,1.165080670544393,0.14882755331009365,0.07133232639714131,0.12857352121462418,0.20409256328890757,0.5388906169867442,0.20588724291124277,-1.2505303750315027,-0.2436851319930284,-0.4279742319435698,-0.2860559153294136,-0.014487972946620626,-0.25107504095545646,-0.6067365909516524,-0.09020546336378901,0.1704149257564088,0.46569573052487656,0.45041069890450275,0.47660158530145813,0.9192130029247235,0.7647886673125553,-0.1317815435952519,1.2561804966436048,0.9062525225073591,-0.927717445181949,-1.0263846484988215,1.5448142901297162,2.200135030321773,1.4977794204079662,0.23573194543400353,0.13715315220487348,-0.03025173224412948,0.2886551901809404,-0.07172885128442388,-0.058333139323979245,-1.8433886077448918,-0.946570021584521,-1.63489898719687,-0.7691566140900203,-1.6268346350511858,-2.4068824059067238,-0.7937943282956004,-1.314070621185586,0.273030016176137,0.7324848226290542,1.5964106173538832,0.8952067495787851,0.4994496913619876,-0.4571463053128117,-0.16964264847746005,0.5309301364988023,-0.4199160387899172,-0.1832935219255152,-0.36846125680379377,2.0649743404504384,3.248089872351007,2.0249655487063536,-0.202740536895801,-0.36407714070597513,-0.32262964769203856,0.4884496754129276,0.09152585483766651,-0.21167497687755843,-1.1599537663147885,-0.2399555486096115,-1.8775150745043916,-0.49268660171162426,-1.2025960333783379,-0.163607777492035,1.1993489291218657,-0.04867210052047285,0.8502508437100926,3.01708564787643,3.1396800569234187,1.1785326914754293,1.0905698718989876,-0.018936503829667457,-0.3927944533475851,0.10709050157463397,-0.24160892436162845,0.18861319272340302,-0.44648459979726485,1.1412834093682875,3.1608602095851817,3.004048108900907,0.45022541900551577,0.03623802596630046,0.04185774589362919,0.49447749078730996,-0.07492876479780519,-0.2555658823901266,0.019346288994932626,-0.7422925220916037,-0.7372569571483442,-0.36239672776655707,0.14799417463005488,0.8347076210611458,1.5391438092169514,1.697731605502718,3.327775271406412,4.016027847332353,0.5429508819964205,-0.8599030296392493,-0.8046994335231478,-1.6398636197413012,-1.2822742548125967,-2.2054631783834964,-2.2699591748171644,-1.9166693284593732,-2.5174456541997414,-1.96073951024395,-0.2981532812084484,0.8696430796026828,0.9631141699449497,-0.32336465311443924,0.3413056457502831,0.5456834106590761,0.04462301382183363,0.23690872331390936,0.15350867781165373,-0.19046006011720537,0.0005120929459710292,0.9723361636209064,0.7904830866541865,1.1465188308747993,2.119814673406612,3.1308856283946835,3.117919294106902,0.7441333008748392,-3.4184768868570776,-2.1311491691782347,-2.3286529768147233,-3.270446267591667,-3.3974100520846515,-3.288412276681973,-3.383980616050421,-3.855761261005025,-3.895176897276211,-2.3992022144232825,-1.106010194601107,-0.05865319621452515,0.33438491834515005,0.5570431907769967,-0.108618576032728,0.1034412538272951,-0.07065643612318752,0.6904887491737235,0.2921176746253159,0.782608606074144,2.066465978673139,1.173209190964009,1.009695698261542,1.0118061370977918,2.0815192884603273,2.907286229681986,0.5532568759387255,-2.3062291302318765,-2.6304893871350585,-1.2109100406012596,-1.3263104103311043,-2.1519965425389174,-1.4008417191848823,-2.3095571053712507,-2.2464822757452785,-2.3591506220107923,-1.3429319279123486,-1.2172087970506489,-0.3643603426616226,-0.5544901521523915,0.2558470131238573,0.06953275789041254,-0.40878490445064375,-0.16807245862379394,0.5566571656178945,0.4913595103314094,0.4216693835681458,1.9305378857196869,2.0500686053410746,2.4211419126475597,2.174755673275794,1.995409089552491,1.763725484952367,-0.4386016684632755,-1.879077253822691,-1.8289144036930174,-1.2070511168607614,-0.9311928681222464,-2.2687924722974477,-2.0386802141874316,-1.265282127117815,-0.6208338971345203,0.3815969213723617,0.005910888502601733,-0.728090113363702,1.119222222627645,1.1823828844754785,-0.12506799403310837,-0.5057370906540525,-0.17070692950607197,0.2162527158365394,0.5204150266300609,0.5260720837309838,0.16138681822819526,0.4245589878172551,0.2785991518545202,-0.0533456265037857,1.9623530290994735,0.9461898563950265,1.1413410153755608,1.6068157906572909,-0.6364387974726771,-0.9208590408231527,-2.9882776242594247,-1.8343535977467476,-2.2752694994376337,-2.5831137094696754,-1.2962869135195103,-1.1355644626216719,-1.226397728290274,0.5737830736691087,0.17098062628637145,2.0293870167853183,2.8743797256918904,1.0632254742573317,-0.2684429627577026,0.24958448450583343,0.14622601815769587,0.41082949003582026,-0.3216010994130225,-0.35909893004288035,-0.0875404710090601,0.4502992692130752,-0.3346872777581977,0.8355705231673151,0.23890035268665863,0.04811565051330491,0.893973419133162,0.44540060692233335,-2.9418024000769036,-3.508307243645076,-2.375111776743028,-1.660258157625994,-1.8421208028400713,-2.3166033193401128,-1.0383279790371758,0.02593881537286496,0.13575676240753903,1.1957181545549087,1.2746922673453869,2.5113888038350476,2.8969338874193693,1.2258070415917954,-0.7340555414614612,-0.5950882443356617,-0.09047321096935515,0.039645296898746685,0.011470135159558957,-0.44934811184742673,-0.3408217141952974,0.0720016252542719,1.4880663001271996,0.9111797490950302,-0.485413917953445,-0.675539908294508,1.815615265396552,1.41364526854088,-1.4448275702494529,-2.990414925481562,-3.8659608644222603,-0.8579361409745209,0.3345957358227415,-0.7866161414020679,1.4770355970077684,0.8981971596135869,1.3713239482431216,0.7484146914360116,1.1233649554641665,2.5602752509597275,1.3810836440362748,-0.7821134350058265,-1.2346970983316676,-0.06113348058484614,0.47418436129012015,-0.04451585709182228,-0.40012526376553365,-0.40923695521566694,-0.47463119145739735,0.45876950068395345,0.11912196530975093,1.5131073382603062,1.1223783419768647,0.7471517917763125,0.16399352907061646,-0.5707702141128898,-0.7632496791211015,-1.8816235156098686,-2.2905969975856415,-0.8699874133178658,-0.6685729803668636,-0.07503280948250039,0.29878226167812716,-0.8193423918700897,-0.027478765890721544,0.47388228967620133,0.6111795332198948,0.21178233903108562,0.03016090160667487,-0.753699639613546,-1.6958099868517233,0.03833841675546007,0.2569926563367345,0.2248226937357237,0.3656449186047789,0.2280600632226046,-0.6157241981937553,1.0363287375031505,0.8379060670979204,2.3186782327513744,0.7597903315563128,0.6849619808469934,-0.36083739757623196,-0.4586763283400389,0.15685333422231992,0.3575441189253482,-0.8826958011709235,-0.43822926800570694,0.1514243094170337,-0.5626568396369567,-0.4863899788628799,-0.35713168479278085,-0.47305888711271743,0.35600976905814424,0.6582567699768409,-0.7039956413733087,-0.6044397432409255,-0.7635809454319998,-0.5649868135049774,0.13547443653851188,0.11198794171732109,-0.4087836032211803,-0.23702507600586706,0.03952254872330949,-0.6405373851243198,0.2715138440371582,0.2810881098859538,0.33174407309685594,-0.5820147270984216,-0.26951186942540334,0.7022244120496679,0.0604564114906337,1.3969096457415435,1.5724731532168739,0.7220618096170058,0.1182883491551624,0.008608664350974573,-0.643353809140248,0.24154519718357223,0.814696408542029,-0.6875559341389506,-0.6351529228459698,0.7621631842770688,-0.4452001759459992,-0.8587639555292226,-0.5634049419361946,-0.2363839682501321,-0.5697181327486948,0.33254744885722864,-0.1076228822796199,0.4396443446437011,-0.3559135010027958,-0.4397441249699539,-0.5631495517185111,-1.0267387845329807,0.44609621950586953,-0.619970382223664,-0.5960402999047634,-0.2750706926166375,0.685004045918727,1.2726771471221712,0.18243414320940074,0.062716026791609,-0.8395664226336852,0.1144497166129988,-0.2211010646700152,0.6778618672587562,0.4989816446100331,-0.5148407436193025,0.5697809729382793,0.7104416980740285,-0.7298896354200505,-0.6225276883087995,-0.7004519638801839,-0.3877123724683531,0.3838218158013275,-0.3030037154065816,-0.3350044048260948,-0.21243874081606087,0.4001618944281284,0.30342294279739024,-1.417706913941264,-0.807375025982598,-1.1955852509646172,-1.052650698835152,-0.5839544387487179,0.7927777108846934,0.2754943316606495,0.9286583057996571,1.7202086072348481,0.7483726528638819,0.5217037374011991,1.325459557163715,0.7305086638595646,0.48393967392398074,-0.13503158835200607,0.5083573205775781,0.8244734440865467,-0.0602079203737433,-0.6093150922506488,0.34492278483300526,-0.6038665476581702,-0.16561568665294224,0.07783477035449983,0.3178579471189011,-0.016068268628694645,0.2900643884185971,-0.2913366776859297,0.274925463728193,-1.212544012016865,-0.8052292674795101,-0.3093674456660943,-0.6562800477218795,-0.4264970647816903,0.7877083871221333,-0.3454179853672304,0.23815937286427652,-0.6487395309192743,-0.045986868060145326,0.5630260980388695,0.5214862910616169,0.4167435838894354,1.186827775489099,-0.2837333296072423,-0.25542759208194293,-0.2543782172846891,-0.5961652984976823,-0.2855725371309242,-0.7883693507842573,-0.03103460149037818,-0.25540630018424043,0.2432210915457589,-0.2341692673761794,-0.3184721795611796,-0.09926281724300141,0.48036935002468195,-0.16758197369048392,-0.30902967377019186,0.08811672900069482,-0.4796075342745468,0.34719029007631835,0.2755887911228952,1.688110849420374,0.07714056370135912,-0.45365946939293217,-0.4960049983463349,0.022930051171524038,0.9771916509522484,0.7401694700073259,0.6570529536130935,0.7562645212839658,0.8485234767187755,0.4823981937459104,-0.8736434421451191,-0.7387220237072686,-0.05872578601010143,-0.7143205436258577,-0.2254440076404629,-0.304672839490137,-0.40218032097161766,0.20803075690695969,-0.1320962784685166,0.20701340733318693,-0.03746026026876279,-0.32567272887693965,-0.15823309066396463,-0.0843201656162792,-0.27527526674972935,-0.5887392871600515,-0.611089916617153,-0.43815931938120267,-0.5751172439526044,0.11390339987390964,0.4654017928728553,0.5903623904830944,-0.7125927517393887,-0.05605214816952897,-0.8932469007729681,-0.921635098569461,-0.4706571754614658,-0.08043208393289424,-1.1091847596474895,-0.6318957277141704,0.18227749771691268,0.44516456778812297,0.3060994990650306,-0.17358549211456586,-0.16853156452564322,0.03329420696755657,-0.417351403747455,-0.2853984178643552,-0.37313938460247303,0.5544749073214699,0.42144956822314394,-0.5786226508140881,-0.14610538824017072,-0.7476871996013107,-0.4716145699353658,-0.890991197260044,-0.5721192422508269,-1.0094963423522747,-0.8897225363594398,-0.7126888535822359,-1.3650143149872502,-1.082237218571108,-0.40415184561459366,-0.4750792165834287,-0.005705752016136274,0.20619154522057695,-0.19123441013177223,-0.08432120253585076,0.18440045958150217,0.43222449658065004,0.4746152064475433,0.3499957275493703,-0.30070119848729676,0.46388219301223793,0.2900062957839424,-0.12263803805023608,0.33006405648874365,-0.19161314588521108,-0.06475026719426183,-0.18128039407474494,0.1512303720466273,-0.30702885240839944,0.183832219406576,0.5355664200107468,-0.16681490984003847,-0.12287067283354829,-0.4212708723600418,0.43220635173943134,-0.5949659980146003,0.5067974229226724,-0.264759983566282,0.046894926437041934,-0.018630478512607112,0.4213179021245421,-0.32641626457761097,-0.3493861863631656,0.5171083451830171,0.17187394986477786,0.024592427480661167,-0.11320913383404167,0.03316330019991434,-0.2270549036975393~,0.48065088000412975,-0.0677955157801061,0.076902337800044,-0.1263838495762622,-0.3275542191296669,-0.3577927821426588,0.1838819041223526,0.10804902264882692,0.24216446771916572,-0.0339259456030582,-0.2570370168104233,-0.2815432793227593,0.1617498935330849,-0.09242904495437919,-0.35351735305341514,-0.16643315625523186,0.4118847922430348,-0.34514764440942775,-0.48375980094952836,-0.15175938558549262,-0.10846811340550762,0.2820387099593103,0.041824935231857874,0.07843127342022176,0.20832411519433236,-0.10526874001264748,0.39504882172512995,-0.357281206878085,0.14298307021294088,-0.26398419294048425,0.46788960996106704,-0.03397410565590782,-0.38841256378152983,0.20297729536150572,0.38385664474312275,-0.047517040514475695,-0.024835592469101084,-0.19951225560648095,-0.10648156210213083,0.4096406108833056,-0.15678396736513456,0.47919716676365237,0.2426785488882377,0.5989576152024297,-0.15653615465322354,0.3181153844121556,-0.08351481741752485,-0.09972297517311801,-0.26234791206473207,0.07715170813247418,-0.4650377158339279,0.07745256756098517,0.47514495020005126,0.45385500941535867,-0.25261731473279053,0.2428900223621724,0.12439235675680625,0.193578915304496,-0.20849429004314946,-0.14526189684178734,-0.25674521064374467,0.24014525661351635,0.3530950421580528,-0.11291570748054938,-0.4377917687245038,-0.36731676010047515,0.6159039715289518,-0.4356865314522287,0.2519518523156672,0.15778584940192159,-0.2155681893301396,0.11950128080697503,-0.7568456657623504,0.49107533933250536,1.3669794962629496,1.7204194302155105,0.5445761263780595,0.5590421636627042,1.0131884152471475,0.6055932156976218,0.1805202960610822,-0.4807646633171608,0.28448041666583684,0.17535242124106987,0.4172539312137921,-0.24253439488246287,-0.10236048718025557,0.10067544855982297,0.35722472711506276,0.289115341976148,-0.3948755009313122,-0.0047109692879755746,-0.8363154521989302,-0.8589784650543121,-1.7448826455994173,-1.4299345668421484,-1.8608870053161588,-1.202679602236892,0.7113421445098802,0.26599102463252106,0.025572697892936775,0.7960417833739956,1.760016327352335,1.5723568906057743,1.7960084421146993,1.2528873480505052,1.647533047205592,1.6243559055449803,1.4050834051995469,0.445517764940585,-0.4135862959322315,0.3393232085314844,0.34161386330908655,-0.15648425726418663,0.4293670846796784,-0.12143424389586732,-0.4773181775136789,0.15896684180099643,-0.2087553063521898,-0.12994263526716773,-0.35865575368411773,-2.077420155364993,-2.779004396458285,-2.1555488946353965,-1.6735947480969082,-1.180387123555934,-2.331519631485515,-1.668125557691177,-0.07696218380486973,0.41645121861094464,0.2742898070741608,1.1329636058590427,1.4119681237891661,2.5490072181735033,2.92614402865339,2.45371171100144,1.530335339040582,0.6500423680372012,-0.5342912954272924,-0.28286306977623504,0.4860484223059162,0.37232876162018896,0.08935190652385688,0.46386806612969067,-0.43285253586888395,-0.08840042456309026,-0.8016155547250051,-0.6038220256341952,-0.47179829547491897,-0.44218455792042,-0.6091881786015212,-0.20540234240073033,0.24051421135857903,-0.042370788266747776,-2.0880198785504844,-2.3145043879194156,-2.6071269196028606,-1.7935428232309056,-1.233299136234391,0.22289852723099346,1.1777632696274052,1.3540910915940536,1.8011240054450635,1.87543545115571,0.8382430504491406,0.03477173037903865,-0.354909538375068,0.38333224424004686,0.40816256349899754,-0.10167630511085848,-0.35444116749914617,0.0617195074400376,0.3036791149145157,-0.5211499331853017,-0.8012900259596455,-0.6259387571069858,-0.2907508545370302,-1.665743177081936,-0.8895134621736991,-0.5239508402704295,-0.170545942267293,0.2583498325319713,-1.0585853448935076,-1.2449545247019658,-1.2583581107646982,-0.1220455647988783,-0.2700209646505886,1.199508756711666,1.1083206021035328,-0.5817511272214606,-0.22912929369658078,0.4418787025697546,-0.6728375031953292,-0.6648296479498659,-0.5333309943771858,-0.04089811736189638,0.4702200288485269,-0.2900758038756805,-0.4719845480961604,0.166656021250459,-0.29604936077226834,-1.0038025493518299,-2.052574848479279,-0.8314347849616173,-0.6689820027221033,-1.4709626755805347,-1.4697315072439634,-1.2309641926625703,-0.17008408128511093,-0.7653702683969481,0.011180445090671226,0.8594559817401581,0.2529790421495429,-0.923193585747055,1.0913840576215288,0.3216940141214827,-1.082492736477221,-1.1566347625574527,-1.0431025310576738,0.2831345445258954,0.012601830469141612,-0.6107073879683292,-0.3161026895520527,0.4057439776388461,-0.17061372606690883,0.12187488812722985,-0.07865045244885947,-0.025104448590128312,-0.1632022473546226,-1.605265230098237,-1.0868074616589858,-1.1035815517642829,-0.9695450664691857,-1.8626996552720723,-2.750774281966801,-3.0918705085002927,-3.438827527764996,-1.680470229752389,-1.6356371696732808,-1.5821691342203505,-0.32064321470199936,-0.1681897057866413,-0.7476676833635665,-0.23023471654707356,-0.49598124006241134,-1.5967581975247611,-1.678621114556814,-0.5170729292962625,-1.3520545736739338,-0.7350743234018688,-0.8519368859709929,-0.5090168963605052,0.4060361233553057,-0.012312531796270013,-0.47561223020799615,-0.12643836279221718,-0.49902080945092137,-0.9316490000399849,-0.9371440489259486,-0.33780098688119353,-0.7151372987150353,-1.8955342506251096,-1.6181920739058802,-1.2021133497712013,-1.8955216423721024,-2.1193140941461577,-3.8277943702148924,-1.833516397943703,-0.23579957863005563,-1.7776753405244936,-0.36646630404412783,-1.3458853824458321,-1.5228311336710458,-0.5897972500129915,-0.8049319422634992,-1.3608311392935641,-1.238768146444336,-1.5430521333162417,-0.24599392142661236,-0.32811571511690885,-0.11881098991321573,0.11045983030419992,-0.025608991328975927,0.004696805450572076,-0.12911917171666995,-0.2874838297284334,0.8703408302506387,2.267413661288301,1.6441422474153256,1.4703510780861135,3.347513883389545,2.867901150417978,2.7866106092586262,0.7175345671120104,-0.9727672386156222,-0.6582651878734963,-0.1744435912904005,-1.3814155520025924,-1.6522433380156867,-0.31741818151971063,-0.6130720324590927,-0.2740318900685314,0.4928079942451577,-0.5072125461626945,-0.5369415270110637,-0.47873959220555046,-0.3671204613648833,-0.48872687999410225,0.010800011818952557,-0.4523684311120785,0.37029391500994757,0.12567674833791803,0.6809043666247135,1.4463379240939809,4.635715178420935,5.166940507576972,6.030141070693336,5.4497425036159015,6.2244933157778535,4.763283469897692,4.549421386474548,3.196099765802039,-0.41910344974172187,-0.3180481106656023,-0.2817829582611394,-0.30161926814648543,-0.16664880780463862,0.40759699953905776,0.4213033093696232,1.7802040541800053,2.8961287610051913,1.1772645843874012,0.6359156957968105,-0.2728011472273253,0.18776249066177275,-0.3490094985830009,-0.015286875183758153,-0.4622695974818583,0.12728118751154135,0.3459602502471279,