#~,-0.474939297309834,-0.10708543101741046,0.15744056212261076,-0.2457836405575557,0.030394107454989307,0.11210415653802781,-0.2595870619636398,0.46156767364661955,-0.3779110701652295,0.056856542702078045,-0.31156035023326545,0.40076398080543263,0.3122073546065637,-0.20567033917199012,0.1434101888126943,0.22381805566223895,-0.46785178559375584,0.39285990505656787,-0.21838846615682267,0.2530249903505618,-0.4546540118752779,0.1653745880764676,-0.18177176399177603,-0.46509771525134924,0.1306800463824116,0.035411597804532666,-0.19072761071764416,-0.4106397796761021,-0.4392122004169082,-0.29966722433368453,0.3304511637639813,0.03092691371114885,-0.11406352790017267,-0.44045093417013875,-0.4060164956490439,-0.37207633047665917,-0.46651628123055605,0.09188087197741637,-0.012198974974915792,-0.08506042944939435,-0.48486520322442006,-0.3966053309679904,0.018231859800019526,-0.4544571015244515,0.04978767515079491,-0.17911255004862653,-0.017676345118280947,0.2303055067100851,0.08355877224154455,0.2026640604610154,-0.19771894090165723,0.4785230816315833,0.11035678799276756,-0.10392791768282401,0.38061417722978064,0.0499178731793075,-0.42506269675963326,0.03308709934306453,-0.3950299902138932,-0.03851803404467257,0.22528568404399468,0.10147843533749426,-0.1014281043296257,-0.41434772003608855,-0.1725166753747977,-0.12505764248342635,-0.45181428321660544,0.09213917526635797,0.021486985113035338,0.08818301941056433,0.06910452766906086,-0.21474360438814333,0.38502393243413247,-0.025024134867087426,-0.05129598024818984,0.30671811760230927,0.3362370452542456,0.23391051104578828,0.11944928964276344,0.025744551550502495,-0.2969329471762294,0.2130041330286449,0.3039458141209418,0.008538922591935831,0.06795913288823584,-0.28739368590691305,0.44192576567195274,0.35609448132228694,-0.16650368758711495,-0.3049139172524899,-0.03393130861149823,-0.1795029090836355,-0.02547019508707631,-0.36200805270063074,-0.42954184596801753,-0.15585894602034409,0.15641189755366605,0.13149317074146344,0.027075312759578918,-0.9134426003093826,-0.3685748795024917,-0.2821979534229399,0.27514373943958204,-0.21377806426528506,-0.1665436954799018,-0.31746735568931034,-0.37331649914232534,0.4428185219816138,-0.044952773175828,-0.10378847345507945,0.39532979361632303,0.15248505466424084,-0.27392945767851506,0.1769933210317351,0.4829838487862921,-0.07761412027095095,-0.42580839485494487,-0.25042090334794215,0.02497879878502384,-0.08557416319808131,0.06677420185557154,-0.6364627438647921,-0.037161530870124464,-0.535324457310458,-0.07638386185274078,-0.34901424723288216,-0.7186107840735789,-1.1457052268138133,-1.2854933216251314,-0.5565690754580856,-0.16331059945687887,-0.40703539573281927,-0.03977627739265869,-0.2855374846101669,0.2323849789962023,0.08649945295752602,-0.5161461923497042,0.22212817595542633,-0.47919273778882154,-0.057967836016227556,-0.12342179112551664,0.1809865662631705,0.15663125177994178,-0.30000658909567424,-0.3718553591250602,-0.2560628872403938,0.29120467345821316,-0.6290150494541875,-0.4722319520395825,-1.6061754728077215,-0.36378579003490324,-1.0835718776465568,-1.782132434735026,-2.6188609021515172,-2.3033844112648114,-1.4856170878426722,-2.3608878871703904,-3.0811018795116385,-1.8841458339277448,-1.6428355080978085,-0.8250678582743335,-0.3142208376175529,-0.5021435610294086,-0.3959711536650174,-0.5049234035116882,0.21886291694071414,0.2723266669902744,-0.4725589453250418,0.3952552694085566,-0.373694096788715,0.3891210058447249,-0.20216108327425983,-0.6634026598142824,0.26984996537720973,-0.10932972557176808,-1.040731306899775,-1.03499040773104,-1.5794670599792162,-0.4688198062026538,-0.7364642062483562,-0.5092242392323723,0.251065893110444,0.09216339495120994,-0.6759103274547585,-0.5417547652824337,-1.4779909412051018,-1.5444975254991524,-2.06050813508815,-0.9071850676894416,-0.11402398244609067,-0.5961317876697215,0.4685757126466465,0.2817408683812422,-0.3729733720379478,0.2697884670456957,-0.3769505725946135,-0.26556665577534755,-0.1532527308399572,0.018208903541278874,0.49030495269093427,0.5464872665198491,1.1100262369570788,0.8276962494694426,1.094803699214266,1.235766735278879,1.700442116826054,0.8141900494981724,2.0924613441053332,2.1134749425006363,0.4831748572658762,-0.7672876277951262,-1.1101737306391788,-0.7937637767458082,-0.7547899943027236,-0.38657033089826787,0.3002761845587881,0.3958535696277039,-0.16754184146317322,-0.06118117718001238,-1.1566158531155444,-0.759523473231921,-0.7354964985302355,-0.0664402349431824,-0.42053442522243356,-0.1939896028488448,-0.4843973880671372,0.018341486712592215,0.9623560149001678,1.564240216653628,0.5998691972638028,2.2386150515102283,2.9961269884427018,2.4976047523984874,1.3250261641348393,3.2356234225662144,3.008399089808249,2.7172215992930817,0.39945999275128335,-0.11734266020044702,-0.065853996084015,0.4681067329001573,2.0439440981197716,0.7998232777180166,0.9278373557338682,1.8646263233825882,0.5730930916657221,-0.5404461776097598,-0.43073262549708013,-0.8857137202033585,-0.5224295784901606,-0.2749390795650287,-0.4805659909901025,-0.48468554350282,-0.09945254498430689,-0.25254373041726325,0.4514243005706431,1.547926096993974,1.4801357530579469,1.9877815945760615,2.7269070144517977,2.2162598343773228,-0.5172134734663217,0.42320966819181766,2.4992985069459297,1.826151240529841,0.20479125332566436,2.5406144268326747,2.7918154090247893,3.595944391235934,3.4801991707257027,1.3673149190518403,0.1551323944890438,0.6742081721721062,0.5180812783237875,0.341572665991412,-0.7616510216993996,-1.0845338173371881,-0.9348339552228999,0.017468438806080115,0.4524320823131348,0.48743146185546793,0.3043144862114046,0.451066195361437,1.107111264250054,1.7780675948235767,1.9273917024837222,1.64103696494324,0.408463673853751,-0.4790295551556291,-2.2933661430145396,-0.2995030638916616,1.564137521985591,2.778119044033771,3.2619352488471796,3.305734282142902,2.1950415965530747,4.305296261207302,3.978249369384401,2.1457280667774894,1.5543596356315927,1.5788542049951746,0.8519839452772869,-1.0124475493981888,-0.1286571736908766,-0.10483786853910697,-0.30486757019166716,-0.5766552251775982,0.1681198269185823,-0.3557957297423534,0.4803178830495175,0.6713063864516409,0.5735911629032822,1.9583360220401422,1.4238323140668885,0.47024859228410004,-0.19964963340780703,-0.7728226403323777,-0.5148883722465701,0.142643280062888,1.032760986601969,1.8418937273728184,1.0245571147375567,-0.29284566347987906,0.9520681431339508,2.0219307796634616,1.7436986044084588,2.4082856137295225,1.981575266136828,1.3587070817414009,1.730113101028634,-0.44905962105233727,-0.9854686299995608,-0.9815164352630562,-0.9803814034600579,-0.5205729368031232,-0.4616425408824762,0.2279491173021186,0.16193010768510993,-0.038663045278779784,1.2057831795226808,0.8411246355199143,0.792991248190443,-0.04185323551387196,0.6333701232592505,-1.0593868122966146,-1.0387405894958814,-1.5701666668460925,-1.5362111095585929,-3.7136439192176587,-4.983163926324095,-5.534994399973124,-1.511718170376557,0.6140760765917557,-0.33742351106000257,0.789004469913028,-0.18005503452565785,1.8285265321458442,2.401691899384879,-0.4596008724121059,-2.2696666373964254,-0.7164697685621857,0.09242520941767443,-0.3587190048771672,0.17140426469055903,-0.30074268615647337,-0.26323447810339234,0.9529023376841845,0.9540631200506687,0.025402530231894278,-1.064208429816089,-0.7821520207577778,-0.18211186281334177,-2.5809997630591437,-2.3608260711874602,-2.8842199584289037,-5.370086853387046,-7.965940756329962,-10.078602029262923,-7.6805457591285675,-2.206124933720247,0.22803468405541918,-0.2848900415010311,0.6679648467295709,1.0711839669350744,2.171500377376662,1.3863978778436852,-1.2370974466055582,-1.6192993898185972,-0.1554430435120139,-0.47051033648479745,-0.43683590336527434,-0.023831667951440753,0.3672916300119503,0.1645975813925861,0.7807295630832621,0.16412383984328205,-0.49044534622483255,0.2000436401131531,-1.4988028840532779,-1.265723889099153,-1.4716789712710754,-2.7078605834694507,-2.7365211040121316,-5.7518635116194545,-7.416278297312122,-7.665063755409459,-4.468863979297135,0.3099693489607699,0.9688296404678504,-0.03037136144881111,0.564894363371708,0.9616714095335459,1.4183997300753048,1.0712449426782753,-1.165856565648489,-0.7760374381541599,-0.24203366797850068,0.39546974019329817,0.2533021003044678,-0.08839689866015066,-0.3946568221790667,0.2926314525730297,-0.19083561491077025,0.07257642413606195,-0.6698520498135003,-0.6991871865310669,-1.2841029874501406,-0.8873553728930745,-1.7663089038649444,-1.5739352581666142,-2.7489029620071084,-3.3508027061588277,-4.105432298642906,-4.303155828899449,-1.346176322870527,1.0790605959302533,0.8678696027049434,1.927351093268225,2.86619976085962,2.256840349222462,1.711866660795843,0.8913661159848651,0.034912253680953964,-0.050049783102084335,0.04928171265573995,-0.11147607602551944,-0.4452593114385106,0.06089823552078077,-0.07245387930943319,0.07239814108620073,0.18343554083607821,0.2937648425089458,0.09367345627338579,-1.7261304116020002,-0.9234860770442017,-0.39028294804897373,0.6203983044422218,-1.0243321842186053,-2.2490468632659555,-4.579129144584543,-2.7015587423901235,-1.9781464673748992,0.4528098592917475,0.12498745701581819,0.3080522274211237,1.5639611647382694,2.4340119814947516,1.6511956770913712,1.721184808454662,0.6448798284580115,-0.1631718275324127,0.22854030763718403,-0.4128279872792368,0.021037476015237883,-0.4049219450873218,-0.21440514981564823,0.010997741197755005,0.20184332208316286,-0.2533306098126193,0.6496218988049239,-0.4631418402218705,-0.6907775204719107,-1.5180634979750616,-1.1274040910652723,-0.6290955861658575,-0.6916621187327069,-2.295480759183462,-2.670108155277469,-1.8083150193264677,-0.7755123918908955,0.8175950154716776,-0.4862545011884657,-0.6289074765208349,1.7377112849103415,1.137411810586953,-0.3097346972553782,-0.010315088670489848,0.007376822801653329,-0.5241497591678782,-0.14240808672103603,-0.24333146251994528,0.08027929338054239,-0.4142141814233025,-0.12281659188576455,0.4334411823790875,-0.2613847668410908,-0.20191027589816876,0.11168988166790904,-0.4468599121711472,-1.2561006166691835,-1.4089135056274844,-2.042004099791711,-2.4569104003066156,-2.40308139006764,-1.973366825717437,-0.1048241924552575,-0.45762313538210614,1.8929894783362908,1.3859999931436446,0.3299829591337826,-1.2928806695471085,-0.26951901791911853,-0.7141816438336557,-0.7520629919306288,-0.5797713399402015,-1.1238503005129896,-1.5549313536356926,-0.9072988749901553,-0.3440881037295438,0.1052594753300436,0.1580114147214721,0.08644241042812913,-0.40383776335461563,0.14991174423289874,0.11620310424424528,0.544054058878581,-0.8626773468677159,-1.7285988979558935,-2.193135222484147,-2.887804872467349,-3.4088720573828115,-3.3634190648706315,-1.6398992141790574,-0.5128328574819547,0.17295424224352474,1.2681211913696504,1.6494436817643443,-1.46611591826298,-2.431346689683243,-1.488773763705941,-1.398205645754922,-0.7176463856850441,-1.4106063072863073,-2.156965496765003,-1.9143480487542224,-1.2228897607757805,-0.3672573277119893,0.1847831042972417,-0.2790325001333456,-0.030061751970378595,-0.07463805007559991,-0.19277543491494453,0.264701184939547,-0.17825387856524402,-0.6537551922793045,-2.1443118913088277,-2.8621923825970574,-4.008124289776733,-3.3891938248212963,-2.306053133220721,-1.323260857489312,-0.8860352336415755,0.07596690968872144,0.1154202757280903,0.03625274438654073,-1.8968829830003127,-2.2972268395499515,-1.7692881990499272,-2.6830444467181818,-2.1461542739579533,-0.7557733703733388,-1.6883337782450878,-1.004392865175467,-0.8602322178128172,-0.49063301219926697,0.16851320678831,-0.14548493258621537,-0.42910747512139613,-0.26530080513312027,-0.07456215100063461,-0.5001613892112995,0.14887059930376748,-0.8624092758946945,-0.8401147723233602,-2.1017174149997544,-3.2647231171365396,-3.119084254592319,-1.430764085350941,-1.7691722460352655,-1.6558707625518214,-1.0185018278999782,-1.1377631982484908,-1.9759312404507856,-0.5453209394417786,-1.3155696126650038,-0.7205764364102171,-2.0869774323259382,-2.3834443046726568,-1.2364208322524448,-1.5332948932118782,-0.9966248350008886,0.03760273996485144,0.25767744868927184,-0.41481465066028667,-0.05714766317317055,-0.2875245493889499,0.2993319967624358,0.12477599724787046,0.22771178010517112,-0.3076502701037598,-0.6050252126878506,-0.19869831921169104,-1.5177789481353492,-0.9683018744315091,-1.005996244894112,-1.3187459586557575,-1.0367486934541374,-0.507338382432911,-1.1724008143797897,-0.755731852539146,-1.5718873103911943,0.05600713159807055,-0.002712882644992687,-0.9606129390425403,-1.1521635948235291,-1.267057605262276,-1.0515275686376806,-0.882413847257126,-1.1979973037531877,-0.27754225378769565,-0.16739071343975528,-0.34176012027734126,-0.2996056707676688,0.3260144794962543,-0.21324107300371004,-0.37697723749540024,-0.04717617465606107,-0.06488520504558738,-0.13868565709438746,-0.02526293233841018,-0.04565381917434986,0.8134939931719489,0.5553254343254007,-0.6405364050701872,-0.13336550991513055,-0.5976390798973352,-1.6458165098531012,-0.30608725338235027,-0.16161636891485037,0.8224476782250171,0.8244425468888836,-0.3040762788203822,-0.5137066636020429,-1.0557970229643723,-0.8897120569192363,-1.333358409228277,-0.43842252082258826,-0.3311169183512519,-0.17956747695703465,0.4408590350757976,-0.23915920941046248,0.038529744149462516,-0.49580725262256564,-0.03311061196173591,-0.2693299290629841,-0.06674466208159176,0.06420683379360051,0.5606135970263997,1.4268606884956774,1.6068935439881995,1.7342650330956433,1.2916841239600354,-0.9015685305174728,-0.2595772379055496,0.178361036855637,0.9110947524488088,1.067776198581434,0.6827563744704757,0.38421065826581496,-0.6035554223365399,-0.5735114987013422,-0.5717553534210186,0.5971088146805674,-0.525353446707812,-0.6711988488540769,-0.18534777546913195,-0.5533600025801345,0.0863723022775201,-0.16020749869433054,-0.4737854444147016,-0.15276836451235326,-0.3939994868099431,0.2567755075451976,0.49645250881841113,0.07032521131491586,0.48455711119915035,1.8794840146654845,2.4016913689581925,1.1206683434545808,0.8123038234766061,-0.06343832707188352,-0.5186409460684606,1.6757697128264633,1.6282096894866458,1.2512099767061742,1.4713109532557103,1.860068273208618,0.18973047097824122,1.100790194183443,1.4607808528384778,1.3375682232706418,0.40086430976806553,0.09812686334179316,0.2429740917009722,-0.04033545044799487,0.07296964855411589,-0.14276381047455416,0.4645432973094874,0.11765305934120114,0.3294779623872488,0.43035870363922113,-0.05076279146246558,-0.19092334962764598,-0.2906576083179464,0.6597826325024782,0.7471685374534559,-0.3863218484441006,-0.7560393715498022,-0.6915878080031705,-0.09078113259687866,0.7741068047577649,-0.011833142729517129,1.097015590810319,2.3114522811694935,1.2132702879509567,-0.44242301589206995,0.44953678167245853,0.8133420207330497,0.8585748580294122,0.10304219688490897,0.07261108681045489,0.03585102827470795,-0.02908208868615678,-0.4229605964056783,-0.3753800441428695,-0.49170064483568043,-0.3047569207153592,0.4066706869969693,-0.28625080098255995,-0.17132082865752613,0.13062791319543915,-0.23626805588240946,0.1056209452647252,-0.28627759327650437,0.1681069504839838,-0.2835321936212365,-0.2999376183777498,-0.008252958054270555,0.058140762292116184,0.7402416590906357,0.7236369034986025,0.4833626173546404,0.3178577817407305,0.21397092467405912,0.4277507020346923,0.14463411380757477,-0.3065047260540715,0.4742299943101716,-0.2947048972900301,0.15750143282591247,0.23850655748652166,0.40249927364424787,0.3257170540102373,0.09308414689754259~,-0.21741991572893687,0.1923966979350526,-0.10363258240063283,-0.006980209587054607,-0.04556041429981391,-0.004557752247369042,0.2249856487675556,0.07748977124559081,0.1287082711246174,-0.49990232591643985,0.09036930512746594,-0.25849746970754023,0.3098832887630762,0.15684217273172252,0.3173338330673388,-0.418226744659377,0.21885176973880133,0.27719679232274,0.20939754400087046,0.23765507099132138,-0.3990312136526199,0.26144777427060145,0.36895026271447434,-0.09299527804677882,-0.11527605838069627,0.09167679458200101,-0.5012361833725313,0.48620856528652995,0.0901452737647302,-0.4327362100272388,0.045360346765669114,-0.23347693107056106,0.1597278975765551,-0.23484783480735721,-0.4505418691907362,-0.39607957812577316,0.24666833003781044,0.3444155543433786,0.1746863020144618,0.3960781451651501,0.11597694452413398,0.2640777688843333,0.22138651294361777,-0.26194963804035254,-0.30040011157642066,0.4189466647425015,-0.055264799667199924,0.09973913760553144,0.35969917245486044,0.35955698296233984,-0.21153318946061117,0.3813723046762942,-0.037447877069227024,-0.09135375961049624,-0.18429282642616868,-0.42246154793373153,-0.26232273439087544,0.1821042887856687,0.03190425354274976,-0.19948227602004331,-0.29036823830253805,0.1075696472441538,-0.31150092139206764,-0.07978527679088669,0.20382274982234264,-0.4575125214241957,-0.4111858087664047,-0.9047833513427164,-0.5640095237596977,-0.6222330078441518,-0.842886657961541,-0.7616372099916798,-0.1711777976678972,-0.3972515543173203,0.09062966437309111,-0.181737450897478,-0.3465142974147381,-0.3738597376777586,-0.48395925694372355,0.018487316747948443,0.05870395286381749,0.33021208713255623,-0.03934785337954951,-0.13061297701039737,-0.441567801561036,0.048906121326221,-0.22458844558707217,-0.1604475758575804,0.13084550701365347,-0.009047381205460963,-0.3841339575997913,-0.13325315043559402,-0.5046477400139144,-0.8015774874064779,-1.1969656994812452,-1.3815484288113193,-1.7048030361915922,-1.981480849875754,-1.090557963295827,-1.2049376706742883,-0.6563495339810981,-0.8466471643566191,-1.0306552614450852,-0.5528864469823457,0.5100144464477586,-0.05117272516204343,-0.62138087570807,-0.34989584509234434,-0.37047210863316804,0.08066530675245524,0.27542581654078974,-0.47150784740054036,0.1044401303525872,0.159858851204499,-0.05348728489048264,-0.2702124372496061,0.05647702277717483,-0.15868329780953694,-0.05765159838249012,-0.6104427083883921,-0.766166653629542,-0.7545043589114362,-0.8677182358876315,-1.1657927298422426,-1.1883827602130825,-0.8489684505650185,-1.4360453385087564,-1.0345027887012126,-0.5099512493782792,-1.2276509545155774,-1.5054818815338675,-1.3453592998437502,-0.24384371302489433,0.6726442441367091,0.6017967332398014,-0.29711794031538646,0.47144930814126584,0.513268594636904,0.1964669401900898,0.22432770757588574,0.01696141373168854,-0.5002355106784322,-0.009111331503714619,0.11705327739062729,-0.4197425393141682,-0.2547522732350545,0.22257726019319665,-0.3852228315165172,-0.45639499330905525,-0.5086302828301448,-0.5874246398612739,-0.6345494821984623,-0.24468571198484762,1.0159728565965973,1.4149464640967366,0.7610745232291025,1.383964402420481,1.1613874889445128,0.2564373064173024,1.7885940821688942,1.6692710655842697,1.347138917268978,1.2184807079790678,1.7848901803766448,1.0394018712702342,0.8678028190827648,-0.5347598756394321,0.12273030012604444,0.3881940803230907,0.3412848502953353,0.36193732496010284,-0.0048283655722185246,-0.006515403660397615,0.03998830445580673,-0.0825355975053349,-0.9367688340152748,-0.5397993944899573,-0.4178267627502692,0.2501851316613625,0.502734547864813,1.206444109594556,0.6679703327556354,0.4240398338274052,-0.5902687343188179,-0.16347520838130106,0.6911322900797576,0.270605957601559,1.277203308244007,0.7049537758205227,1.0955200711702362,2.1771980014843657,2.4858198462010583,0.38807092859571884,-0.2645927134064646,0.3508280535168973,-0.14343974972748486,0.43337395668397916,-0.3421082712096901,0.3726682847594201,-0.6816064857089825,-0.7413116081037399,-0.20460568837364546,-0.4633205109319932,-0.4548097123504566,0.0813289057911092,-0.26481368993248855,0.48637729156359427,-0.10789540429286312,-1.0343550155450878,-0.9174952158425682,-1.2494834471315677,-1.8030706232278564,-1.025314490448634,1.0947558804884068,0.5920372436164625,0.39095266067796414,0.9028942534559083,1.7380131322474623,1.6998620915762577,1.959291422035615,0.8717465926790526,0.5590869568954232,-0.02757687246059529,-0.3704255917307848,0.4490061839239424,-0.09254979565799461,0.11598111986842533,-0.7908278392480881,-0.9312656387696575,-0.3903857368929393,-0.2291609766379059,0.48333621547161826,0.6521706491502527,0.9699489608016252,0.759471026462225,-0.11554510730303642,-0.7359743988781694,-1.3791927297787692,-3.9977378998355744,-2.7245952057769496,-1.392920809727662,0.3953502510213527,0.6597972877446552,1.4413602895698165,1.2951458125439776,1.0758703313465097,1.7887941545310129,2.048196868881724,0.9120800557713901,0.2329079382741694,-0.41698053121570805,0.4658231609708904,-0.44383668532468973,0.4199138334330122,-0.08827502121120363,-0.6626207662704362,-0.5383523737100943,0.3264776129427162,0.2233230624233989,0.7973703438699661,1.2831765514404196,0.80217512880841,0.9979281301706598,1.391508816923528,-1.3997386757960786,-1.721429792919083,-4.096804762027245,-2.6254781093073816,-0.7966025459340361,0.6158967295966402,-0.6042345149999672,0.7673247460410135,0.09367371289652451,0.7922017183160786,1.0093299322315343,1.2382563260952293,1.3888503516869746,0.013185615443758248,0.2493418386970655,-0.1338699392516466,-0.4952209835281566,0.29114612271987184,0.2912791307449768,-0.3103205561581307,-0.6808100684717501,-0.02661947613031589,0.3687855512741127,1.5400898874908802,1.8383622499000267,1.5276084504758045,1.9986001950510055,-0.23272126341758032,-0.8419853735739842,-0.4001253990723893,-1.1215295782338308,-0.44168913103865337,2.4137906639017555,0.16721872827651066,-1.4031564562022865,-0.7885816249894623,-0.2225731872350107,0.41796414709482127,1.4491163655459793,0.6963723405103367,0.039717480980000476,0.00783144787918038,-0.384090006451505,0.00781693131312818,0.16349835332436868,-0.4596509411765173,0.04526543603581373,-0.03389046082314301,-0.13785240281037472,0.08830610206039012,0.857762507714441,1.9321260336068717,2.280146096424358,0.8707970440627476,1.1067734607921176,0.7067822922788135,1.099914018176569,1.9813831469947956,0.29496423196782856,0.397620285013717,1.4601898964476994,1.2909583688572193,0.07923242890120451,-1.2793906804366804,-0.31921518717362246,0.36471983230730254,-0.08527162075682644,-0.16948674220656032,0.05500902087364801,-0.3356911760692929,0.061481704537637086,0.2786853784077767,-0.29587859417694634,-0.31354884749833384,-0.4153606280830368,-0.2596624124055495,0.28906243782656327,0.2647271000124175,1.0364077656008714,1.3182511826710663,0.7623855017649356,-1.0012889579453321,0.49308060479274074,1.070432188560277,2.018248382377891,1.4832843114424665,0.9663896067216505,1.0027696936777757,1.4217543208682741,0.6864332653221034,-0.05960106339030596,-0.32222951706326114,-0.8602336545893411,0.3734722962208165,0.07648745781141443,0.08180496120439627,-0.6750663718078561,0.4044132815234567,-0.0256367700355836,-0.21876821784828435,0.18386893242539995,-0.4171843325932596,0.13920682596817457,0.1633624391962518,-0.2769828109319935,0.05460271610925933,1.8173532720036611,0.0076957961939800885,-0.23672407077105034,-1.0365737931773487,-0.36323356515401894,1.5578663277415028,0.7653745833501296,0.18711852722467312,0.0013206363170894845,1.427286513416734,1.608178242661549,-0.01956887128214987,-0.08852225673372112,-0.8273692887013081,-0.7616831294377372,-0.9943484155716242,0.1308335845256171,-0.04609973302858026,-0.5264936085324833,0.0990887819608233,-0.2982619822637276,0.23179253618112725,-0.49658298619989766,0.49015642435971624,-0.4265034694718049,0.22707833911857786,0.6824171050139098,0.41863996934228076,1.3064468773045865,0.511727813105825,-1.2463485758343575,-1.2670859367064893,-0.3624066580678177,1.1986913578509588,1.7083104927181396,0.8788551134012799,2.226415572485762,2.2541520817832894,1.477824294470911,0.521136019177526,-0.3593352703337756,0.09236071315286884,0.005573375356054474,0.15460378513050346,0.5546725418849789,-0.033156781338214626,0.009610756340284096,0.20238821534081375,0.2346654299053025,-0.24480515483263698,-0.1709930927284426,-0.09602229049929659,0.24883006613675787,0.5990000000472062,0.7689673093342327,-0.33272805809137823,-0.01631089925951381,-0.7933823915508759,-2.168999039514737,-1.9912466718001274,-0.020534809387811593,0.8647024339654708,2.0288396667513218,1.0566904666871377,1.1302361244840313,1.848212836020254,0.9578615288470328,0.22140230186854348,0.02156129382912815,-0.27372168002630076,-1.1796738326535263,-0.7162314674054179,-0.03396442211299943,0.07079575436321658,-0.05487966279212797,0.3776901823334284,0.49497763674288225,-0.07935559219437116,-0.12371559039479081,-0.33174912162233444,0.3154396155143916,-0.2455049098847471,-0.330832371314304,-0.8791461397077144,-1.2232627180814106,-1.4236603353727804,-2.141802211345731,-2.152489828339697,-1.7661183366120523,-0.7421496312686492,1.3025380397028883,0.70205147661244,0.46502471104900617,0.5597644259771425,-0.44755628625932775,0.29211501736004614,0.3278233033223169,-0.9975471898257883,-2.977762783573524,-1.7369328637066646,-1.0002945715020615,0.07919637824360788,-0.19496114898859157,0.08810400279967652,-0.08879157544798191,0.33170042542584643,-0.0014838046273921491,0.02896151747272362,0.23956009093382896,-0.17748764360372873,-0.32128451317926215,-1.190557217164548,-0.9637759378579217,-0.9113774683158409,-1.400452900871374,-0.2588011263613022,-2.3164080594404535,-1.1127160986420155,0.7943737795056552,0.46121759917388605,-0.3885906055533543,-1.42971337896677,-0.4276732797776968,-0.5919860987705009,0.27906115706242535,-0.9117352249278551,-2.113529743530759,-0.15860862910947976,-1.0020608304899115,-0.303855121178528,-0.23384509894084166,0.12909792262273087,-0.032853650290741374,-0.2208876080580707,-0.3205803113311339,-0.41879765233741173,0.016898267649778604,-0.175242630701753,-1.6468645127980404,-1.0824512737281804,-0.5948067819333129,0.7028767477491615,0.5957432025478192,0.5393107608152115,-1.87806227693723,-1.3392922563825833,0.6246854928617895,0.10517851027412767,-1.8143992682692713,-1.9530778751271565,-1.4846229897589316,-0.6541896435447712,-1.2229728837714402,-1.803975220510316,-1.2978188703054283,-1.201130765582711,-0.6589094016514093,-0.5373779164829212,-0.3714202265414807,-0.10863331724158615,0.42103112961969363,0.2386330081434982,0.38489709370848063,-0.28612095675905624,0.034119238987199256,-0.6115121135395597,-1.3128251588644253,-1.1710459152128456,-0.3156062513005949,0.4631758780148331,0.22441496032955582,0.12048614904895988,-0.9294625850272236,-1.156430374047425,-0.5939549878441759,-1.1441415071854744,-3.0802677616144236,-1.7133925618933068,-1.435683439947153,-1.348716931730725,-2.0383168198124246,-1.039549992583547,-0.7059910128470851,-1.4950675681660988,-0.05685936870131256,-0.24329821107333008,-0.6149047706015449,-0.04623897490916693,0.039828793815459805,-0.06729773385698323,0.4550208111550134,-0.26667850259894615,-0.432412670704418,-0.799629777284419,-0.47835241167223436,-1.2035357111667806,-0.9909007607331193,0.17911574240786993,1.4244966347892796,1.0455942189953564,0.5526014655349839,0.9381139035329694,0.7345341453200847,-0.19817035628446603,-1.2365413935700234,-1.1616832942955375,-2.091566866937238,-1.8539652776362578,-1.7379821776876474,-1.4225687383103545,-2.2372352219079215,-1.3028391030428608,-0.1357357599750408,0.29524078895830586,-0.4861509834970606,-0.049691359023849656,-0.2583514281279125,0.2549603379623178,-0.054999954630681476,0.3139118407764406,0.2751811115798145,-0.16782177700402728,0.4526702344122485,0.2645631995222554,-0.20570681459837198,1.193453334208212,2.045458596686857,1.3703737224976886,0.9847737369925377,1.3477820328317558,0.988426930454581,0.9861671638226543,0.2252864922451039,-0.2446732766956998,-1.0932220267990411,-1.1339404849242838,0.1411625260795931,-0.9417994851696149,-0.30860023448511253,0.08083345759686712,0.801431049004523,-0.5982424571827172,-1.191711441073437,-0.13630655284125653,0.22249541757287294,0.2789165665960636,-0.39734211535277625,0.2961270207602245,-0.057443446845135165,-0.5268861742153638,0.5566736781317065,0.06043994573279973,0.6931567199101798,1.1644726071329023,1.7926210842626629,1.4004502849963918,1.6722061335842662,1.7437288759214329,1.6042670820665548,1.3270700767783532,1.5823881191167508,0.40225975924055707,0.5677008316095837,1.1679910430744114,0.7905908346084978,-0.06862943240211687,-0.43108157520904067,0.06301354172233148,0.6836854766373338,0.18340970569976747,-0.28972725777323954,-0.24223324014512282,-0.4013677099280324,-0.12456438962086047,0.42502814568251207,-0.3559269526757934,0.3167909221306964,0.09362342660830046,0.47441121948207726,0.8231379377291907,0.9067296589223603,1.8540995574897317,1.5119463622254778,0.9142533581455645,0.03413176116183268,0.7247619517988931,1.6316018410926154,1.4455321044138107,2.5261224074236672,2.2635296708701103,1.5872781714959605,1.969831539080829,1.3337763419631716,0.1731121069617106,0.39257445721323436,0.36871220220569234,-0.029035407691650878,-0.06505674803461214,-0.05112212277271346,-0.14273482262603793,-0.2992364540806267,0.2854780807477591,-0.3814632746188607,-0.38728358084487785,-0.21187570536367437,-0.3006619369280616,-0.01841646837491004,0.522467421264033,0.2435803475356554,0.07709335079718269,-0.20589879020176638,0.3543758040511441,-0.6009840726915889,-0.645017179132222,0.1793822569888689,0.9074425906629553,1.7162888152115376,1.3085869236598018,0.6383889563396034,-0.4893308950846264,-0.9807431760013567,-0.04231220693394167,-0.27417732575910725,0.06790267461995439,-0.38616847395335313,0.2957701863239444,0.06180343440845211,0.38158181507401184,-0.13073402927264624,0.05842763663116244,0.3273139628714809,0.48225859724416925,-0.4056425246697375,0.0472364643855462,-0.07413430916309603,-0.4967603498934432,0.23937523885135664,-0.15051019457307305,-0.5269961935742806,-0.5132174855678013,-1.4062096122350174,-0.6372327942074748,-0.8272144710037719,-0.7717484338737087,-1.2886492605269058,-0.004340701549776914,-1.0274991043321644,-1.2852856812948172,-1.019338239270837,-0.7987689751063763,-0.26933259644911545,-0.2972276959650228,0.2877972452787212,-0.3184612144901665,-0.48237225569199976,-0.35867638225137555,0.4492630591802791,-0.17570801715522016,-0.21220951358793055,-0.13828523974947443,0.23453720893203234,-0.27773889144251723,-0.3572354795110471,0.1415043398739033,0.06238968159719374,-0.5181036049329322,-0.3197800290965875,-0.2622937705618927,-0.4131223155497921,-0.4872654532832956,-0.681663366284743,0.05434346116659753,0.10589406745141194,0.5364357229821173,0.0016427184918419726,-0.47708718048919313,-0.6042622797493534,-0.9348830888503145,-0.2559696935404337,-0.1432955657115226,0.24209935552096898,0.46775606337901143,0.10150206614974847,0.29576099917643583,-0.2958533468001316,-0.23885007715790613,-0.3906304895021105,-0.0470569034723387,0.058964185939595896,0.08727806406574673,-0.2614266866333854,-0.28929761689584715,0.427697356731388,0.15028233755973083,0.36547135865375396,0.3485754956962684,0.3018388201600913,0.23728078386963516,-0.03322898526583252,-0.35322470290417024,0.10515142991478658,-0.25962797855564435,0.014113760250021186,-0.5227883700841146,0.09933713500567168,0.47167019519172915,0.2531727274451856,0.3959027693904877,-0.4474790534951086,-0.46267714181931296,0.18005002369469741,-0.49207969002888724,0.3919217873122263,-0.026782639489361364~,-0.44192757600634947,-0.43978746230947996,0.5112312531819599,0.47533350721777123,0.48292441776588657,0.43728449698012783,-0.10568728082237958,-0.10235180544146472,0.37695303424367566,-0.3616679580250539,0.35719289693301315,-0.20111012080646645,-0.34716179066669595,0.12537813162475844,-0.20198456963005174,-0.060714233933502434,-0.13458194723268918,0.3477101977684972,0.509252981688651,0.25515133699729886,0.384182525093705,0.42554642639421225,0.4861804801683862,0.07219932835144696,-0.3810334449485211,-0.4668076871131487,0.09882981561887103,0.14690645849837447,0.4325719734278104,0.40930500509599477,-0.28439639719139553,-0.23927691377490545,0.3987396791630677,-0.4632256221283775,-0.04121366573281968,-0.16454297114937802,-0.2730776015613546,-0.2587928423760221,0.27654616332455884,-0.391537365344037,0.29163731523148506,-0.36533375504007815,-0.06393615462553118,0.3204517601749921,-0.21379494174649638,-0.48137131067085204,-0.13310855685596445,-0.3401464029334065,-0.4546151414027375,0.3488484366676131,-0.026895029274779606,0.4289121772465278,0.19983252048996852,-0.39830730064922015,0.50674520027417,0.029561866056575105,0.371138671752803,0.10185184350551177,0.4810664575341728,-0.43858177406508403,-0.17698942092551603,0.330410249959577,0.19816199183715577,-0.4873860250503255,-0.022245778149430143,-0.49483687540424726,-0.19603453789581113,0.29298179095723315,-0.11286971530826205,0.1427039180283206,0.31173894265721286,0.08166444302915488,-0.16029814459263725,0.3418055056460554,-0.35477363757265745,0.03892959038472101,0.11304224876568808,0.5286489551828006,-0.017800640848149047,-0.1186457771825006,0.40746697755114014,-0.08988871606594259,0.4309822174486876,-0.04608337718776944,0.228743579725269,-0.38611603910127057,-0.3336772097762062,0.026941533937623625,0.5122280395992566,0.27796432782720265,0.21345667680101413,0.04767003502338787,-0.2563734946897257,-0.44635750569423516,-0.8670984537644753,-0.5815542523010202,-0.9945962886041418,-0.7446958313399761,-0.3318100678921709,-0.8775679510231396,0.21687122530590355,-0.13164538247372537,0.4506896540152069,0.6070993878529652,0.32479108182961036,0.2640861854236958,-0.07656554796650902,-0.34459403576307757,0.3752447618147773,-0.3585993934300602,-0.30811822636129166,-0.19991697984257134,0.09210674493034998,0.22301991454718106,-0.01842171539667998,0.24684232892620808,0.43115213788834666,-0.04591134291385137,0.3112312996362918,-0.4095521477350006,-0.9366991575437114,-0.65247625817002,-0.347361426460987,-1.0577994933826094,-0.9390673467479199,-1.9621359156665983,-1.2696074839062652,-1.8130694830791323,-1.6583698746550446,-0.3496977594547898,0.6346527061844223,0.7088826176648836,0.5809313174445209,0.5169422651862037,-0.17201254069346925,0.39327346425815557,0.0434872481294794,0.5567824121649327,-0.10029155024788888,0.40736985375021834,-0.41012843038511515,-0.051949094297935115,0.1458047101596226,0.3815606514686458,-0.7324237734287626,0.3134911380586112,0.08557451132145698,-0.2657906675440993,-0.6860062802227472,-0.5482403496027163,-1.0563092417142894,-0.8510969571895891,-1.5307052134748254,-1.0541731203529392,-2.2397627374872386,-2.576775997939066,0.7778931731157839,1.0114344013853118,0.642493526203566,0.48343533780906744,0.7790463741372444,-0.21854479503022575,-0.7719877465984871,-0.6707452422678554,-0.0984873682630717,0.3586316308481246,-0.3057331834551376,0.04341304807332463,0.46705206458142,-0.21533287243462337,-0.11263928681682177,0.12199030800223964,0.12458786243865652,0.45121440806862856,0.15672156982855354,-0.6335420411806267,-0.8965786110404064,-0.28159938723645034,-0.12775818076304618,-0.036716396807822696,-0.8503662765405064,-1.648858452599837,-2.1595261926434253,0.13812430086048447,1.7028883059418882,0.8974227962447271,0.7203048871248311,0.8311348689034078,0.5035819706606346,-0.3001697160200323,-0.6229552719898619,0.1982609974959296,-0.07173231204010799,0.11077776125166441,0.04301927325758789,-0.2402095994125682,-0.428386658158581,0.22297557435213278,-0.233150103641208,-0.46974262112093756,0.22522288225686177,-0.01591335566911886,0.918017179740492,0.25131363708007654,0.1868002549009004,0.0030155275598567704,-0.02333552973261935,-0.4402496875282562,-0.9559916606599191,-0.6707892344766867,0.06482792382666716,2.141054600410176,3.154741483379941,1.413877467325774,-0.1967591162703451,0.065751433739097,-0.2984900035395529,-0.30153388485181487,0.9679659216763121,0.4907772394448886,0.048001817823384536,0.34397333189543194,-0.11354706048678492,0.33149372215721845,0.4165046628367556,0.34178774431891895,0.07418767494077257,0.4352840444753204,0.6307055276302148,0.11745980079887319,1.1355867521657481,0.4716404586526124,0.24802119114112456,-1.3306691513400295,-0.43021516367562823,-0.5149470516055784,-1.7712634725480734,0.6148364061483108,0.4185910027179262,0.3747436589034663,1.3472391728810704,-0.718808318938509,-1.157899244065564,-1.0194812578467254,0.17895407566715432,3.4814798871694226,1.9796245235226475,1.1027914245248875,-0.04581392796463459,0.04606714040824414,0.2306817521094055,0.5098496846646019,0.040135254463140625,-0.08676775191337045,-0.18712029827067034,0.41479825728099373,-0.09014939578575452,0.04075655709107996,-0.3802899521560779,-0.6117565380375855,-0.5958508477569352,-0.30041227634418327,0.8280831457083493,0.7556983356182235,1.0652931057324704,0.8088568466441614,-1.1186682523283018,-0.7072684809759381,0.5469252429971977,-0.1718434681892564,0.46865254668232703,0.9598354108453169,2.7498008325250556,2.8311399803069808,1.90973382734481,0.6750654823424683,0.2551189453950524,-0.22396995421928584,0.5062336625353194,-0.1161879360272713,0.16462937879808637,0.15044147088767323,0.1512325880634271,0.5604065824899368,0.7850051005620201,-0.2097615121710422,-0.5266078066317132,-0.49799686104892815,1.0533577790407473,0.24583354151228445,1.4286540739341949,2.2350486295562364,2.308115910704392,2.071199564188197,-0.10817669496775383,-1.4778025434080657,-0.04800711952774919,0.023997511645085737,1.6369142849534015,2.3674240985630117,2.2673021291295212,1.8281573802322915,1.5250801743913383,0.8079527444828898,0.06868449585795795,0.03834243330305374,-0.3366827852352519,-0.46355701155512785,0.430317968804371,0.0943923213542874,0.6573871311603986,-0.06841802823899074,0.23398276950168434,0.22385480017929266,0.02564159184047669,1.0183140068571594,1.3449092529244322,1.6574120624956503,2.6554878456281505,4.340465485897287,3.8755905008866245,3.4006809972239362,0.19264510337712687,-1.8087178375139632,-0.6321746088396168,0.08647973214197638,1.264916583780178,2.4139247099774037,1.6738609374132738,1.7042188483237146,1.8343243790479515,1.301616379381699,0.3674605681204193,-0.1789733132148886,0.40918827871862173,0.38786123669120065,0.16734884511880335,-0.2890255504420408,0.32917800294564226,-0.006015102021812293,0.6486906606413836,0.3847315157344791,0.9660138607862105,1.1292436780511148,1.111617212378881,1.839152931020209,3.825892774030044,5.352523121721001,3.5709883370129676,2.16612860813582,-1.4747041920586978,-1.7654615496118224,0.49939227369614625,1.5694415477091295,1.1723191771330486,1.940861588074554,1.6539630010285367,2.2858348770233383,1.8267868432178227,0.38591876763807753,0.3733985935889224,0.15714565714047582,0.21897305109219942,0.3143587883253123,-0.28651028785363875,0.4760691327980968,0.27742640075449326,0.2261153963891821,-0.30934057976679447,0.3403670420068197,0.5468778346956933,0.6542095228571759,1.1261795626757742,1.8687019080622282,4.146862504929806,3.4122195090926337,1.2739393306744706,-0.23178350542108006,-0.7308832021168806,0.44768383764139175,1.2784304887292042,0.609875909774468,1.3304123057645632,1.2145784957918466,1.1833535079356805,1.1792012237861706,0.5181014837543034,-0.4505308470847282,-0.3303187304685086,-0.6990711600255534,-0.27069967820144697,0.46875179475914086,-0.006720151390160704,-0.12192941714672002,-0.008713622122481652,0.012164693859801493,-0.25690598840661133,0.022543126630766436,0.4072190714777978,1.434154246597884,1.3093155795145104,2.586991714474062,1.6078978874388192,0.1069200019441809,-2.1286548363340483,-2.5723199667261887,-0.6942185411127765,-0.7382438827237646,0.44618103387689695,1.1309555669916282,1.6695118740152135,1.2252816677206406,1.90975832392188,1.221717886723182,0.7979222378658316,0.4732161722860941,0.2673266997991088,-0.17133542399231547,0.19375892978017695,-0.15545538280568658,-0.2833729267359766,-0.16022678844523155,0.4229860930850581,0.1071885810615014,0.2669284091047181,0.25693718453324077,0.47314164136453896,1.0770523726134749,1.4265432739937614,0.36464640163401785,-0.7263771679830854,-1.5545545334237743,-2.774465420467572,-2.9419655820339528,-1.4046857885173523,-2.8301602490017634,-0.3715650170253414,1.894375509575913,1.7104986269631346,1.9209748708794432,2.253388233803922,1.9941451164699022,0.9811022146221974,0.3007481208514621,0.2997220250378658,-0.3725166953266734,0.2578180795081623,-0.2979220958191569,-0.1997696098269785,-0.15660704211989668,-0.1372161468493388,-0.2075757483908693,-0.5706141934270792,-0.1822640255945368,0.777219204773832,1.031231258101585,0.5796945231728629,-0.12382679345352002,-0.3191793106227582,-2.337997598315558,-2.9030057829403,-4.357295740705074,-2.7217205108739013,-2.538614494574024,-0.25064574954904667,2.411629563965617,2.0273694963495608,1.895803529938522,0.9771047268954318,1.1707094230904433,0.5069550812351913,0.4287190391203789,0.11515281204158029,-0.18855721281654475,0.3253509965427395,-0.2583267252535727,0.48075957485756005,0.3174793639794807,-0.12146074093462347,0.14014838427056525,0.09507971538981368,0.02314728914623754,0.9317318869028928,0.9349577698007804,-0.46208084684836365,-0.011625787856951904,-0.3751295987467811,-1.4543595436909105,-3.680189674646088,-4.597294466616837,-1.848985083736098,-1.3044545591009897,0.5462791939172723,1.3510006117000286,0.22469638962182611,0.6124165574955207,-0.8795403678566879,-0.45242676958910616,-0.3490741770138925,-0.8677337640228033,-0.23269511792597822,-0.5011944032955867,0.4593467149993182,0.11095804534623738,-0.4364876073351671,0.3674135213674328,-0.027610758618264977,-0.14794996512872513,-0.35903041629220483,0.8630957672427724,0.9792875413548534,0.003524454482823995,-0.2740551988422463,-0.2771572634315648,-0.39822886906036914,-2.3656745208164556,-2.954312873970406,-2.8829826771432012,0.2728133100153787,0.24943605125049642,0.1962595903704208,-0.6655212671688339,-1.8315627000718022,-1.6488760621779983,-1.2981499628566304,-1.767594565883558,-1.835468842241827,-0.6268306928939834,-0.36224700523174325,-0.08550204109767025,0.10079803901224393,0.48653147191632395,0.12715755528715722,0.41667349899108486,0.48533871822197244,0.16833138804073264,-0.20390753532636777,0.8483808752935512,1.0223583104932874,0.2056770349607065,1.4745383675187016,0.5892431169853558,0.38843807718811446,-1.7314645168210163,-2.7041045361707527,-0.7956035027746615,1.2908935135435404,1.314134167357417,-0.3149262386849446,-0.3387675740477292,-1.095468492169095,-0.8787935334233336,-1.0196103932568925,-0.4606070163781749,-0.5437490418231319,-0.4123204485835085,-0.36857577307784734,-0.4920392742215752,-0.3688532807878265,-0.2957159455500406,-0.024366852672289475,-0.06445521322321048,0.23989435941630827,0.0160615327473955,-0.11976200851180244,0.22136955678905348,-0.11561844718553806,0.9570169895960458,1.5019864461675971,2.112455539709078,1.1253620875437889,-0.17464491057304982,-0.6992282015529249,0.19486319555011647,2.1740811776659053,-0.388200332310486,-1.9039319666444205,-0.5936080603874897,-0.06520470575571177,-0.8116329265152199,-0.21740768769379143,0.11691309201413486,0.08970349293095402,-0.42105217076778184,0.09508804356186107,0.3250505589637046,-0.1296010601662543,-0.3546206470313633,0.21430776608091298,-0.4324641215621367,0.02703542795882048,-0.12606886207355214,0.17567253617966097,0.20781871559526274,0.8130578525114444,0.3792886295167879,1.184254356237856,2.1425603407812486,0.835047966412268,0.948926350675293,1.766913059245088,1.2486671992904388,0.08395734291722703,-1.0233028137062277,-2.4231915101159305,-0.5055515397551109,-0.50134461841278,0.5846789391654351,-0.18191861592181638,0.5837299841378724,0.1138682789050008,0.2565752468807112,-0.3523058256126369,-0.34259808831346994,-0.1320445892853845,0.4460153390136373,0.3346383836396081,0.07187369750101193,-0.03686372989748544,-0.1061534079973622,-0.4768207306278067,-0.19667175242047744,0.5416267799493688,0.2503988950331768,0.6350881115113163,0.7095382853021099,1.658929483729497,2.3358224353433816,2.5719939653692045,1.6591554196467246,-0.1880242670245786,-1.0202608810308658,-1.7348298414697756,-0.1517659757322934,0.4187922400836147,-0.28049316896950727,-0.453907539539099,0.1441978793333291,0.3869092256206598,-0.4521958667205875,-0.1776553658144458,0.21099939030986825,0.40899725798546444,-0.02898512120394227,-0.10892151420038429,-0.23361256888895016,-0.3334935651226774,0.22857424459488357,-0.4998202091557313,0.07955884146798803,-0.14174450123504514,-0.19642761602392617,0.08086837316959007,-0.05746087386888004,1.2736227989104132,1.7993807077829829,3.2816963440904448,1.97010493853666,1.2815959241551325,-0.6411734583931049,-0.09659178669319589,0.37199885898498364,-0.26588209314241057,0.10247456147815551,0.5012782569430142,-0.5196529492126587,0.14049269903106607,-0.6328669539054353,-0.470979208381077,-0.3152710601212841,-0.37964231719488656,-0.03371994047686889,-0.4172357241646353,-0.43962731959511736,0.31192233940747643,0.49512927760894215,0.4277701983456778,0.5767967066747819,0.6797931787463587,0.22275182496682122,0.8141009579444781,1.2804853932516584,1.5943604454076676,2.6595049738517513,3.0654010709186004,0.9602671036322826,-0.1269792381972492,-0.6629297778613936,1.2310026360285642,0.81478722625262,0.28410339329074014,-0.07501785988196293,0.11483410247217248,0.15146481288511074,-0.07276803222293289,-0.27503367825024333,-0.4343063993056335,0.3380657956076739,0.18231015157833946,0.1564817654745812,0.0708168097045235,0.3452476711371376,0.27238227737491777,-0.41722307993286184,-0.24154014904923848,-0.1670266809504305,0.3427348352378562,0.243631817465091,-0.3043273501211343,0.8096095198323988,0.7390381245644919,-0.020598851723607838,0.4974947672698422,0.8413839468477311,0.31965199380138243,-0.16272665888167692,0.11665078425247924,0.030350042470094225,0.6674949804869557,-0.495234317184516,-0.5442664434716654,-0.41680186059194396,0.14063225860444806,0.126490583378746,0.32391897663786823,0.2357124871671328,-0.33790493002453814,0.1232083543857165,-0.38910364734887204,0.2160589684288144,0.46299982109576865,0.3561309227119337,0.3898323673730925,-0.2952262377039233,-0.42926836740913366,0.08525128846152767,0.3099216091445621,0.056994518891166204,0.21288123801618752,-0.2020129074533086,0.1124661985649422,-0.0585731018926206,0.530678514069811,0.38608571449620505,0.10307593227534764,0.19138633122359874,0.3463971832269647,0.5015909357838825,-0.4211566890594917,0.0017119775890017672,0.21664455020906281,-0.0892194346682977,-0.22944388735061552,-0.18438677615212035,0.493988410037724,-0.37129221213724095,-0.2470485575534916,0.08464775519626025,-0.057986745142464984,0.13713080118942605,0.3071770483018408,-0.026831626265125127,0.4112206918501954,0.4487815305804495,-0.10588388987944616,0.08625478063757931,-0.20165337979400133,0.4097648683720733,-0.4210001164685475,-0.15402625132102757,0.3734022358703955,0.20638103381892356,0.26054060940595053,-0.15285355942757944,-0.05246677520640237,0.3190503179989061,-0.17048488819213387,0.1668727646091507,-0.2801016549680148,-0.22291075166279217,0.05059566916372047,-0.2869523104407721,-0.4090583672475394,-0.2762373049088529~,-0.1351594294414652,0.3069832295242987,0.19691182775318294,0.21218513485724977,0.44277915278229096,0.29259701145004746,0.23231660648056618,0.14277708044080273,0.475389668275934,0.07145405290179938,0.2891783597806815,-0.36538399043200753,-0.40630214407398724,-0.1623418139666098,0.10749296366458805,-0.08317549615382266,-0.11344267279406212,0.0773063419638661,0.2717834945033345,-0.22155128089742193,-0.21519959486432383,0.36533481331993856,-0.06328660309548564,0.3336298464060984,0.4819407294771907,-0.04028626506181052,-0.3821004598721356,-0.3189785867343965,-0.2156034300233618,0.3837181812794802,0.26292426357855847,-0.25005424396749193,0.4133916558878051,0.44094147416292717,0.05929143347888674,-0.28767070131558664,0.030998935419161967,0.49949496910685753,0.3716832360906828,0.20246373337769627,0.36437162874140366,-0.39080994993465407,-0.2032799148429349,-0.046274517210656986,0.5117522407651605,-0.27384794318680855,0.03971721282955519,-0.32168932871163614,0.35132887722422906,-0.15811373455195712,-0.030471436033245626,0.3588677908009036,-0.28267498411135306,0.3872605585640193,0.41781859240601826,-0.476513288485905,-0.09854133701218995,0.05204916771407911,0.15511018908310129,0.20988642140559835,-0.28521599862886454,-0.15380159337968208,0.13135326183694385,0.009171896390093123,-0.02175104264057317,-0.11426378899225534,-0.23771397291222643,0.41025548140143986,0.15769421258542773,0.31541302340185784,-0.16297968349514982,-0.038625816639398416,0.39378898563136727,0.33755516559750004,-0.20769664674022262,-0.4903453121029805,0.05673333770468643,0.19996755456919732,0.044941126304276054,0.02906655992698557,-0.23426992248045023,-0.16011746252761094,-0.009263190543049533,0.13114761075122344,-0.41740151310100737,0.2790373871814812,0.006727441906365741,0.03357928551431303,-0.28794937755784217,-0.42611271583185817,0.26838363437615914,-0.17932175117459515,0.20532909825887763,0.04148493851207678,0.37667445418069556,0.06724483732568025,0.6338177676940059,0.5298956345026186,0.5664240956475622,0.048194732550757374,0.06496354405926628,-0.3176065554503974,0.2870002982374,-0.16878778243471446,-0.5145846556625197,0.08565367480784898,0.031875284432484,-0.3215470881821675,-0.289281667478254,-0.2681092835442463,0.43719274395811425,-0.3197153953675521,-0.10110505827338614,0.21968170554097155,0.4165928155642391,0.06001611067420809,-0.03080715125169226,-0.17920459157383978,0.3610999858164931,-0.4171954577018312,0.14463751257350696,0.31516001793559023,0.10758586404181557,-0.19690319597563455,-0.016738972089332425,0.5722691011792143,0.7313892722026744,1.161537020435961,0.7214011006701188,0.40345582623201093,0.017691479134579823,0.31717741405498495,0.2919523578833816,-0.1571670036210094,-0.2638311284488065,0.010212072668300487,-0.028929817452347645,0.014231740616231794,0.017282613524470938,-0.1802042275205752,0.0852190082538554,0.5085572901195531,0.07205417328946992,-0.03318735675914974,-0.30190228973245975,0.22159444485291382,0.5638455208469837,-0.15459627136201332,-1.1507605215270382,-0.72454538329833,0.33428769414887816,0.9520718283461111,0.5051365457719935,0.7326689865468453,0.9742864448010458,0.8128397533741542,1.2675510466133784,1.091238669234434,1.309248016087849,0.7066048649373914,0.7142969315307846,-0.2008313690954994,0.2763245442276403,-0.07022149136135092,-0.3383874482195219,0.21147134996389222,0.48961815716377133,0.3458656623475441,0.032517611382685455,0.445395368965162,-0.421655026223682,-0.10928408451916939,-0.5595997347763985,0.007004951522714666,-0.6546666931187306,-1.007425441928571,-1.1740927566729067,0.12269779620439265,0.4463732644168218,0.5434903206277082,0.4433424219605872,0.7447497980836221,0.7148680604614737,0.8412131306317834,0.6373317860028641,0.4824247121501801,-0.164785095833953,0.1893115810749838,0.5525280662680103,0.45476409365886167,0.15703710797721626,0.04659606224891165,0.11112083081474335,0.31462531525658377,0.44150510306396223,0.016543807210718672,0.32152741059606876,0.40764116501773284,-0.25702609170815766,-0.006991353508924947,-0.35176550752373353,-0.6602528291183839,0.031523899009873735,-0.7231994674085044,-0.10557126343862552,0.42608306529274087,0.28207401875343174,0.311840993399046,1.2597003133199394,1.2156323775277669,1.118307266565046,0.881596641162544,0.7108902617181629,-0.3367980032385555,-0.1250634196025285,0.9487971183025413,0.5652781127652785,0.048664660906280924,0.7557628696959023,0.49364956842922325,0.20780579096636237,0.2785858907315968,-0.07844908272023024,-0.4140492248679262,0.100143378028454,0.207981982068585,0.050044964677485405,0.0033126350014692145,0.16093932444703804,-0.7662195998669514,-0.19286543870971726,-0.7972243834845102,0.6104523918105311,-0.3065752345822747,0.4121357033739217,-0.3832776839336484,0.3620172948093876,2.1832571250593387,0.2881031131145749,-0.18802612028644308,-0.32715219649628574,0.4294794032234466,-0.5286292400660962,-0.8238104703566967,-0.4246320963502791,0.30378989434814874,0.765758605169705,0.2775444769628039,0.8384858000012569,-0.09037841642041407,0.017995150602696526,0.2952108537538343,-0.22958656127718394,0.3599407448897309,0.14907266807948544,-0.79799739174173,-0.05931428069271991,-0.5046551586670689,0.9394499653491996,-0.5668128058569296,-0.03960554458382617,-0.04185326029894283,0.642870945124845,0.5454667087482544,-1.1752981719828095,1.2045807722967734,0.8345206417004085,-0.4038887537469653,0.3779120584889976,0.06799084003783795,-0.9680043377900479,-0.4017894498333842,0.11335725572069585,0.5721754887286686,0.6031698108992223,0.2173549752726546,0.7685848769237632,0.6254713747181484,0.742423518321832,0.38517012081217306,0.14416243876488258,-0.4713757163937606,-0.6593923074868652,-0.4372726504608741,-0.6139999618405982,0.5578182044690237,0.5983406731999347,0.016901359658789267,0.9584143048334578,-0.2874771841107579,-0.18162816206721533,-0.9708224681643799,-0.6184063961033559,0.6335499380190259,0.5215772266697037,-0.29973384774881723,-0.5710989386576857,-0.42669868910788755,-0.5064662858707437,-0.4612813317712854,-0.23034084740738564,-0.21556539990481202,0.1473690404069477,0.37656506482878527,1.2433360621008676,-0.12236158130913175,-0.15779833718188918,-0.2970182156692316,-0.14384926577022467,-0.3304315443743234,0.08392785578923799,-0.20757359333072053,0.005280612222597898,0.3557090130185955,0.8100505876458818,0.41185038113175737,0.6817474568953379,-0.2079424925057006,1.1738262002826696,0.48077236293974923,-0.37702349981570454,1.0775068338005322,1.116219033692085,-0.8746524268184319,0.03511739421714826,0.11833888702586103,0.18292868505131185,0.0341275645172044,-1.2209359375418216,-0.4669274505945866,0.011374643438056381,0.6049883409484423,0.9451200476143178,-0.0524802050647035,0.34082572556805246,-0.11256389625342117,-0.21478432924191762,0.024846547539923606,0.020506130011816014,-0.12005848067565211,-0.28383778167785484,0.3292035690136391,0.5367854988615343,0.023816722264042096,-0.4224249354807985,0.2846318586478299,0.20629811140861976,-0.43666064174738956,0.04224988245217682,0.1693128098816901,0.18228783203916155,-1.042225454136278,-0.3133689011634014,-0.47872888097844146,-0.1904481535825078,0.10760444649103612,-0.5084653413860658,-0.11621215193669501,0.24067768772369544,0.29802041759702047,0.8329042734888503,0.39942823291222346,0.21403590620041146,0.23899545705939018,0.3524692098789668,-0.012991495757716897,0.21836432391870603,0.3528447210695434,0.21983041696405153,0.2796931846452412,-0.6177267640355268,-0.14096587515094494,-0.24910645579042834,-0.3595795700164204,-0.387736332812425,-1.9152920451902302,-0.11148456727794652,1.4182595386468189,0.07301932539438027,-1.1403224427354306,-0.5486636009843118,-0.17288034600363206,0.3853980003428426,-0.5967202000932592,0.06420467429353921,-0.747443412338387,0.19602956394290927,-0.07100673764421668,0.20504908061582677,-0.2918737535389328,-0.20206687571354523,0.2370285654803772,-0.39854548375784893,-0.46275040086560654,0.010385898865143219,0.43872491857259144,-0.0281195764369619,-0.39657288562786086,-0.1062942524765382,0.23255960021741867,-0.6954796849011586,0.4259006601121781,0.19684663131845057,-0.3243372811238536,-0.27801517282622723,1.24829635077154,0.24372357030362257,0.6105252703151055,-0.6063136372314654,-0.7470502477862562,-0.1923759769779508,-0.4253548165622483,-0.6186263818696789,-0.5608363197956217,-1.4452358758578239,-0.6717240558889271,-0.14804080491621877,-0.02934265192936555,-0.13305763028064868,0.20969431476636924,0.028669376599335026,-0.23094803817060736,-0.4663095187322165,0.20510572196058605,-0.22597082430183432,-0.6868348094799399,0.020689214212816092,0.003597199008774408,0.06040031508852546,0.6953278810371514,-0.2918102473038799,-0.6182282880730673,-0.3275613242655598,0.9727184448225679,0.041788612284908454,-0.8852693622778797,-0.9761685215162554,-0.5260990885242883,-0.28076424129373767,-0.9943392237460634,-0.9553266773870983,-1.2217068365122914,-1.1026213959667408,-0.4442596153784313,0.13267916532179252,-0.3421867630250653,-0.3180134980881307,0.2880450451254382,-0.3453670679209945,-0.05833549311586545,-0.3686893029673898,0.29001358249336034,0.5609049295331342,0.40292649202703457,-0.6709541782093639,-0.8043698153191217,-0.05361241885989199,-0.34453025321774944,-0.462202785336065,-0.19226886439294447,0.6254555864103813,0.6017266452156064,-0.7630781316534411,-0.708697108458398,-0.9928678385188197,-0.30188449522596594,-0.9456422524866246,-1.0949826972904366,0.09614783771768483,-0.2173223315456269,-0.461972269443711,-0.07124501230951864,0.8736053942402097,0.1818695963454827,0.3062055050193862,0.5265808887374486,-0.47164853565458176,-0.0801586779956032,-0.14795647623629996,0.42598991726381324,0.46306668597069167,0.9153894255613516,0.07892249593475166,-1.0224832092743945,-0.1862663891098356,0.07334125004856133,1.8332150939373808,0.4645723317996439,0.9877738639747582,-0.059621944152866986,-1.4270290125925467,-1.4603680079296864,-0.16380265465733795,-0.3543795927603863,-0.9906225440048118,-0.14082529027748447,-0.6010499527710896,0.21436878464279718,-0.06210913519470989,0.23444877775762687,0.8482161107381532,0.6139187935813241,0.3625287378582068,0.25493334651731336,-0.008601424691211449,0.1040455812463378,-0.2693277269274627,0.736135933523129,0.8430491240746443,0.3844957608640411,0.8592303570837471,0.1449895294380175,0.2774795727460468,1.2268951470803497,1.388954646691249,-0.03752606689962013,0.1846985625792574,-0.062353787927990734,-0.30394992094032086,-0.5957872743224206,-0.28243811839339117,0.8770523958790689,-0.3969741211903958,0.34250673602723963,0.6763360422338354,0.9526554413143752,1.2468225916647027,0.9237792896515058,0.47741520123674297,0.2317445512687375,-0.3843690030113765,-0.2796183449992803,-0.1486028816072402,0.18989896132418912,0.27018856763671845,0.2722345517795512,0.6712828443966556,1.0837843234372915,0.6164374518528851,1.9149927502130584,2.7243752405354473,1.813202997466607,1.5969552814506682,-0.2925397875580441,0.10869070916822056,-0.10603048465404694,-1.3777466666587252,0.12663648060443877,-0.4935373526143593,0.01634652930470929,0.8779792779694475,1.4231617103483674,1.0710283119086788,1.0672379253724684,0.764276401057835,0.6624813358495119,0.09381412189861764,0.29972151661656876,0.05990294891226666,0.3724393588171217,-0.008594189495923023,0.14189582822767285,-0.2630384044876369,0.3264293662297406,0.4111404653035073,0.9516273495269092,1.6242101389149102,1.9065508148031554,2.731993192680845,1.5359114965804648,0.6168016021176732,-0.3340411490280362,-0.7460721601602905,-0.3555243346485354,-0.18916885843353273,0.7031596364381664,0.6690725538058532,0.17917497763450382,1.5581133501302102,2.0212870608786533,0.9265460929913183,1.294745159810136,1.1991231462891052,0.9679863325212658,0.4463256257236019,-0.3560713949728576,0.5096855111703273,-0.16397600503596416,-0.16655329340958233,0.5059821152905422,0.19136299165456594,0.3744646342487686,0.5230332050095484,0.7858600348355413,1.6950408097827823,2.604021746860713,1.609500021121009,0.8947008732648253,0.06299603213868839,0.10659120671183504,0.17207575538470327,0.7054351265783453,0.4848035533829554,0.23018444806064922,0.7237247226335248,0.8970283755182248,0.14759423296874613,0.8998778584279132,0.46688477197389694,0.8918950370998161,1.2029130953178226,0.7530374662408815,0.41368303469767687,0.2849828552313166,-0.40139142867805727,0.3817170326149889,0.3828819202525586,0.19151816572112457,0.4590831611708109,0.49371252798392407,0.4540230637697099,0.880591613721898,1.6924019504531138,0.6918931802950972,0.1318704792258273,0.08087156846725015,0.6093709380536768,0.889011565433435,1.3696093899894082,1.2930181750559633,0.4759636169779996,0.4682686622655941,0.2873235816269687,0.18691525172679255,0.24813100990770923,0.03223935524707672,0.5664740159784412,-0.03180665786606787,1.1176007351890367,0.9826629315819729,0.5719887249237225,0.1226396003990218,0.43051563629959405,-0.30270956147926065,0.27523861932981875,-0.42028518262346615,0.24730338766754048,-0.00020703660134627233,0.7330716523284444,0.008610140533838755,0.2849391664583253,-0.4708135737898973,-1.1232743143557389,-0.8883054227805908,0.4877038261511902,0.5945965843814144,0.8017323771249698,1.6065639206703217,0.1716884158297851,1.4485400200799188,0.8957783002209517,0.3004847304200571,0.5127989431789692,0.37336131349994,-0.06927311297418023,-0.043672601618841136,0.4117914090058636,1.0110990196044405,-0.24883218959600498,0.23046256698783465,0.48321324410631866,0.358298432852418,0.37506205643199,-0.30809086852658096,-0.281121069824636,0.2509891505932539,0.2442091822559385,-0.017665633271210263,-0.710527093828914,-1.2354478038695915,-0.2854988306112924,0.8714171146293878,0.03684335950990274,0.012563882611982572,0.02645974913593509,0.07452140598220101,0.6266747186789733,0.7483218311897192,0.9599451486111966,-0.19223461846799772,0.9141736013565354,0.09058558968069196,0.4936584690564807,1.5572873625293409,0.3509243418220125,1.1640060457809362,0.4246816821467658,0.26326236735253994,-0.27215252249018357,-0.16939586602849155,-0.05132590202257628,0.5002560754939037,-0.1003772427780969,0.07518494469445827,-0.21396170370405207,-0.45331627600702995,0.18440001375741816,-0.09855134560921999,-0.618930161543232,0.3530942353918296,0.7298115048570484,0.1689003650471676,-0.006221298011396968,0.07435027170808094,0.3187479375300977,-0.22515751561781142,1.1967119752332236,1.0467691643249062,1.4350618825644619,1.2197032624816169,1.6280317643764606,0.7587666472848843,0.9059039463314862,-0.10885533411244357,0.20645019569324008,-0.24877078059521973,-0.36147553538186145,0.28755057877016765,-0.2807613468618406,-0.16700848150122938,0.4816013659963787,0.07735759317090234,-0.5103523453563963,-0.12722538141396453,-0.052938479205561745,0.21327830389639704,0.14129932725165814,-0.3473920496616674,-0.5269434357508984,0.03532904653754406,0.24861542589218447,0.22729461509928406,-0.7528302269355062,-0.28368910948617115,1.0357019465864659,0.5499479256019048,1.3741571268220694,0.8238803025704557,0.6834807554050775,0.7418695358064852,0.28350417903241687,-0.2770877054095855,0.31329267753167717,-0.058569480241748954,0.4950615834107822,0.3644675849721323,0.18469703089415102,-0.07643975511143011,0.4148219951751274,0.47787533034500984,0.46173960803828434,0.18020754585419266,-0.18869850895458468,-0.10506876912866651,-0.0950786180413442,-0.15245917097708395,-0.07711573045088013,-0.28107543674125746,0.4701321432467337,0.3888039107556235,-0.1571610570939034,0.07421659379374895,-0.4099195398831376,-0.05694221381382866,0.30393317333412734,0.22752974169687717,0.5205880561364737,-0.3471505615825771,-0.19653372692401774,0.41196686254255643,0.4062152437902823,-0.21447688090463723,0.10417885096082422,0.3815794055730666~,0.09086426568238004,0.02002712045391129,0.4691858333682036,-0.012552286284193482,0.07528601664448026,-0.3414417999139399,-0.17944085680239638,-0.4404735684453697,-0.27756408896106904,0.23068206777942937,-0.10819186847211149,0.06799439588558676,0.4050983672405264,0.43317181204747135,0.3433196798642271,-0.46274970332303195,-0.08960614385034438,0.2657967714518828,0.437706077557334,0.2268344662790122,0.22987787678182733,0.3661118441540279,0.319532171316438,0.3884934336462363,0.4674637508800072,0.12093385902602005,0.39918045125853935,0.22156744634270878,-0.44611865248074195,-0.3302085416950706,0.07791823976059598,0.2358461544668782,-0.16829317405735134,-0.15124857614344958,-0.12670753079315658,-0.27185038603798195,-0.32889180409147123,0.11203809769293673,0.4035004932581232,0.49254930007760045,-0.14810101220518648,-0.3179971887889866,0.037447220019490274,-0.2496271299929449,-0.3503683557024062,0.1269665553595311,0.35466355856161186,-0.4530373746970569,-0.14504730735134505,0.3724305795153358,-0.4650647609419865,-0.35894512138650164,0.02781168016110176,-0.3645108760062587,-0.4900349895195523,0.1740260530682344,0.47171343457809684,-0.41539536764265256,-0.47939954607948065,-0.14460744640593065,-0.06810648669327242,0.429265517854915,0.002353470743287122,0.46250318225520215,0.3005167153698053,0.28896758882511575,0.2760124038305064,0.34983051734427506,0.31282334683875457,0.1300672632350752,-0.45574705830716755,-0.5301499011244408,0.07364357659106381,0.4328742201313571,0.44858797210973045,0.10026804577127851,-0.2444441498239598,0.2654544119507547,-0.051431624891732794,-0.02838868578313899,0.3207810595707529,-0.46470525316073746,0.0029912215196752972,-0.4218323802904353,0.2726664065891529,0.3021391381276655,0.4396493968299386,-0.1686860067888407,0.2631814259930943,-0.18372706798687502,-0.2646758174925761,-0.003076407194389795,0.0896281154344433,0.8012222568241127,1.429996408217544,1.5899234227124748,2.055252436410254,1.7389034355004664,1.661181907350821,0.07352995309971785,0.3932331719597545,1.3043755419596963,2.1095865629262778,0.9780909338233449,0.9785274677513768,0.5211078449092001,0.7890392139537744,0.33025858426520477,0.35059304722350443,0.30726819501287445,0.4099253575815552,-0.45362110645937864,0.17173418933830467,-0.24319626022500082,0.3489106370472734,-0.09306811701776807,-0.1307831723036964,0.3977303240697899,0.6382558924233022,0.45131228128550155,1.221766276327878,1.2260923865353737,2.7625046017071386,3.0558017328186686,2.320336844259817,0.965038205084211,0.9262266206792774,1.1541764888573849,2.1426770211500057,4.3988116340019,4.213031808530538,2.8984383592817613,0.6794130073391652,0.8819745032284972,0.7233409974358249,-0.4079892235033294,-0.09370736061817601,-0.060253025039986426,0.4694350598951549,0.09541911193607203,-0.009649481961602984,0.2967052959867503,0.13736683119084533,0.1402535335272875,0.45760435432309626,0.647861712730555,1.5736601227553384,1.3521576402800068,1.4387641322337112,1.827311130686391,1.3032138751790607,-0.16419729449163828,1.1372322915088284,0.6692758044883166,1.4381314741485758,1.6030577493714502,1.0614846448611048,0.9503472225952863,1.6835807542028873,1.8803101427837627,1.2562948323084078,0.41441471739103186,-0.3100723693546856,-0.7361549388471718,0.36155377400979655,-0.43391408672265996,0.2936437626889531,0.41978801233805874,-0.21663356867820968,-0.09583890604250805,0.055182284337148904,0.05275990249619669,0.8238162779644749,0.6847515357324124,1.3240631294308178,-0.1460884586248434,-0.31794050485001146,-0.1883888937640295,0.3373094351522661,0.46132937218147413,1.1148794526998822,2.014370144160739,4.262033358912667,4.171369648889968,1.1220494817787472,0.7085621742938633,0.4041743535789046,0.3606853258176971,0.9776154353638149,-0.14147551570762712,-1.842569187406334,-1.1983019719631802,-0.11219962146838126,0.026726554291260838,-0.05335050468295975,-0.3069029789784282,0.17986805868462888,-0.4844173251211887,-0.41686574099238144,0.11443731607155953,1.4129814476842313,1.2155833839706631,0.2474110267503241,-0.6346124040719491,-1.3519060445126436,-1.3050947243821853,0.12118826435792421,0.9232333051239939,0.7028590476400705,2.5299907876655006,3.6355222156352123,2.6915527056729087,-0.1931267179300802,-1.0056359652531264,-1.0412714387438027,0.11392677681906277,1.4682907594642045,-0.2079658142582316,-1.668662734159905,-1.3446026249314489,0.11541072482295953,0.650759237667672,-0.49548897461424984,0.20891032408919943,-0.48810463376629665,0.3518960323013711,-0.45207720914468197,0.5795420135150519,-0.01990664667003993,-0.25768086611835594,-1.4386893381297463,-2.333639713105184,-3.3474450755126703,-2.0267324018603556,0.08519494444734454,0.04561528457067445,0.07291793124202776,1.0172731449528267,0.9113485506886788,0.6153359458972175,-1.9641805344860805,-0.46767557027345596,-2.519492183002717,-0.9682354415021734,-0.24141897354432554,-0.6751001186009653,-2.7632582308594675,-2.397916900691512,-0.9740893363365898,0.598378688094398,0.28095919194365254,-0.4809124956871911,0.1608288113822026,-0.2984437584866984,-0.10676625968956838,-0.10521446492590661,-0.4769532965965211,-1.5444128688693943,-2.0499598581203085,-1.9782077413249484,-3.045593521698516,-2.598253593441847,-0.6715121838060456,-0.9936095717285535,-1.3519807392571221,-1.7351048700241711,0.4278624224466461,-0.7280936071242052,-1.9732744253704366,-1.7301300546862481,-1.5653684103831254,-2.46615508534518,-0.9731120410861219,-1.445624474086447,-2.758898853877676,-2.624824631245429,-1.6246681303780892,0.2316148467219494,-0.1697423892867593,-0.5039113302739416,-0.03884396146139265,0.1526420756682089,0.5634789741196974,-0.10851349038602427,-0.5792748065161218,-2.032806718312269,-3.2089062447516277,-2.9996470827802426,-4.528870489689801,-3.8514045793479976,-2.694236437511079,-2.6925988334234914,-1.7708664638921672,0.7510803134715361,1.2362561431658248,-1.4071336167690283,-0.9453394194575441,-1.3172659167519256,-0.7864685883429589,-2.4380247217604905,-1.715967353703237,-2.5857851027541483,-2.23153369802281,-2.5368715117074023,0.1934503976759857,0.19077598711162366,0.06653420488468263,0.4227971753798675,0.15993646151528354,-0.0923910459593314,0.026212234552882428,-0.23415824759899354,-1.680105194983605,-2.8784371058978104,-3.0663494904004773,-3.4344150651257768,-4.615768417654828,-5.397637165522068,-3.9460247244051665,-3.057326558844922,-1.8131139403587404,2.2350162121199353,2.6775416551541618,1.7302835871027058,1.330823894106481,0.40860060186150604,0.5358226519765276,-0.6778539977090025,-1.1371112114192472,-2.7189415453852868,-1.6309472179386582,-0.42464133197648407,0.2692145757857628,0.4114266650233174,-0.14850452268976758,0.0039940521529458406,0.18665971634581704,-0.39306957825774136,0.15333442997185293,-0.19186501571069883,-1.8147658773450108,-3.1301326118372446,-3.694891872811422,-4.124353130152474,-5.6214376707836955,-5.111050683814068,-4.837876007782883,-2.6363711496072657,0.9542043431159396,3.418603457499953,3.209827154642894,3.3181917516979538,0.8745536932247551,-0.7442339076697351,0.15724031617722237,-1.0927882221938927,-2.9026909561827985,-2.8001566750622926,-1.944173248254348,-0.5603232516844139,0.6390336334821364,0.4663013285844117,-0.002320031680702598,0.37029286771246106,-0.27257351481972764,-0.09299214564013107,0.30665730535712843,0.09770400388851823,-1.9724238952482698,-3.0395949870556103,-3.852605806572494,-3.3365773280039512,-3.737926237640512,-4.2396080478378835,-3.1461790579869424,-2.026082606173268,1.0652187156653545,4.370711477589733,3.7747234233673854,2.7888384361618828,2.4597898812690717,0.5281107133482209,0.6486757630550635,-1.1474755767971772,-3.3394485560678464,-2.227405866115886,-0.5083860892980284,0.97650274351004,0.8402879917368301,0.1002367762937735,0.7597088107031916,0.18067081734020482,-0.40345264205516174,-0.09017070678577756,-0.2817028857639797,0.07804319648157473,-1.4639703018699735,-2.1947121446078635,-2.5132798320548613,-3.38499441005329,-3.5387104398822196,-2.5242779481378586,-3.2091015550426936,-1.5546330221145737,0.2561550985053134,3.1160472428975243,3.431905540022136,2.784346737790074,1.9245126397847732,0.7099984107342803,0.5054079418801505,-0.22169975870867123,-2.104097242012183,-2.138676972305905,-0.4009771894667484,-0.7341435544846234,-0.6530174365340419,0.018388828816714404,0.3276416979998708,0.3784806461405805,0.2114780876137864,-0.24370422463126604,-0.01697965661358368,-0.22441784372819312,-0.5892768271623822,-2.2595999381411556,-1.7854000475612646,-2.830223620061522,-2.78180448281292,-3.8133223474261833,-4.08779532439341,-2.2347847433520958,0.9132558145325629,4.404403975706975,5.703356752913887,3.2521065951130166,-0.3615144465091715,-0.09076581189751864,-0.4819079008120963,0.7135364687553135,0.8499539807205323,0.05262781524340105,-0.8085723166347736,-0.8236210633975389,-0.5495377501207093,0.06916337134413347,0.3641355943578786,-0.4999582002798972,0.21904185710727456,-0.0831751181308073,-0.09452753047502364,0.4487605332150497,-0.03034580079730713,-0.3026062481308101,-0.5689262110042895,-1.222141080579575,-3.573837111910683,-3.554840772220525,-1.9403929291089226,-0.331257749395252,1.007637505679615,3.7343722712411287,4.41687311438879,1.591077241288114,-1.8973204690087462,-0.3557848245051429,-0.010772355251959395,1.2069733484715401,3.037873739794652,0.7864998376714323,-1.4527749614552976,-1.0144787546041325,-0.7770537092552466,0.903250331871177,-0.17153035404511988,-0.3109102478158112,0.25123532386101527,0.47314200494804176,-0.00946094661780321,0.5790748480246823,1.0137797519245826,1.9264596248306918,0.8590856481882587,0.216474548902078,-2.076223258584506,-3.836474870670434,-2.623083523001406,-1.4421824726069694,0.8340056347041122,1.2374056767036894,0.5612268511584421,-0.7950645756021725,-1.0548507419796955,-1.6108717119755784,1.5284077152910238,3.4380992076606143,2.544638206986093,1.0500966076439529,-0.2740573446537374,-0.049026972267767366,-0.10395227241358033,0.5760170788700277,-0.420572959221554,-0.12057615366716998,0.34433396321138166,0.2389435440524608,-0.5194559609815865,0.8702983283969733,2.3041447422468266,2.994979425750114,1.991107931571503,2.6040323941904164,-0.7546028133899393,-0.9159444266527966,-0.3749720629118158,2.9956648251788045,3.1074679456756895,1.1171397034318997,-0.1831637651971115,-1.3154911778890523,0.2170759553690423,-0.03413243605484293,1.374296540391549,3.283086209731646,2.6686754382462228,0.2555345625061306,0.0701280809188068,0.713979550643699,1.1670468051076557,1.076795406973393,-0.4224928176653056,-0.4376199658880843,0.21152327868520385,0.341709351590738,0.21641275314501077,0.47539635228643096,2.4897067320441875,2.2799453947444945,2.067090811212121,1.1423014017000896,0.6596938142569446,2.3823905552534566,3.664405669849716,5.152632411499786,3.985436402213159,0.3627457374501582,-1.4676509679585987,-0.6878217222262913,1.370511279356133,1.4274660286285525,0.5863003371989897,0.8200170596394892,1.2584247637669257,0.8640931206712354,0.27080650626348735,1.4762979143336674,1.5065961525794953,0.9082275903005264,0.12674837181831125,-0.14606377369879772,0.39690617368394404,0.03566878434568805,-0.10403157741665542,0.1500118798101195,1.8104069979375361,2.1423266079676573,1.9666459835240093,1.6099732963669517,1.887226425090934,1.9272481688886063,3.0258584378863866,3.3976925308217747,0.9308220498609104,-1.3830090188618593,-1.3875219914122012,-1.4163383382543435,-0.2672295209343283,1.060443160414565,0.4208182947365942,1.4709838500597892,2.4016465481350315,1.1878493785222632,0.561599385522529,1.7308454423525692,0.887499114461068,-0.18946678624972565,-0.15747549838101507,0.12127841970890287,-0.20175200844516492,-0.24968577985279847,0.12757010032661617,0.5620315765144472,1.521202399270023,1.8617488511611415,1.3163578257925854,1.3711429907813801,2.718276950034166,2.0049074458468343,2.6031424780757235,2.0629233996369263,0.630300618091292,-0.8734132683992147,-2.1680202322842397,-1.77352604479828,-0.858349350137183,0.05334143250321978,0.5218120211269096,1.1346307140683882,1.750722985916858,1.812016667110071,0.3622991632610555,0.676465643328459,0.25118630690120763,-0.13218150539583914,-0.34998371259933925,0.006284974966828562,0.327255976758351,-0.025767611017676214,0.08680407318797519,0.2999317311309298,1.0850285712835477,0.8160186669340295,1.8846252568501356,1.272192667937534,2.2627722573663145,1.668367071126147,0.8313279474571134,-0.2680147791498285,-0.46663459166217075,-1.9726769749087596,-0.5030361516021039,-0.8304604025788292,-0.4767786092508954,-0.4284206073314345,-1.4318721545018886,-0.15446860323708464,0.4712872561322715,1.3011661117925346,1.72439052771803,0.9658207043144996,-0.6616185675403882,-0.15621164352983438,-0.403480174634682,0.27479412463150604,-0.4853280756637938,-0.48793923171910086,-0.05116648696162907,-0.11563187726301251,0.6101243611233462,1.1557605465255998,0.542314024760034,0.5989340800104599,1.3949538064887042,1.7286586042403904,0.1842281937254933,0.5168360091960568,-0.493028826338876,-0.10050311388440615,-0.2278152323596669,-1.3156153155372128,0.016622025173984752,-0.8052824026215057,-1.108756153586919,-1.1174622765712072,0.16139756422804216,1.004860920109971,0.6630372920988632,0.4182125301824624,0.10328132397318485,0.17645883517243285,-0.10657434392865096,-0.0553112012549288,0.04890251616484146,-0.3835079937760482,0.39964276144494393,-0.32744019548662817,-0.009965359801770338,0.30338151534328617,0.13623761091927464,0.3946072761347125,1.1960598404912393,-0.1784319235656033,0.3547943824893621,0.16525710287570605,0.7130067067524899,0.3383668068524334,-0.32166151675155064,-0.11506354686153893,-0.6014946197530248,-0.6320594146906099,-1.197958375619962,-0.7206741850469592,-0.5050066475347672,0.13258426911830268,-0.09276023635624796,0.11498005689259456,-0.22836845264866776,-0.40424551556262156,-0.3335466580415887,0.3264818248568086,-0.3338944341622739,0.20005309326137402,0.3091590380920684,-0.3103484220553725,-0.3890009376399517,-0.3401672350367938,0.16207204911013515,0.02962607125598025,0.6441166049270214,0.853627684379141,0.4524793242722148,0.48920593980377974,-0.20618694095084905,-1.182151923797976,-1.8691135615212,-0.9176861058607003,-1.2161099634023615,-0.8143401977885698,-0.2407850651157413,-0.7801663997699468,0.17670612213674228,-0.45750604025000907,0.27022343010177124,0.017868244433737218,0.41929104802639766,0.16427069295643373,0.4684643841276622,-0.20049549749540815,0.18756075373383632,-0.07331685223661577,0.3437265915203594,-0.36153779600077435,0.307930684667693,0.3274944621587934,-0.6146586143362482,0.26232965392669627,0.31148174788665695,-0.4133604129551875,-0.7474082991785785,-0.8726526100923387,-0.1665018727056501,-0.22940458573300315,-0.22099758396999677,-0.6137977006196212,-0.8484475774329528,-0.08117935354122838,-0.6579073749596502,-0.5139467816407083,-0.4864198935379547,-0.4516588148273547,-0.12466663448891853,-0.1296496553587848,0.1477577330836646,-0.3860190115718727,-0.394520979072079,0.09253967793133766,-0.2979313945276209,-0.10169649593974217,-0.3992001237962434,-0.3320535715763096,-0.4007645331571405,0.023588592512363036,0.2579058948653464,0.27955146726126523,0.15603705719720745,0.07482793870952376,-0.22181004939733842,-0.014354970822745955,-0.31936798801288785,-0.22740533545937064,0.00019615133811749962,0.3821325981522567,0.247148956254049,-0.11175082579113764,-0.49482543566076037,0.2574796544998796,0.21666159885793446,0.40763444254276004,0.4592439724867314,-0.06819979191999825,-0.27628485806056685,-0.01519042433317472,-0.2817666313167802,0.1471907363372297~,0.11721516490873836,-0.12723457996640625,-0.3764701791396556,0.08869380106674575,-0.4295838511299455,-0.22142578887426087,-0.4282717120684693,-0.2926503806064718,-0.09984873426372808,-0.5005661809976026,0.3368086596102415,0.38208438052997834,0.1306094313340819,-0.27698114692616776,-0.4545739995618692,0.011523503101829263,-0.1507637061373661,-0.4907519220551995,0.07514253292489793,-0.1160666439992538,-0.026804050995325554,0.3107844330671436,0.34173924899812597,-0.1449285935004266,-0.3597916318155909,0.3889734463372126,-0.42690074802047034,0.4004418594060755,0.4715744634824201,-0.1690606496508039,0.42929549989036214,-0.3414258569243596,-0.4178427210887235,0.25326182142754045,-0.02533831329953843,-0.039294095441762565,0.07584629003618631,-0.15021821856508652,0.4676808260476184,-0.14359912581788606,0.047704281501098296,-0.1553453150552311,0.26257952445450755,-0.1047149946991327,-0.4065643164257815,0.4816874447695969,0.04031993442024369,0.016162547154973294,0.3832628354881089,0.11585906198391882,-0.46864992274443384,-0.4127739213883369,-0.33225193479284715,0.2501295477590268,0.044235687919941154,0.27760383681978446,-0.34268711716168715,0.4003075392635776,-0.3254718215295119,0.355930407174377,-0.08175762401618968,-0.4602391691077246,0.18965722008822275,0.00960886568733491,0.43900351629828027,-0.37689990833910564,0.4549351801332592,0.3612659050203984,0.36981432268810566,-0.373664014351062,0.14887993013422227,0.07037268978425745,0.16881064321014555,-0.27434420378887187,-0.36718542560116557,0.11833552460562431,-0.3811674155696655,0.3262376816670075,-0.29760241166543255,0.052161734597599575,0.10024761010767134,0.03545797249985517,0.33065720554664585,0.12695234437368355,-0.2220610146438716,-0.15067020082913027,0.19883538674597803,-0.21060236103994553,0.028861263945240644,0.43926583599396557,-0.4740147645847784,0.1998568779871791,-0.041536003147647216,0.05723220194164687,0.11151330282849688,0.2463206553247144,-0.23152279996083727,-0.07345084161714044,0.16591704283199807,-0.048398125209274924,-0.2617739259837779,-0.8664683307679785,0.0968369330964463,-0.49145322218272264,-0.12871919628773848,-0.1842384510632454,0.46335507809485943,-0.4492454564962669,0.1464436652212383,-0.4688987775317137,-0.4645959184185055,0.1359379784548981,-0.0653233555832802,-0.08958314486462203,-0.34734746906276,0.08782923048280539,-0.26450091687259747,-0.2648334331026582,0.27607121132133855,0.14628580452079618,0.20817313222617068,-0.29279483490368857,-0.1197130080553549,-0.3204199795932826,-0.11390550341774659,0.23387778736088402,-0.43047692671355425,0.18017060572344057,-0.8833324986173092,-0.06417576644208184,0.6638166745756591,0.9556864776533947,0.9562671791912183,0.09704900744355181,0.29336363992223163,0.002430806146447533,0.14781293949140775,-0.4626138413505335,0.4572053631280653,-0.10090324572017698,0.36762242092857184,0.32318282527954195,-0.4575262164931512,0.2028825742371442,0.08712834458111611,0.43394795757084437,-0.541460495753916,0.10828538992632514,-0.2710248910754001,-0.5816043213250038,-0.7195940438633291,-1.2062858797481482,-1.041009392330201,-1.4572980893681515,0.1480142313752962,-0.4519285983481724,-1.1331607333329539,-0.21016167198839322,0.3126712220627604,0.6487933913099081,0.16104118614911478,-0.42193509167537724,-0.4051090826287135,-0.08856246689702157,0.1852203864226981,0.02001697969554221,-0.4452006407570729,-0.33436867230974265,0.0757884783897327,-0.32482828736527464,-0.4321745443886327,-0.3359712426792917,0.32093960781143854,-0.3984593503136611,0.2083563588899166,-0.8470921845304574,-0.530055924392374,-0.025064913672681124,-0.3883635182917235,-1.2015748814168838,-1.1204947706314672,-1.7189607585794169,-0.5871828920816525,-0.4025886671383979,-1.0522446570730606,-0.8153088253192333,-0.15059165325783153,-0.6955859923162747,-0.05398698494542428,-0.7818986961853579,-0.10833194954478068,-0.3312116592777461,-0.5146591083009259,-0.14481138311272698,-0.08856395106871878,-0.37541503539529536,-0.34372284103096923,0.22275890650325578,-0.014364443529379878,-0.24675123458289325,0.2015802470815296,-0.29991659436596296,-0.3365080683855119,-0.45486587461001066,-0.5046828509215986,-0.25749408970710047,-0.6526066468746422,-0.2921097229382973,-1.40692300293116,-0.2835165946968198,-0.5354057822534876,-0.06695335274159041,0.09361793275832359,-0.3052741623972967,-0.4155109984407819,0.017934656201105546,-0.9842667818090232,-0.5427108243337077,-0.19964866297355988,-0.8133040089948033,-0.40304140800359833,0.14384338492156953,-0.022479751724597128,-0.19845641365661698,-0.292574176989071,-0.2284845924619424,-0.36609994986461064,0.5115392249528459,0.08650518019676588,0.2776549338136186,0.35395019464871247,0.773228452136691,0.2451378560236308,-0.3015364751625182,0.04834205638214755,-0.8467401607685172,-0.35014285237853243,0.6657757671282531,0.3569924640177772,0.6216440576116772,0.8335111516242425,0.14225675911900543,1.1764331711232188,0.34989336702708895,-0.7620677748928045,-1.368973013959665,-0.7280463468929901,-0.606925684406782,-0.5918260323472473,-0.25351078942341176,0.15660596279604008,0.44599744682502723,-0.09664337675095022,-0.18681633170902492,-0.3950694668399649,0.36968705870664825,-0.29983626988224393,-0.33682713490955263,0.44521564079242865,0.1560365380037068,0.3695160855844992,0.5846132244813953,-0.8147756736290978,-0.6073753475050562,-0.3031439356998749,-0.24939045848353042,0.2077122523728687,0.5311728024078166,1.3348566379934994,0.5199723411555135,0.6488796853845018,0.052533073281160574,-1.217333236362446,-0.8534614481188255,-1.0538474894499794,-0.841092559821991,-0.6738996866024878,-0.6513995216322346,-0.19276987839415405,-0.23549557659724857,0.2754884104351891,-0.3352139670977101,-0.44506541747462464,-0.1757925693888538,0.6270094073689844,0.42054215487079344,1.0718530852765402,0.31275887069014874,-0.314127784971299,-0.4644321813172822,-0.9797547926529844,-1.1028853608500717,-1.1092086300225616,-0.16300570985655263,0.5048902645896928,0.8955401412418827,0.8647103135115515,0.7652710601277217,0.4385737880258761,-0.38066536995466765,-0.07300418244559627,-0.3390064190955862,-0.33240197247393827,-0.6912441491193563,0.04962616937401668,0.3423422064097276,0.2287454932501136,0.44984623068199264,0.10841132770779995,0.16268719303335885,-0.16866113663766208,-0.29345000323252407,0.4964771261028874,0.6235478669821988,0.4084245182073538,0.17410975537412166,-0.8194578226410979,-0.8735875315684217,-1.0871114304251157,-0.5821595382968223,-1.5036159634544044,0.06336736152942037,0.3401621629814282,1.1689391015267825,0.14901679440424623,-0.40182986542294624,0.8553914720106417,-0.12222593688457042,-0.3163086329398924,-0.02470030406171025,-0.03223486874143972,-0.3153533650563012,0.01361449951127722,0.009543294844428054,0.07493227175718067,-0.034843052930021184,-0.15308676429923118,0.3921676951930135,0.21465374891061506,-0.08382409483625428,0.15982924275799743,0.24933594955139085,-0.054699995423444545,-0.3821594816504428,-0.8294582656701944,-1.2859439440292957,-1.0730270452015607,-2.503375075857241,-1.4946097859127123,-0.6240275473271513,-0.039365217780854604,0.2462723583389441,-1.1595531265611463,-0.4705996578980591,0.12751285163942797,0.5186573481486731,0.051333151894986155,-0.21025108759289715,-0.4222407650060263,-0.05027531384389146,0.020632502403642606,0.44571611670651046,-0.060580217548082106,-0.26341311336626344,-0.2602095358614808,-0.44886060286350477,-0.13959104852714316,-0.003574859051458929,0.42845146885112645,0.22555493500547316,-0.43487544430481473,-0.490935845218816,-0.7906419227931424,-0.946467964967726,-2.1027345855310284,-2.835344069357592,-2.6727704205476353,-1.2166296986165839,0.10811184545625148,-0.8552878445422388,-0.6483344856630194,-0.541200056438402,0.16992958632159114,0.3222051550583629,-0.03383953027739033,0.2895882182641799,-0.10556264576487195,0.46745799265541105,-0.2017769024445231,0.39602599875679384,0.34708718111788023,-0.1725097802777827,-0.048850823342442944,0.4114801243044823,0.3970353767933379,-0.2829515050420511,-0.2555511257587213,-0.015564237360963318,0.11814400397090064,-0.9813353268654615,-1.2838641768605408,-2.325441862903026,-2.2067836556451454,-3.1906618490080336,-2.109464858112031,-1.1017376701293138,-1.0443950115837168,-0.8643139797477666,-0.9809472598348218,-1.347270262184361,-0.3293514775031615,-0.40039424081662284,-0.14942535102166482,-0.25443006975861165,0.11417859324196633,0.011209461626174488,0.1759523176377163,0.4018913796102592,0.2036155746551089,-0.24272069035863406,0.3751685890289285,-0.1780067341435399,-0.3550865710717925,0.033317562353373,-0.31254192856461965,-0.0664677719241359,-0.6029223312338987,0.023576995901316067,-0.28710064179595685,-1.1111058417898212,-1.959060385564157,-2.164745176169392,-1.1525276593783926,-0.6707083061226613,-1.5307888193855286,-0.37957461412659677,-0.8026763277634993,-0.8827692616419976,-0.06946786058464735,-0.6736365443669047,-0.5408347835662672,0.08309924421962199,-0.516427793576865,-0.10707455224151924,-0.36489604533252445,-0.4316420127900087,-0.4859227792343169,-0.3359403233296003,0.17259118598716897,-0.4733182603494689,0.061589534967511086,0.3481610249117032,0.39032157734145534,-0.7113851507676762,-0.03388208360179396,0.09599955074375603,-1.1444545993647686,-1.0660869762272476,-1.8186892126895982,-1.1144697225928326,-0.9670407732105241,0.2229863194091339,-0.054802231525860605,-1.031745900282403,-0.9491011053559555,-0.7362330688244911,-0.021874678485124952,-0.24333054781475585,-0.9254699075634818,0.016281354435744022,-0.21845450418610832,-0.02849289059753298,-0.1952901331060686,-0.02117249183800323,-0.4503369022490461,0.24283840301749693,-0.44661674743937835,0.32082764559302834,-0.4433791592037242,-0.47752253219366875,-0.5143678587995298,-0.0876656431722681,-0.8127686889027455,-0.4416119666785109,-0.20476350710027888,-0.8421020281866582,-0.5587088836437417,-0.69400578131544,-0.3326348011832681,0.17256654169515762,0.7415160289289219,-0.6206940733848795,-1.3328120488271535,-0.5384915501449805,-1.3284865481795265,-0.5112125614825641,-0.3716196789332301,-0.051853135818195485,-0.3945862512799866,-0.21120533036120184,-0.4872014667396834,-0.08026983538583676,-0.1037805845250595,0.08058925794432407,-0.0021691372306448563,-0.30371830936711125,-0.42581854552118364,-0.4248658260264406,-0.47561723258090477,-0.5848797080291036,-0.6658484788395762,-0.6599128307097786,-0.5180574128540522,0.055945994707181174,0.7050664543379572,-0.34178144051127046,0.13634838880445516,0.08516505509610438,-0.2100851584634566,-0.382652025712273,-1.9438405099843883,-0.7955483742546828,-1.265954798137513,-1.1990141288844305,-0.23110624517116266,-0.223068003254619,-0.3640761705734788,-0.710209403184241,-0.3112447955656711,-0.5639258552284416,-0.28049982383361505,-0.22144800308627027,-0.3877204856135879,-0.035168311787299254,-0.37847686651572243,0.12411662794561584,0.437461539117042,-0.7756568160799537,-0.8908430586059318,-1.4202681943675586,-0.9500309297030284,-0.1604497778425654,-0.08427220803067419,0.19204247494272322,-0.559327762879955,0.2652265770901437,0.2016590858857101,-1.051134166165577,-1.529022124082014,-1.0774234945601318,-1.428608018824938,-0.5754888658963316,-0.1886572561235619,-1.1226992517862218,-0.9706013272497588,-0.86829700946969,-0.039563801995768345,0.3323718418233833,-0.10774273314805362,-0.18535106128240275,0.0875644976749659,0.16422362903743537,0.0525499145003705,0.4288706407061932,0.3959082139052185,-0.7133436228538247,-1.3992454078387704,-1.2851975848413826,-0.5562134417962368,0.041837207396490175,-0.0358473658508052,-0.3446321251432693,-1.21907232924685,-0.15219293848793689,-0.6111206733683793,-0.8180346641903077,-1.8195687996906906,-1.4813253367770858,-1.460543124825818,-1.2533028799616013,-0.5648185583492024,-1.224899167118812,-0.35474099535753084,-0.7674996033412104,-0.5171504084682278,-0.4359456609337734,0.09050005448868911,0.482351660853829,0.47679954217841436,0.1013607580736237,0.4072905513763572,-0.0807919754776226,-0.1831092078043963,-0.6348744528794928,-0.8532938024454558,-0.7632432332792736,-0.23294453140791363,0.3935242241733506,0.237167596507354,-1.4328281279003983,-1.4796345669213127,-0.09794609546121515,-0.36084500828983535,-1.1228290148442441,-0.9354766164987423,-1.1124823005430475,-1.4589684874586917,-1.0575344010734702,-1.233147541927192,-0.007929761122128702,-0.08684127871019609,-0.3309674474118034,-0.4330189555137675,0.4462583897042785,0.11657992344783154,0.3386224308373143,0.19217173710584132,-0.4745355137467016,0.48099317345162546,-0.18282941537077438,-0.01766802997800098,0.24358198757539098,-0.5221270144919684,-0.5528903990208767,-0.038137927793321355,1.0827292656725969,-0.09104292126512344,-0.12598441597743695,-0.24669474441943237,-0.0316750556382318,-0.7856696348928497,-1.457825868584038,-1.4484719385752487,-0.6418032139120617,-0.9067590081279076,-1.1507457776174776,-0.13895268575611772,-0.1801674972581545,-0.23867487439192425,-0.10389775962192013,-0.36995899363199025,0.4015963754340514,0.026048335832307642,0.0500503302918214,-0.4488880956654951,-0.1790514552326746,-0.46418366365834346,-0.12909645126054858,0.4050014680875638,0.1706418574858527,-0.468401738125772,-0.3182504038876851,0.15541964256131538,0.9558534279264819,0.2477485299513293,0.9315715598317083,0.43329748629676784,-0.627865424507616,-0.90507628765769,-0.2742989191476273,-0.17646347727029033,-0.24246747659808243,0.21015238897312613,-0.5301674315502414,-0.17900030374617742,0.06425087856810936,0.20180077274978567,-0.4859306893446019,0.08455201628703198,-0.021478142779458954,0.45962573390604555,-0.27399888792805155,-0.07061116335999004,-0.36120253917700657,0.287261780147925,0.06754322194314955,0.19473601149878209,0.43178593289859296,-0.2767956636484027,0.08439999956448285,-0.8833075977752664,-0.9869772094468717,-0.4849288241414252,0.3250503273362975,-0.10457248823410077,-0.2446164256791551,-0.4656173476454271,-0.04029064829890342,-0.4265233168073417,-0.19617518150886834,-0.08171091497228107,-0.4017185071451545,0.26920528538078115,0.14034214279526183,0.29376221894821847,0.02614291312072799,-0.40060772916921167,0.07906978005850408,-0.20271826786948308,0.10618983035863828,0.14312938456901506,-0.41060986974304586,0.19038394783627835,0.25318724930626874,0.28781643206051644,-0.34593102630744327,0.17750790682093043,0.5260825307126266,0.44812049647207663,0.05565235546897736,-0.05379182210792236,1.3736086608288016,0.8931842321227434,0.737944164545406,-0.43659097515689044,-0.6356193000866712,0.23213211061002129,0.2506993094283969,0.1813205973921514,0.34103273209815116,-0.07590109917288812,-0.238769263577212,0.031757016917212416,0.47490985405202335,-0.20955453824953807,0.275083916610344,0.09547607080433342,-0.2056262992912656,-0.1449859200110669,-0.4746459873127193,-0.18568484040227815,-0.2554258709049114,-0.03227282072338131,-0.007552825903135277,-0.18572630353132602,0.5165920288926429,-0.11462049787692959,0.2717344046094835,0.6614567791779621,0.48223210758852814,1.1703709492817955,0.41380815143277105,-0.26189240580207024,-0.11538961593425007,-0.255762268109949,0.015138815296378812,-0.13909373882198303,-0.16159822794946269,0.055434565956670054,0.3259135051746883,-0.41999755700245583,0.03422737949133237,-0.4396397902009613,-0.19109632619248726,-0.010469209624595558,0.4383329536301694,-0.3466306584232122,-0.38314004814164543,0.027696992680363682,-0.39453329096598116,0.4454221630623028,-0.2163180441906764,0.4699455366266493,-0.359712218252858,-0.2291484480985025,0.3036079010214848,0.09132070190220015,0.30988027572783494,0.3328835883196222,-0.4141549005092529,-0.13438097987619543,0.08343788919635634,0.3829996299293588,-0.3474390270704308,-0.3297298035620513,-0.10383117193204867,0.3960518983707199,-0.2710257445253371,0.15122226224267,-0.004967253752888431,0.3796973978455623,0.1703497629347316,0.4472984226683077,-0.4103142815837933~,0.16456990053060708,-0.3251970071425534,0.26739420401906167,-0.3364540437734014,0.09701724429470607,0.24263223525281483,0.135885635887565,0.1199584805294692,-0.07309822334418795,0.06355413636739907,0.3347189007123562,0.12155765446582775,0.41337539560424896,-0.1708279032254529,-0.07662240701573661,0.21099922897208692,-0.14315018593954779,-0.25737074842995544,-0.1650091723157909,-0.4491092429987713,-0.12378884469141987,-0.013216825580608398,-0.4207457425189074,-0.4930704042333708,0.24922441350829702,0.11588925917836784,-0.016582879827330553,-0.40047345996072314,0.07090582857128494,-0.3048563453019546,-0.04470341944711004,0.43300509693795786,0.32848984482591825,0.33606461980361657,-0.06924408022230463,-0.2901304056501937,-0.2077255775433482,-0.2849292125027435,-0.17671056341376737,-0.11465516315035637,0.2174761521027193,-0.11559580021528187,-0.10669591918861249,0.32166477447268615,-0.5051777991719079,-0.28273939794838354,-0.05903569259874185,-0.32720960843284186,-0.2834275320728723,0.19557056188030222,0.09718665304774457,0.3534188502343424,-0.16535292734693793,0.09562039030346439,-0.09371676052970077,0.42799728532615433,0.39882610386860384,0.31502904688396915,-0.09228173313961938,-0.3027866529838976,0.3391182671149402,-0.17450737611422984,0.19618098432410214,0.12227409626829147,0.4327734672575462,0.08426524976898,-0.07293398621493402,0.20291522000324036,-0.5759313774402303,-0.6987299447271413,-0.5472625933368565,-0.16057385963613577,-0.049535070177193455,0.018126311865102426,0.21517422724789034,-0.05740696427133892,0.04455138665792694,-0.46966353139738687,0.28161620491231054,-0.029983379872560646,0.16326157408165048,-0.28405888488675557,0.33162866080611597,-0.16126678768754008,0.43123014350935407,0.4880777976070496,0.4193647907831781,0.48403562519135435,-0.40264438718977436,0.4258977656214152,0.1589115046142125,-0.0399333439280467,-0.46763660182214545,-0.790466959380759,-0.5020558358424058,-0.6754855926253837,-0.559848718815183,-0.3135862857234913,-1.6200056759291144,-2.526338300895002,-1.352809607778601,-0.7573435350771618,-1.263439344604842,-0.20534385525781118,-0.6463017496565948,-0.11433613645796703,-0.051514047224910306,0.37337157556185346,0.4910873045161874,-0.011723145745559488,0.12228899098995066,0.4889870352494855,0.44001850240178086,0.09372961603947257,-0.49585319897853547,-0.36159813765363125,0.3059319373317879,0.0709920692944949,-0.07286540148619143,-0.35791940539472955,-0.5240746380681904,-0.8809012421934627,-0.4497465169649235,0.02987947290993812,-0.45624916028459445,0.20770343969001917,1.4338196366586968,0.832403431917152,-0.7301318115241489,-0.3325825963377888,0.3390833000194132,0.2239236491235122,0.004481523562365608,0.13854743176740672,-0.14239128840377577,0.31518753491952994,-0.17674315639765734,0.4262281718045435,-0.19473700051297935,0.21772130611338883,0.3632790989938396,-0.2680412730343035,0.3699139430217759,-0.4102150579887834,0.5313849061330849,0.29548322883416067,-0.11997804979540451,0.5253948668100021,-0.10593173745449926,-0.9286874506005351,0.25538876143820516,0.20680904823076565,-0.42606818475743824,1.0675983434394636,-0.48398766324596904,-1.2159607103633763,-1.1227549052905936,-0.7142210586707748,-0.08005055721831597,0.53223753146089,-0.021085548109227463,0.2299054907712957,0.4757079672775355,0.1142209539079969,0.2818059160646603,0.7052133407337111,0.30920753349997304,0.17398944599882019,-0.24558330811832838,0.3342005259126034,0.10560474294703628,1.157767887830729,0.6307612870121323,0.32119898776012323,0.18246308178444826,-0.5076063639505958,-0.7999252021864586,-0.7719608980331212,-0.7381645978405271,1.168794240221589,2.4641639237091533,1.4505099808746855,1.4907252985866255,1.3238517620928512,2.585100535349974,2.939408288209913,2.2779051372194217,1.3743648110792799,1.3511972152436407,0.9329490737401268,0.3150754434963737,0.15620570460561778,0.25624677572814597,0.9186181582845498,0.31183780420486296,-0.3956616414730379,0.1612031465403486,-0.34679251134212147,0.5016201530263436,0.8821122086088761,0.7334003367858698,0.4327347051084499,-0.19038988283331146,0.4473778686356676,0.7952813747644643,-0.5511801565808088,-0.8033127818580661,2.3440575200133047,3.940386465262214,4.590706746965028,5.238038505943869,3.4202763286717928,4.460539702318107,4.1710470656750935,3.903137222929079,1.5929290182589253,-0.8284639611720873,0.12759244326332117,-0.3864730604093486,-0.44326750836163853,-0.04905506875882634,0.5732475341868823,0.3778413760316773,0.46889673965544526,0.2810245402747604,-0.31521095803869276,0.11079722930924729,0.37693868191588586,-0.41557693902836707,-0.7652953615735522,-0.8562948035850313,-0.7323639306559857,-0.7116961199262112,-1.41350249912553,-0.051426262643221296,3.0249257466533424,3.619912638206332,3.9698141308962276,3.9922187467853765,4.116228166991703,2.3569683559351176,2.7846127156330858,1.7116660405828668,0.4233381477000944,-0.9503561027129254,-0.7693501945627566,-0.9806389282751379,-0.7916296792765174,-0.6713563619379849,-0.7612650128112557,0.3617745830477221,-0.12290510888306529,0.08307702889387973,0.2016575722565108,-0.4394483620851803,-0.5881591371021277,-0.3499085241605232,-1.52340234553372,-0.5843494132202117,-0.8305936790272694,-0.6464990819840494,-1.3438723264903354,0.6801643239068593,1.7128879882295829,1.9246201134043495,0.3221626142255618,0.9829327548651468,1.5099532125284905,0.3552921654902334,0.3098355419941418,-1.208758399952274,-1.4908985366203926,-1.1143028018124213,-1.6687115437510727,-1.129313062055976,-0.7087303420497251,-0.27939082607447385,0.15886737014224409,0.3600285845475518,0.45274993903474026,-0.024553479257579586,0.22218430502817246,-0.007405525067659621,0.2951266578348224,0.23596765107394918,0.31943026167174093,0.47242504008770875,0.06083984259116814,0.6682367122227841,1.6115679807764427,1.1778414653004148,0.10682068704571435,-1.0273517402329928,-2.0901706774710584,-0.4195487753952023,-0.6771948681948664,-0.6321928706798691,-1.2718236359495667,-1.3161501626913248,-0.7023577262995114,-0.6344810618953056,-1.3495177536120713,-1.9930035003863278,0.22163229427467854,-0.002210551344973178,-0.03710747671179552,-0.4198696818939275,-0.42249979986016534,0.07183196347590355,-0.31767871984832835,0.07634174760809687,-0.29338049847893705,0.5516575383055787,1.064349561412094,0.8922195762037417,1.6680711893854738,1.5357171533916747,1.133144755255275,0.11440864428517017,-0.004677051756498447,-0.32404777688842623,0.2116630520193336,-0.5096719505824766,-1.1965333567714542,-1.0153738247880382,-0.18531704119071177,-0.6759178452056909,0.918494700316339,0.6268825433788854,-1.0709733898764735,-0.8539813138910608,-0.8456130815421621,0.38211968359786924,-0.08393713533498577,-0.5003814271586542,0.10895849632758906,-0.31356426583073294,-0.40694352687100344,-0.4340928621382475,