#~,-0.4989226266429082,-0.13106876035059997,0.13345723278944002,-0.26976696989072946,0.0064107781217670814,0.08812082720484232,-0.2835703912967107,0.4375843443135482,-0.40189439949830086,0.032873213368862474,-0.3355436795663368,0.3767806514723613,0.288224025273493,-0.22965366850516208,0.11942685947952611,0.19983472632906749,-0.4918351149268355,0.3688765757234965,-0.24237179548999624,0.22904166101749326,-0.4786373412083508,0.1413912587432963,-0.20575509332494854,-0.4890810445844237,0.10669671704924352,0.011428268471317364,-0.21471094005081623,-0.43462310900917345,-0.46319552974998135,-0.3236505536667559,0.3064678344309102,0.00694358437792656,-0.13804685723336232,-0.46443426347475625,-0.4299998244074644,-0.3960596590501294,-0.49049967231391856,0.06789780683692995,-0.039633966986302206,-0.16281844785121272,-0.578316023052827,-0.43735491182759834,-0.009669861316318201,-0.5317736409258911,-0.0687244468267281,-0.22990942026995412,-0.04165967508969335,0.2063221774498464,0.05957544300189714,0.17868073116050517,-0.22170227023460828,0.4545397522988187,0.08637345865958207,-0.1279112470160131,0.3566308478967093,0.025934543846092336,-0.4490460260927047,0.009103770009849297,-0.4190133195469645,-0.062497254474004935,0.2013037715742276,0.07749510610745838,-0.26289902791419245,-0.5607294791537489,-0.23427220677764224,-0.1494049781387163,-0.6304194662050989,-0.11342242442766153,-0.09319062508410571,0.06094939042507892,0.016357761463309237,-0.3497819488167743,0.2677296187731343,-0.06169723406916806,-0.07774882301710519,0.2820728724386099,0.31254263162638984,0.21156562900221518,0.09715069196451152,0.0017654381393863155,-0.320916276509301,0.18902080369547306,0.27996248478787067,-0.015444406741289203,0.04397580355504869,-0.3113770152399844,0.4179424363388814,0.33212305364184,-0.19051884780818254,-0.3289304117682528,-0.15602626285930146,-0.3319091775671861,-0.24304164680222734,-1.0132714717242963,-1.1430102282483652,-1.0278272231631178,-0.38984280443336244,-0.02857900245569643,0.18077389383167108,-0.35758351898014856,-0.40883892631241137,-0.6823626714498483,-0.31204161428670996,-0.5750993545498339,-0.5812800809519978,-0.650856716541126,-0.48288984798848145,0.32913843117693875,-0.07020535371307901,-0.12781740981168604,0.3713464642832517,0.1285017253310715,-0.29791278701158674,0.15300999169856347,0.45900051945321707,-0.10159744960413739,-0.44802029598547605,-0.27494543114414716,-0.12771679808894268,-0.5969311703713036,-0.5989089179353243,-1.4940618703512512,-0.6031366768545813,-0.9255516902970581,-0.08825455225648726,-0.3194698165736594,-0.442490148722285,-1.2818466946769198,-1.84368337057456,-1.8500740379167795,-1.613733860587203,-1.3632013855166887,-1.289297077709477,-2.0341027396184033,-1.18703518369439,-0.7201250615593252,-0.5578757826907552,0.19355157486436272,-0.5031760676208457,-0.08195116534944205,-0.1474051204587067,0.15700323692999887,0.13264792244681076,-0.32399272220713893,-0.41810625099411586,-0.35260134939038856,-0.04204365328054041,-1.505046538241314,-0.7887200252857428,-1.4228508510898599,-0.02819324337849518,-2.3305758925402085,-5.682954829417544,-7.612323618513638,-6.635086274740125,-6.019516929761766,-5.901631275596832,-7.027801290846884,-7.5905875538623535,-6.92508924643994,-5.210873815694585,-3.8081441882351097,-2.903665621044213,-1.8122780257954465,-1.6297298814678183,-0.5042597923521521,-0.4996128353075076,-0.6770943298200076,0.37127194007548525,-0.39767742612178636,0.3974821798964106,-0.19164217031514363,-0.7964962854699364,-0.08126710698150538,-0.7271709904434527,-1.6196973862447506,-0.28558685589110244,-0.12146134555456435,-0.6979847774544995,-4.150622564504437,-8.759467193353656,-18.62236709432642,-14.502152507410786,-8.787857776611114,-9.10947753800867,-9.160194668057112,-0.9142307886150861,-1.9422978804098059,-3.2865947502160138,-1.0068315554072123,-2.068629672141064,-0.9297335471204176,-1.9999457138965622,-2.0064783675789375,-0.1970902826249782,-0.44821872155819864,-0.2895499079911177,-0.1732178661242796,0.060569877038935294,0.5864347385354292,0.6527537554135737,1.0083051775823046,2.102390473859127,5.151343480226128,7.230299713025737,4.9944967676499745,0.9965603446064901,-1.8679101870453532,-10.279600898702107,-17.35991055841662,-19.959078954895187,-16.87767993138371,-4.567166027620966,-3.5124300090957252,2.1387384368212867,10.40764187314494,3.5184507828907257,0.31379351627352664,2.6212788837082845,0.8200868387873615,-1.1337323176194374,-1.63686283366309,-0.2566580481134411,-0.45243465576157993,-0.2034866252176686,-0.49671653219609035,0.21168714042710554,1.6094385845840182,3.246838425378615,2.2014748094625616,4.404974920065317,8.072930871650689,7.062587594951996,5.1825452245330474,5.78626150065292,-1.543162259720559,-3.5332022007584882,-2.85126223946055,-2.661457892960055,-1.3403660333323917,6.8357012942590885,8.397975042366486,7.3714195172214145,7.261689209258117,7.303675250935661,5.120116367489892,0.9333825245778647,0.047282906195796594,-3.0696263156634314,-1.404328072267425,-0.7767036027555592,-0.517283187108632,-0.5086688219712934,-0.11276437454322166,1.0691657378327792,3.132230881666126,5.648939846203472,6.91074748886715,6.998598892765136,8.969506891313015,10.630296740293305,7.664512245552373,4.210036783739338,2.8263733228198333,7.537551646492879,11.850468919598896,7.641776829621821,5.789887203035046,12.323139938369051,15.18110084034262,10.971243417497734,7.623457376283755,8.999631530176968,2.7939650426532654,0.5415122147159552,-1.3892555150762524,-1.898626362884255,-0.2297583410070921,0.28647610649466754,0.4275096135811805,0.46344813370788396,0.28706876614732585,1.842308629146308,3.788763754065885,7.575263463749499,8.21396287832282,8.545289268383762,11.08219917658259,8.483084357174388,2.573997637106229,0.16829234761998013,0.885955171513419,11.383794923397238,10.1079358568572,7.514225843429922,3.80552253181422,13.070290142143204,16.085767523308522,12.715738904979917,10.091568478134132,6.805152966490885,2.3709780248431587,0.014985638296269236,-0.25068636279383,0.11166868377642464,0.6856634380114783,-0.1308923021292414,0.14421552691785405,-0.3797789073324578,0.4618739849928042,1.467197256153042,2.35613804574778,5.470931878367728,4.708827828887845,4.010543376424856,5.873330869679459,-1.5678836605354192,-4.620714453432109,-4.077581335662996,1.7610150093185595,4.436941921605648,-2.6361003364799824,-7.943875395999361,-6.520718576665184,7.159904951103301,13.908047085376268,15.350171736480279,2.9332444259555737,0.17513568919919223,0.48506246150045973,0.12092275483750729,-3.2962097527960847,-1.5572936149823893,-0.4645499697869638,-0.3846478270450179,-0.48552964463982917,0.20396578798820256,0.17412281512088365,0.5236294477177015,2.1527881789239123,4.92406192421478,1.847938026903355,0.44350985981297664,3.0548688597862848,-1.9610220954493292,-7.948363950706124,-7.970422881954811,-5.97200673344128,-11.026358158980731,-18.07913398129114,-21.66206223917019,-10.654747925660068,-2.4804828423383545,5.515876670703629,2.7866462463224124,-2.995352282709281,1.1261208190808363,3.5898899646238736,-1.378923976776099,-5.962111050423945,-1.1773737190693923,0.21614514753206635,-0.37219528099786836,0.1474209353574312,-0.3247260154895475,-0.2561774233952826,1.5667815055559016,2.0613968702802357,3.4200577966712467,0.6102268477030809,1.8439848696190764,3.309335934529321,-3.1160236725850314,-11.789197094693245,-13.925610526425682,-13.55980280390081,-20.529299120899484,-23.9356301896422,-25.07060037552174,-7.666509425409394,-5.336277390287911,5.152708561926559,-1.1872109163811444,-0.5292803986546661,7.613793412906756,4.344441723450453,-3.8242903119717595,-4.8870245499762275,-0.33411586661514964,-0.46547689817603816,-0.4567512264192454,-0.047814997284264756,0.34330830067887896,0.15520250148157325,1.1260190133539811,1.2812540451100356,1.4844759178705147,0.1647472433301202,-2.445790442679131,-2.165148444236124,-3.4355739446455775,-16.93804410134285,-18.19266568217141,-19.17136952015362,-24.128727606164684,-28.338021699700114,-21.14328725376883,-4.110233375248576,0.44698170657567193,2.8407156593854674,1.6197472258835628,1.460503018847501,6.4820236223842125,2.6188712240523384,-4.533518734438819,-1.8997717165421903,0.07153693535190778,0.37290304202676405,0.22928129267551686,-0.11238022799333236,-0.41864012683286933,0.2686481232399598,-0.13195585449647318,0.42152210820501457,-1.3347455956439782,-2.1500644495475343,-4.01007019600356,-7.141193913327069,-10.83844481507806,-16.038065131981124,-20.845183895803782,-21.757520869795844,-20.537514892429314,-19.497812868248193,-10.286188156640993,0.31333985807971476,0.579893762159812,6.279280943288291,6.255121020538987,7.587777575975934,7.317899308216613,3.401245277863063,-0.7900149094565363,-1.8101617384235846,-0.20582053153585358,-0.031093293843159512,-0.47212297453776736,0.03691490618757798,-0.09643706761822693,0.04841476925000902,0.15346557282761494,0.7223644440737474,-0.07791175484333145,-3.4845937106840728,-3.383451939579937,-8.57648428341646,-9.340545317071268,-12.78479372802842,-23.091782898997835,-24.194502924018042,-16.962701270538407,-10.498128167341626,-6.946514838124904,-0.9283279122096998,5.3519817197381645,5.732787858928959,6.928755968269444,4.507126303086099,4.4965474739158555,1.600136234149328,-1.981806882510837,-2.0120584152323624,-0.44667488425667495,0.14271083743324067,-0.43006458934475417,-0.24769465077740632,-0.012985588135468991,0.1778599904400451,-0.25559524327012784,0.4031005003021302,-2.695950272933905,-3.0231240871222886,-4.151617012905434,-7.776194679555411,-6.750223821616507,-4.661964822698803,-10.453637111253048,-12.024735934678349,-12.293910651261756,-5.5590544907515484,-3.8450749503971853,2.0276457156968397,-0.7219928967343445,5.074797955634812,0.5706516678796655,-2.9935197560968043,-2.2595693074109136,-2.629538885793556,-3.3169357078636974,-0.8152739162695133,-0.10197298931814244,0.19852960302167388,-0.48064969460976636,-0.1699515814097682,0.4094578503972357,-0.28536809617416226,-0.15662416005307012,-1.0295749873643834,-3.347715997720267,-3.5126733049119028,-4.556748348100479,-6.164016283138414,-6.142754728978359,-4.825458036129478,-5.265074089935585,-6.8835016212230595,-5.96691308165431,-0.36248866224470494,-2.78073319607753,6.951364331519761,-1.796151897366482,-4.676363251721509,-8.681466827449112,-8.34647407237646,-5.352087000604897,-5.323664456512874,-4.379917832238697,-2.254955399626787,-0.5675716986855769,0.2640507070191667,0.09742495027596684,0.06245919508792566,-0.427821092687687,0.12610949335285299,0.11403658632752744,0.3427557274610052,-2.6829478889355953,-4.690517899549062,-6.42353313119136,-7.5951169293752265,-9.81791129294493,-6.997101082552105,-3.0437434873660636,-0.9540714659976444,3.603170982920232,5.959449983651404,2.662818769151528,2.426983781603107,-3.4752004990880585,-8.39228709214502,-9.591788468272751,-9.383426230352962,-5.092302600150848,-4.9424750861874704,-4.862910220729983,-2.003570208323632,-0.2993092087207773,0.5110084984564693,-0.28657466705561085,-0.05404508130359937,-0.09862137940878632,-0.2167587642462034,0.227013703785064,-0.31185317651622324,-1.563534661586845,-4.153774963521985,-7.8269936901158195,-12.404847126097795,-10.426910429081852,-5.521086278156396,-3.539208830501161,-2.8555719976298883,2.3012847882760368,1.1773406668141222,0.3998387077539569,2.1952147190624083,-5.514724728788494,-10.435349069852665,-13.040610298579665,-8.31037014933267,-5.031978215300702,-2.693386630436489,-1.426871171792937,-0.7975889474172039,-0.31399702480713443,0.36979634429461544,-0.15882952196717962,-0.4530908044544677,-0.28928413446619194,-0.09854548033382107,-0.5316894342642621,0.08768427059192471,-1.7183832806591859,-4.128654716382934,-8.210762901358864,-12.542947850399852,-7.110880546949951,-3.045968357921956,-2.6533288744205468,-3.981958531799813,-0.7246914848043391,1.6578334204427354,-1.8795614693961429,5.289394428312506,-4.541938589276658,-6.930017372336698,-7.3682493560496205,-5.823550536464575,-4.823200078537331,-2.8757766220184573,-1.509313133172202,-0.20237012163078297,0.29702927885129055,-0.4154380668221042,-0.09019556180621574,-0.31150787872202124,0.2753486674293647,0.10079266791468597,0.20264205521503584,-0.340449361164411,-1.7341866568739437,-2.804895121000502,-6.638538299471572,-6.402982347224252,-0.12423114405528089,-1.6403685516097506,-2.1045719662341664,-0.4049083320080454,4.618588076419714,3.3435655517073437,1.6520208158213099,3.1507995632526304,-1.2943727068196071,-4.957840694962656,-3.333540491195697,-4.840533583033321,-4.958072156715983,-2.6806621631049294,-1.991583023176487,-0.37167147200890704,0.004367481144001595,-0.2788404277428731,-0.32375833630514017,0.30203115016318316,-0.23722440233688333,-0.4009605668284716,-0.09509346941477419,-0.12776068092448806,-0.8259964377807646,-1.3201357964614124,0.3840113019144323,3.5868602463961117,3.0442982405222225,-3.5303701377364503,-1.8464625453840076,3.9467721118429857,4.986457041797078,1.8352537215980853,2.234033269906788,3.588288585786986,-0.7046471557090178,-7.378888958169755,-2.2767671262546796,-5.270978265155402,-5.3638171097348994,-3.189380526408538,-1.0617659696780382,-0.37954504354673935,-0.0747418296425848,0.49654606333909773,-0.26019363925645433,0.014546414816246966,-0.5197905819556471,-0.05709394129495183,-0.33973667088088966,-0.16125634412498385,-0.21020551010856275,0.979206879582395,6.163415470408137,7.3937343656563845,5.280020941497617,-1.8541211431735471,-5.529184567997738,0.18331602330471258,5.449380954000612,2.7865002981741767,3.2583427859985368,7.617467311000348,-1.3355908931547824,-5.896465573725925,-2.648769974558231,-5.100248392557329,-3.157672935659238,-2.0177047688184913,-1.5466616326442457,-0.3916468381115371,-0.5385252185193163,0.08023161142815682,-0.1841908280275024,-0.4977687737477744,-0.17675169384552528,-0.41798281614301447,0.22515585106906608,0.4765965166328067,-0.43431912660968053,0.42235463196262574,6.196803720829566,6.8012833990230765,3.245531971488691,2.1264497992649765,-1.184573125311452,6.378655014092107,9.115586693211585,4.459841026641043,7.271731057536183,9.185703679120795,2.6479615646531807,-4.389056778717735,0.7394776604785117,1.3173252151326724,1.441722954536155,-0.4739708440414621,-0.6036711528478284,0.17723031052234142,-0.013336083893520602,0.04898631922091918,-0.16674713980772618,0.4405599679764163,0.09366973000801601,0.3054946330541777,0.4063753743061498,-0.07474612079567977,0.0618129723500104,-0.04435811908302609,-0.24452140742262082,-1.1013188129535618,0.7572863767493152,0.35492634158527425,-2.2443802193826476,0.5729733056163563,-0.34111403354853154,-0.8118519160956515,1.549502237026816,5.601013913413585,4.882844448855191,2.4383013776992386,2.569964140072842,1.2632920898069966,0.7607859986759089,-0.07675235186426786,-0.003923510125940069,0.013891626172287487,-0.05306604121771204,-0.4467941690511297,-0.39936337347594086,-0.5156839741687561,-0.32874025004843055,0.38268735766389794,-0.3102341303156313,-0.19530415799069814,0.1067558667539581,-0.2599674410980579,0.07636952597185734,-0.3391905610429756,0.0941851903770696,-0.6169595594868895,-0.3485543645693811,-0.06632743467106345,0.1318554964241311,1.0275832622612302,0.2972323389895305,0.040369300794550936,0.7533875954567708,1.0159242169332203,0.40609533394574654,0.02773868697336201,-0.40201720843179134,0.42272584186402806,-0.3235399857216317,0.13354609431067171,0.21452322815334987,0.3785159443111765,0.3017337246771662,0.06910081756435692~,-0.1816604877408364,0.2281561259231523,-0.06787315441250492,0.028779218401092592,-0.009800986311675097,0.031201675740778225,0.26074507675565145,0.1132491992337171,0.16446769911271533,-0.4641428979285651,0.12612873311559347,-0.2227380417195297,0.3456427167510817,0.19260160071982274,0.3530932610553468,-0.3824673166713707,0.2546111977268969,0.31295622031074627,0.24515697198896866,0.2734144989794195,-0.3632717856646117,0.29720720225860814,0.40470969070248364,-0.05723585005865198,-0.07951663039256841,0.12743622257012893,-0.4654767553847339,0.5219679932745436,0.1259047017528577,-0.39697678203923653,0.0811197747538084,-0.19771750308245997,0.195487325564653,-0.19908840681925513,-0.414782441202728,-0.3603402951256102,0.2822224166399904,0.38011902745872683,0.21116587135757378,0.4352469698918354,0.06937947121403051,0.22921134043102312,-0.053117873450867596,-0.6012385334926049,-0.35418847630520806,0.45152644549981075,-0.0343012748796757,0.12205585810381138,0.3944974606409368,0.3953041277824626,-0.17577372690032947,0.41713172463407283,-0.0016884490810878021,-0.05559433162236929,-0.14853339843806582,-0.3867021199457275,-0.22656330640286576,0.21786371677376845,0.06766368491066892,-0.16372302732568114,-0.2548234415387763,0.14301532071329698,-0.2757433046062084,-0.04472665298725242,0.22426896436407473,-0.4950565231178103,-0.4300852106861323,-0.8641951119549779,-0.74857303270625,-1.3176309455075887,-0.9897191129188807,-0.940913696955538,-0.9602408222223541,-0.9318176583560418,0.016110004775472715,-0.2993240648288645,-0.7372852709776629,-0.8451183277928312,-0.8916053185926119,0.05088014653050245,0.09461656135666277,0.36607213399396393,-0.003588425391410469,-0.09485354902229992,-0.40580837357303323,0.08466554931435973,-0.188829021687164,-0.12459323072927614,0.16784372807077924,0.027401959299216433,-0.3498461913703499,-0.11367057063962123,-0.5592474769244195,-1.778223911067048,-2.5635007438668134,-2.8351965129373196,-2.8790473496734323,-2.907645863564798,-2.3475370989939264,-2.4278601368045676,-3.6734010581009855,-2.9467528407244887,-1.6689854490546858,-0.8491700940657383,1.0906043372178755,1.0788874989268438,-0.09109660459292679,-0.2609898388233069,-0.3759879345402046,0.07823700146712284,0.24970813715717624,-0.43574841941254083,0.14019955834071518,0.19561827919259697,-0.01772713998656306,-0.23400841061671102,0.06868857456307377,-0.306832577769738,-0.16009336846988884,-0.47743776650386116,-1.611612987983385,-2.94737853055692,-3.2580854115719347,-4.80369021186719,-3.853627439569375,-2.9293425504714845,-2.4730146967051234,-1.6931825816137873,-3.209349533821662,-3.8907045028920852,-3.4356889298996816,-2.60798512083861,1.5227103082529898,2.797159975535977,2.724048869952938,0.4458268035722645,0.8144572205452602,0.620898916158459,0.24123672531939763,0.2595302762850288,0.05272084171983145,-0.4644760826906438,0.026688965420127216,0.049241470132957495,-0.6657660235623563,-0.5719292142653972,0.03933184032595016,-1.2453200271386555,-2.5913195397005437,-1.6093545066247266,-4.21952509554707,-4.86257290147856,-0.18530520931478184,0.5752784144942323,-0.1765877161965128,1.523602686881718,4.279862470333803,0.678396105086039,-0.6535759476723114,0.21535205163839488,5.0636112775233935,8.281184071711829,7.83028355315789,5.226543464778092,1.451305971865455,0.9785444463092187,-0.3304423172955762,0.15837448564672515,0.4239535083111,0.37704427166449905,0.39713073876999927,-0.02784290621154489,-0.32386585573846877,-0.29847174487780237,-1.0732408158006652,-1.9070514601119513,-0.46414858548243093,1.1412140643927822,1.1352742027134943,0.30617177985726546,3.364030281538898,3.26497323741119,-2.741197175901578,-4.554494024791198,-4.128346769769687,-3.865445819928767,-3.5950901010047005,3.2063746135778786,3.0689903607954423,10.201070251872867,12.60043090530785,11.793715865649105,4.767261478791665,0.37302199157571675,0.18718050055027577,-0.11909829988192071,0.4691332479083342,-0.30639669697386895,0.33688514478414505,-0.7637775735599355,-1.0348306173286126,0.513918037600055,-0.4110935622679262,-0.10594550722782005,1.497502299504774,3.2116180611998857,0.03212968421571308,-0.3559182314847436,2.3130299868270257,5.720651984904495,-0.7432804039879979,-1.0085250505365513,-0.08581625810267983,-0.2613185320400237,-0.7358116286056212,0.8051702848304189,3.772125838956845,6.627442584201416,13.082804861069835,13.260735271790578,9.567986492456502,1.4250714856891913,-0.3672632294136365,-0.32948370320404524,0.484765056127741,-0.06971619283850788,0.009778393202395637,-1.2304041494708282,-1.5749637102824416,1.3323108729196886,1.0166527993861096,2.962957893317531,8.108603366320034,9.797421751765635,7.043997372958112,5.4576989192553285,7.123352284981908,4.779691239523863,-2.732422079219786,-4.569030122838124,-3.203554556521182,-2.7632647362816116,-2.795216035506451,-0.40603270719566037,6.417961437606547,6.356745957820151,10.430488503561472,11.65205634369441,9.400857323469092,2.222467916649452,-0.20375012549152852,0.5389309087410797,-0.4080773474703753,0.4393578513691543,-0.43549918698519513,-1.8661062044431709,-1.7628993989646853,1.0925631020388231,2.6094744859991503,5.310708999395865,10.151434643616433,13.509420820137201,8.460323034846521,10.357236462507643,10.57629434242978,6.673819215870644,-4.903871441152192,-12.350119213494951,-9.13240036950692,-10.832545431121504,-9.047730328926445,-1.769625863532266,-1.151929073260337,6.042125114000701,10.049397889761671,8.733777853845849,7.006871020282495,2.0160582846657986,0.29342755096360107,-0.1052793555373841,-0.4594615554577146,0.3236878592756025,-0.04355135418979502,-1.1632445032018046,-0.8361739154796093,2.031956384311363,2.607143497689366,4.250467062473519,11.520731944414148,14.899969291652882,15.938726421658693,15.185808925617705,14.152675836239261,6.068418600026977,-9.837414044973812,-15.995067582618313,-10.33217287508356,-18.17995108049054,-11.974877479057827,-8.912799507435201,-1.5117054959288962,3.2391949991389684,7.3124597339380015,5.904743381487981,3.61001181746326,1.118518668762101,-0.38589092491045035,0.03564280881258267,0.19925778086942889,-0.4757423500464709,-0.07507777434233648,-0.3291304903857214,0.933827773070771,2.2710861996756977,1.718198871185565,3.2819885987287347,14.207506417209178,18.424663628065115,23.367590573514107,24.87535455477623,23.87383160451234,14.82043450023785,-1.3786162704177307,-6.035147058743658,-5.965447356865784,-2.636552642762011,2.602650424326798,1.8849013780042276,5.3797191410008995,3.2380420846018034,5.687415802929479,4.587310659947379,2.8199757934472682,0.3653866416505469,0.1967383515208526,0.35523468086046633,-0.2601191664799104,-0.28962894976578085,-0.47143685663116813,-0.37461882272864516,1.1328660533108101,0.3695562114638577,1.272179273694435,2.991693493518826,9.640620972336293,16.40107035705522,18.393371918942847,19.289789971375964,20.79088616325499,10.605353653580137,2.660213803396065,-0.19029323354577746,1.6609013977524167,5.188258138541053,3.570880037238465,11.764860116181527,7.331140964864288,6.3459067021825595,5.7899560236631435,0.9521394630146951,0.793499798784171,0.943240365633254,0.564949403319867,-0.03242773478768103,0.21962905427535698,-0.37456946882817294,0.1495734533042956,0.17805235347993004,-0.7619032683127408,0.20851727291521907,3.432571388006497,0.2652676140174605,2.5626412251629085,8.151701102343914,9.446021960657013,13.213932918571011,15.108909404838789,13.269355626360335,1.9806002272403322,2.1348062287444707,7.782776953643682,8.29126440439912,5.743250662196751,4.048226800464477,3.3858669872940568,3.687745897263246,5.21775174203053,0.8745202941550693,0.016641980444160383,0.437775802429632,-0.12160026378896736,0.27928212950816683,-0.46083293487030663,0.5420839618247857,-0.38748556770975406,0.2576113796019453,-0.38822719821921226,0.9826787631685645,4.251199738297556,2.2124326746125136,-0.2323285973862643,2.753122297250661,3.348892690613601,8.460952193222504,14.884827890463006,10.632041005756358,4.664542333561518,7.569602237912493,11.792063755969338,7.040582340672982,3.1417599967219254,3.5613339086265556,1.194090754298655,-2.0540421677978298,1.3004746260652178,1.352523432302956,0.8251193824490746,-0.24759273978865212,0.2117491029491341,-0.20853816048682225,-0.13523737957846502,-0.023348206854863628,0.31983172720059594,0.8480892394361711,-0.38844230854493106,0.24574549738178308,2.9147866766903126,3.61253934499796,-2.583518948091728,-2.1149917512943603,1.9263530661865935,7.47368754692317,16.51535389046191,13.620374102907983,7.490538360595362,9.089947707277847,10.07660215824167,5.624524832882511,1.956494643518518,-0.8491372161222509,-8.28448527264597,-6.29059313203855,-1.2499875896718973,1.2798887739952736,0.7839959692313926,-0.6314800230753085,0.4950607512459313,0.05038662351951831,-0.08795984586287937,-0.2785129599733641,0.3479725595303914,-0.12756986504984108,-3.2162176301496324,-0.001039929602174709,2.1574166204234384,1.7211844199277673,-5.900165227112144,-4.30014785520608,-1.2298897887591307,6.274291965734295,14.252944801729129,11.133818008196341,4.10551611978511,6.800143023519631,4.9957673213273,2.646367155306348,-2.00565003392539,-7.65259935049145,-11.878450374124467,-6.966950880467986,-0.798675960440187,1.463974584732822,0.3848869308808003,-0.17399478183187284,0.32639560301051507,0.6135254239024069,0.03427562336075666,0.0706890204902783,0.30581396867414107,-0.7677418826798934,-3.098252890295889,0.8074162804121456,5.162917660476905,-3.2229393609613544,-7.785654157520723,-1.3617053230961729,1.0249550742832694,5.91663934758584,10.804241494424078,5.768374449288371,1.9176551642942958,3.4126781565287336,2.775677596160626,-1.547316372391206,-4.864342911057173,-5.827734430969678,-9.498858995097,-5.1166701385634585,0.6410676741227382,1.2042391078415184,0.8687156359565954,-0.1422926756941402,-0.004322200475082051,-0.18410777906030365,-0.28669323314460404,-0.3911983745128126,0.22208735371576263,-0.840735261705091,-4.370408123174143,1.9159325257817548,-0.2017624758748905,-4.536799102354358,-5.826344437531566,-2.5152177006038707,0.8249894986159197,6.108562688131855,0.9147481147178049,2.691389248399292,-2.0907823549955826,1.6236052550983788,1.65508220771309,-2.0291238208417255,-5.851265246137282,-4.713041027114447,-6.489755299225144,-1.7211970515030874,1.4257094987248777,0.4076624282839123,-1.1387873245732334,-0.6386347893943771,0.37436142552857515,0.2744087303386868,0.41120872551329246,-0.3033473119941614,0.10571522277673225,-1.8692586592422418,-2.3674682513402114,-0.38987117004946337,-2.049952389498874,0.3196593630507287,-0.8357137304220065,-5.8829316503821,2.505005885186418,0.9520621996041818,-3.264958572774359,-2.376221278924898,-1.9527051311720944,3.919297912887653,2.368518368987445,0.6133065733571721,-4.692835591852781,-1.682250195360428,-4.31356446103654,0.8556893182605662,1.1698797020120277,0.8151706654643924,-0.7350282973347543,-0.29147566219089405,0.07827166458897955,-0.03153748736047098,0.4907802391430227,-0.2309145991702491,-0.7264580813953004,-1.668411321945849,-0.8065239684232514,-0.2107861792948406,0.2359932776487361,3.364111754017471,2.118715663857839,-0.47302285363644403,7.9282109844066015,1.7431853077803208,-1.778496251907955,2.2053957387341,0.6093637830625586,5.253227075459573,4.431393255681272,2.800656607804561,5.006440502760034,-0.29952896688666925,-2.4797218846033084,1.6296354621971356,1.491161087327999,0.8423847576802592,-0.009524468662508175,-0.03402628105114186,-0.22347630709491695,0.29071976595032833,-0.019240526640476093,0.3496766496774491,0.05056621481657852,-0.22666485155959668,-1.404819124488371,1.8574337393372538,0.05032647274848312,3.3169620526694827,2.4976340751426895,5.958048723154797,11.243869893162913,13.492717348022541,10.545781679222236,10.492075731236305,3.6002939361881148,8.552387175801943,7.141301015156385,7.6873067431457365,6.772602458367878,0.2683898238355022,1.3697883775787953,1.0232240557314447,0.354136537068477,-0.5217805813856304,-1.4346077335359109,-0.17341013259201088,0.2577048401464739,0.3146564257832298,-0.36158268736276467,0.331886500473631,-0.16064931421492876,-0.20954316005984708,-1.1055053878219574,-1.775615843656226,0.4865453040937313,-4.560435178837384,-3.9960563705238585,-1.9442648719555984,5.373158255983641,9.606745577332562,14.281544615927567,12.858143720412073,8.530811608078258,8.9133282227968,10.347621744042641,7.708896881859221,6.187860451469422,4.327721986588894,-1.2540808719206908,-2.270660035222754,-0.16686502542495696,0.09562384433542853,-0.4434440024481131,-0.2412507893891333,-0.5543335172663791,-0.08884108864967062,0.46078757367052137,-0.3201675246877841,0.3464577402269854,0.051773221135018824,-0.2974315008107976,-2.7482588196021807,-3.4107646477190467,-2.5605212070978913,-3.1203305610138163,-6.15462921933741,-2.237170273405318,2.748532607704995,8.619074116730062,11.196115035489145,10.008105759212082,10.253529491982865,8.570061428918079,5.506325940143002,4.6810430754285886,1.4753356366805064,-1.140943832653893,-2.7875982983525334,-0.8144069380373048,-0.027119596734742128,-0.07994670810110893,-0.11076093550973043,-1.3119153601525597,0.32123750873576784,-0.3457038466308514,-0.35152415285686855,-0.17958218539992557,-0.2702438360225014,-0.20715962621847597,-1.1182790915275116,-3.321691380293959,-5.052694663191215,-4.69838098644653,-3.3748452034771,-1.5547027846303139,1.306615028737945,1.372697618764067,4.35592375120717,7.50392871202549,7.394775528593093,7.044328491050547,1.2984645497804,-1.5420368386517334,-2.170013960520413,-1.8748062618434882,-3.0035580253002414,-1.095299699123751,0.20262096858398151,0.06772980725797353,0.4154206911389946,-0.09522419327097334,0.09418706461930211,0.3630733908594888,0.5180180252321842,-0.37049621099065483,0.08294602832845652,-0.07414032240515672,-0.8826592807731256,-0.880716880812641,-1.4249174833817173,-1.7879704435739925,-1.5466032117179025,-3.0982203148983793,-3.119876967320021,-2.1384757771877094,-2.0039126201934936,-2.276488956158299,-0.6838227745124823,-2.060666734172915,-2.495424873278235,-2.6281342063975854,-2.2783967353051255,-1.0988591591193753,-3.375670814239887,-0.42199232383411595,-0.4176926955887574,-0.49950629209769354,-0.32291693747517225,0.48502248573473106,-0.13994858916711975,-0.17645008559983175,-0.10252581176137679,0.27029663692012884,-0.241940317062277,-0.32027082616082725,0.019754266734614695,-0.2327162729203551,-0.6546013735686645,-1.1851348386238456,-1.1236749211463908,-2.1693674585403153,-2.804216198976827,-2.0058962095058672,-1.2335309778206622,-2.1645321092556062,-0.8528814123512368,-1.0614488798278743,-0.938109641651967,-0.8818229846273703,-1.9015066099001732,-0.7221060226068224,-0.14888088407875874,0.28266943602951883,0.5114461542921733,0.13726149675755017,0.331494621625641,-0.2600939188121223,-0.203090649169805,-0.3548710615141012,-0.011297475484199914,0.09472361392773564,0.12303749205387293,-0.2256670477528551,-0.25353426033526305,0.46345090218383517,0.18039855600709695,0.3901457461703599,0.3792053019886575,0.3251152658570671,0.27084896632265343,-0.027255160936747992,-0.3615083616725543,0.015798158951093984,-0.2137129081311469,-0.17249387452753853,-0.7868082149239377,0.0446053156740938,0.4944315945820313,0.27396430062660126,0.43884153347354143,-0.4070026082884129,-0.42691584815345524,0.2158094516827966,-0.4563202620408844,0.4276812153002356,0.008976788498781887~,-0.4949934308941153,-0.4928533171972458,0.45816539829420233,0.4222676523300054,0.4298585628781205,0.38421864209236123,-0.158753135710239,-0.15541766032932378,0.32388717935590905,-0.4147338129128205,0.30412704204524654,-0.25417597569428274,-0.4002216276317113,0.07232545391264787,-0.25505042451781723,-0.11378008882136682,-0.18764780212052254,0.2946443428807306,0.4561871268008939,0.20208548210951918,0.3311166702059384,0.37248057150644565,0.43311462528062206,0.01913347346358771,-0.4340992998362877,-0.5198735420009586,0.045763960731013194,0.09384060361054312,0.3795061185400438,0.35623915020822816,-0.3374622520791619,-0.2923427686627217,0.345677374932868,-0.5162815056386878,-0.09665210588812521,-0.18555527424419305,-0.28582213179940713,-0.6179854305918424,0.1440097518487799,-0.21897514477987973,0.613539305618978,-0.3307422981646508,0.03659425230243806,0.48309295599899016,-0.23412145404803386,-0.502649786690891,-0.16673568637133307,-0.3947690770865226,-0.5060281108052579,0.30215636584749306,-0.014000098991297692,0.4578216867267846,0.14676666560213683,-0.45137315553698676,0.4536793453864141,-0.0235039888312928,0.3180728168650364,0.04878598861765391,0.4280006026085936,-0.5109860710555313,-0.23023405223512675,0.277440637941809,0.11858851537646486,-0.6822909653848963,-0.5727224121416042,-1.4103819541748746,-1.237717354637263,-0.21262836767199006,-0.6075797461326674,-0.0010853254283998976,-0.30662762121624343,-0.32585893747697875,-1.1248558812660925,-0.1551392724257994,-0.9578829852828845,-0.5164531900903803,-0.18617424659730505,0.5789564446017051,0.12225007064885107,-0.07704025677660814,0.3543985328976431,-0.1429564318920479,0.377916362560921,-0.0991492320756369,0.1756777248374378,-0.4391818939890372,-0.38674306474727904,-0.17650831274589449,0.3276820886306841,0.2212610978514892,0.1298424159833115,-0.2914689534555593,-1.0185876553834368,-2.4540849636051747,-2.9122976522255106,-3.1288151256901924,-3.5704256785682253,-3.5174749012972346,-4.436131525973236,-7.241100492450045,-5.241249460478521,-4.691728153265959,-2.850942590159731,-0.13085057752404214,-0.03377716513741505,-1.2244613257055494,-1.0220906536540442,-0.5460418255101586,0.31102653117299794,-0.39501003690181963,-0.3611538240011427,-0.2529828347303899,0.03904089004249189,0.16995411465515253,-0.07149526505393344,0.1926878359332685,0.4189984122098935,-0.26759730291095335,-0.40550445771591836,-1.7604108586364648,-4.212627204756685,-6.345370489737221,-9.700960972749742,-10.582287517375587,-7.220445273678944,-10.753492588516883,-12.49417830229388,-10.521169938148509,-6.018608369512294,-2.859691765161918,-0.2941296084648434,-3.488166096148844,-5.382427661982696,-1.9592479092711883,-1.9386560333068088,-1.5384237986571392,-0.6963826497558273,0.6104099191464332,-0.15334124571001792,0.35430399885598796,-0.46319428527288165,-0.10501494918580338,0.09270205141662749,0.2170867477120928,-0.5191340938274018,0.3224904467652122,-1.744803643325805,-3.488076074851827,-6.206600190107682,-7.6783084157629435,-13.49361640547075,-11.31811594397004,-9.979256985554168,-6.941739031840361,-8.658100658329513,-11.820688072122708,-4.409251438828929,-3.381287900313886,1.1181089827414905,1.2369271840002287,-2.670853765247418,-2.82343909998295,-6.370942218118398,-3.559858705668761,-1.3044999914865136,0.40051113920920023,-0.3337547724294849,-0.009652806934708803,0.41398620969365496,-0.2684117517861554,-0.18936451977286547,-0.1552036585134671,0.12976396711463542,-0.17484147011170384,-1.976324322526402,-0.9935326203665058,-2.0191205378321917,-2.396096717600514,-0.8814752858524502,0.5883868492089891,-0.04755623329759674,6.512074813322435,9.166505377542991,6.124726081171961,9.305982050191378,5.64700565348344,2.265432914699452,2.1684934784788177,-0.9669651373142478,-3.301849160054305,-3.287731606843813,-0.18074688293868393,0.7447115560674165,0.8702725232169489,0.22810614687028188,-0.34562264070349846,-0.48145228894042347,0.09328222884639358,-0.3676239256058424,-0.9774010422816662,-0.3315428571225804,-1.2590239826845935,-0.6748454284525341,2.220420125265685,0.6625846940462775,1.8356751847654682,2.2318601681268335,-0.4943664137161555,-3.900529700627784,5.200484029234682,10.041952363050099,9.819810284585024,9.829747565827738,9.74075168865533,9.050395724547908,4.660139299449213,2.1425619294333966,1.6871126314172813,2.5655538887787643,3.23798946741823,1.3589259536150724,0.6104216660274399,-0.1781730143899407,0.2699662044547474,0.36051831075975577,0.2890387489583286,-0.04153130324693001,-0.08292543252036218,0.22604418009799893,-0.05223897051068235,2.6428344006818465,3.17797505933181,-0.581088338289577,-0.37655130542929394,-1.2023669684809857,-7.006683699168815,-9.790092856047318,-0.5422611609569437,-3.1093938510427765,-6.811266368203825,1.492530766734572,1.9627286422620225,10.566357902919062,10.579700308823433,7.11881141757227,7.785815660945054,6.928857600676491,4.91885959758301,2.4028209131216816,0.4338531266458825,-0.03916669510029734,0.45420731988125396,-0.012928623432343862,-0.13980621499177218,-0.02148158286970394,1.1964955809777895,0.5401189109168438,-1.0605528028509268,2.6448562528627098,3.5962775978768646,-0.44630096587457874,1.4497259752663496,-0.03743767700298961,-1.070910784146149,2.606999913361517,6.278503173123932,-3.6919796954906285,-9.344527896423667,-0.3272699963940177,5.697071385090131,16.849836864578577,16.31846146283243,12.648957257900522,8.854099480623763,7.612334901986708,5.512012893019123,3.346122219595619,0.4465637083667881,0.2685586599874567,-0.16742285172970922,0.11156791868818315,0.09718213417608924,0.5113253106492991,1.4842687689306402,1.8141363313244196,1.3321602133538384,2.834219267032914,2.5778158886938494,3.2141569393255023,5.776102944185122,7.057989907613012,12.684833257805876,12.904304045105528,2.9068482032920615,-5.792884216057709,-6.951174825389538,4.820335745456086,7.518012972888024,14.22696361166865,16.609059078599042,14.46932417306871,9.550213856130155,9.101275344253127,5.287603492605954,1.2797106933379938,-0.831294151601839,-0.5888837703829268,-0.5192208164934449,0.3772534337100577,0.03672813025794957,0.6966615267710394,0.07482893769528741,0.5328900275401236,2.4843421921011046,3.9579085594568046,9.97619849882331,10.51295444358267,9.030574542567122,13.093706318726673,15.896434114223803,11.976992014548731,7.067991001778827,-2.669301927759491,-4.886995157275972,2.554755573783901,11.484718127870805,9.387728516084064,9.151580091342177,11.377763493332543,10.816002180789738,11.512733410611354,5.407429021972584,-0.07540020379777213,-0.6959670672616806,0.3344726365404844,0.3310422911602907,0.11428300461616515,-0.3533962542312713,0.29395932527892304,-0.00996646024596707,-0.3201758021548835,4.062485550443409,7.802570755695705,13.211829664741288,10.562269866527712,9.495746111348769,10.632364373328231,12.859667242956307,7.282926683891033,3.3699740381265264,-7.126269207186015,-6.524461935558652,0.369914572371896,4.315578301509784,0.8099751713868408,2.6628156494320208,4.870825647502424,9.117246248193402,9.795991214810755,5.050162031708215,1.4957133686814883,0.11559227635263232,1.1922417777424137,0.2834125367761162,-0.33957614274140513,0.421302018114488,0.22123187017980517,-0.3331568401378034,-1.6948748672251543,4.578818842367204,9.947167262793037,11.970201031580752,7.868727418313628,4.634550066062562,5.825947817054385,5.998232044433569,3.9706518483052338,0.8537765682890994,-6.308586106506024,-2.6841395304606683,-2.0367451455514045,-3.950464359765023,-0.6410033968255693,-0.6875042056264905,1.0436210640511685,5.558723613156864,5.138662875652996,3.7309120434633583,2.3685242262942086,0.5795323264179019,0.12279696248144485,0.7349915070865416,-0.059786006336609375,-0.1744043398150641,-0.0600224038140057,-1.0051052601986081,-1.1781173106327552,3.1682333975904204,7.779720668965832,13.088848852157604,9.451400671223697,1.9643786873887474,-2.348164849275225,0.23022124550299697,0.6861218332769126,-6.383327152142695,-7.786387772928243,0.24285686409372584,0.7509395710067656,-1.3267705745664091,-3.1230747693118515,-3.1812147606113705,-0.09911035152421467,5.709409812200744,3.626450029911662,3.6580117323725005,2.720231488993884,-1.1159428433211471,-0.6418435878526056,-0.20460020132048198,-0.3364387816429224,-0.21368528212105364,0.391790817901258,0.19523886546252514,-0.34071700911949293,2.577972352488534,4.357343781737294,9.560578320713525,10.919483974692847,6.237472371641568,1.6754494702361462,-1.735263210938201,-2.314963056398916,-4.789378367917758,-3.763415148040992,1.276916369294184,2.5167158617415235,0.2217139192772984,-0.696251987807251,-0.6067600312950346,2.05663599834881,4.8901589829460095,3.767754789250106,0.9031336595056129,-0.27987848960863976,-3.1935560946247192,-0.9766913560459891,-0.351405223601595,-0.2528354647148094,-0.20942826582206314,-0.169809939435132,-0.7851065839023312,-3.208232308931063,-1.315261283331466,1.5375421950749406,5.363265814183918,5.739961541481986,4.772704012988272,0.972631041152137,-0.2616507657356996,1.0826865837251671,-5.3907265012736865,-8.361600198652223,-3.5913941616493754,-2.6597864223955896,-0.9136036830579691,-1.0119786213695199,2.196916271799074,0.7419074440324775,2.358661630298785,2.1148871746382327,-1.487459869925406,-1.4941076403462519,-2.4898202942251597,-0.49404351305766825,-0.312101027971485,0.4276937199697942,0.2643728633511235,-0.09445579580346994,-1.3665801153138608,-2.7087151722342777,-3.333743380950159,-2.2983966875830406,-4.543564654686599,-4.062826455425706,-1.8561879144717637,-3.1357872338795243,0.790008645857196,-6.740236367525108,-12.60284271543842,-11.266041882989848,-5.926403669263848,0.45918504524091996,1.9667684432845711,-2.747477277017724,-1.1920423051254454,-2.3242801529388184,-1.7000742456402211,-0.12274359523779456,-5.8155503165133755,-3.346260569553014,-1.4524793850659083,0.31563763293010305,0.057424075691257875,-0.48955346222292984,0.31434965425414524,-0.4714942339003314,-2.454805442505803,-4.241270867776217,-6.853559603011783,-6.554063204205538,-5.96177902172388,-4.649667424722913,-8.057662347329458,-4.648917779400892,-10.828858002539555,-19.15306966060962,-18.474416974395094,-11.411001294603198,-6.45891490185878,-0.6002359348083851,3.4694658212631357,-2.7610915133806655,-4.46276061465779,-4.392390566221648,-4.383270457422485,-4.024744239797108,-5.361499556838326,-3.059002088054528,-0.7287213543673472,0.03200635041951712,0.43356551548310834,0.07409170039932451,0.3636066411985671,-0.4002052944171131,-2.765933948229692,-4.796785700004126,-8.525920317603862,-7.941691531885457,-5.0440475987912405,-4.528253593016486,-7.584402893866237,-8.446542075058977,-20.09397095738452,-23.16732952432773,-12.24022008807991,-5.442194383611876,-4.303478277925336,-2.5590105490656065,-0.4380352834828605,0.7772735218797536,-3.034441712940755,-5.578724133901808,-6.808922066735952,-4.994225677777872,-3.504621464603244,-1.4694957189419562,-0.8790147908947412,-0.45368322055322297,-0.34881333345644494,-0.07743270756016045,-0.11751528972614153,-0.5136735418707677,-2.6332369799336695,-5.8061623362127985,-7.330306418613435,-8.157531263946584,-7.31779450300924,-3.8827362183034855,-0.2563156450717835,-1.8380284042222996,-12.416928438521223,-10.54445819901238,-3.113797111264674,-0.5084570836878426,-3.7019156631383967,-3.993511627307743,-0.40021633989647354,3.652053842935796,-2.9012434553200834,-10.499972736592333,-11.387171800385772,-8.975080600788056,-5.241319799622173,-3.346694123875169,0.16034566158749958,-0.22580026858515537,-0.40768650191913725,0.16124191119307899,-0.48551710680535004,-0.3315303179172121,-1.375539717217078,-2.4281401694037292,0.07788757210674818,-0.26339810934416596,-4.221531311262264,0.18204288388492043,2.816736045652596,-4.286313621917909,-1.27675796646879,0.05799464237512844,-1.7105816949368893,-3.7678497309573475,-1.2264167031542352,-0.14196301439981243,0.2093323954167949,-1.1691987386475267,-4.36240784713703,-6.944306966007575,-10.13009791813395,-7.048107009742977,-4.702309185735701,-4.539539341051012,-0.540916628991117,-0.2727860437183828,0.3929494841258707,0.2815725287518398,0.01880787645794246,1.2310065062607887,2.053797361551974,0.9564149419045006,1.5834523541081371,1.174891079500905,0.29985005488248473,3.042690041927597,4.439345315190089,3.8797796851053166,4.420340313619961,6.685229610573054,4.133236909925333,-0.29867310382755097,-0.9213983049588177,-1.3666611789797534,-4.738429899783008,-5.429269710512852,-4.470425395837851,-4.552309129966551,-4.703212909903889,-2.9884370891867382,-3.6582013234965403,-1.5738639061606094,-0.0403152089641932,0.34567502132141653,-0.0820509760918129,-0.16198736908824365,-0.28667842377676744,0.5717076745947159,2.0607197635382764,1.101778231342732,0.8506344220523383,2.219761417208456,2.489438180906807,6.442824367480385,10.183534104664677,10.928599506930347,13.090449253204334,13.504039717026458,8.60042056896767,2.0957197153256946,0.5758202044767847,0.8285834869453195,-0.12116267586425603,-1.147167304136386,-0.6558537873437023,-1.0049019380005775,-2.5656085444157255,-0.8626643339263778,-1.1786681161556836,-0.7185458428367517,-0.44275625908228444,-0.43594165511711674,-0.08678579536473847,-0.47030157905239955,-0.49269317448288275,0.2580407121368693,0.47283381342823605,0.5655623743357451,1.4132120075156898,2.9418596548199347,4.005610742148264,5.890175744058295,8.812677362692604,8.756756464417263,9.799613011069914,10.798396897299648,8.374972334089504,1.4432682430408503,2.479422972760867,6.680335732164059,5.41667498538843,5.760342800039829,2.8222393868219036,0.6674484122430188,0.5494532515793912,-0.056003806504201795,-0.35659629792095565,-0.6537304738212492,0.150829401333708,0.07277774762936425,0.10341591058674911,0.017750954816663892,0.292181816249371,0.22022102053604983,-0.40351686001674064,-0.1365836445830702,0.17430442455742617,2.0800645241477986,2.5998128920589343,0.7840506235311577,2.531980995695645,0.2127590398264994,-1.1026137854447455,0.21642676699061345,2.986696619960388,1.8232520542283088,1.8628323990930096,5.18640200167536,4.832554761443578,3.5471436172878317,-0.4401194675582861,-1.5861600449232296,0.009992587336739895,0.6949571356695599,0.3763957053704635,0.2571626899094176,0.1312644240438179,-0.45089446963015356,0.07014249949785582,-0.44216950223663865,0.16299311354098325,0.4099339662080026,0.30306506782505904,0.3033264650248578,-0.3823064903020731,-0.3715579375965996,0.39668305790113023,0.8721586600921543,0.41399756868095006,-0.7660184138926445,-1.0016821646340257,-0.5036967942696664,-0.2459160915273309,1.3042047865314148,1.177108968971558,1.3112200944965826,0.7132567166755142,0.10941587051585763,-0.5828911694545243,-2.099984215617012,-0.6118148318015769,0.046100817457913265,-0.14432328453081159,-0.2825158788384947,-0.23745311742481376,0.4409225551499606,-0.42435806702500756,-0.3001144124413101,0.03158190030840114,-0.11105260003033159,0.08406494630159454,0.2541111934182869,-0.07989748113219584,0.3581547292857077,0.39558929773869933,-0.15921667195093533,0.03348638364496649,-0.25428040585869577,0.37238998689207714,-0.41737227958491596,-0.2070257588775044,0.30656013922105146,0.15151470387200752,0.21865575184857203,-0.20138429975205913,-0.16829381225457793,0.2544156960135596,-0.19101928513496916,0.13713844731717278,-0.3274150888392443,-0.2759766065506064,-0.0024701857241486453,-0.34001816532853846,-0.462124222135306,-0.3293031597966194~,-0.14034487573159127,0.3017977832341154,0.19172638146305732,0.20699968856712414,0.43759370649210766,0.28741156515986416,0.22713116019043977,0.13759163415067827,0.47020422198575157,0.06626860661171387,0.2839929134904982,-0.37056943672219084,-0.41885131260440583,-0.18363140507805575,0.10232962629017388,-0.08836002123908872,-0.11862811908414829,0.07212089567378062,0.26659804821315053,-0.2267367271875475,-0.22038504115444946,0.36014936702975525,-0.068472049385552,0.3284444001159151,0.47675528318700994,-0.045471711351877254,-0.3872859061623189,-0.3241640330245798,-0.22078887631348743,0.3785327349892969,0.25773881728837716,-0.255239690257612,0.40820341360913864,0.4357478114258713,0.05491804081529964,-0.29162764583239426,-0.12493045145653658,0.4599092156146787,0.366416892019871,0.20285913236350667,0.35708046192835674,-0.4232317630921471,-0.2179740963510973,0.03016091572909305,0.5912077620118974,-0.2683443505571959,0.03573771071541433,-0.3282751933407365,0.34486129076717825,-0.1641465744284375,-0.03568889786378003,0.35372825517673684,-0.28786043040153636,0.382075112273836,0.41263314611583496,-0.4816987347760912,-0.10372678330227532,0.046863721424013134,0.1499247990819093,0.20427253552546498,-0.29074532251179785,-0.15892790477183796,0.12746623568326543,0.005614957645815684,-0.19079794766953587,-0.25280065683225394,-0.2802397999336032,0.5896247085730708,0.6575951804558422,0.5958060928816439,0.17297954023183043,0.40077586454718434,0.6319148622614842,0.3914663259152534,-0.4503016426843059,-0.7398729203133114,0.028819912404581375,0.4453409196743463,0.28229339368890477,0.08331846374391763,-0.1929735411574581,-0.16256501776750318,-0.014448636833104364,0.12596216446109856,-0.4225869593911907,0.2738519408912981,0.0015263181811653113,0.037521067232492204,-0.28853712398602727,-0.43092271737681115,0.2468078964905703,-0.20025215259085366,-0.08302130122524357,-0.45213377793692106,0.11236057385732992,0.21376940072606354,1.0203159204147354,0.7702704879263481,0.921439897364594,0.5171275952308806,0.8415317366616294,0.4788222464958816,0.44748640158197717,-0.47512590598405435,-0.6221948846004249,0.032128578610409464,-0.008078855804112618,-0.1162972308195873,0.07333472326002223,-0.13923607246742076,0.40939311987564986,-0.3249008416577354,-0.10629050456347165,0.2149524051961189,0.4051799494521807,0.06496346367335701,-0.0321737763106218,-0.21375550445082858,0.0010317750512248616,-1.1710292359683547,-1.05341215121138,-0.7978680464359168,-1.078189240925258,-0.8849665635542996,0.33425795010320575,0.8535992436528401,0.8611016240677054,1.7094549693993832,2.8412782744194303,3.1443777941114677,1.5761481324898012,-0.28395680981920296,-0.2721509054391383,-0.43385416333096755,-0.6375185910651022,0.1937348401617834,0.3033542165134884,0.2947061307729935,0.0611501586114323,-0.18438000978868965,0.08003356196377005,0.5033718438292746,0.06687374258032774,-0.11179791422670517,-0.3227118804754864,0.13886105977218738,-0.5901040238473602,-2.0719898466108786,-3.208542113119689,-3.0481273234224844,-0.40020720918282243,0.9539428599568609,2.9577857633419544,3.245455899896115,3.9275238790479015,3.652087888283037,4.329081295688706,5.029675944658826,5.064696969785222,1.5494914638579025,1.9260244482276412,-0.009474708504895618,0.21627013157437516,0.05788869710687445,0.0027710935892798893,0.1537691346487242,0.43141125681337394,0.3421311828093118,0.027332165092618002,0.4402116336673906,-0.4478278210924819,-0.43019880028989854,-0.7947077025086117,-1.1451663137490828,-2.5409822735949086,-3.7487229390330574,-3.282495216500678,-1.0359541081071943,-0.15049367409505385,1.0616256631338097,3.7182301257457953,5.193715573024862,6.612496033635393,4.532577916718775,3.812068704473595,4.840646002832606,4.064054617902963,4.906150564550815,4.556200999411989,2.4969491665007855,0.018641273772041562,-1.4622138707966696,-0.8451216096855907,-0.46591877782146457,0.44644686878153805,0.11027421519544545,0.31634351927031507,0.40434331557490627,-0.3069305150582983,-0.1731359685421151,-1.0849294034967982,-2.074794833195436,-1.8510499343794353,-2.9347154502493367,-1.5163811717486249,0.8016580992133845,1.4777289508729794,1.9930349978688042,4.6659684502827625,3.8076099746606027,5.503185445718482,5.46375407858108,5.382000991816833,2.9223878046538685,2.645358934973933,5.820795585429923,7.032885698473463,3.90366186900163,1.4791870162263894,-0.3360745088354647,-0.4409548196837848,-0.023678587920755154,-0.1685777879796943,-0.4178211970174876,0.09494874289727938,0.17280875161984655,0.13474263238059045,0.05532726046739042,-0.1365725871289868,-1.6636595623434667,-1.7002112296155167,-2.1250857031920964,-0.0011799895246816065,-2.209476179242273,-0.27002595654733097,1.4584145161167585,2.486990807725941,2.449350612861819,1.9847444668762635,3.5100832278821743,2.5637333670954474,3.11215116062783,1.2688217695906512,1.2491984774536715,4.754390925289659,3.9189048892705096,1.6355786168194797,-0.4242694004601627,0.3857511175933526,-0.032441304610314636,0.03167765924807291,0.2900191843767262,-0.23478141030461447,0.3005019823495489,0.09304519464540552,-0.8354975472879252,-0.26871329358611457,-1.1239054484337891,0.6979178708985513,-0.5900780273461254,-2.0488267458220646,-1.8706567849409133,-0.18173198318695502,2.64680632996939,-1.1358984908798877,0.5531609575886585,2.281738848475376,1.1433317802484382,0.8214382761592733,-0.3925701085785741,-1.458577707476321,0.003307605253275495,1.7695268643814575,2.869514255046372,2.52500556364301,0.9284986667945706,0.7539536002461766,0.7826812110614121,0.8194010302031215,0.35618211567784513,0.138951589337884,-0.5268601630331659,-0.7276969277249811,-0.4247339876210975,-0.8463656915468224,1.1370596571326894,1.6743031628799416,-0.2109710511038506,-0.9814924863169112,-1.0034345194433463,0.9009800046867595,-1.3888624461797359,-2.337083894070383,-0.11163153240970031,-0.8436757704597271,-2.8005655985655937,-3.5563095224582364,-3.745226486949387,-2.409546774835682,-1.2200354180925945,0.07046264472086092,1.9706092319592312,3.0045394266606036,2.2424628352463793,1.8082545143915534,-0.08468215286322538,-0.072191056341406,-0.2994258675374534,-0.1491018007970465,-0.386707019774965,-0.016536808313655463,-0.14250399047615558,-0.2499487884198282,1.3138916774242626,2.50734408419076,0.06315222059018448,-1.3695302917701293,-0.553863135609833,-0.5505233577285553,-1.913350510364953,-2.655980778159282,-1.5224038684543357,-2.1640151159290406,-5.471821240139918,-5.380603382096788,-5.056119720517279,-2.0417085337003695,-1.6116208645936982,-1.0309502003504614,1.6976834511387424,2.221370951936752,2.4442560719064295,1.7068770724191278,-0.26258443818968846,0.39650410767240096,-0.11777941614342224,-0.2199918712265544,0.00785492616157918,-0.12487761658426759,-0.022621773884183433,-0.4679748137735374,1.1711729345367972,2.478384825919019,-0.42517041802631605,-2.7820391823407866,-0.601666984147919,-3.3127671034492527,-4.689749765842389,-3.171953820838166,-2.9264474008948884,-3.1899973369430374,-6.580630418758928,-3.9041514252483664,-2.5492011967997,-2.891815803675463,-2.3995998551486695,-0.17612900844470986,1.661548010811969,3.2232654339135114,1.715198238359006,1.2957423460707929,-0.008255975564010283,0.20650308451910845,0.23401411847006987,0.3473646468555957,-0.022409742576343147,0.1646022272874619,0.5342248419795796,0.2143820659915709,1.3063168774659102,1.2879700551658373,-1.1017480005637992,-2.2851895572766043,-2.393302448022002,-4.102987092619539,-4.993425194392537,-0.3390582271774653,0.14699602545367477,-2.79048383247732,-3.296392290137833,-1.8918644372552296,-4.535308312559411,-4.398041015635586,-4.906282943210081,-1.4523474362284723,1.9653476074644578,3.08210852693757,1.2126565784373136,0.24067002512830274,-0.7953622137750136,-0.3111250964322338,0.23195396117825703,-0.4037308689284613,-0.46951782860334945,-0.009783904031326942,0.5818152437423096,-0.2570437429379169,0.5237826228324434,1.6030874685169398,-0.5398904273923304,-3.034373283900953,-4.052211044739782,-3.680531265632132,-1.7896488361797818,-1.495953134550303,0.3857385804758699,0.36242058298796204,-0.2041499886467905,-2.440311257400355,-5.49203655525818,-4.189599456049061,-4.747426968808345,-3.189447915131102,0.1275150776702398,-0.08717544117176747,0.14307122211890913,-0.23708535903630254,-0.5107268730819136,-0.17195738606834207,0.2045520396702251,0.02347753936739986,-0.23389594469878172,-0.48864799050502616,0.21935697910579924,-0.4067178317619228,0.19512489673049932,-0.07850567866809734,-0.9257427092552393,-1.5264185701702413,-1.4007522161470538,-1.5370911857842289,-2.1086625396147074,-1.9536481426330436,1.3463112946060913,0.2566459050568447,-1.2988043300903476,-4.5654751840889185,-2.7372036892158484,-1.182412541561589,-4.191140834201314,-4.4142506555860965,-3.227680635102205,-0.6025394231991461,0.2531243968600068,0.39362408837508817,-0.4886711560140807,-0.30735502049396657,0.2715084980554699,-0.3505891482367503,-0.04380713261333381,-0.3963490007958574,0.11622455623504187,0.5702951195045504,1.4125549007181493,-1.0952244207009654,-0.937786927729107,-1.0044617009306294,-0.7140344546554096,-0.33743740021286434,0.048605405649955205,0.33557390110345764,0.7419271641350158,0.13353146227464835,-2.95549341859545,-3.4949313922020138,-0.7002970410251625,1.7130112836951659,-0.7553978776999499,-2.7456958622288217,-3.0862292009966925,-1.4380696748118844,0.25377890995692304,1.3917100956633215,0.07901805723578083,0.27274997328510975,0.47088254972841126,-0.4768339819447667,-0.08399080269500908,-0.20153458295149118,0.49676142596885053,0.8250468600609943,2.852487458408694,0.07777748164178531,-2.0135946659296446,-1.7368555308230205,-1.4112033782521343,2.0934051785158796,1.0264538612644514,1.8852792286507642,0.9115806405516789,-3.112206815647649,-5.02904771089117,-1.480890298679416,2.2688206500130867,2.667172971563523,2.3989461043540814,-0.9625456112112772,-1.9226519394430341,-0.6527069913809025,0.5217157517608458,1.5909410860144866,0.7582272641503275,0.35648408037130125,0.25265385257669404,-0.013787485499194395,0.09885019789163038,-0.307112627945724,0.940698240526625,1.7000374863297059,2.68350680968687,2.0158700228769644,0.650766613932074,-1.5868998993970422,-1.8483434973152129,1.741185935974288,0.216084790797551,-0.5622997349704526,-1.0943490331875794,-3.4326368966363714,-2.847410724137824,1.5207836064413616,3.756165405062667,2.7089796676503712,3.9753724367061274,2.8901201787573814,0.05380154838561151,1.5416290301183742,1.9323749372765526,1.37539067790457,0.3393139177240874,-0.43349357357007967,-0.27866687891031894,-0.15379140792138124,0.18493815659826596,0.28144449053844134,0.3364869342912232,2.4589852045652814,3.0938357450074374,2.6894997011830175,3.711131080320608,2.440160792887324,1.0030616859804753,1.7938588236744903,-1.8596306725061458,0.28415674201218827,-1.7840296897927599,-3.367893343116253,1.1543885019481455,3.5522999596265694,3.1952370935587786,3.726845794412891,2.637030050129162,1.8906178405944456,0.06109055946991461,1.7599249504620589,2.279034491392861,0.5928763913169132,0.36343623562597704,-0.023325220517467014,0.36710233307704954,-0.013779635785977927,0.13726608497610032,-0.2380814847979827,0.321346750825203,1.899887445375615,3.712182931041187,4.240338571391168,5.728541832392752,5.197992553381999,3.0361678015294693,0.47508790206496865,-0.8948262447439566,-0.9187672302545135,-0.5197814841892502,-0.9203947482641256,2.6074385745113187,4.15860615260252,2.1390872388545463,2.4251664185125033,3.5110483017867993,1.2296405236116494,1.566567340897825,2.17638985560514,1.976707148787354,0.4028965066368888,-0.538386761480182,0.5014536600200734,-0.16916142042236032,-0.1717387278813562,0.5009114935105625,0.19733542119453018,0.48329204271458404,1.747619968873459,3.7209359375557445,5.351471839347552,7.5538563713875915,5.523708097277826,3.4250467123595834,1.3669970715591655,1.9973052093532484,1.2303525123482288,1.1708329008855707,0.6288646078962605,1.014257280314838,2.4227099687146905,2.4947588447185587,0.8647366823663255,1.007801209282981,0.23911445750329863,1.0829699677152123,1.5396617925950369,1.1917151887371413,0.3029229351579564,0.18435982898733894,-0.4037153347446559,0.3765315863248056,0.3776964854114034,0.18633570552281264,0.48022394489218434,0.5860192253744045,1.1995727519698882,3.4352153685818165,5.4372794929830155,4.154076776226158,1.9741206887087448,-0.41039859463014294,1.1218944953621248,2.4764094358395234,4.323455433513355,3.7504975823419064,2.036953185010651,2.08678884396177,1.7387501315511367,0.9310071742591302,1.1507501321358495,-0.7799750402078137,-0.09267040775639794,-0.3986575095674781,1.6838225600755365,1.3516865327783993,0.6706024918661316,0.19933164870864906,0.4249254907933235,-0.30789500776944384,0.27005317303963544,-0.42547062891364945,0.26994636441033665,0.06306053932806607,1.1489797962182933,1.1587652479145756,2.1164282752227397,1.3584583333326201,-0.14528083299156824,-1.1117340067074537,0.223747266986209,1.5891737556225876,5.264868437394212,7.543275999733858,3.3075149117096014,2.1875823940052435,1.9306513830023222,1.2206148277690538,2.1891098776401825,0.35124345335952123,-0.9763506101102621,0.14932159830550473,0.9754730411543094,1.589184590459417,-0.04508368916736172,0.27295424575347177,0.4770220968280957,0.3531129865622347,0.36987661014180667,-0.31327631481676427,-0.28578835082136894,0.2993038088614083,0.46529213080172005,0.3835501479867901,-0.10481025269022695,-1.0976456947114888,-0.9566535010011027,-1.4258085994725267,-2.119352290460854,0.5251179608475351,3.122417620458037,3.0166526364218766,3.096997744009257,0.6950138515424383,1.892976350504313,0.8008259939623071,2.68849541640006,0.865933266489715,0.455976221595296,1.9390908428609424,0.7103428075441987,1.5964118190025596,0.6418252187609872,0.28584661186448534,-0.27733699345011836,-0.17458131231861718,-0.05651134831264246,0.495070629203541,-0.1054826884289492,0.06930759710894607,-0.3204292416541446,-0.6810860295881658,-0.8817128273575928,-0.9976086225153438,-2.1327566131435276,-1.0833974502343615,-0.2020309998641909,0.24077115216307748,-0.38356245283756396,-1.3793256123110453,-1.4338928956532182,-1.1592029948018967,0.8170412054868341,0.884903636020114,2.195395869062921,1.5465761900759438,1.974118757922115,0.8334822991104616,0.8756118189462168,-0.08791316671710694,0.2303453748608094,-0.2539556444377075,-0.3666601154067721,0.28236513247998435,-0.2859467931520239,-0.172193927791355,0.4764159197061985,0.07217217750146117,-0.692380379449142,-0.3595657385351655,-0.16988292304378944,0.2717435819633821,0.23320512162097523,-0.3914690447965991,-0.4645104109780197,0.18843444846671045,0.06799334441774287,0.14439938249617723,-0.6289700025686603,-0.22963006367134675,1.7870800985264357,0.8080049701596536,1.536233323686802,1.1054434767882988,0.9738222018698058,0.9698943987754791,0.32870750237961494,-0.23612916237513842,0.3081306035188009,-0.0637549265535703,0.48987613712051997,0.35928213868194897,0.1795115846040254,-0.08162520140151615,0.4096365488849441,0.47268988405482776,0.45659412617393147,0.1751233827921731,-0.19379350282790486,-0.11038515735447547,-0.10120720955730561,-0.15827754029147045,-0.06692305065308649,-0.2525556740248323,0.48624645200613054,0.38101222275730134,-0.1735646405839973,0.04031698570784876,-0.43171548308660396,-0.1573312426322041,0.29818875439885206,0.3861577879427562,0.583814267565332,-0.3851787963047268,-0.2675558763707521,0.3807630293863253,0.401029797500099,-0.21966232719476286,0.09899340467073854,0.3763939592828833~,0.01565900990045769,-0.05517813532800172,0.3939805775862444,-0.08775754206610763,8.076086255825443e-05,-0.4166470556958989,-0.25464611258437486,-0.5156788242273415,-0.3527693447430281,0.15547681199746757,-0.18339712425403978,-0.007210859896335656,0.33662037515195975,0.37269730784358923,0.26811482896173244,-0.5379549422350282,-0.16481139963227207,0.190591515669937,0.362500821775375,0.15162921049704978,0.15467262099986515,0.29090658837206895,0.24432691553449185,0.3132881778642773,0.39225849509804844,0.045728603244095396,0.3239751954765804,0.14636219056074531,-0.5213239082627135,-0.40541379747702955,0.0027129839786745776,0.16064089868491674,-0.24350265317241196,-0.2264662379684861,-0.20190849724331258,-0.35597025566938634,-0.5777374819315834,-0.12054274723096911,0.3219764369582271,0.41285686548677125,-0.19537223690468053,-0.3868121848949609,-0.038436000627268645,-0.3197852602063182,-0.3119518931389745,0.4380301801273442,0.3491758595040184,-0.558103506704104,-0.226332857420023,0.29583112528479033,-0.540376506926523,-0.4341498158767624,-0.04739357562081114,-0.43971613178821767,-0.5652402453015334,0.09882079728627303,0.3965081787961382,-0.4906006234246114,-0.5546048018599306,-0.20819961038304077,-0.13932717916398665,0.35405017090273516,-0.07442948342152475,0.3499843587295536,0.039654466613872945,-0.10691924659237129,-0.2986270509281656,-0.054138493273064865,-0.2725878244875886,-0.22011050519319067,-0.2586643568743541,0.5780442956772596,0.7132610960873845,0.15247724025764164,0.4924371425857778,0.25312862524626817,-0.040101185815248755,0.29729743909961204,-0.00717941296126933,-0.07353436802127113,0.25738443109813997,-0.5324896783931805,-0.07221403426223831,-0.49703763607239393,0.19746115080720836,0.22693388234572084,0.36444414105134626,-0.20998759180853308,0.19940159596834164,-0.24334439047009102,-0.34517846139056463,-0.3184631301232687,-0.7943035412970327,0.1418079022829692,1.2116339591888141,2.995239717940416,4.725625862751386,5.34731177187194,7.003756504871901,5.075267221573956,2.377879879494319,0.5919453981604377,0.7793975248653011,-0.03834819737441141,1.0156791957010929,-0.12852528189563486,0.46240767299697033,0.33791179408360816,0.2688589232639179,0.29374073364917336,0.35804126649965434,-0.5288263622413518,0.0965289335563433,-0.3184013197592358,0.27370535422983133,-0.1582453164794255,-0.19331058782527982,0.5249952387856632,1.3701886274537605,0.4301854977406617,0.8515233607789209,2.790072552256042,7.439759833784477,8.455484131927388,7.213238228270928,5.394894825749002,5.3621294336125,6.382816969507859,2.080415765951967,2.2151440578084522,5.51859861017232,2.0258792967577772,-0.9353040841006887,-0.8346470778508086,-1.162770757524508,-2.169877630198167,-1.722249837593519,-0.11736197063224998,0.39454655395223753,0.02021384872337179,-0.08485473774351716,0.22150004020480493,0.062144459207008916,0.1173378329068089,0.5184676135710219,1.681019434365733,2.9610309417571283,2.657757649488505,2.7273422502556324,7.648853030716822,9.69689799074131,6.435390518756658,6.692459963896118,4.460363267007183,3.868811799792621,2.679707332236432,-3.48307218452075,-5.726438399878614,-3.266573468540557,-1.950228763215794,-2.358415751080357,-1.9897960614242718,-0.8899290397119994,-1.0110366235368777,-0.03928042329605566,-1.16876662106784,0.2491118192337219,0.34458101340958847,-0.2918388244601877,-0.17100353796862136,0.03606070614741221,-0.03955148010075949,1.097965106336349,0.8849563352163328,1.8936662910792943,2.5975953424064318,3.288939333902074,7.872837410172771,6.498679450330492,6.187474219887472,5.455679698498197,6.648727747097125,6.033796734459298,6.142069578841808,-1.6436094086633675,-5.484374985925609,-5.425639159287192,0.36957910428406326,-2.3959915093884026,-1.8671250352765607,-0.373006776730361,0.6276639998903737,-1.2138296659923955,-1.4336320715057929,-0.1436124677511186,-0.3950657450488012,0.10466280290266629,-0.5587523995337705,-0.4130702526159193,-0.2680012901549421,1.2838202043921045,-0.08398633870886164,0.7488002519815405,2.614742035186287,2.7553631360245934,3.009904914969847,3.826002148138267,2.4197743377761363,2.492866067485751,1.8880302038894945,1.8578487738917009,2.067196120304664,-3.209638060358622,-6.238540343632387,-6.30287580132324,-1.5639644937715087,0.4350360955637405,-2.263273890021054,-2.6303740910572357,-0.9208900552606644,-1.0994603815465007,0.3696341706388584,-0.4518271998601992,0.09214563939453844,-0.5633098895485307,0.007316524583516033,-0.6371760366048281,0.3244917633675988,-0.5204222330794355,-0.9787032149282404,-1.2145567058326543,-0.6955168955297255,-1.4297781360749289,-3.76698289957461,0.7519512016748963,1.4959282247928927,0.17568492134362015,-1.635468991180292,1.2304787358134996,2.7753478552310846,-2.517767852362977,-4.340755888341788,-4.975045966058047,-1.812816720217517,-2.064619160652404,-0.23420669988306658,-4.468359652411151,-4.431495443409196,-3.449409092987488,0.9216839950633312,0.7482454415162532,-0.570269077288009,0.08562355567052769,-0.5839048738698113,-0.3546041604781747,-0.4779293370786565,-1.2538065134159824,-2.0622089133356387,-3.3018423142689475,-3.317426014571448,-4.727159952570789,-0.5930921862628759,-0.34292189469278744,-4.993160511775045,-8.222385959631538,-8.129918266269653,1.5915389069126757,5.707280854564032,0.8368323913676007,-3.8962210939997592,-6.0118271982175955,-2.3596435138563336,-1.3960704916351299,-2.107815335027779,-5.2974569191548575,-7.584368370744487,-3.3869593530423514,1.4041925827292647,0.2981464621384467,-0.5763108558642097,-0.11404921714375853,-0.005262327101319013,0.33621598159169785,-0.45082487801549415,-1.561055605068017,-3.9374590797034252,-5.381833405604542,-5.9735881644826305,-6.83394901397231,-2.2243994797422104,-8.950113820762995,-17.952497892149015,-16.807406858617924,-6.821057655752648,2.30847643930416,2.380315948080752,0.37719140130717493,-5.2284408676598755,-5.3106155827866655,-2.8438692168972413,-3.906508564732179,-5.806125582232826,-7.697633391377984,-8.364146643676364,-0.8930515363323922,0.3643633117744565,0.12827130669204798,0.34639749037084855,0.08473119691093282,-0.2247005228223681,-0.16635705506940085,-0.6040822697708292,-2.666854112578422,-4.551718476677865,-7.071476542175037,-9.967206742795684,-11.80014409255951,-13.0777965435602,-19.423013939211014,-24.496141362437452,-17.12390946064056,-2.1524593184511702,6.103056925040697,5.311608771888132,-0.8071621243157001,-3.9194617066355333,2.109285456127445,1.2411938486760619,-3.1849321028457247,-6.903319034424264,-9.6015495957662,-8.128633831331594,-0.7309218492377346,0.6157038845780624,0.03341240289589362,-0.07098098553221265,0.11145446056375248,-0.5211565135185706,-0.02090664275001843,-0.6502002794417036,-2.09395089472978,-4.18768257116758,-8.671284951718755,-12.366409483284201,-15.224478537298097,-16.909603993806925,-25.0952895194905,-22.335837007523335,-9.138369105565735,3.148756828332313,6.820818020154936,3.8387416068947786,-2.793941522732783,-3.85919594929571,0.30956221401029166,-1.8065817331817369,-4.078432634403927,-6.843630277068567,-9.923508494663928,-7.90541050060828,-1.5297507577572644,0.49991335678076954,-0.03882072819928707,0.29666823589639324,-0.34777877060168794,-0.17351258881781698,0.2170411545746667,-0.2637704481223839,-2.0408109347494343,-3.968728191227928,-11.232817624524134,-12.457173028723648,-13.138731034150132,-14.786458354662487,-18.065407356278648,-14.339370206989884,-2.554709857725941,6.4206999136573115,9.511646109048415,5.226520664051932,0.5672161415494481,-1.5447700323979188,-0.4191955331210233,-1.2354667266771537,-2.911035431248029,-4.422940438630904,-5.175339833001972,-4.926032219338513,-2.252022597036061,-0.31376003609326525,0.8396870491770929,0.10718313595140118,-0.47865789783780366,-0.16512825418706947,-0.3566184091340559,-0.2995477686160373,-1.041636925013268,-4.808708259552092,-11.653726865749965,-12.013727005349109,-11.770103140845634,-13.477255705748124,-11.588769100449236,-4.125807164595762,0.3608017713124451,5.689634204305419,10.771062617807209,7.1772718074034465,4.27549896755601,1.4042836291447667,-2.614042851803021,-2.2424522231626787,-0.21960776207191604,-2.281794686257855,-3.7428601788201408,-3.2581928752822877,-2.8755669206238554,0.16928731240630304,0.5074077675365096,0.3032962753432581,0.1362728320086277,-0.3189088378998955,0.10775854140950687,-0.01876483408236837,0.2024091381869362,-3.4385090485468033,-9.438621002953484,-10.227804661098572,-7.59761351981518,-9.889273940116455,-8.82928988095379,-2.127666952232006,3.353419574456781,8.01180556152976,8.39588172908605,8.795822184658535,4.061446604415218,-2.962543567349197,-4.082916692851049,1.0572362854872877,-1.672102806509945,-4.248510115833342,-3.5281924853524993,-1.5036570337062611,-0.8911498938529748,1.9177779944253726,0.8732972691595122,-0.5457989664797558,0.1438366023369043,-0.1583804072069773,0.32526221204123523,1.2938701896371094,1.3949095859873069,0.6796158540774188,-3.0256394321585445,-2.6933038773823585,-3.423575900239408,-5.107296886147177,-1.2519768923475298,4.167354763815414,5.162665192388476,7.099682273248903,10.831313903533935,8.13665541359275,0.8678740288342666,-6.076671982931407,-7.890085618027708,-2.824926957247034,-2.043649108471907,-3.0882766354527744,-1.411115160992582,1.2216022674809612,1.1078429359395219,2.5716780989867187,0.22430020792677718,-0.27505173194623667,0.17603006807906638,0.4026392003386531,0.44732655307464664,1.723368878539756,2.8250755181781004,5.049704156785496,1.15493351914101,-2.8282391910224374,-4.771079317082982,-4.874557518245682,-2.234199560336319,0.3565022168387788,6.892967595143467,10.286951126467706,7.796048635911139,4.0147419587868844,3.1092691118732936,-8.345947367639997,-11.642734232549515,-0.6407714403432028,0.5006706102862348,3.145456167366486,1.9148057602148458,1.435610093085261,0.7988771716541196,1.66111689621988,-0.18603406682329177,-0.18966777586463712,0.269128651495554,0.16494835051019816,-0.43530007836601403,2.717954042501641,4.623617594142511,5.8409086280051055,0.039813794103181636,-2.259219412899707,-3.6902224862431905,-2.7768081546287977,-3.412952927169689,1.6793003617104731,6.602890721164658,6.548461539599386,3.330774028166107,6.6949796788787905,3.585538912942318,-5.420191685828128,-7.245579076189483,-2.6077529737911562,3.6478862270427346,5.328086903696137,2.509202964590447,3.5283861857157164,3.1277460467079563,2.1357734828082076,-0.46914448791188196,-0.5071433699092789,0.13631802290323988,0.266765664286306,0.3068198868364925,2.196271627737959,4.70548541143791,0.7787923875287197,-0.003351371574667935,-2.172205970389994,0.1792866504339495,-0.5125163578206223,-0.8964933775347586,3.4421619795937097,5.027874476475909,1.88539223140525,3.0995300133545816,5.492756384177775,4.159105984183373,-2.473611068434725,-7.0438395968879375,-0.9866981221040731,3.5227256320535916,3.910185954618323,3.0871166866026836,4.095632420051755,4.603933223788653,2.037813454754446,0.08172817815931203,-0.21636249334508414,0.3217009179019851,-0.03883267190359785,-0.04146443989195612,1.2506933761741243,4.193077840927085,0.052970633304986234,1.210512130603639,2.098550242682733,4.513427272040192,2.464950226867579,1.7929440281797973,1.4707828529310538,0.6075599199854321,-0.02765214552813371,-5.027811438230236,2.0985907957467322,2.3614289157474775,-5.405926572652847,-2.1874354056904193,2.264892829525463,6.826893300214698,2.5871077485594043,1.503158220064309,2.4839717686623537,2.6454359355675177,0.543837616262473,-0.16317933929712283,0.046024946726331055,-0.2769572642271423,-0.32488748991991795,0.09845285709057737,1.0206297717882244,4.1000953482607585,0.3241963011937624,0.9745467613261163,3.1511887771348412,2.194621480045231,1.8407379211217239,4.200346945591194,-0.2985622118816209,0.40482078269438576,-5.132373577622224,-7.6476204978032145,-4.563570266291022,-4.140333424180424,-2.6444099792604367,0.8130045273509583,3.107936769839913,2.484160785361358,2.1210794258774297,0.1183888723184576,1.401230667172585,1.0410859009344517,0.31121873710588827,-0.39034467076647483,-0.06892028095153156,0.25205072097639214,-0.1009727641472979,-0.14868172297549398,0.6809171555403378,3.463227157853861,0.25114986936041384,1.2132437485255472,1.2657478698154574,0.9219895429276678,1.3858329624482988,1.9298233405901974,-0.8914630310640824,-3.431640348970751,-8.948278265878207,-8.28045699604506,-6.241596549524458,-4.296676321341013,-3.942205805980817,-1.8266300842279766,-1.8947194396208782,-0.10101424337230773,1.1565538718080903,1.4514104883545926,1.2702154135828978,-0.4157608885700199,-0.09495404862567368,-0.477298966913681,0.19958886859766276,-0.5605333314457739,-0.5631444875010828,-0.22911980541566157,-0.24140518812440986,1.590045156561461,3.179706508247571,0.47140583231282535,-0.09208820710042101,2.8340476764011546,4.836600605218602,0.3586124404206591,-1.5738106744164921,-6.107800190170118,-7.972471118362105,-9.27889361076367,-7.491989186252868,-6.6935504082443815,-8.224985324051877,-4.891945301519105,-4.663444855598647,-1.4121013624689975,0.6068411118460215,1.0922424364470764,1.7182617091903647,1.3657430873068013,0.6546960387912389,-0.17990928909061935,-0.13051645703685036,-0.026302739617075858,-0.4587132495580072,0.32554681519020257,-0.38823264175623856,-0.05791287636952089,0.29975938011728903,-0.0038458170815764353,-0.3680412173876242,3.367345361569367,3.3154263121604393,4.8064887252041615,2.1661069495302545,-0.3127695458917469,-3.4483938668383125,-4.963163665819383,-4.558206791993647,-3.075083766971042,-5.479139478863575,-5.2522885594816175,-3.3619146990494366,-1.3104078247548783,-0.08849934514797048,0.8370284120007293,0.9205524128979197,-0.10402077035699324,-0.46959692143278753,-0.40875178271221035,0.25127656907484963,-0.40909968994423285,0.12484783747941035,0.2338292586944095,-0.35655655806472303,-0.46065279084301325,-0.5201202615512968,-0.058024816234224716,0.05674111331093152,3.042483223314306,4.1321051518805465,1.6422255737001825,-0.17181177950430856,-1.9498315304119276,-2.6966523048162845,-3.3262733566943883,-2.2109674167407403,-2.46848815591812,-1.4022284991149907,-1.7724085610492308,-2.40330890583609,-0.40859924624322563,-0.9770279605632968,0.1195702115616665,-0.016958295814651702,0.34637000745401225,0.08909648358386836,0.3932592674842659,-0.2757007532773855,0.11235549795187398,-0.1485221080185435,0.2685213357384004,-0.4367430517827333,0.273288319709495,0.2529065203591063,-0.8818342780633036,-0.08581854243580081,0.3075103553128265,-0.6618799939662868,-1.772457594136261,-1.1566599223505287,-0.18055266241068388,-0.8307042099217199,-0.8910505272415464,-1.059457811489743,-0.6382521317761357,-0.4999247949270353,-1.022291070295218,-0.7059783661020647,-0.6709144354769149,-0.6517969194390741,-0.2526596423406448,-0.20296649863579677,0.07255248478404085,-0.4612242944126249,-0.46972623485403797,0.01733442214941532,-0.3731366503095801,-0.17690175172166986,-0.4744053795782024,-0.40725882735826857,-0.4760936787549407,-0.0520220030915596,0.18238614389803567,0.20430825805950373,0.08079577678242184,-0.0005330227684132159,-0.29400106072689014,-0.054954618541775205,-0.4651174283152335,-0.2830975979748027,-0.02061429054254076,0.257866420342418,-0.0011955666773534118,-0.43124642806670344,-0.7210881589242614,0.16364966547435392,0.1410915830355066,0.3324291896049245,0.38403871704638737,-0.14340504770192572,-0.3514901138425265,-0.09039568011508882,-0.3569718870987393,0.07198548055526875~,0.17891963926285082,-0.06553010561228653,-0.31476570478550714,0.1503982754208581,-0.3678793767757971,-0.15972131452014054,-0.36656723771432087,-0.23094590625232936,-0.03814425990961592,-0.4388617066435192,0.3985131339643899,0.4437888548841268,0.1923139056882356,-0.2152766725719525,-0.3928695252077208,0.07322797745594478,-0.08905923178324635,-0.4290474477010511,0.1368470072790114,-0.05436216964514156,0.03490042335879214,0.37248890742129204,0.4034437233522744,-0.08322411914630704,-0.29808715746144243,0.45067792069136103,-0.3651962736663219,0.46214633376022396,0.5332789378365677,-0.1073561752966847,0.4909999742445106,-0.2797213825702112,-0.35613824673457417,0.3149662958044409,0.03640768488927719,0.022546314750501808,0.13741859218255376,-0.08930617186010167,0.5284694509849192,-0.09277750138981393,0.09621791664432322,-0.0791705308742555,0.3335313220606649,-0.04300757393097392,-0.3452568709532317,0.5408872399964602,0.09972991957168297,0.07774047025174388,0.4449509151160451,0.1775663398110583,-0.4069458020180501,-0.35106994110434203,-0.2705474604386987,0.31183402211317524,0.10594016227406189,0.3393083111739329,-0.2809826428075387,0.46201201361772604,-0.26376734720218487,0.4176348815378287,-0.02005287829272664,-0.39853503951296804,0.25177315172608494,0.08021341120178128,0.5336988845953314,-0.40382880022403483,0.13793301465551133,0.14402751573987918,0.3467720813423221,-0.2828934190727068,0.10342791635941315,-0.06803663325712747,0.08298260106298141,-0.30205456970516464,-0.5578614903931252,-0.12649040385011914,-0.37250791788967774,0.3354133418648844,-0.23286017067135628,0.17116165127074245,0.19759205999007773,0.09716257275124418,0.3923616799007943,0.18865681872780388,-0.16035654028975127,-0.08896572647501055,0.2605398312925379,-0.14890233064066788,0.09056243554542279,0.5662262979198182,-0.3669564546454491,0.353415196407739,0.17291134949397285,-0.05441056186648031,-0.506434491525249,-0.31465003118015894,-0.33485526610169486,-0.04440522378987022,0.2520063732660215,-0.2762995456139084,-0.3655497632764212,-0.492644571098036,0.6351443197072725,-0.008819969200015142,0.26212731681047313,-0.016279016600168877,0.5051933737714402,-0.431948695376631,0.2435883818537277,-0.40863870805091074,-0.40289098146319136,0.19764245280901843,-0.0036188812291688332,-0.027878670511495816,-0.28328747811897464,0.1507734935128223,-0.21380217698000642,-0.1309468637580982,0.5809182576874085,0.6713746994705915,1.547135216134271,2.1354456681474505,1.3003295026845412,1.4455282081456082,1.8438115190976643,2.5158443017550294,1.0250876997595246,0.42201665823288115,-0.16358737097341766,0.5977012471313193,0.2823659278302029,-0.3783731835558832,-0.3099090068628009,-0.6342627929118184,-0.6561108610025985,-1.0152337682438617,0.09379591389047646,-0.006824510186912524,0.5711834125535686,-0.039259315384103856,0.4293268952827203,0.3848872996336904,-0.3949740760007513,0.2654151216831957,0.1440586473531088,0.6703108598088545,0.1589140822376702,1.645715396863157,2.279857672223856,3.554392795354303,4.874981507745987,3.913815846807414,1.7054525289068585,1.3018162575705057,1.7723535672819488,-0.15419569515537573,-2.3410897756467386,-3.278574177985221,-1.8547272541651996,-0.601455505086148,-1.8803493878834932,-2.6825589461964863,-2.3227982675329133,-1.3976139794052211,0.2627481762356904,0.3348985415319601,-0.49135895102599914,-0.27275326559287805,0.13749295274384615,-0.26312381301359866,-0.3691967493923933,-0.37501676995528477,0.12626002748240744,-0.36579882854026363,0.8341159468526107,1.2953725572287853,1.665861916485092,2.8322981099453113,4.987707909156666,2.5350564799639,2.6797455075856154,1.2251754698761652,2.540686126635972,0.3878197635478415,-0.546817420380473,-1.7682193078542676,-0.5237918182186643,-1.1561878883624324,-0.6224540033406152,-2.7990503020099973,-1.6549296675186986,-1.4073234950657658,-0.7824429571832653,0.13499842830486053,-0.24533701106076816,-0.3145933902433057,-0.2820183666768208,0.2847626656479771,0.049963333086140115,-0.30164600468715447,0.05995246185779902,0.2375755191235733,0.9363886867052309,1.5042019565110079,1.5769873674757813,0.6033906887986578,0.46734618658811966,0.6494494400832054,1.1156196230423934,2.943990911683774,2.1987832225026462,2.351436475236159,3.374101882945183,2.2401703502447683,0.1982059572492079,0.27730862695807235,-1.3920378649492469,-2.618519810402231,-2.1790155282074477,-3.1451098925066203,-1.2408065422217829,0.04789914763228098,-0.018311615694511257,-0.13632765895016755,-0.23087010815394798,-0.16653290219479489,-0.2939067785410118,0.5094675123342169,0.6433468592142316,0.7486562451179691,1.345867365181715,2.0240944292630303,1.195814706733952,-0.9895746618335306,-0.10199314585111188,-0.6918173892534218,2.793581579997111,5.461994887294433,4.948112475993156,3.6752960924848304,6.1818662580130255,4.215389061310824,1.7254064432815188,0.6137787749033894,-1.2693827882392816,-3.754774151879451,-3.751680875350446,-3.144466180294445,-1.8899847464839363,-0.8762803747023413,0.024616240697434788,0.5066689339827016,-0.034938902290443476,-0.1252219568267597,-0.33210216815840393,0.5963014581003326,0.19645397714653728,0.2815161006743205,0.8700802569135042,0.36436102510828067,-0.05636465447955191,0.8751166954005711,-0.35206540810745146,1.3509581850159498,2.9054591175751376,5.876521783256919,6.497630164793494,7.739509344109555,8.4420117418891,4.53582586450204,1.8580743726836428,0.5599982937860013,-0.32125415326651013,-2.5845081923138995,-2.423221936982478,-1.6970463648691825,-1.6646260830450699,-1.2481759233996537,-0.2523590771590023,-0.1724517798356523,0.3371928850119766,-0.27313717224493883,-0.3734755778429887,0.06884064893252387,1.4287727033137136,1.3357398120586006,1.8444685079071366,1.0886579283280466,-0.3903954712343632,-0.7565393311146735,0.6489401004186887,-0.8163079703231448,0.5338634081702422,4.159325968562171,6.9532677473300595,6.030075224299799,6.944130727017282,5.280698426334271,2.9542575196875416,0.6192208205392304,0.10757210301227653,-0.9622438580181112,-0.1648340017776995,-0.9518611841453025,-0.4478071350533154,0.13525752091216142,0.2489962908272587,0.5394670084965079,0.1701158022905705,0.2424496005477476,-0.1731215432459849,-0.1346026460902825,1.359787414792498,1.4547732383441976,0.8145300924231554,1.3138955545393955,-0.5401692360243217,0.5071502280443456,1.0101649742798058,0.5114866204531817,-0.5817770022180819,4.1090742739492905,7.6340688981960545,7.6733687546342,6.850626161261638,4.229384828736919,3.6618395646338437,0.3977987468386093,0.6431824521972508,0.6659833562834105,0.34752424536895105,-0.09909391968829884,0.09951171057914793,0.20895900307972556,0.19900272782137488,0.04776888625523034,-0.09138229006067694,0.5014560858026331,0.12346984072335862,0.20159848165766076,0.6065152833278281,0.6166717848843543,0.30322359983867375,0.1659057175854764,-0.3427301903652952,0.030175749259135666,0.4252710533823993,-1.8815275310653126,-1.5597725119021946,1.8545998237518997,6.061949519019134,8.376391174094085,6.739215353237489,6.22712606669176,3.5263434690256275,1.5084626799050247,1.4519802442097978,1.0868503491005916,0.09462508474776621,0.3027516980347745,-0.0005475159352317963,0.5151492966447374,0.00877655885939247,-0.2014721379883389,-0.1985050661486858,-0.3839811624845133,0.04423279853865856,0.37028815536955123,0.7957227859726604,0.35383778097706403,-0.39468702845380105,-0.1618676233598214,-0.6352858564895487,-0.8366027085006869,-3.276787419449224,-3.9848628322948274,-2.832377824688014,1.9784926347552145,4.6705751447565955,4.217233345268357,6.522541156134806,5.647310438220851,3.358455417396062,1.5382507963930476,1.2640129841017131,1.7343446105561031,0.6418799540525911,0.3255580602621133,-0.3762876400463528,0.3923461529487253,0.4093360515073891,-0.11076953492584661,0.006227182239573023,0.473812646038155,0.573260370315899,-0.03159704277364076,0.025777168685616626,0.17027982702830574,0.4982816950236326,-0.4748620836039534,-1.3625669084392324,-4.793625274280145,-4.370296230113636,-5.671875953578061,-2.418198740982064,2.935698729029519,4.461080336237463,3.77768859373783,3.8376252851100987,2.4621543282857945,2.695222926675948,1.0755664450276978,0.23866622791127584,1.3654242614290997,1.3858500301502885,0.3673277948030589,0.0245021581605142,0.333354305146428,0.20284780681282846,-0.18076215615441665,0.4347053682175678,-0.1145841698669168,-0.25513108406948354,0.2485168499780485,-0.017784081008975827,0.007451171047974778,-0.8610215940734611,-0.6077515337633841,-0.2149485831759001,-1.2233841127749159,-1.8500131142344844,-1.082149606991275,1.8635594285720825,5.425826154025539,4.0897219628216535,2.0789641665400054,1.411032890879153,1.4773882570027208,2.7458832137835576,1.7308994990371036,0.1024577278073597,1.0563346112472003,1.0132479525035476,0.5161009307220404,-0.40897313707091076,-0.5637127572990179,-0.38769894591074405,-0.23893477185618542,0.23430728061260736,-0.4107999794389966,0.10701306847741762,0.45233764683362837,0.5698522846736102,-0.7763339414481853,-1.1837944948671326,-0.702359006344538,-2.264299596803595,-1.1655359467326012,0.6935017520275324,2.362314259994287,2.808549965340753,4.371357350799109,2.242954445934737,-1.0112582033209037,0.08630749981609048,-0.03524153284157129,2.533807535426402,2.2476516738968186,0.2321082478255232,-0.5113750584183749,-0.29818921576830426,0.44282875720980464,-0.21835547163288524,-0.2768050208515194,-0.3641026049602863,0.3046872610946604,-0.3849122730852299,0.3828194518393943,-0.40411045046776256,-0.18785076418203484,0.10216770954268284,-0.5465001140679419,-1.82656091748826,-1.6323095177651263,-1.1288217302335117,-0.937271670038411,-0.42275143065736365,1.2822119462894592,2.521249079895582,2.642717645427023,2.656290420144379,0.32574453097004097,-1.015373538813392,-1.2222179066061751,0.009419937977797844,2.4771298098434213,2.1056681571982505,-0.8661479111010094,-0.937768288522348,-0.46443657710290664,-0.3171210293224166,-0.29987004874250683,-0.055542038889027055,0.13388295765978891,0.05955324313149745,-0.24201295253792887,-0.40456933648077076,0.22632790975912784,0.5249083579063663,-1.0331375078780647,-1.5981166936451463,-1.4207935426514846,-0.5996708033801994,-0.4790667054712109,0.0897987752363911,0.06948603422638173,2.218487605589117,3.140719257906991,1.8593929629636,0.288713774323269,-1.7495909194847319,-1.2884915400938568,0.2252581615109882,2.8011252123401507,3.0375267965885127,0.15819232820246168,0.09826571624113932,-0.652393786562292,-0.2770813123565542,-0.32633601453420197,-0.1723508322384431,-0.16323705614836936,-0.3260160071565015,0.026533061592974343,-0.42651216379948875,0.4514461901194157,1.2292935221379977,-1.26538625149639,-1.8858976962538043,-2.8493525196856297,-1.6924446576610168,-0.40158557486092766,-0.8620666409830813,0.12756193222200357,0.7331890612254615,1.9892281347434464,0.9136013916355507,-0.7238149497941864,0.3886115435200618,1.6699268994557421,0.8046853942828095,2.1523266949773165,1.3976697164871534,-1.014395228540621,-0.9226521916685492,-0.8670731491211643,-0.34755894173708674,0.381509560412911,-0.04606680876963019,-0.12364883433626021,0.14926897202907796,0.22592015434162277,0.0392749304878722,0.7968538276853775,1.226249024281303,-1.1173284278105662,-2.346948563391316,-2.1343757981373135,0.012118069095966482,0.85270152712138,-0.12688629607382892,-1.1660890793402365,-1.1742623761183153,1.3934317136769578,1.8520340474290335,2.5060072238434454,2.628627616667924,2.6527756110626055,0.18217146834468842,1.123268837492931,-0.43856534802521707,-1.814942913341522,-0.6584088225753337,-0.9367103709217626,-0.6484629334076667,-0.285926418809026,0.15173836473081037,0.544020397825145,0.5385040160675297,0.16306036295591492,0.4886299350346521,-0.0788291335180099,0.5809039195262903,-0.6935708423875699,-1.3461598682513545,0.17308855148549548,1.0643954670324323,1.5688561409795734,1.3341855341613593,-0.7148798148408511,0.16814594585851259,4.772537356628872,6.785935168623831,5.510512804148746,4.391403378257294,2.2732884969081106,0.9812332204440862,-0.3320008434504157,-1.5279057575349009,-0.8987681935062909,-0.7239573895773398,-0.41196522538501473,-0.3830940357094576,0.5431000598608091,0.17688630943811434,0.4003268973997459,0.2538762110094652,-0.41283122156877794,0.5398130475129324,-0.1876898885167843,0.22405185317184895,0.38801065887279573,0.23719283034363423,2.0870544431325393,1.175150198323865,0.5185610910617783,1.0744760141612102,-0.19992712202176954,-0.4450600569407307,3.4997906984782645,4.886372742882511,3.286058968630184,3.793663882159965,1.4530809482491,-0.876358126488502,-2.499987095790678,-0.6932794091064343,-0.4843398445977168,-0.3119915521735032,-0.051367376165296845,-0.3362703174828627,0.4513318094794108,0.08771718965113023,0.11175479026123447,-0.38718362131134665,-0.11734698087855558,-0.4290522748977307,0.0018210649228730068,0.7703373650865593,0.5234169560714724,0.5413156158924574,0.642453115486788,-0.031675240576948566,1.5345085608173725,1.5587535520481879,0.5730860752088408,1.496312628356291,2.0253693041764946,1.9972103864124762,2.591944130905331,2.913243144307852,1.166264024887502,-0.7197282220584241,-1.500048573026872,-0.14869221150142617,0.5062166496003356,0.4641209903475672,-0.38490770301685995,0.18577280718665315,0.032361840118033475,0.5213302071826738,-0.21229441357391027,-0.008906689005878897,-0.2994980648228581,0.3544861182545737,0.1884546195438483,0.3941671331107472,0.8786617790043153,0.720501820533211,1.2675251821602331,0.430905483249567,-0.30146657352924366,-0.9944933670362243,-1.3792957936404715,-2.2068172612527226,-1.2162220791941232,-0.04845694963960078,1.6044570927510697,2.1572426316320383,2.4762996240648874,0.29080069149092785,-0.7534831282473813,0.7268638940382274,0.933999164167119,0.4982047191423139,0.15092426185294017,-0.29168081707497173,0.1649444600796115,-0.13013140391057182,0.16789430471275152,0.20483385892313538,-0.3489053953888974,0.2520884129907978,0.31489361945834154,0.4177789247992634,-0.14712519713027752,0.5859935692817603,1.0453502480087316,0.8750536794156932,-0.06671530422966694,-0.3509490383850192,1.6857318346721188,1.680874227460586,2.2615365510744443,1.8044408497898914,1.2750715304812499,1.7826527237515133,1.3570508165452182,1.3164922701572104,1.0691605158826916,1.1498552361206904,0.6143392598479829,0.2546942146102371,0.5604005191112899,-0.14276303657297945,0.3464394121858314,0.16871739811781683,-0.14392182493714528,-0.08328144565694726,-0.41294151295857084,-0.12398036604815908,-0.19371859105467631,0.02999788565718171,0.05504103520624742,-0.1792576400830303,0.4702889822642588,-0.061838493073802916,0.18305477630319747,0.541190353311445,0.6211462877419482,1.5690013613296696,1.155606256380325,0.8671108597550456,0.7822002741889795,0.3656875623869231,0.564635331675473,0.5171457557959515,0.37635193419724206,0.8466424242337064,1.1119326250295276,-0.2933515329599994,0.09475821688929156,-0.3779362039374672,-0.1293918518369827,0.051235264729520495,0.500037427984323,-0.2849261840690638,-0.321435573787497,0.08940146703448076,-0.3328288166118327,0.5071266375313217,-0.15460553176176517,0.5316841650134826,-0.2979877661156924,-0.1674555264253605,0.36538331875076896,0.15828262021134681,0.37963241545785054,0.39761936261305375,-0.35094565746769846,0.060932205016298514,0.36401043696410285,0.4883906695666754,-0.2665151908505609,-0.17013696013534485,0.06769253655889688,0.4622352973032427,-0.20972675754799397,0.21166413197832729,0.05644899769063733,0.4414018721997107,0.23205423728885194,0.5090028970224556,-0.34860980722964485~,0.25401716723075407,-0.23574974044233513,0.3568414707192846,-0.24700677707318622,0.18646451099483227,0.3320795019529642,0.2253329025877053,0.20940574722959934,0.0163490433559244,0.15300140306752483,0.4241661674125792,0.2110049211659583,0.5028226623044705,-0.08138063652532147,0.01282485968437547,0.300446495672235,-0.053702919239423996,-0.16792348172974172,-0.07556190561565986,-0.35966197629854835,-0.034341577991309276,0.07623044111949749,-0.33129847581868443,-0.40362313753314816,0.3386716802084426,0.20533652587849768,0.07286438687278,-0.3110261932605002,0.16035309527141076,-0.21540907860173727,0.0447438472529884,0.5224523636381773,0.4179371115261412,0.42551188650383953,0.020203186477807597,-0.20068313894997766,-0.11827831084321459,-0.19548194580249909,-0.08726332466003094,-0.025206858047798375,0.3069277937518089,0.0008062538541074903,0.014239555043740412,0.44259573564380883,-0.4234654863098267,-0.21608412775742583,0.02796763452291829,-0.23777919896162938,-0.19401234134404108,0.2848934532737307,0.18654818531314513,0.44286611693456535,-0.075905660646807,0.18506765700359026,-0.004269493829590631,0.5174445520263737,0.4882733705688247,0.4044763135841921,-0.00283446643950918,-0.21333938628366175,0.42856553283390797,-0.0838804328783571,0.2917672617533207,0.21576768312362585,0.5167503702672929,0.16331695648781078,-0.01458141335724476,0.21690571701169206,-0.4928743438758702,-0.6245717292841603,-0.3714351387647895,0.38559433236051477,-0.1197378347519977,-0.23649517529773365,-0.03563086407306924,-0.554308481935526,-0.15371867806324013,-0.5100404621144831,0.3349622946068646,0.05948316354856087,0.2527078660192894,-0.19461161818654224,0.42107592750633893,-0.0718195209874083,0.5206774102095737,0.5775250643072642,0.508812998819322,0.5676152967041326,-0.3178913487498226,0.5742879537515747,0.2718461709937839,-0.05007902694212495,-1.0751441300147264,-1.1829294590111092,-0.48788126762882456,0.24615107860947183,1.732176365202564,2.8562949460988705,1.5750827232793538,-1.6156951733357123,-2.2346532290557004,-2.1172888494279056,-3.789033419519519,-3.3487993494264616,-2.8084580763626508,-0.6681567347857484,-0.3487907908453839,0.38267334400655223,-0.21955038983428993,0.07200394760800659,0.21173625364632673,0.5784343019496998,0.5294657691020033,0.18317688273960894,-0.40290388892518325,-0.2751413792906088,0.46411803517414274,-0.2834444694580385,-2.5583498005040206,-4.281410611515541,-4.396935473588283,-4.730753779425832,0.0006840028957272594,4.979087343898877,4.833784604061976,5.7731663739419465,6.6518420319551055,7.984650859332811,0.12440585323925131,-2.9642778623986237,-1.8773358619692595,-4.5176400963635786,-6.681708509444712,-5.0086022440250115,-2.9307242942775726,-1.4356730690849422,-0.9660384646254943,-0.009276120669817403,-0.0992209836174996,0.3071685728135385,0.45272636569406255,-0.17859400633408942,0.4604682961215426,-0.15997374558122424,1.536686253934794,-1.5662695670411269,-5.601098058783513,-5.428024761323926,-5.37414575972602,-2.2103806686414056,3.81826516735927,3.272340425424223,2.6720187395561825,2.6932842117454623,-1.7406645480416592,-3.8362969921159342,-11.901001136341398,-11.184891495420297,-6.991001287041249,-6.296851291724425,-9.997832824630043,-6.7139995117859925,-2.9006676858087888,0.21919555972070395,1.610728712359829,1.1342344709550514,0.6127778675199353,0.2633656640972827,-0.15613604141818863,0.42364779261281993,0.1949597284037048,2.9308754489272104,3.8134365038085756,1.3180623031548895,-4.667161402249123,-6.202321146424105,-0.6646149027476463,0.4596809258572816,2.2142027312465005,0.44817189981110833,-0.3066516609954149,3.843924924741403,10.167365805805115,1.1709086736475205,-4.631673629146766,2.7383752074191134,7.958758504107686,0.2622473811746356,-3.674188649676923,-3.723572645078826,-1.975550698533168,3.6706023409680424,4.507781634496709,3.2279560433208347,1.1575005845028814,-0.3557713094562759,0.250650401853819,-0.25951073619305876,0.6099577140674517,3.335892563733456,4.5494192808196585,1.5451153552548846,-5.0681727439525535,-2.570585667297686,0.4029582838177396,2.1617282467864736,-1.5100917471336481,-6.59967149370036,3.8090853330706484,10.026709142503712,13.935996673423372,12.888934871435438,6.513084094791676,4.493594371604002,10.887818746702992,6.94915080724869,2.0435550409379935,3.1424789604780536,0.4215796008352078,3.3644340997927125,4.079262107587436,3.276068583840146,1.8951228820208312,0.5020305582023912,0.3704717356164088,-0.22956567519006552,0.3933884486948969,1.428393409143617,0.3997336242120708,0.3271709579551227,-1.4637043896838515,-6.16563983927221,-7.291084873655769,-4.288711484565994,-8.086813138970582,-1.800809913603861,4.720320456070219,10.393564709566736,14.757456747508028,10.054011371433491,6.195706692927474,4.928636890366981,1.389437826449989,1.0991369227714827,6.107215735462341,3.9159674536165654,-0.33197760595253,-0.8711265714681345,0.8125546559729399,1.7684810373327366,1.3902950254993205,-0.013455029326939254,0.17252413263667768,0.29337532228822893,-0.07813718810833922,-0.577675036401087,-1.1524380372928325,-1.7799797741597476,-1.6247195625103976,-4.9302856291876695,-4.074304031104216,-6.342578266392113,-5.8015751855708055,-5.597740863605345,-0.6589522366814512,12.543938532639048,18.60811560794504,13.653212393846026,6.551917446947231,9.16473212596183,-1.0600639669785332,-3.0747805960243104,4.1629328589455605,3.805502974564409,-0.31345470347787946,-3.9224978401179533,-2.4301424722941465,0.5418987417919069,0.9010535939767905,0.609799163075928,0.06489341396604763,0.3248088238933968,0.2893713982674333,0.34036874896595315,-0.0531671598144155,-1.3397685870410851,-3.043305148614056,-2.658771928602874,1.0061090388037561,-3.311116756419073,-8.00296688924924,-11.046365761640866,-3.5321386914196946,8.445459604194824,14.769591696726927,12.093050156108246,8.263465411959304,11.006543418580845,2.401352809926054,-2.4799028076758853,-0.4080008709949516,-0.4373155514033209,-4.039414658132127,-2.418230014144302,-1.619742021211257,-0.42123714118333727,-0.2916380484677303,-0.2515015205172849,0.16127723854151035,-0.21529124472153352,0.4843929731296929,1.6183072608504063,2.469420160884744,0.46184540316089606,-3.5319073589803365,-1.7065246989325344,-1.723086859548357,-6.181346122724191,-10.740719440735065,-9.138488981620906,-2.567924465482222,9.629313387308938,16.09509399564627,14.773667983325087,12.376623082516197,15.972995994671223,4.638653857017478,0.23008149918820237,-3.910651782536735,-3.373541244226828,-3.3426804161635957,-1.9565011527960943,-0.1031486817866289,-0.5130996484682508,-0.4203816738250595,0.19690568577557402,-0.2241190427169011,-0.3019340704876108,0.5839818633454744,3.110904350800182,2.818559114598642,1.8091059421823388,-3.1585593275217687,-2.907471410162118,-1.147570487922864,3.083617156569721,-0.4525262367300821,-6.933744499621363,-7.05478880362386,9.174338920568625,19.265415485025752,17.95556461583949,11.070302839506411,7.952318093510074,2.690859990204352,-0.9915613910867977,-4.464209400444713,-4.010551741908974,-3.1264750103063284,-0.7738289817349728,-0.8570648032146138,0.25650294535757256,-0.1352210813747237,0.18590000833732254,0.5390561473378677,-0.20903164419445688,1.1096307000198464,2.4085857488641196,1.353300967311962,1.583061614679231,-4.64787384524943,-7.061307607688367,2.1149551839637226,11.451276333204868,3.7576188489163727,-1.240112964006193,-7.898344301482496,2.4314420887053116,9.683720357998947,6.528622905806522,5.254071490484158,7.198158290320638,4.437003391492771,-3.4417582403313984,-7.582646909069664,-6.133173922526131,-7.212563008073242,-2.3014529025187174,-1.2645068944996716,-0.041834527312778536,-0.016662387423083312,0.2885385209660918,0.32691363763236303,0.6189347996748051,1.7617666260693683,0.8056498328763476,-0.6343146478845517,-3.264818529803563,-13.876319538984317,-9.71400298802198,5.545769508063052,10.214004916993462,2.1055024647976093,-4.509892548622015,-11.86788569831241,-5.203728382505344,-2.992634226625883,-1.0691247282494016,-5.731760468391304,3.583899240425406,5.189433904447103,-5.427596232707099,-6.503949101265733,-7.197802065583932,-8.811569530892239,-2.9781465032535546,-0.6473270529930402,-0.18082323486637458,-0.3339510534744455,-0.45937200282555346,-0.29443961849657607,0.5796943404803915,0.2209128781096579,0.36995440076458297,