#~,0.21784059481612056,-0.13410840376536576,-0.04901806747188202,-0.30113612770108406,0.4040762345601396,-0.2197346151850616,-0.4456914548689432,-0.20342477743912374,-0.21869361898521972,-0.24633224756456928,0.3353580557769115,0.45183145969576227,-0.2966017008016272,0.3456972823583301,0.167772599342653,-0.29235495050492655,-0.2427708975064306,0.020258971796028563,0.2929058458638077,-0.04673181486279969,0.04655999237590665,0.006539932302761407,0.16385786728383062,0.31648867125414076,0.29410707439924627,-0.4019259135088576,-0.27298050842878424,-0.15829904791842325,0.11662569002699878,0.0854273605033437,0.3186145838732691,0.20822173405210048,0.09422940959345659,-0.3636677307366746,-0.1746093248137784,0.19071267403322958,0.023509218312481026,-0.2848626884071205,0.10965876208078311,0.4193109451398335,0.18428833671582348,0.44928815493911267,0.2906937711369344,0.42768380071660744,-0.4739181944007809,-0.06279267529509429,0.3232325744310888,-0.014732741648649478,-0.1924542030335497,0.22123500648650543,0.6809275665669033,0.19831476681563076,0.14981320971620288,-0.43717334096211985,-0.222426524026535,-0.1944555215084089,0.2643927565986966,-0.014086138286951592,0.15654333043039992,-0.2920799868769065,-0.3697254429502248,0.19404151792051866,-0.2783104131816902,-0.13646778484190553,-0.5693474976296536,-0.6811343055127967,-0.03497904855441421,-0.11788094718693304,-0.22732403676899612,0.3019443455204177,-0.7324106839479411,0.8071578683401379,0.35483480139060036,0.41092177378957045,0.06225641550425982,1.154000871751819,0.5972388478437294,0.02603868726931116,0.16347338690228042,-0.16800382506468145,-0.14461770599596163,-0.39478315145898923,0.3731050969029061,-0.23118538259851035,0.3298664475128617,0.10932773113530796,-0.2946738120135814,0.25218409439419853,0.44756078112716,0.1107371482515343,0.49499108222130594,-0.26886492168911363,-0.07709507355117962,-0.22676890670920935,-0.8280921326155664,-0.44005637682614973,-0.12928952279202283,-0.25829470370678903,-0.6410179888653327,0.16953581296845016,-0.0929743408196911,0.05834535897356885,0.2222137113376947,0.20857884593383347,-0.25672336620297637,-0.006331883251825128,0.4218323660908766,0.8151253824467769,-0.0009770895417544427,-0.40192351411987465,-0.37764996383759564,-0.4306779105205552,-0.05500447990241937,-0.1650453515221021,0.2652087223147616,0.2765781868200369,-0.03662821726695825,0.1905655605724724,0.4479049192686172,0.6619709735727667,-0.023402924114182263,-0.5235674876395583,-0.8899597553717944,-1.0442297487611667,-0.5580465338993951,-0.24645144305632966,-0.8335965706533126,-0.1670964473430624,-0.1939131746697002,-0.21761134375329685,-0.287491408855473,-0.24909116847410992,0.6918779350070098,0.30625974792357996,0.6568688016273506,1.0202809851379553,-0.5666348389131909,0.16209130745180703,-0.3944720177676524,0.2270977812242896,0.04014260435967776,-0.0766220356654947,-0.1957939097005523,0.49539400269273315,-0.05116017428446717,0.1693171727353773,0.31747320937924084,0.3780858486167178,-0.23472738756921527,-1.3916494282018381,-0.4847070915439091,-0.5295886757003615,0.20381916547446804,0.3146930246044791,0.1020625274366121,0.267385270239979,-0.43064436320021626,-0.15990100807718735,-0.13598960629041257,-0.2312679804674599,-0.11579820150641626,-0.4750084385937755,-0.4009084962070837,0.8865805248587579,-0.11268085349302208,-0.18194284980901645,0.03391815454191231,0.02103072321087298,0.09010099715556379,0.48728818411885766,-0.5049917496958797,-0.23041447207377985,-0.2726342131382304,0.19475284400404044,0.1030007240286854,0.027674389928786385,-0.7998844714047638,-1.994985348149709,0.5183083189526018,-0.5175836258141688,-0.01076475223372606,-0.3249021800422089,-0.14772037970695875,-0.43944779589559624,-0.859541730356257,-0.3231472414198163,0.05090368942190722,0.17264827885723244,0.30135807432270634,0.05849990696485345,0.17708000243895264,0.37918760348239033,0.3604340973235685,-0.29577093547151395,0.2195914733095543,-0.15304221095609113,0.2567326954213808,-0.44838096146970996,-0.3765954938817777,-0.5137435641485694,0.32282473042740123,-0.0331501635338413,0.018632918937703618,-0.2662116239108921,-0.5555990995006328,-1.2540317831514283,-0.39390488116511235,0.021188088051034653,0.9267381303078884,-0.30893817731145934,0.37911852664818463,0.11611570468344908,0.23628260695476194,0.5821149224871301,-0.2486266568009596,0.2092831667328158,-0.3537610121496246,0.8969535106984936,-0.8760839949276383,0.35143046349945967,0.649884817987527,0.5031328017735536,0.6320128767859963,-0.12621961562408862,0.09808779920945407,0.4092203638585215,0.3185444768520832,0.4426375360147903,0.00016706016094178983,-0.6420882264691737,-0.6539499926513529,-0.7666150714721417,-0.40112887989991386,-0.14353780379693085,-0.3903912094431976,-1.0420421988206268,0.38009444663802877,0.6251841192550789,0.5287087557086664,-0.8358607823747924,-0.560523924844803,0.13308285805737546,0.3280015013489751,-0.1149505636711647,-0.40458208263699647,0.21958486090269916,0.07948721400075899,0.1069858919314398,0.6971943994637342,0.45552190216004207,-0.24716647469656122,0.4107272396325871,-0.2452974821470909,0.3200532860059129,-0.13408539846745413,0.027316382435232437,0.10731576486189238,-0.5549278529394421,-0.27969336577276366,-1.0492822021950958,-0.7071677774701901,0.01716947999693144,0.466830651474724,0.19017799282349002,-0.29247373645174857,0.7996846667311505,0.2002293153183729,0.042550113408611916,0.42322178425065166,-0.47183441779246205,0.28889171589437385,-0.5684280736359612,0.07967939775237272,0.6481364528977059,-0.25499406355191423,-0.38487289260401003,0.6370873350079593,0.10977352476257864,0.11918778953067434,0.03802102695239384,-0.22446080261028775,0.4898811388853237,-0.3272785569410215,-0.11987512901690035,-0.3077062598643552,-0.01411225993214674,-0.687126028341525,0.2528708428052167,-0.27402727441830704,-1.314915737310574,-0.016804937370379486,-0.12317651007228939,0.3554509880943167,0.5723084411011775,1.5416503483632014,0.5315193407003955,-0.38788699739715776,0.037064931077958635,-0.31459512244450444,0.09837194871132396,0.22186967552450423,0.3420783042411137,0.0351637895307897,0.4141472628340441,1.2753391801425171,0.2826446250875663,0.056266331848231856,0.21140156304348978,0.19282428758603246,0.2527597127079276,-0.18252021565519608,0.20254674756935734,0.30545519350883293,-0.10916533916374575,-0.6380394759783747,-0.12931004028637688,-1.0751069742546355,0.029935308013433432,-0.16652447895982822,0.07796144852859808,0.18299509652040538,-0.5454526693909638,0.09392796161177519,-0.4611744578434876,0.5218037704275947,-0.5083184143762095,0.4418921568965516,-0.3044177398269315,-0.09688788356961685,0.17751824141371392,0.3073948136303936,-0.5730695077676142,0.5529120837812583,0.5664373133979395,0.08449812729690036,-0.13684416892731927,0.22245246491480034,0.4157399607888161,0.3726046055663198,0.38364292299866404,-0.1121969799488003,-0.7167809695767252,0.1654537376580018,-0.329179363174011,-0.44016595037617007,-0.7435649731350781,0.207293418734329,0.03392642201877948,0.6492332228061714,0.7605513536583864,0.018788783039863057,0.6438335550171502,-0.3763392126364873,0.004548713302891126,-0.278613430995042,-0.6158763424981244,0.15777363783309467,0.2938000134196612,-0.3909852815365328,-0.5306882977841733,-0.8439766974358665,-0.5643193386653649,-0.6900935623381269,-0.213567172409746,-0.18266844872857774,-0.34147240162175624,-0.2881350444921556,-0.25375119237935356,0.12543513375029455,-0.7474425499736812,0.05204075919956356,0.02805067828849301,0.2677925553476734,0.4751342553770879,0.21132736262704843,-0.41982588477187,0.6752432128094744,-0.8261503030379791,0.1351171716701108,0.06587071869314626,0.24967943983996851,0.7270464800423454,-0.31214047372781345,0.33916635204967455,-0.8729960164483758,-0.7516771011419607,-0.4051675507678199,-1.799649151219016,-0.7985569441758068,-1.3286085000526786,-0.24221469148742816,0.3712906122917671,-0.13005171535920224,-0.1685982540798762,-0.45145875041593797,0.2041547822009638,-0.4019637634918726,0.20250054788326377,-0.23001876248092454,-0.013218266432741512,-0.4335593480008898,0.278612461034454,-0.10215832458999534,-0.5344292622891469,0.08105560022405513,0.4395060722475506,0.6558636579051502,-0.009778303633196811,-0.3246859978469697,-0.6295707566528669,-0.904065433656306,-0.11286748984590769,1.258779558142446,0.34826364742633104,0.02312173293440432,-1.3677025013803688,-0.8142500173886388,-0.011523173736474499,0.11048749724108298,-0.474071339367234,0.49469988732789005,0.10783590544007826,0.06126057324231309,-0.31408304702838324,-0.816981935579365,0.09641563365459044,-0.4293051290641445,0.2869316207465739,0.23902563019443612,0.04748479237955318,0.16573466245513346,-0.23309791465954308,0.36981395667923717,-0.4126894604594599,0.16802537959714364,-0.3900805283843215,-0.5673070588053646,0.6406416259649818,-0.016307705728734485,-0.09977778643134784,-0.17924428922203928,-0.004720106052348482,-0.27871765824896577,-1.5668934632603946,-0.8861615880993495,-0.24259493880814476,-0.8495529064670494,0.25782312975408717,0.27421349583353455,0.2646428709663814,0.02492491391003804,-0.3592578461382927,0.3874624888314113,-0.18127472237018152,0.029906960554538498,-0.7041684343966231,-0.5206647766923643,-0.5001312764362654,-0.33810480212529487,-0.15840805043130973,0.4093365661429113,0.05809274698092631,0.6004377112615004,-0.13688406761858557,0.027152772722544776,-0.6489298886920332,-0.20882050581949216,-0.051290918058741294,-0.37613945408371574,-0.8140573199941191,0.19776837619721177,-0.8180930407031525,-1.2011688235324292,-0.6881500938723343,-0.15869338421014523,-0.24030600890785914,0.008644697356320057,0.3023533045110341,-0.13299821068270792,-0.11050453406324495,-0.031693271915644305,0.26343985080346616,-0.12814438070641548,0.11393729039169787,-0.5849029773801653,0.07212272040259247,0.924495902170588,-0.4263273375691403,-0.16380665578343953,-0.2425210019402833,0.9743165964442768,-0.5658703367217628,-0.49022351456101215,-0.14119512038653292,0.6641757795768181,-0.3372153258168759,0.679353231907949,-0.3134233867207085,-0.4946662545880773,0.06463152758400731,-0.8550583415452642,-0.8496669226766002,-0.08502720361170128,-0.25956135014018217,0.3996896462508708,-0.33896489684503744,-0.06362230235811882,-1.119480179091916,0.09752772128563932,-0.7127004570102135,-0.037691839900916735,0.26339824158096975,0.8785990958779986,-0.0017673799948475556,-0.23551172536077747,0.154039705927219,-0.1683746946450609,-0.19096513556087322,0.618342916824204,0.4331449617787908,-0.28029095800343284,0.5482059913669877,-0.1786596322889561,-0.2814893281951831,-0.44537207512103183,-0.03028878265366893,-1.216805776350418,-0.8831223348149169,-0.3074298318226722,-0.12811917414650476,-0.0425474196921475,0.19830907149253796,0.28575536460877643,-0.5083426795349832,-0.34070282489420284,-0.1716382422838792,-0.7550978027177185,0.2767970675574005,-0.5977991116123204,0.40850550326443236,-0.5541878568943561,-0.18278576897779344,0.3068082890778133,0.9329089626948807,0.21045018592423487,-0.2730087845139251,-0.15502874764155206,-0.7940902949822469,0.21005679668200097,-0.5207251234038467,-0.10744779437261773,0.2584586398116692,-0.934106747313073,-0.06930050724985345,-1.4115940378931922,-1.1644794680529613,0.019170137647560953,-0.326266545884984,0.2950233983392981,0.29525408669774256,-0.32220188607107564,-0.14876683841630822,-0.5010617046834307,-0.33755800451003537,-0.6573814173797067,0.0650968822144398,0.0482156036568071,-0.5301778348487204,0.18890848187338316,0.8148918148089438,-0.2885060136028784,-0.011891606204432312,0.10961788026762799,-0.28390992100224927,0.6756932330747123,0.12341823745977873,-0.09154199808610093,0.2848879408866909,0.04537712790441145,0.04618370486432343,-0.45637052015902746,0.14557092971269533,-0.9876847991229617,-0.9931194695363273,-0.005948951496059261,0.07527074992732974,0.3491057121361992,-0.011777250277940517,-0.23458853180886788,0.2876409783894894,-0.08788496601333824,-0.27593039952387116,-0.15327841388031996,-0.9357267049950238,0.3710211668106751,0.47133575487756185,-0.10727993979169274,-0.10054597799892619,0.19490916273434156,0.6490702869234019,-0.034153633042646604,0.016353060993939125,-0.7322034197748387,-0.24558537791610202,-0.456494637364423,-0.5630265565098885,0.5756300913872137,-0.3362230380140836,-0.460926679000177,-0.1495871433515362,-0.06984501101313965,-0.2998761991068775,-0.07980645669741726,-0.050402945944863484,0.3525044734855016,-0.317271914289866,-0.1797519710389549,0.31136160454567263,-0.2554394778487013,-0.09791168358020559,0.08490744213659879,-0.4284557616434674,-0.21329560034435582,-0.34938680552133,-0.04727317673483566,0.23438996333558487,-0.0776241179826952,-1.2030774449544206,0.631774652564939,-0.2247456456945501,0.4894256954577688,-0.10665441191025975,-0.0681442397221366,-0.6154101754488066,-0.5522857609805334,-0.338380891802791,-0.5559048445491529,0.1326535285115291,0.1007250149419006,0.19063080228696697,-0.2920350839381983,-0.07632140810078548,-0.10484879515570751,0.1632626862526919,0.11467573529191481,-0.16645924654588856,0.052427444946238605,-0.5464938029918659,-0.5837934181832559,0.40350772995383744,0.7773854644792271,0.0036181714887659287,0.5786541256379757,0.027192324830777548,0.2972608623259031,0.29625017037902157,-0.09132760234130846,-0.30682374520321054,0.06311810011414458,0.014657984124385005,0.015358468813691328,0.9981513564662194,-0.42191088379571484,-1.0256702024516535,-0.1410239167134603,-0.5676266546905255,-0.08463677924677603,0.42251702609720676,-0.12301379767526133,0.2011817901154882,0.5009110311363435,-0.04981815007414385,0.3666757093799023,0.0029568293769771463,0.16579656538116894,-0.099952475107466,-0.33607613748380616,0.5048966346913821,-0.17443397976609734,-0.222420060959969,-0.572003447350272,0.41070531189918885,-0.16509814940081793,-0.5337180291110751,0.21051414754361866,-0.3279278841470145,-0.6179596789076178,-0.29661092962465635,-0.1785564974039883,0.20948883678921032,-0.4055204286378543,0.07253096184760276,-0.04049189237916962,0.24812264313113724,0.055180166743981046,0.46384662010266947,0.033708692419147396,-0.04080493322274328,-0.4855649261463968,0.27099831304814975,0.492152306422963,-0.1836587307889282,0.4525698356348007,-0.3961121714250357,-0.39437111046002526,-0.09060983638636246,-0.6704694042079555,-0.07087325787165633,-0.5671868051300962,-0.32899495625508807,0.24548931461147766,0.2122578786478782,0.04201925282270377,0.08166399412557676,0.3892989536985436,-0.4648602991880168,-0.027569595441726782,-0.0291692549452294,-0.2565533605019934,0.09530145069149255,-0.3190254104505729,0.11325357065861988,-0.28411735537816457,-0.27404551367999364,-0.020309619817611604,0.48377621518317626,0.40323010718404423,-0.1987934014473673,0.0954336043794533,-0.2319923505172134,0.31309736360684354,0.2881004562586204,-0.43300951248146785,0.8008832332195798,0.056390260556789064,-0.4147392700444608,-0.2542114948696903,-0.5966795480020354,-0.7954203778581193,-0.05633361794810279,0.3976320857717754,-0.2831359270788418,0.5976731875141225,0.6864386522873378,0.5538011569648867,-0.38021614468349196,-0.33162246822411634,0.24738071345563414,-0.07973737175979619,-0.2175444199038842,0.22206083028562076,0.4649063428976977,-0.1221172695716857,0.40356520857107486,-0.4125739467174357,0.16426856701705378,-0.16284088510853184,-0.45170508440527685,0.25747502059370203,0.0010445056789683918,0.0216194706567106,-0.06550617043873355,0.3801355284304086,-0.40681615455794984,0.2882378733968809,-0.23497644827573103,-0.2771256022132267,-0.20915941999623378,-0.12423106250900447,-0.4078327883144956,0.08371434116347569,0.2888410024425354,0.2836301625554937,0.36652821876732383,-0.05616639693791683,0.4640144273789426,-0.3328610650942559,0.4208104082761244,-0.1593088525326386,-0.3974602895365996,-0.29779487548684574,0.47044745470936417,0.00378507972490833,-0.16707799341531043~,-0.45293376215850695,-0.47592545206331943,-0.3272116362568321,0.4194016218695888,-0.14651103161170795,-0.33651971959042387,0.3889344672035248,0.41746924133458624,-0.4787906948343567,0.29530954324997444,-0.05379029568505972,-0.2660335211433435,0.1574830177206952,-0.046566492328997726,0.11599131485026198,-0.3561849179520418,0.24719951727582415,-0.2940720915776565,-0.34505491419194595,-0.26896126174750207,0.2829988694008609,0.44696725166379686,-0.415883816615697,-0.1036671404840126,0.009998224183668079,-0.3446827584190652,-0.30905855512663843,-0.3558987047960918,-0.10417391149817257,-0.05910554986091393,0.29209064692559467,0.16670121275300323,-0.11419531271363267,0.32799417680641646,-0.46595282897378315,-0.07448747119081976,0.09501785798188139,-0.020193272611625367,0.382957529324441,-0.06869417957634284,0.1785437302549962,-0.278159152968471,-0.06938975830202095,0.5173298580118525,-0.24007052197652232,0.1862764480417574,0.4171391692498637,-0.13097404093936912,0.22299693459380643,0.003371320021262189,0.2139907908334974,0.32200156673745717,-0.0560130867739666,0.17616113235177258,-0.3065808580473562,-0.17891234976909118,-0.3660250483028226,0.09579447339955294,-0.09273023744500361,-0.07819769504764154,-0.31680012442519234,0.17510765088914523,0.1406419734700952,-0.0335560633837174,0.2016999787703394,0.5722238797965982,0.30312512645933326,-0.3227421857087804,0.655040876864075,0.40657155532347244,0.6221267859585453,0.6128889552789233,0.08014026557588455,0.3127013653641394,0.21299722547340336,0.12007624156762889,0.05193932766517028,0.319707861742547,-0.029059980298273422,0.27461479710218384,-0.13860312069142486,-0.031301946788890846,0.23859656298241752,-0.47994891133883727,-0.013486342765207505,-0.345503932771343,0.1445027510074562,0.1577864415014427,0.2291110095354766,0.015183925929712435,-0.20414024680721468,0.5130250951992388,-0.1203471866341092,0.48976981678793907,1.0399003025460456,1.101032022088523,1.0229706675632337,0.2967295766817494,0.7049440381705596,-0.08543784884222975,-0.7755624978884496,-0.17992213473534127,0.2085545256985143,1.4507907169148284,0.9275308051337259,0.3155290626799185,-0.2818082021411243,0.30871825722833657,0.2693806473951569,0.3460402231154101,0.23231618852242727,-0.07548761048534414,0.2580950713302796,0.1932357610085432,0.23946603112521794,0.11108792544150943,0.3673894343885316,0.04557678210859833,0.736080278709005,0.5414778418519751,0.36483805641443856,-0.016546461271790915,0.6080211996128573,0.2072090991595359,0.3067258068427285,-0.374997406345323,0.2753403621493004,-0.2513329501681678,0.5503406268114639,-0.21906559854880223,-0.37197123806954346,-0.018950557287048166,0.05890147855976451,0.24393744582326538,-0.2722533119007109,-0.37522629094464377,0.20779174391463484,0.5771296235528531,0.2900897767731081,-0.10496656116683924,0.39353199240562015,-0.2778931497320098,0.2490285022997405,0.08473627273929515,0.3215783846038648,0.28414663691176445,0.8075077013777247,0.554209014492776,-0.46823380921490354,0.1832596472356279,-0.1769934958060472,-0.5277520696900049,0.3135732456856094,-0.13711295798948078,0.05049566724700838,-0.21816126945101166,-0.8399384142017998,0.19510000743572103,-0.16449020598931366,-0.4960969818046931,0.27534923822472185,0.5490241482283789,0.1951924223899446,0.23040876381415698,0.5727510726199857,0.6082129862307438,-0.04040862137673267,-0.07013389213938927,-0.2641860613270995,-0.07256108290860568,-0.34189326380795254,-0.3103173182269375,-0.16127669414820997,0.5889505114617484,0.5391662681381867,-0.7907797787257852,-0.3148630980066486,0.8829745112097279,-0.5357983895910283,0.23949853431991017,0.027436303552052146,0.01562525933351599,0.2348952318410634,-0.7258091239324075,0.668877689500816,-0.22228606398790426,-0.5093083829396521,-0.2269533077615626,0.30455348098928464,-0.5647255333543264,-0.8394720444393934,-0.15720782131668554,0.893547314295071,0.21772984447182692,0.3930218012544703,0.4855964557913702,-0.02328635331652042,0.3297622573267537,-0.45554223196562377,-0.371156640448269,-0.1079751597024514,0.345045489382571,0.20521442054024086,-0.39055204953875583,1.122041308242257,0.4860144024805466,-0.3119760208423164,-0.23821950931975444,0.15050203935841086,-0.5980538342822741,-0.027914788120767402,-0.317913852983466,0.619445622684002,-1.1959033372958638,-0.8475853029493012,-0.4366684701992552,-0.42547994539009504,-0.46983184873644085,0.44459991809443034,0.40025622480921125,0.8286690888526526,0.2752945729330584,0.870702703233662,0.3371760936542198,-0.3854445359725267,-0.04250625562418919,0.4795291401440251,-0.013462735820396778,0.2662277362726654,0.23154963281868618,-0.8388054771717757,0.16394378685064975,0.5464351148657808,-0.2448818925362191,0.08625765962704188,-0.08548123992713326,0.07556345821191676,-0.05375595859737185,0.01627135904501503,-0.10450112713573852,-1.02036624212657,-0.48509060411215543,-0.6957971974272759,0.6002965696796673,-0.18399597538474882,0.07764419745837763,0.19768541725304656,-0.16142359776338638,0.4373345663834624,0.7764927962662935,-0.03843695952654565,-0.11682748555506492,-0.399689606035531,0.2722030974995763,-0.4243915619047159,0.4093299421503236,0.3209544972289504,0.3800537866393176,-0.2727983552631635,-0.06885024138309742,0.5833280504743847,-0.32822274010283453,0.13151865705043433,0.5498645743627831,0.42375829015435235,-0.1497794635695248,0.5390260129742671,-0.3818985109944171,-0.21041232017225375,-0.09450896928314498,-0.869851121362523,-1.0979936451126213,-0.12211266349198859,0.13411327107004717,-0.6562084480331202,-0.747620623177775,0.4328112093162783,1.206580434629162,0.2644201656967211,0.14467241714595322,-0.20818885195939635,0.2232027579617887,0.06055590033160793,0.5963368804773539,0.5452843352049966,0.48035882411127057,1.016986720344841,0.2803707393802867,0.8139252468353269,0.3733492435417596,-0.16100107798975247,-0.1896535361184588,-0.449233405057528,0.004301255369549474,0.3062375038047815,0.16033999376202326,0.023592875042767043,-0.43998790585451675,-0.440133877180544,0.6095019821266044,-0.21994308759794573,0.18790838701413862,-1.3528526688292404,-0.1555500059138663,-0.07283621509669695,0.24761499046785915,0.3582584579789836,-0.21311407148829076,0.15527892125509243,-0.337904211181012,-0.287424733264852,0.7000789664568782,-0.053299368001506364,0.5918517569262541,-0.4538597972740869,-0.31746511853524817,-0.8295045288432822,0.31019600305711603,-0.2655221453051223,0.5907450180160658,0.3662547726784436,-0.6171446168939555,0.6297936695849919,0.29956264336562094,0.3140213697977304,0.5881342333041499,-0.11789836081183146,0.758282533393894,-0.9515078042736336,-0.7361436540301408,-0.16412108775240963,0.30017697637084795,0.25311650043915235,0.08927322108027916,-0.20869474464665683,-0.13676109016113286,-0.16902944621295277,0.036546658142817705,-0.1664334665715349,0.2257745952007334,0.4782258742710801,-0.3460807393581846,-0.6953886964358937,-0.22178298920904954,-0.20211986578737431,0.6800981145865432,-0.2600575000426925,0.20015247737231956,0.10960349666224459,0.5575305184760482,0.2331681295283173,0.5828024892333505,1.5740273989473184,0.5108272665789068,-0.7608918615035193,-0.48918124913181993,-0.5471682302733445,0.6412032709206373,-0.13866108969691282,-0.032701399896714375,-0.08560971610229674,0.2083571532281863,-0.0358005976959084,-0.26881916602478045,-0.21192969985707258,0.38957195080605683,0.1750458506274679,0.013078381288457919,-0.8962079519418797,-0.13446560361302398,-0.4544259000170671,-0.012103604835012945,-0.12364709027078467,-0.5842944940122783,-0.7007677595961577,0.48409809099416307,0.30339984556727945,0.3459690606654646,-0.005331107353191427,1.5010705205515218,1.4707244230856436,-0.14508031984994021,-0.025904233167736886,0.5304889688734079,0.3565122846559491,-0.03821575154401492,-0.05610870084100845,-0.4271906487429707,0.3455736450689221,-0.1325224316710033,-0.4114269086344432,-0.44276471431944703,0.37347525667039083,0.3702069556539377,0.42061932416667225,0.05663068538372876,-0.3056043425875485,-0.8225945123556463,-0.43494303025062714,-0.9116943713092904,-0.018448006901395437,-0.2669160345806584,-0.02823509138226172,-0.021986080276034027,0.08128160434290754,-0.20006970995685924,0.362571455299499,1.854608749845941,1.1958662184789575,0.0027501598174915517,-0.04108135863397564,0.32210903093196,-1.0236393300679556,-0.06560931011044373,-0.8892590703609069,-0.0680098186170441,-0.705558249407302,-0.18629612384938957,0.07683822102780488,0.4763223068405045,0.3009180072484331,0.3554527170269103,0.4493136936126216,-0.34591364448533407,-0.6950413162990886,0.061048342613391274,0.26085257643813,-0.8384965799948321,-0.03284023909432812,-0.0009426689488029555,-0.8069077252253377,0.16957569661984237,-0.10635546978677801,0.2573069452654823,1.401196778498155,1.3573446626981778,0.025840455228001005,0.4835605552188588,-0.04746687720319967,-0.013516683257104149,-0.28745126687985667,-0.17813800179201195,0.10823763258253295,-0.5627067482293571,-0.41501680196587304,-0.28957372255492825,0.24593538600273498,0.2291071519273392,-0.3364157138119503,-0.39289814403002976,0.2908564178913445,-0.033011848497777656,-0.048537551621366117,-0.5267259946725598,-0.8336601341973984,-0.10978768535712324,-0.6761044349899299,-0.7325936118178301,0.18345903723171578,-0.1565417477294709,0.5704523839206629,1.1327035524687445,1.0852026527128313,0.5032870323545369,0.3944505976020052,-0.3322318374737368,-0.3060668766417861,0.14856317573131989,-0.18267314444763325,-0.535215605048536,0.46573589912258273,-0.7278729452416889,-0.20968167482105024,0.06206645365670701,-0.14762126421312183,-0.15936793168715763,-0.3680705978219279,0.3371227972041306,0.07277807187887218,0.5862236611040854,-0.3337067322321809,-0.22754834859672932,-1.0499916963582774,-0.4785575400266379,-0.06268197227923314,0.09857890133221489,-0.5387982256168211,0.5100634652645634,1.0435274360075166,0.2927457689089832,0.2370595255795356,0.26894872957149285,0.4613180435542963,0.12184720537851579,0.899609652008262,-0.3320072562069244,0.051240588705153085,0.10027236652836391,0.19537945438112742,0.3523025983547375,0.38213643318803575,-0.04789697510754444,0.3981618994435388,0.41703064836607434,-0.235960385530253,0.21038579122312004,0.10576077625945708,0.40042609992845446,-0.23592236121216903,0.3149845138643614,0.13385914316512307,0.22732917263124935,-0.7673701124720915,-0.4367514845470743,-0.5810363712082737,-0.2125830722715393,1.3661060789469976,0.9995010516367315,0.32452464340012077,0.39089765038387003,-0.7914472054766403,-0.33998406671312725,0.18386433006866326,-0.6237430188001857,0.7876673902192702,-0.25141361478726487,-0.05131061082737501,-0.03262766989397528,0.4048409893946125,0.3713172652571468,0.38289812944605667,-0.34395624150051146,0.26396146889814714,-0.3194574718946845,0.41504564921787074,0.607336547927556,0.23163509833576956,0.5722043080980884,-0.31788610025804626,0.2575751728731109,-0.558732091045083,-0.32390624709324173,0.05143651721802304,-0.5218973861866439,0.4515962155891547,0.4985005852722903,0.35818676933759613,0.44609720478451015,0.8432957482235333,0.6176456698439031,-0.13763682467630722,0.507009112981813,-0.37821948553742285,-0.7692961959473916,-0.3538374890135313,-0.04902772991315277,0.17689412409568467,-0.40385342313417927,-0.44915582831027917,-0.4687792390333508,-0.34311026749240575,-0.0781441993498885,-0.47432515850569834,-0.14005359210735588,0.1550776038434378,-0.33814920862043696,0.06450671776650774,0.5810170573823161,-0.5286530668216588,0.1775013828299898,-0.7864815340059881,-0.20054682364061052,0.08637552017045727,0.37962037609479016,1.0750027132289373,-0.5926401115020065,-0.09405316667102943,-0.07542947087314922,0.05506926310642527,1.260734613746378,0.6969944692779048,-0.01899209876223262,0.733935230505794,0.7565227742085877,0.4090418245909862,-0.3833295897188788,-0.32382877412178546,0.025808093182632753,0.11318986988888016,-0.14760708318488347,0.5672070589029792,0.1897837936317418,0.548000474792776,-0.029663863476273537,-0.6068297823606149,-0.8808629851525948,0.7124113271960211,-0.3631821636292733,0.10978001867983841,-0.45867120022746766,0.322161567759581,-0.5913710916458904,0.7214720902728521,0.40490547411507444,0.17370535759190975,1.2243844276098865,0.26650506536641155,0.79466569297887,0.09310382537554648,0.36891289815238915,0.6843091561099302,0.37867275055273303,-0.2539033272436589,0.27829735303947006,0.026720615304385454,-0.4185812154403528,-0.2967151352963729,0.22620355664690409,-0.30166361780161527,0.4188150765817231,0.5947926563808008,0.023595772462584045,-0.09063180054754491,0.1232334064595998,-0.541049734127701,0.6177558522953285,0.44058367597911563,-0.12784626557587123,-0.49626174991949334,-0.5486907136132292,0.5578536513663895,0.041523682811065665,0.05399888240089426,0.28428327564527334,-0.19668449340254654,-0.07086517120572687,0.36693896787142777,0.6553030596079809,0.696177186081705,0.2268766925599344,0.5968733522550237,-0.281997440016174,-0.007705053205076618,-0.35768573860436265,0.1468558692055996,-0.25352713591450754,-0.16460371393524886,0.02379909872484625,-0.03097803738236781,-0.006190120486914579,-0.512119715239932,0.004627972227303127,-0.05428008225565609,-0.4223678940106449,0.11494371344932604,-0.31126221001234644,-1.0729114928735426,-0.022642106453918696,-0.20187066581580668,0.22590362093022603,-0.027690811108223117,0.37938024654710956,0.6151641327031977,0.8894651798757224,0.8596779775943014,0.051447143734622995,-0.16568246781756063,0.14765947437224827,-0.14313987659174227,0.15068270687682814,0.0558846659348704,0.33952328854315,-0.09547374518792295,0.2954951672097577,0.2755892719864628,0.38704125794241373,0.30358200775393107,-0.17824298743198447,0.15932332796405865,-0.38201344794541664,0.5257228097712917,-0.060799094948615,-0.041904475987392234,0.421980979321718,-0.0036547658377558833,-0.6953701448442421,-0.43576690063471984,-0.27808717713496667,-0.5414417189757287,0.15404184763174758,0.21659203865298815,0.8419045610501905,0.6292585415155726,0.23962932467305173,-0.10052854617439469,-0.08033271614640129,0.030719001031340357,0.31262695467000956,0.1548480056650179,-0.4064564934257067,-0.1068387318674856,-0.05527635440491857,0.33420642999170147,0.3529876237579717,0.38341695120205266,0.10543897763249363,-0.047174245489399115,0.30666442076066586,0.02685451438309032,0.5713918675633725,1.0233224221260162,0.2777138108663632,0.9900677593863585,0.629051146879649,0.21654864831576795,0.46125149717062075,0.01742148086778163,0.69020362550289,0.429647755149115,0.5084539890066082,0.6978210922546944,0.722272879134778,-0.31797518655342144,-0.22026918365662002,0.2013429104672132,0.050411154112193074,-0.301678106008806,0.22255445135078747,-0.46379977829703706,0.2673696967815307,-0.11650402558728457,0.40238187641637024,-0.012315289277289651,-0.2133040008840677,-0.09727692845262895,-0.19955102755325457,0.4181680313827839,0.7255530592138768,0.7289059044620017,0.4897241216445904,0.20763417404406298,0.5334495078582971,0.3693397419127498,0.48516659774674453,-0.27563517263239745,0.6580711618714523,0.17962138481164072,-0.20614327403249202,-0.38557593438931115,0.06805308192453571,0.2267263667208019,-0.017376545545704152,0.4601041617743707,-0.14149989368987848,0.03714951956523177,0.15115824297546956,-0.18848255570151115,-0.10965065790668971,0.34714854714438276,-0.0730123439981929,0.4829337496778189,0.43540323885181886,-0.35714776275158944,-0.320071711929328,0.12771423907287724,0.4155773773418112,-0.16585562753879501,0.21608947545539045,0.1033921893672692,-0.05394312268762713,0.5019523422867688,0.43278295358867935,-0.0793543677406202,-0.4067985489761738,0.18251750998306157,0.34258082189630995,0.17401693807168,-0.2585759300437914,-0.28615871121773206,-0.16918002463600243,-0.004031303483480701,-0.45900379529005103,0.09664802851713805,-0.1385870140977102~,-0.13987200114453624,0.20034495578913203,0.39369054965542344,-0.426563579910016,0.47216800241793816,0.2741117768974745,0.3736840232399618,-0.033178887329588375,-0.2825686146443616,0.0416870426217916,0.13876432316325948,-0.034518601297628376,-0.19243882241977522,0.5003383877596786,0.3640512619739897,-0.46876038217041915,-0.44241701608558465,0.2918502129482787,-0.31882462444348997,-0.31259066502618577,0.05079006872741701,-0.3441737159267149,0.16716844910837048,-0.45371569066565415,-0.12907427600114274,-0.28602748575012976,0.1857524801950543,-0.47039783552815756,-0.41407046425731125,0.16477516281876325,0.337360246139999,-0.4704920734567856,0.3463396203646143,-0.3997093768147444,-0.04834516531805137,-0.24996381640108417,0.46164916563200215,-0.07668074631168337,-0.06006262292571456,-0.04093229539293515,-0.21675357357936345,0.023407839902204425,-0.03907037022596663,0.313888200995362,-0.26274430118115705,-0.21786238923705684,0.17065208984466035,-0.26913071093252283,-0.20575243126280823,0.03228010383993719,0.28082545053391217,-0.22466135309066868,0.38431867888380994,-0.19696521251587595,0.08317371971707205,-0.3496103458037006,-0.4788232175977583,-0.05848963679492421,0.06591760070707431,-0.48850911122023855,0.28280093568382464,0.04300201488641665,-0.3176595737584373,-0.006074478397544998,-0.13255330124249426,-0.24356720512693303,-0.4107344629767228,-0.25594490868318637,0.057997919979713354,-0.1832335709310712,-0.07795505057344473,0.026342643873859917,0.29289659974064586,0.3032204832706157,-0.35106826683735437,0.31217255266990857,0.06725777994807405,-0.05892135980182666,-0.13203996174471128,0.13499405696404274,-0.3324542608383963,0.390321161938386,-0.12340316164037778,-0.21701675732477144,-0.4884081962452628,-0.4353180838579552,0.14856088442093612,-0.4391985622714305,-0.1023976221882515,0.42356717472838473,-0.01890187316179961,-0.027587245508185317,-0.043118919978276084,0.460768237497318,-0.042169655850405004,0.425807074736547,0.1823378715249522,0.006729580453684452,-0.4265777790109151,0.5039964373936466,0.10061734214556459,0.3021157462197231,0.05733250995773695,0.1370825693675774,0.5905885769415201,0.5122877629120197,-0.4875811998438067,-0.46166268538184096,-0.16770140000560216,-0.18279851481407344,-0.10059099588204579,0.4132000604464599,-0.4605487751515776,0.11452561113288291,0.018229950899268262,-0.19901024068938955,0.4020487664693687,0.01904011802303455,0.36184492349370884,-0.17031730063192332,0.38316973863021436,-0.1322853506307077,-0.400151980655128,0.3923655672068735,0.31989534045480156,0.028827223473477576,-0.20665071171844104,0.05872025159601201,0.10425382691655918,-0.26864661875195683,-0.21455188624289936,-0.24892319622436482,-0.012231624255199717,0.5999203108703217,0.2607865817931571,-0.13047843646634935,0.011040350582910344,-0.2833144099780444,-0.39675234663731057,0.36857216373755075,-0.45250432241922095,-0.38352033054312235,-0.06683562800006669,0.32826277583275565,-0.33972379488525417,0.2468835951157739,0.4501243667938179,-0.008784987982729031,0.25151451938832653,-0.31126356900798363,-0.3798114535566729,-0.614277834618669,-0.24160819047734514,-0.15137644743219417,0.02054573267066282,-0.1420289054239575,-0.32230856315822104,-0.40489396010759754,-0.22348366902034497,0.1951917941002356,-0.06997672698907628,-0.5024805843177609,-0.7041124472764223,0.06644789887175966,-0.42444454926075753,0.04433028113663939,0.40557344764886677,-0.08332642670785616,-0.40973541806654706,-0.24939433477293915,-0.26514240115980636,-0.4547268915427766,0.3642036349006566,-0.37332750317645674,0.29301946495155634,0.39081062160274965,0.4078382449097581,0.4372399583595312,-0.29780058601561293,-0.5040457066660271,-0.7256469063032951,-0.7001891428540484,-0.8008937110691867,-0.24189978152601058,-0.07356173857710428,-0.055319155611367764,-0.08102434280160764,0.39646736021803136,0.22376364345857955,0.2960802604150454,-0.48456992591863574,-0.5712448146827805,-0.42742165994435827,0.01983857107418804,-0.4413528688933271,-0.283468858277262,0.44903066569817546,0.5062772330903004,-0.07738045842387943,-0.4425315650823479,0.25961044289094043,0.3597172813090275,0.31013678010784806,-0.016728894723831763,-0.3807281030514865,-0.26360441012441493,0.02872114714369452,-0.19170095300638543,-0.6931050148961349,-0.7463666546732203,-0.9092542771272739,-0.6670384562486616,0.06251030123447775,-0.02650388825008212,-0.14626866867770233,0.5233683466283892,-0.2102101791750671,0.27709778941726737,0.09785196613660666,-0.5579318175517913,0.41562454080215966,0.4339110245012689,0.1851629458944266,0.024064341776030045,-0.38826332378235506,0.008592157098561298,0.28188394713042164,-0.3288122283746576,-0.2221735046871646,-0.41850915139860767,-0.17999702650811228,-0.3976289645174645,0.07396012776275639,-0.6508115005799855,-0.550185157326622,-0.7610653354801736,0.022923311945095507,-0.1881250628137054,-0.1849916414532848,-0.11629853913720165,0.5803060291628002,-0.06077534686331973,-0.03513931263059955,-0.15243966129814662,0.322539755197705,0.13942035620684348,0.020625029169032874,0.20755923399685663,-0.08031753666486198,-0.2147773694762153,0.06520079044139179,-0.1711251346732461,0.1475894153710633,-0.4404835541814507,0.30999777125515177,0.4096826032127255,0.1754609018900826,-0.4046923351633519,-0.3530703629512314,-0.40376525310826705,-0.5307741499837549,-0.27320241669337864,0.0418405910099096,0.28830611368063624,1.0532961894503028,0.8386472646356817,0.0010036116751197613,0.5912270948757108,0.35465772286598585,-0.35120301141855065,-0.6616734547709656,0.008215746976599339,-0.3176493957676538,0.022397402587383233,0.5149833923359365,0.5138450055103432,-0.2582172468946966,0.18363909656084165,-0.010794146395049326,-0.4849723936002052,0.4461375933656974,-0.04034782220275882,0.2675958677821614,-0.3968851907947269,0.2799929412725125,-0.045813503573384685,-0.33183078872820887,-0.4205460189819841,-0.3560361683298748,0.5218360477010506,0.1722190981466859,0.4002150991253562,0.9558939402172069,1.0519806156240783,0.46915655257290956,0.5954664913161467,-0.10115660538681255,0.40401972481914117,-0.3744809333747659,-0.8048836032052438,-0.05596493734800751,-0.12625455328951515,-0.05417133623343782,0.4582420516171286,0.24471264825549313,-0.5168551311656804,-0.41095653833279666,0.014560218785958179,0.44973878625003405,-0.19432170077429786,0.051095636621551394,0.2955901126038494,0.03808896084026184,-0.2357725794488087,0.44071896325394117,0.5377424894939645,0.6353259673515501,0.550227325050716,0.5887887695728109,0.03992236087468783,0.19551953552180454,0.7976788863359178,0.3025091366236528,-0.1037584874104157,-0.32403393851852635,-0.007833077354480631,0.032794915334820506,0.3780823379230479,0.5237399985401737,-0.17190384405282236,-0.33311948785744394,-0.5281287846925861,-0.45870896143687073,0.19504356369839457,-0.19340403977953666,0.17107453059932598,-0.1257241061972917,0.318564596953667,0.46519356611253454,-0.11477438180022231,-0.18518655340114926,-0.03228930843999783,-0.17787049941826022,0.29360096313531864,-0.1327986208429301,0.4631359360367936,-0.2442724402264245,-0.4222326793560633,-0.10918596632069676,-0.5073788573221935,-0.5144013342897524,-0.033719099354886845,0.3886233758407436,-0.18870896428009784,0.571301670818595,0.1374774842835736,0.7207267071740828,0.4889055145604433,0.3445315989855618,0.4994331511095716,0.12484420536183388,-0.03701483476978021,0.5589654706858033,-0.3570223845181896,0.06749230702911355,0.30397735459440434,0.007984652072843474,0.3028886900620984,0.10577582373923752,-0.15634605842079177,0.35825939735891343,0.3528050886045401,-0.5224484262395208,-0.628937154338747,-0.2558546783554752,-0.1754510684341663,-0.7443842707136521,-0.4482657002804608,0.2107946983036021,1.2605795348092237,0.8492101745991919,-0.07042808743736444,-0.07960648795669685,0.353559636183175,0.15977548065916122,0.4150341495205966,0.1080377619044238,-0.12264391034234533,0.21291859353061995,-0.3374587160778938,-0.02675046883798533,-0.3076954788070561,-0.34530744498825927,0.3898796355174613,-0.25660300263607966,-0.13365736456712754,-0.37235072890709653,0.24629839716697544,-0.564078599909291,0.04559793108803493,0.3174301441008028,-0.09401386513123698,0.3672619147531098,-0.07757665717372313,-0.20451269193732038,-0.0796145131579646,0.10375784575150837,0.2925211865260639,0.3593732262355079,0.27892914449096745,0.23415565139342218,0.26274836880828256,-0.4046459500390611,-0.6765089038894181,-0.27873611703931245,-0.2820979225980478,-0.1370112190956316,0.1933640798329058,0.013929543269216865,0.3769781665485827,-0.06282668149346958,-0.015159897956826542,0.17209449106289226,-0.04742301693006802,0.6275779961120729,0.45979044506988787,-0.1529601534599731,-0.727615033045844,-0.22676849257916798,-0.29952205891274886,0.1993110036343175,-0.22642968732778934,0.3541827474509796,0.331835152950208,-0.08113640908646225,0.3998363166177189,-0.38180236168305104,-0.18746593857958213,-0.08090777917485742,0.23558010862158993,0.3509246571177556,-0.10187639053626824,0.13999568030204898,-0.020845445657687367,-0.3416199324078373,0.4225966076414292,0.0903863440728825,0.3458832283047352,-0.11193002666039525,0.18748718122129138,0.5098500870521531,-0.012659358852660231,0.39007683264530374,-0.5304246973656201,0.020602015593626278,0.061701590020891636,-0.10949529403642705,-0.16662213760859412,-0.08289353579633743,0.3995362559828102,0.19355280129196298,-0.6525308307496045,0.25204775555755976,0.05307571119206764,0.29921624877155484,0.09052600880386592,-0.41221263491357274,-0.7803286169070087,-0.006803423656020721,0.015270133973466361,0.32578320270099115,-0.13536150872776032,0.16189058682007185,-0.3972968889108572,0.5512342359555484,0.4341543697300618,-0.3196810903023682,0.40309880781233787,0.14488005209412336,-0.11352636356261941,0.18371282138992476,-0.47089558496207995,-0.5103732208396716,-0.12027256239043141,-0.06081177668977205,-0.1834787942920352,-0.4331824700053389,0.3931094187388953,0.3341096803393575,0.7468134192206275,0.24042585561052437,0.1734309716522663,-0.19696519093557416,-0.027022245271227496,-0.1004727185937128,-0.25208577411443667,0.3796204952134448,0.2213209762996673,0.10589335681893494,-0.179383936551781,0.554637551019767,0.1381963829130311,0.22047124852377706,0.24480857216840118,0.22335276390461767,0.3894172602027348,0.37411108167007734,0.39491331482964515,0.33122142850482367,0.12438261771408973,0.1160216579973756,0.07736135008389076,-0.0029121680360111,0.2822893307789098,0.2533243530802218,0.41111961787198886,0.2515799128583921,-0.052514813590673726,-0.25187348688781036,-0.5558047325004433,-0.22880934709470918,-0.28337849487236433,-0.4557627449756906,-0.31017738883832163,-0.18327809845463108,-0.008685487292720678,0.0628258275069147,0.30336233971944127,0.5555727813109638,0.14939863920804072,0.3607992398580856,0.1112655243703315,-0.1283054550056852,0.47757577858583317,-0.19474397670325796,0.19265356668268122,0.24140506570722173,-0.36255788885261175,-0.251775078341168,0.42889512504216243,-0.18296851291280758,-0.3978607529779547,0.29492061648295315,0.024418443478157463,-0.024724487417901723,-0.4815106912665122,0.12853151410152183,-0.285503206357087,0.333411636033905,0.5484167519562493,-0.05618449534692862,-0.08218008473827579,0.12853983633622726,0.00608443252992894,0.27592014223044725,-0.11010346983742515,0.34221597894005723,0.312651790832383,-0.3480575775743474,0.088152927022955,-0.40657067213045556,0.20754307038212413,-0.16866308214076794,0.1822740037293869,-0.2539095545223288,0.11534183472015488,-0.00037431145621196475,0.145520277439373,0.48222106480112814,-0.40988283193499814,-0.6289275541231175,-0.5461352152173635,-0.3594372169722789,-0.7320813313765799,0.010765239086610808,-0.37628811143642793,-0.3606345151554409,0.06224234406651433,-0.4507716088968762,0.13119929581085127,-0.31113931936758943,-0.3730277044671949,-0.3209897197639622,0.2622365772968859,0.3330662725224591,0.2568683183924484,-0.03975820694567434,-0.4145996538382859,-0.2245294239619424,-0.07531576493129047,0.3509733332913711,-0.38712994182091526,-0.14567488894449965,0.004886516887764948,-0.1912997644833909,0.2801507985042302,0.15847590623350344,-0.04489712488734539,0.14573737538797513,-0.31078481706048283,0.2806059145126326,0.1405793931103881,-0.23510504006126692,0.2756716618043122,-0.26753614251833147,-0.21772424789652906,0.24825316799861027,0.28644808362639435,-0.24017137136634686,-0.08631098432693254,-0.0561136936068744,-0.431531162037534,0.2701654806633799,-0.14023583815622415,-0.07295130540993008,-0.11693439879087339,-0.1310939949285814,0.264398477449792,-0.42993755574817666,0.1394817931572354,-0.07525127663883899,-0.43046005960241207,0.08172349418522191,-0.28885220402860123,-0.036617652403094635,-0.28841517924489235,0.10907917044102913,0.02159183646090964,-0.02742253534955744,-0.04717271313916905,-0.08341208354286324,-0.35389914257221505,0.07311622180572722,-0.4257051754945155,-0.42497350873276013,-0.18703354934907185,-0.5110123299742683,-0.06035111167667036,-0.4029774212220306,0.030463496733874832,0.10419667741570514,-0.08415820700885003,-0.33780377757591984,0.32438993038099556,0.16924523584501472,-0.47702184252182483,-0.3348553920090508,0.3628357881350084,0.2771072916124099,0.2285516260293167,-0.3051910834873931,-0.5783938852221632,-0.47480270193534674,-0.38405049150507914,-0.5134175133694519,-0.07926716779325524,-0.0008786670172934719,-0.10950825787765692,-0.5950714354498402,-0.5790933877126145,-0.4010691149912458,-0.26044621734705486,-0.642605098838075,0.11477929508403005,0.061520097580910406,0.4592623091224995,0.16114213963419152,-0.09307016027830294,-0.42799023308077333,-0.11407472485334942,0.36221771250731816,-0.1307750718856867,0.11873493940079777,-0.24001452549434266,-0.38723267181142185,0.059340301135029284,-0.09768046146231091,0.35415321143074363,0.5363893179522234,-0.21423508294985494,-0.04604736955386443,0.03633046614591399,0.0925545068805996,0.12378603579805196,-0.021500013567957076,-0.37631501478063306,0.05278799882146352,-0.005789086968021344,0.5462768234193373,0.06877623713143409,0.02941744946996775,-0.12183773763183439,0.3588725379647533,0.20330375672330026,0.2999526538694207,0.12971765868626856,0.22687749535883106,-0.47620428829261885,-0.46565113485780046,0.35643919756702375,0.39914405842247364,0.4797823810146515,-0.19421755336906782,-0.4895351922822601,-0.17800078262829946,-0.17601018082018308,0.566810429709299,0.6139697970037716,0.473126173507957,-0.25944440353910153,-0.2984993498012742,-0.0775295074089634,-0.10880098433013004,0.13041993625298068,0.08313387219416186,-0.19356114565481905,0.3668285297106432,-0.327065496535428,-0.5705003011873383,-0.06293513050351221,-0.05847722547266467,-0.36312999676100816,-0.3067411633662244,-0.3406760956958969,0.11114960386456037,0.25131825461163326,-0.1926178645097978,-0.17259484783810175,-0.4521221025619864,-0.2863399816873307,0.0780681156917839,0.44905970517890886,0.3553732918707828,0.2024077602123928,0.41908636996604404,-0.3203788947718126,0.10441631742064202,-0.315782070052821,-0.33516963851506903,-0.21922470720371692,0.09568886684946756,-0.21512966690887747,0.14603829913628258,0.3497518610180494,-0.1674516468478124,-0.3085065561438457,-0.4040520260254229,0.24661064113235,0.37992049603107986,0.22018377445606002,-0.4454816832783667,0.42163888088464746,0.1694918985927648,-0.44785177714982166,-0.2002310035867101,-0.48313193863913056,-0.26744793574418296,-0.10468810302560555,0.49190914449435913,0.45064246263360425,0.3628778659432684,-0.3453782250856836,0.38096752388419974,0.14040365487154655,0.11154137963037722,-0.36832961667709563,-0.22238457174424545,0.3318862188759888,0.17294574675246505,0.2602335085502177,0.5159182233500333,0.28785142072100606,0.5120133920664237,0.07842097800717332,0.2612635689607886,-0.01134616864446853,0.250043757296603,-0.3580750597195901,0.004569096864902346,-0.32141341344258134,0.2753993996874878,-0.015318420932313373,-0.30129250993988416,-0.03089979859175641~,0.06765148287037158,-0.11572874501375884,0.23626897114053502,0.4781874900487496,-0.27680306171047164,0.14569553553007009,-0.306283274610443,-0.3193389148222633,0.014056752567789833,-0.1966076008928881,0.2568814870012903,-0.08055789787358918,0.29756896332977206,0.4180165979307126,-0.43304730658965324,-0.4270258960005758,-0.39779600777693613,0.2064969195200227,-0.23376186736917448,-0.29334039638406606,-0.4359416046771145,-0.2532561074258831,0.40779480190444883,0.2774159626451159,0.36597386010279054,0.33276995694047384,-0.3396837986227611,-0.09412326386921736,0.06027524168173319,0.4729260287944719,0.3173782944328891,-0.32302794275338376,0.4134844390677755,0.28403726607743796,-0.043563026366086936,-0.05383676121855637,0.0857886018520875,0.3945481862738256,0.4083634430140893,0.1480043255032557,-0.36795013113906627,0.4743189337804933,0.4914823078820918,0.2782202087646355,-0.1585857828438072,0.08045716776307595,0.2604225533651989,0.027530737178086077,-0.4521630324687783,0.1255867181374458,0.017018038430956544,0.08150779828976551,-0.152337259460415,0.40887460577838797,0.0863359012067267,0.5254963953969765,-0.4724585823772045,0.40108968409824475,-0.0072916452169518526,0.26853701371927,0.2726019448583622,-0.06338012289316784,0.278410721641067,0.34848384595718457,0.020394407379048348,-0.3732553224559604,0.25450849419589067,0.04714958695196342,-0.01220345825067918,0.05278635305688512,0.31178515903557097,0.3884627079653547,0.21994936512891744,0.6546681417381504,0.11137418596254624,-0.3620524705410637,-0.3317060711391178,-0.06695076883777754,-0.23626696047343762,0.023423354945798853,-0.07297099533204189,0.30926206123684974,0.3021246563456982,0.11510688124318676,0.1269521235691235,-0.10174182859237167,0.052501476693078385,-0.3312853442641957,0.3158756338515596,-0.35614283046253165,-0.26589840723904656,0.07257170197653885,-0.04634184584742047,-0.3219045808524409,0.3820913561853242,-0.09884638494126559,-0.6130947176530468,-0.019223286783957034,0.8036528088231875,0.7702945057768772,-0.2926713178748391,0.5263240257593085,0.08678734706849037,0.6755169067142393,0.07634026811804541,-0.4806473742698711,-0.19636154432020012,0.22043525620080284,-0.29434261844556575,-0.3870632955207372,0.30049261394658566,-0.26223976509250124,0.08847199525112086,0.15495273739228133,-0.05029554081407456,0.46592998526568363,0.13622086381443804,-0.1809217979087634,-0.4161891738391777,-0.6486065045278374,-0.942375025021697,-0.2308250994439742,-0.44800072372987076,-0.25449904407531343,-0.33080684496596213,0.9579719141584728,0.6066692540083649,0.28701436487594134,0.4260607070656878,0.42311102770155706,0.4521524173424938,-0.4301453690199801,-0.4337846590342561,0.11860649260990712,-0.006511074816520634,0.004846656061104991,-0.2643164224056038,0.5273263068344657,0.34863545821758224,-0.09589775925376318,-0.02549375162508127,0.17407935952820075,-0.014053408316116213,-0.2743399234182687,0.09679032214859976,-0.2905907010462357,-0.5444187751812456,-1.1921634467633768,-1.2624687725808583,-0.0864607038319083,0.10647361438814555,0.21537014699972473,-0.21235367860658172,0.09509268723192749,0.14489297341554433,-0.6535881065355427,-0.12002768941721466,-0.05849444627130064,1.0972721289709477,-0.27525001581168357,-0.06899980025273096,0.7106141918603265,0.544155348786104,0.2720096552063529,0.018013177820075284,-0.38018641295351563,-0.006807185373637009,0.04251303865332037,0.16203406406092502,0.5080212744835987,-0.3600274100556025,-0.33879277009040254,0.18307106576845425,-0.2088850175247419,-0.8803677096329064,-0.338000191727183,-0.4849755025461719,-0.4427290269811063,0.18929710505997968,0.6221114285303981,-0.5590762016520218,0.02450064065502273,-0.09298300163660045,0.03956499300042786,0.03240906431257191,-0.49056035096846556,-0.0618098528568472,0.6909373269993252,0.13394809703661137,-0.5479849581649402,0.991664166125151,-0.0767577619838253,1.0766399101353217,-0.34197312499053284,-0.125532501993503,-0.08651210550744859,0.22102275784704212,0.4720783833249737,-0.34420020132302104,-0.04918185475892852,-0.34685906298490005,-0.5604974665435748,-0.47892588188048807,0.3656726977378595,-0.9300524694896498,-0.09426207911559595,1.8120496384309386,0.17111409176702422,0.10563665963838459,0.3804125531502246,0.008577291938335048,0.9151416894742659,0.6209949828414271,-0.24706571371813363,0.4718481944676049,-0.04052981805172484,0.744873779200559,-0.40553213669871124,0.5257361653248436,-0.023059692061284994,-0.235594702148143,-0.3191058342379895,0.531182166021118,0.29926900492209413,-0.1044457500255599,0.1672882944255664,0.47841303178862793,0.24343391773608677,-1.3675576097621887,0.0844503231026874,0.20272418381028628,0.06726580603108795,-0.029568520613352762,0.4215487934607988,-1.0786477533142667,0.6874658534380744,0.4628724266755436,-0.2646570915749968,0.089944639852431,-0.2241787167169556,-0.27943395584638275,0.12219923315863299,-0.17540042545709378,0.43103605016438684,0.2698243393503279,0.5241009787032667,-0.30008877991276134,0.23450346774870012,0.01327497496748213,-0.1037424371319409,-0.27210488920056997,0.16977630749400674,0.049830630983077176,0.302788900931449,-0.39452455387132096,-0.14537395622703744,-0.871456123480706,-0.16411341383391484,0.13154491652571904,-0.0110838130526125,0.07713108487850442,0.3078623464246567,-0.41598712140172284,1.5087422678509224,0.8756037047463334,-1.808470728266217,-0.9439992935028891,-0.5083335134244664,-0.25415640225953223,-0.7864260021554056,-0.7643600944425276,-0.8672358653976336,-0.8889644207362325,-0.0950004539456096,0.3483506980758132,-0.4318348987617927,0.19512389749260609,-0.02436829727423553,-0.3016435925251575,0.217696974733976,0.30791084395775603,-0.440678372889763,0.24281372674655857,-0.44235713621713274,-0.40852266173221097,-0.037350852405383744,-0.4068505794949039,-0.5246677197473073,0.13380169778489112,0.6495555061142827,0.36015560387404244,-0.047573586900842034,0.9532613750824487,-0.6019603803330561,-1.07510745122968,-1.479931914299648,-0.20339444456214947,-0.38292999962930097,-0.9292043916622387,-1.1566948672018327,-0.940335443778946,-1.163005515760164,-1.7160196167907882,-1.4803975026744214,-0.6975086324590175,-0.160096546531562,0.29908464598353646,0.26438352756925015,0.05207008670408259,-0.24561093539134354,-0.395484586797396,-0.3353694165116893,0.14232686742485462,0.2442488757906535,-0.005039470972554476,-0.1994636607631216,-0.43404979548942585,-0.14503774777753475,-0.12682133834367715,0.15155268937014452,0.21240442503528942,-0.22642726744988773,0.17855978530565103,-0.45004788828029796,-0.13581778730064234,0.2852960680133378,0.008037709933780467,0.5998727838348762,-1.0868125183008972,-1.1307419986513363,-1.8015905717638179,-1.5096119698144004,-0.5483627949524138,-0.005322325388401774,-0.25289074454882127,-0.09644438701117516,0.47264881245807067,-0.31595465008125573,-0.23351118657995024,0.2822079635989372,-0.040657166466656465,0.25554409297849895,0.2887509622662995,-0.14919402774406645,-0.20652666527839025,0.41874474424787916,0.6000720236337344,0.6365997052869012,0.16852884476867994,-0.6165623010278352,-0.05963861737512406,0.11089785998925082,-0.394768388914581,-0.5995840980375526,-0.06756943402686755,0.22298707596896292,-0.19733489184998743,-0.2256219166865691,-0.4328850349573999,-0.6230367777912956,-0.6196772388854319,0.151298934814774,-0.3605050937769396,-0.16306139385438118,-0.12119128115763374,0.3382965423277095,-0.18499740547183754,-0.3407704017702843,0.741295084933057,0.5943111817827013,0.3492625420834896,0.349609957807931,0.17819006879971855,-0.4887338061491888,0.2677263887926336,0.9413266694909741,0.13854178864665176,-0.2443919349968449,-0.2206436220401312,-0.14465558601874975,-0.8474249296240648,0.2565462181375187,0.3684698980823159,0.3567867266937396,-1.05451566252516,-0.011718469502626082,-0.6566006769691968,-0.09113570220933374,-0.01557411467456744,-0.3295806370588738,0.35799215103991006,-0.378294113308144,0.30473477265310167,0.24948045969295374,-0.33267332851733694,0.3490219736909946,-0.06378227425628663,0.2355188286096514,0.0004378520046544414,0.4161331272641452,-0.06231067436695852,-0.2727386225622708,0.31734558566872595,-0.3115026622137556,-0.5579224257869483,-0.022535726417684625,-0.07219698188644229,0.27025484474735095,-0.22240610914433662,-0.8200773436713436,-0.10046314536772338,-0.38142188421880824,0.49922226030118516,0.017732385969014924,0.555923250993557,-0.02624840419049382,-0.26191097820403386,-0.24453884079925323,0.3794510658384482,0.39122076384547994,0.3148917482245701,-0.49507929261800965,-0.4523765108829918,-0.10988420303935996,-0.8004054862209458,-0.3845874890824958,-0.38897730765765576,-0.11324685555123383,0.41654027913054825,0.07136691079709491,0.46450336585232477,0.026428483832745903,0.7604150481684971,-0.23559125339668424,-0.6949784524886607,-1.3514272366058295,0.1688956373640728,0.2698356893814186,-0.3410687095622558,0.23706244428132361,-0.06928627644915758,1.148808760070411,-0.09802503006377204,-0.34452084926579357,0.21491324184307073,0.1559793888708382,-0.12741568535244424,0.22363594303210926,0.5152399398371108,0.28863495142698065,0.3542591793273499,0.38946553264495803,-0.6338984402237317,-0.06478744370043711,-0.455391362868092,-0.17131200801222596,0.6955778825022673,-0.3866445392504016,0.31440433412576513,0.01638502904893194,0.3356548502941437,0.12608985265192602,-0.1306320381161491,-0.9666010484230777,0.8888011880478802,0.25971489486858246,-0.060741598335051744,0.2812724693048244,-0.05627776374817249,-0.05755672884222265,0.342491674461302,0.38076616287533877,-0.12826998417322044,-0.0008626994157171983,-0.37200910583108443,0.1440894580834944,-0.2923396572503105,-0.17090536558426392,-0.05301046126429485,0.24808880862984797,-0.2087219854195223,-0.040629001730388414,-0.27002588603851413,-0.5693916006131002,-0.3840331734958605,-0.23366626769593896,0.0944828435493456,-0.44558084201941506,0.8648558905634829,0.0012061425744772458,-0.9188137737757388,-0.35852145768608745,0.02206025616937272,-0.1340226230710496,0.41797800274936914,1.3965203334658869,-0.4888030727059145,-0.33940212836281564,0.3315599841604418,-0.1800130163636105,0.10744831315375789,0.12609536339803457,-0.21319805035297842,-0.3381559699480822,0.001445355082648908,-0.27678716407559995,0.21667718998695715,0.2252572541545905,0.27959558967178033,0.13193359321170217,-0.06951918791673677,-0.5304654893445799,0.4670442918377677,-0.2001692841546295,0.49723020423763375,-0.6068517319490208,-0.5476950211629547,-0.46514923895324006,-0.7522385728783497,-0.8144758972546502,0.4357061451908022,0.24023537349431381,0.5655438853332548,-0.9879439185422539,0.6564757168164962,0.7815723072670769,0.4466661868817956,-0.4971698597472604,0.50456536470714,0.0028813686495288526,0.2355219883801953,0.3711122593660025,0.4840528598298336,0.2947268992170009,0.0694027199142843,-0.06813918539949268,-0.411791994796941,-0.1366076508929974,0.22044161772077003,0.3570412287026606,-0.2331702598809468,-0.5810094357080889,-0.7410519851173831,0.20569019389052537,0.34533604795112227,0.014774177218248778,0.4666771785354805,-0.31601505752393794,-0.4254214905705667,0.6627529478455462,0.18611623731062796,-0.056966484935206334,-0.7014182140267364,0.4098942664199032,-0.022271639170231047,0.09078139160092921,0.3345558877586597,-0.1621550792319915,0.06332288591176961,-0.031418312570453494,0.4133959913077221,0.07816459405983979,0.2970098601792118,0.12910937704109926,0.299358929775245,0.9169536036580056,-0.06174127870616886,-0.22666788115498904,0.1046528918627971,0.5574418239671053,-0.46395994796852447,-0.17746521261953024,0.5831367196041691,-0.027564335306048314,-0.5027862419957275,0.06555965187530104,-0.4090193671714122,0.28413605982859713,0.3751896397539879,0.4806126797538419,0.14193521790219857,0.26171572374073465,-0.024393987118260536,0.03775807297565241,0.792171466568064,0.10864375655548908,0.500897991400132,0.3605924080571106,-0.0445771509860603,0.3147167964113261,0.28778767741163136,0.08200082479299498,0.38464477784129003,0.026900453172520458,-0.37347469889446605,0.08162553721395693,-0.31778000883405727,-0.07225664493262725,0.36742363497307334,0.002161669797813452,0.2910641052817888,-0.2647052841868508,0.9919361968532611,0.822829915333663,-0.24511575099690033,-0.10799621742877567,0.43478521548396826,0.2964247437585993,0.256790880536228,0.43230279635107066,0.48970345241348123,0.37040411095073106,0.2890227360546309,-0.20779405201320972,0.06353633407749258,0.39799776291201305,-0.2602779757009881,-0.06993716702358506,0.30699063275143856,-0.4930805524576176,0.26037535213985014,0.28326711511563724,0.5691574732857874,-0.3425829936412109,-0.4699921386459474,0.26402650712129516,0.06333431832236029,0.4912588683384766,-0.05265774316827439,0.16561301629137762,-0.23789529024522932,0.20992518202340013,0.6263338566163277,-0.1966674954553462,0.019382300229447282,-0.02708252130008782,-0.9717692959895516,-0.43995672928828566,0.25010494005719514,0.19289613438587677,-0.6862926124491254,-0.2204411858111773,-0.2989097598404136,-0.22636008529948787,-0.33335269803562917,-0.41643038295111123,-0.44604808909031135,-0.0034536507960551714,-0.475384560535666,0.8135009706346712,0.7113357855333812,0.42195296719831976,0.4319241981438134,0.09366515742477366,-0.15884612793223457,0.16409795528531898,-0.3026776521563198,0.5019723769065232,0.12222910007211317,-0.12937275717767482,0.46525381131299276,0.043068975434138075,-0.19162337844475094,1.072061641260068,0.3534298236893193,-0.35212838862733353,0.7132092385570815,-0.03526737828099496,0.11307769887139474,-0.38732955264870006,-0.3027667563418057,-0.45978678220321656,-0.2072310400893076,-0.22099065061966772,-0.38496197569727203,0.02826666233722545,-0.2995426565249141,-0.33110809614986964,0.2501554606922336,-0.16649605027892364,0.19891459972338296,-0.35307821912927256,0.05305819167052552,0.1072251737521464,-0.010027374295489751,0.6267834420169198,0.3004895062244542,0.6861016361014877,0.11865557425818977,0.6472093678027985,0.6802609600992067,-0.26902863109448927,-0.33136937661958127,0.07660215374908766,0.24355908170490823,0.099398370226083,-0.2771934661703781,-0.010766219080017292,-0.2006291739749555,0.2532627841553692,0.21049700860809073,-0.3127050717290827,-0.20268859148284368,0.3352688921194234,-0.2082277968593475,0.40895985127084394,0.20059970539811164,0.20513175213437088,0.24009596410427073,0.524075453214141,0.6068588649042067,0.7138635077781341,0.5796480596951187,-0.6643964020605145,-0.0009768093427415371,0.043563698579100564,0.2434170304169561,-0.3380149757837739,0.5386118194026337,-0.426060567032413,-0.10382784558661197,-0.003593553736174304,0.9734710549864002,-0.034618680612875916,0.5205377442172417,-0.0065827226878071845,0.4780656979729325,-0.4517762145783173,0.47934147951243555,0.13828883547944976,0.41752642913546545,-0.24127393346440956,-0.347204179231458,-0.370038454558592,-0.24777102826324948,0.3417326339843779,-0.4336887144161619,0.12694845860078227,0.22213636007306997,0.2271082622229745,0.11042324009804132,0.13169123771886676,0.8384860503139853,0.4940817531425953,0.27999839638552354,0.24165861074241193,-0.05959159799264936,0.08453558954631332,0.4435763098629104,-0.2657316388902604,-0.03710673423015907,-0.4602501371671774,-0.402244736952514,-0.37340103071695896,0.07545767191254181,-0.22040219247806703,-0.34687746312303214,-0.381112077407729,0.2559629892470734,-0.3588951647452604,-0.11922272962014184,-0.11309307776368284,-0.46485065259630554,0.5078958170510901,0.48967931897264644,-0.2936545447226914,-0.3362182018398181,-0.21752182937466513,-0.09252637666819616,0.08470629963034029,-0.08989527680879508,0.42612597160576793,-0.37416106174668046,0.3843737636856891,-0.4571893081680161,0.435936039031316,-0.014006339159206923,0.05272795120789633,-0.374263838031272,0.46040773846321326,0.5180857837136226,-0.27110769844104277,0.4631115334095872,-0.40708996551852117~,0.26513559415376603,0.15791864871879752,-0.30626567960772527,-0.45586796996520634,0.02622077413420326,-0.029892958155268556,-0.16517488727670265,0.15506960895173977,-0.18936429139706207,0.013132229360442891,-0.5105471770265928,-0.10681731735176532,0.14152406496521358,0.2399808944597309,-0.21214860413056508,0.18499303656216123,-0.4648012382652041,0.2864046135795059,-0.10192514519141944,-0.24187584652013266,0.35448346764818456,0.2674770971209291,0.3079800431224034,-0.32805147620754455,-0.08269620615788896,-0.17529426966444023,0.4042459308695045,0.14019703503986386,-0.15003487050833986,0.2379521983776663,-0.03923698985071425,0.14270677246971714,-0.19655058644111958,-0.1640902851089267,0.2915502610708187,-0.25000778001737184,0.28830197322497186,-0.1753379919151893,0.2250587170028233,0.02040331506270875,0.36507664003345575,-0.3415587789232515,-0.24555470658267245,-0.59430797047963,-0.0002685999634395081,-0.47026670043301244,0.13102013139623359,-0.01564070032581807,-0.3933364974482258,0.4110560759410299,0.5408210798935977,0.1151090726521066,-0.3203210751682202,0.20632261898625254,-0.022243692661025934,-0.06817933820689033,-0.37303616091400765,-0.19209296789601554,0.15659623146980706,-0.08180428838368313,-0.5066061467128665,-0.2777084781327229,-0.18343687149881155,-0.29768629984524286,0.13535819644726024,-0.12783592028773763,1.0900676743494624,0.3506519210603565,0.7464364303387433,0.08300938936824216,0.022956431388318092,-0.03290312773553565,-0.3930318377221526,-0.16466620299421786,0.6185353705894131,0.35939144463153694,0.6315324984972193,0.12453526431404092,0.5279279096652821,0.5470729012843093,-0.4164014382959351,0.22308152091271768,-0.05075781269647313,-0.35286449039961515,0.22267608172274678,0.40278045229443754,0.0160637462853598,-0.11529915039812945,0.2827480438487441,0.24857495967346727,0.14700037812174888,-0.4556850204094322,-0.13259778053956262,0.276034601510774,-0.17418128234929314,-0.06812500430588987,0.25654883247843924,-0.4362446990499699,0.1955233632596357,0.05016554605887059,-0.024415455688944668,0.19737056153181068,0.30837481127082267,0.08205327978436203,0.7064251239882448,0.40406739165254535,0.4347752029153339,0.3689284093467802,-0.21278931263463924,-0.3528515911741324,-0.13043630285988655,-0.4084269187672,-0.06939079302578215,0.26474105434350265,-0.48613592850053705,-0.3469028491774608,0.09406452668908999,0.09840498923079409,-0.24691780242345227,0.3874431666350609,-0.2832323627107797,-0.9812486650333442,-0.5067590443675737,0.340731197568584,0.2890354637333024,-0.4289571190042293,-0.46605753988241105,-0.2738601790088293,-0.18276373831222753,-0.2718786249390205,-0.5378071901611947,0.49709492191610183,0.40258258487134296,-0.08521742215444987,0.4821578359036463,0.39073983815563246,-0.6008716827102073,-0.1822295124432495,-0.01712712120042318,-0.4369831642410501,-0.3149530204327727,0.011869469045313679,-0.22231264996595806,-0.11266482180407457,-0.034023698006325556,0.0032320727890189998,0.307576373998841,0.5620470205197254,-0.29197441808063956,0.46395559415024795,0.2090462162469198,0.1845971223850195,-0.08968058038885307,-0.15658954579481052,-0.47421991802202307,0.20800690725348386,-0.5001200138910712,0.07466964028991441,-0.5960004523683791,0.15340214911712693,0.10003427434683353,-1.1669250175492483,-0.045569538769961164,0.21363591351014385,-0.2568224134238002,-0.0024068389088345078,-0.5650067431865036,-0.3066469638860509,-0.013099689688519304,-0.37670103820311496,0.1647728343913846,-0.7639918008466824,-0.15413194554425078,-0.2085301560544225,-0.3806337275045345,0.9205630841210684,0.7134670612099193,-0.3919343651816842,0.7206728569461656,-0.2517768275015984,0.48394730033465355,-0.3478977679201289,1.005089220888467,-0.7856974718711189,0.6272193808007147,0.8744796436161443,-0.3133494766402111,-0.19118883652521318,-0.2620270723489246,0.13787963522125926,0.35459570943677965,-0.43172488060491426,0.2789845591475206,0.24923488176450398,-0.5227042103484562,-0.34770327278861934,0.1967754798879395,0.22186605381820196,-0.5141402955083728,-0.007071911992609357,-1.1290596196011438,-0.17387070618781766,-0.7091364421525657,0.07575315655823783,-0.2298032559674626,-0.3044296769666163,0.03669543387159917,0.4353488338188085,-0.7088087559476494,0.5063768188790189,0.2809977690669823,-0.8492252784270945,0.24946431644281403,-0.3660607745239439,0.5537189965489518,-0.5598722340275633,-0.031163570562696075,0.036485487127971214,-0.12708849642123038,0.5540793191278952,0.4517560438670767,0.3128907251857581,-0.2962446437102224,0.1802331622827997,0.06137474783941276,-0.45576755651141754,-0.5534472384324444,0.04382468124430592,-0.8741903159749297,-0.2765910282252588,-0.6889634143375186,-0.22075359059814892,-0.23635735750640788,0.30703847460797334,-0.6491501465057237,0.15935843140857,-0.008385995165535823,-1.2307279155790058,-0.43447634242072136,0.6869882046460738,0.4385806959108433,0.1621200511794127,-0.3591356233969291,-0.2088974046337198,-0.11396290568659559,-0.28877471906074054,0.17966298003279804,0.5220378593149609,0.6113399394607956,0.28264842112056354,0.11090948140869278,-0.3680342705703792,-0.4559174466855716,-0.5185862638113616,0.4653654212663395,-0.3007143918507277,0.13428971609121895,-0.0036570172776249437,-0.4463133782287706,-0.3434143630371783,-0.23157872370743904,-0.21457526207545546,0.3517399822156208,0.3373551622676665,0.44331979199968924,-0.17579332789629779,-0.002377499263375065,1.0423631071632813,-0.10394211789280657,-0.5514939992169676,0.22307873493634114,0.16542461954547075,-0.1216043490460514,0.19896844612104647,-0.5921035363750073,-0.20129357114152668,0.4136322770729736,0.2736151591755211,-0.6905719702531928,0.07145802173456353,0.0854551689655374,0.15996976466263557,0.12881614707495398,0.44945419836615663,0.28568759841893937,-0.2375503617089332,-0.6004350923644675,-0.5504285356965523,-0.5380331372661575,-0.28462781572804874,-0.6923459734580917,-0.21586157860532057,0.36198989085220407,0.6816342294098301,-0.07552696923241846,-0.21523231181693878,0.41473509199983777,-0.395821680899272,-0.24172310844190267,0.17865226789890531,-0.39890883103319785,-0.5834180591896146,-0.6981151041741149,0.1825200441678789,0.8545742339152287,0.08498810639145983,-0.5973982449295978,0.2888567198232433,-0.3409589073638768,0.0836011694771901,-0.45040212450049244,0.15778495250601182,-0.04819067322636676,0.10960159068441429,0.16670402759769568,0.060017200346053824,0.5225637013568749,0.3068003771210152,0.7862859107945988,-0.5940081460179961,1.2708147683291076,0.1863372995762808,-0.89821553181783,-0.04458949553634293,-0.3715532288671142,0.16273118477402193,-0.39475648671811275,-0.5085271038942802,-0.35957285210551504,-0.4014149832537739,-0.5953856712189742,0.2090130680880816,0.21440308304389996,0.2448692694940587,0.1359912264851205,-0.3494285001697442,0.15866889985412638,-0.32747553167631355,0.4761215326928469,0.35991690058173803,0.5964423369530969,1.095425082068062,2.070372283911244,1.7908548556416664,0.9910022060464713,0.9124227054442207,0.0433502823830834,1.1107356775625676,0.29793728264227276,-0.3166620454344283,-0.004869494684042091,-0.24688063513107714,0.3782956895936949,-0.5797322850958311,-0.04399244421031447,-0.888746705094285,0.7395115226957946,0.2657512293148922,0.1868693497366737,0.47922772156986265,-0.2145090154798965,-0.7404628975783207,-0.03546465694568451,0.2572578140195652,0.1280300514761692,0.0877974231874104,0.18647025220611532,-0.4102976098080812,0.9273073891681957,1.9221045290367593,1.9700697756932437,0.9989528774539718,0.5203594867144585,0.3776436185582591,1.1405976736064694,0.09746138233877812,-0.20638302186168223,-0.24345737910969084,-0.995435759835743,-0.5107699339002365,0.19700472740297195,-0.49351127775936077,0.030172794950178345,0.07264154987559172,-0.15977913243969105,0.22372058508454312,0.4794783947961478,0.2570267528238555,-0.6127110547915503,-0.3923765649718056,-0.4295226841890814,-0.21979116950376704,0.10324931613532246,-0.1788418340406483,-0.3364808823213888,0.22634869107802721,-0.4828340380831362,0.7834119913020803,-0.13664754272853535,0.5460927657068263,0.5288375680153329,0.05484053715867888,0.3444178746665599,-0.29075131885435257,-0.21965471655264876,-0.7949985670104335,-0.8599004376467158,-0.14093486900978394,0.021868374130264028,0.8133999630690083,0.7260742417703544,-0.38428293527323343,0.37705482693650955,-0.3534096828775947,0.5128974281432408,-0.3425771364602177,-0.22273026123916126,-0.7851539757933909,-0.8488148950407984,0.3962745091150489,-0.4492124281171194,0.08499034130427612,0.1705028168902973,-0.22813548420760865,-1.2090745574831394,-0.31829530089639724,-1.2256566449597286,0.5954478855691571,-0.3077782233745785,0.561874993031875,0.21948763741511174,0.31075519627575954,-0.003005834647275276,-0.8513617699697877,-0.25744756317015155,-0.3763082735707495,0.19388498078461153,-0.2849010378802135,-0.7719159905346635,-0.2100704282323884,-0.5112798473849643,-0.14918879772032465,-0.09284172221534476,0.4674578045753081,0.07225561854176034,-0.5005224320281331,-0.02009473890506577,-0.6892734656992053,0.08629838332048959,-0.1310479703416135,0.33381044746038085,-0.7005535130262815,-0.252683245383568,-0.32009491106067495,-0.6020806544585355,0.03827409359298353,-0.22251638197583126,0.31853418593824984,0.16313737790948318,0.22914168011009414,-1.2965746072988638,-0.4360907514301662,-0.37925159512818946,-0.4461002445711597,0.503964651393224,-0.6002075142775399,0.39965990210124513,0.2811116337580413,0.9886430331990058,-0.2972141616969912,-0.09097879543565221,-0.1376759363189259,0.015584652048360053,0.014362960855770338,-0.7000611252388032,-0.49623280151610494,0.3870631506520806,-0.12154493326070626,0.01248203409363996,0.28889790437184537,-0.5206735876531885,-0.19039827054128947,0.4925523573584481,-0.0246490430346626,-0.8772833732474097,0.015103984876993454,0.05771149847847372,0.006592983348194603,-0.6840451782067868,0.1447366524979689,-1.0809131795521405,0.233272379598155,-0.05754774090588896,1.0024444874384972,-0.8030493812666222,0.18962772697415212,0.12286634751278219,-0.5730795940422321,-0.23135064578382583,0.32902223275879305,0.4753702988513727,-0.9839247850597979,-0.12069374686818095,-0.0819871395228503,0.14856792844064623,-0.27963948738231825,-0.4055216014736271,0.5762715740630505,0.1668325275020749,-0.4085229397743162,-0.014831648934561523,-0.6522842199922632,-0.08099653783810078,0.4035898795385998,-0.43526929856861823,0.050618160204418935,0.9117534320144107,0.0682500668078257,0.1353088273412535,-0.3747505190845133,-0.2518216723766348,-0.19255875997570504,0.14930931018084503,-0.23801184624909438,-0.3650784121411681,0.7924596879842254,-0.9543483600381966,-0.3560541883924374,-0.8119320143462363,-1.197834500501021,-0.4206966810407753,-0.16617220758282447,-0.13704602570719077,0.2938274397634084,-0.4901063066055576,0.2788363305977856,0.44710928131495414,0.36641135002801356,0.4024483983588598,-0.35438547347765287,0.3805017285778918,-0.4750912848672676,-0.3010215145543381,0.0713500463862233,0.5481035941676929,-0.023637088604512437,0.6125674167273798,-0.10278013696385076,0.3196040405203946,-0.38940187113134983,-0.11899017604832161,0.31708351830867876,0.37309571043179945,-0.02105100159200551,-1.398526379850845,-0.3239430163275222,-0.7634727028543374,-0.44197428286536916,-0.7338654128954736,0.2842331654765508,0.2416361663926737,-0.3473902115444622,-0.6527201276265904,-0.17530884954940557,0.1943906383416763,-0.16165316185572617,-0.6891774284534072,-0.6786657456124336,0.6934694925581353,-0.38568864978963824,0.07891670653521879,-0.06441733470744361,-0.11551568396433791,0.43771047424365656,0.8046573218805431,0.19402850434676747,0.4583386033664411,1.0550353471397782,-0.7277969510963846,-0.014605242315230619,0.20803380679024114,-0.0739850611341087,-0.5508475504865855,-0.07292637979305022,-0.41073064366367396,-0.2006771353892966,-0.5735714710616707,0.2579244428402351,0.41316316612246773,0.021125084171501034,-0.05077428378656814,-0.25502774329110495,-0.5330754320982113,-0.3354168734070663,-0.42213858274453575,-0.21341218737649467,-0.13877678368947394,-0.053793909736711706,-0.17068647142798946,-0.21906760829505706,0.6451653527686505,-0.12361657280972113,-0.7006475437712018,0.21741055482497976,-0.10948265230572087,-0.17712583956383401,0.48468322728108526,-0.20765414778076247,0.09532895118424801,-0.17368795391830522,0.2018023042160105,-0.20949725004159253,-0.5300584108463686,-0.5556377559127533,-0.3862865280667567,-0.5022436964975013,0.0631608467744186,0.09159827244460489,-0.35109607194323705,-0.14737406078097753,-0.19187050812788048,-0.07176276061928934,0.32909365230833904,-0.6756380413929541,-0.18170722303800618,-0.14735449459055114,0.34199357839800326,0.07127428275322933,0.8875094163714858,0.13339771982003537,0.12756420354233447,-0.05992032336289623,0.8377036249217722,-0.37423533285565364,-0.13175740012914622,0.6248709782136876,-0.26946799849408376,-0.34683733900617125,-0.01352325870359756,0.1502215536842757,-0.3602496123840771,0.10895467699679859,-0.10568285247579824,0.4403124638438105,0.39060026936989983,-0.22430566587756068,-0.22348969815927305,0.34772250275096883,-0.5216326891665704,-0.3742581456709886,0.16129308031952264,0.35764027932324144,-0.408234518867859,0.3958925612815427,0.1903256483669328,-0.022459966547858368,-0.6514253404620411,-0.949582300822803,0.34806299772354354,-0.3540639228084726,-0.4860175133216441,-0.3782907407944673,0.01167041237943536,0.25182890513756634,0.12575830954794795,-0.5320442000480488,-0.38190260226716827,-0.293334656329344,0.009827530078580908,-0.1166370402601006,0.04871060941936865,0.3771915008115621,0.031739557622341555,0.029104938128434742,-0.1063462808295962,-0.1521220121179669,0.1545111958377336,0.4890663868917638,-0.3831855132699233,-0.93153180945913,0.2533392606912549,0.8647724128099042,0.04619664644940167,-0.0018148869971917117,0.16181948722490636,0.4413594454614935,0.05932059878080951,-0.1918485002464195,0.19001138620494426,-0.035982306453863515,0.04402511879252083,0.12274733999594457,-0.06692658536048861,0.0752291765458408,-0.24538283148274276,0.2490194599400578,0.06118224106420944,0.35169134728407864,0.31658483980301794,0.038332839329630095,-0.09105845644996442,0.12617373942806093,-0.28941893339005154,-0.35145715067868516,0.22838803586056744,0.10220332750722019,-0.19174355877474997,0.22911455067801692,0.4142357472423486,0.4082033273933561,-0.2757599510425808,0.29720896604099606,0.017891405474520273,0.057108222819932615,0.6954018721491521,0.019750861394036923,0.11493498600770698,0.8048625617463296,0.8066468480880483,-0.02862676072463912,0.5219831179512532,0.24433876207874583,0.27621863133027613,0.47618503413308033,0.09086425092428883,0.01671741387973019,-0.1550829881084777,-0.35063536022464264,-0.0449640651463418,0.1273698241468732,-0.4519473394657783,-0.3898555018249606,-0.35893284393834485,0.16635826437538379,-0.3141574646614793,0.18645962697760066,0.5973950394310202,0.5137101360710379,0.04033679778930242,0.2917017735700318,0.9619086236100389,0.3744527713800692,-0.030312274412973798,0.3434443473240188,0.5370986928565634,0.3832365812311623,0.10536204353851868,-0.19302738839397143,0.5454037517455355,0.026838071693094167,-0.38013748279388815,-0.4353222972844229,0.38664211840110313,0.34456992050411445,0.1774080763450639,-0.05332864765958245,-0.23309995022004776,0.15685056489475285,0.20785397502665798,0.19630501714547482,0.014517757737846597,0.462004090052704,-0.4719866831807558,-0.34853463118565225,-0.1602389326105931,-0.34183033528318874,0.3965262634201923,0.22606217819138075,-0.286158761589249,0.4238053470215966,0.24798443457563718,0.19252394837146383,-0.35123520273549635,-0.1859625512050633,-0.11098520819211503,-0.35875534567829087,-0.4874693017880467,-0.06300688626393679,0.24103536772403314,0.3606046601417454,-0.24707044428659758,0.08526344460282002,-0.40681414737655347,-0.24723561720296744~,-0.27904773323662224,0.08107711530922541,0.12232180882534983,0.2773291550304875,0.029321652299918854,0.22753633546370977,-0.4318128209462817,0.36732667365378524,-0.024505817140258592,0.48821170305797734,-0.28473596295313686,-0.5038656882301288,0.41507329056190223,0.15761365575855396,0.20240304137939508,-0.36029804234000895,-0.06861748633757926,0.02279564499071295,-0.2282401381904352,0.09678722130882596,-0.0014196253617041019,-0.22220184498521733,0.015846283745191456,-0.1695758706533892,-0.025081979767931608,-0.4654992120862538,0.11129273400372926,-0.40553775487489796,0.13108084721606983,-0.07174502936721376,0.1701632656322457,-0.4269669116713738,-0.11375399809073565,-0.14086323938867482,-0.3160854359004672,-0.20227553784971086,-0.3034874176969875,0.1252163554337017,-0.3423350558829401,-0.2545197087575549,-0.009793469407961134,0.048114403486421944,0.4476432497846281,0.08339223779241846,-0.4926761086915116,-0.027841421112328422,-0.03853448130546866,-0.4902946407747204,-0.4338381165938327,-0.4062460705394163,0.21739961372855368,-0.011985545323165456,-0.031967145712019786,-0.03308372854700418,0.0038246564626271823,-0.3500794558618465,-0.45621849297373496,-0.14569235932925018,0.1850487443720376,0.2487579681246734,0.3914319537778356,0.12332204219243137,-0.4189032533117969,-0.03379027999361413,-0.05392059970780121,0.011594008092337347,-0.13505021816536908,-0.20515971070815586,-0.3158292000628871,0.45067003797504973,0.1588253942044485,0.8058814315105794,0.4008512995279907,0.12541831048000826,0.00998693171496566,0.030185576355617968,0.34536922528244646,-0.05420856102000106,-0.030185599055170785,0.207947844506994,-0.048599365525035715,0.07982269646254127,0.1425239673058617,0.0518773315383212,-0.2714012986287093,0.17785077904835211,0.177609835345131,0.07215674235238778,-0.37069229658268515,-0.4263228393855297,0.23047886930241168,0.21368256502816382,0.5709654974687486,-0.22904976283380485,0.3031491877569373,-0.3344736453915189,-0.9059990852520067,0.05988986712222714,0.0040830869727677965,0.43094273431425534,0.28788946233685125,-0.07021104926178752,0.27154000890519125,0.3573753126629907,-0.9117860116294964,-0.3523419871660833,0.34753101529598573,0.5326560474297102,0.3817012512623971,-0.021751462236232564,0.05878441183786648,-0.3950672709725642,-0.46800824891039994,0.10883145533744931,0.12020977346849727,-0.1336132330878069,-0.3947372833563722,0.055368197972345386,-0.20008422495127373,-0.4190508196015532,0.3957254307383102,-0.0330622415094539,0.03609536798355805,-0.07321917854660757,0.4344552834017865,-0.1596455619277211,1.438459083886498,-0.6017539494978027,0.4870904719657019,-0.0002549621228669252,-0.5591538064499224,0.11689181970724227,0.09488491481888496,-0.2762048343009691,-1.1149671538275148,-0.6376172095707163,-0.7738264664909958,0.01854626061053572,-0.5948775770230348,0.28095178366803353,0.4247500525745965,0.33122501116653136,-0.2944641676967912,-0.43401451936929714,0.1620681299662776,-0.7939640956783416,-0.2209136490178838,-0.199432501277743,-0.37200348396169075,-0.37706540343455236,-0.18864032790878874,-0.12507686832841464,0.5903775721214791,-0.16497949970773387,0.17135575440702025,0.06340459299412995,-0.7377939620673968,0.05072059750148227,0.2204428471502348,-0.312561253335237,-0.1260287352416079,0.008051670308996667,-0.23755012783375112,-0.17852741077921813,-1.0798325315233104,-0.7294185294958818,0.26746110181331595,0.0078485797652117,-0.42554251404323606,-0.10013979644733652,0.39614060595089146,0.32933131106757885,-0.3208428861984502,-0.8382955325077956,0.652038246043205,0.20878578504605796,-0.8719234897485919,-0.5698323945908944,0.07012594256078072,0.5191604256892863,0.19159659246184474,-0.16389918283358412,0.3769817702423901,-0.17028521891433024,-0.20556388736558417,0.36599832323556813,-0.3483275520641389,-0.24303099152372715,-0.3903654600837586,-0.22409629107493348,-0.33743854103481596,0.6972833414929209,-1.4938102836600653,-1.33050779354499,-0.49134937272494617,0.11253758696650973,-0.25838087350346484,-0.3497572798470122,0.2893438758442781,0.08438939413757703,0.3285771421747566,-0.1926508844284229,-0.3888708790375661,-0.09697440213311337,0.9230785454938814,-0.20184607239261346,-0.17556853699204772,-1.125603115709651,0.6676627433061739,0.16629846976529747,-0.40263698399581715,1.1067852990003064,0.10678559039504941,-0.3325604624486565,0.23405870053481048,0.3248013946930738,-0.011329653015058666,-0.3726394116673718,-0.05294372057270136,-0.24404375189651875,-1.2312635533502838,-0.5277115844322546,-0.1540688751598881,-0.3885520567381349,-0.36817432472827816,-0.07363546241537063,-0.17709025400308476,-0.17701577970259866,0.1630979505936211,0.3593701451675989,0.4783492782161814,0.05033689859350622,0.4917109182967259,-0.13754861913647443,-0.15194865075333858,0.9468163245666531,-0.2982151651084401,0.32281372657920726,0.6878884302013388,0.48010951647992095,0.008594695629818511,0.16331228742749174,-0.15933912521002697,-0.46788899522947247,-0.32609744778665267,-0.008654639666064659,-0.16015096280262875,-0.6327659787962236,-1.3172117510122057,-0.06139203359816231,-0.13127334464075657,0.4451192744866387,-0.14287764764802105,-0.050213308319973574,0.011311277199039373,0.4052014008732887,0.646565019963537,0.6839190339553811,0.2587345812541548,0.658585613374617,0.7530746072783634,0.33184496433981625,0.10294704471453144,0.01117230444222689,-0.022743236975270618,-1.036994228412152,-0.17943845048499651,-0.662780961091237,-0.036339037507664436,0.4327668613867022,-0.3458543193103578,0.4354607178711343,-0.345992143101044,-0.05232436589039426,-0.3883210004915958,0.7538738854587922,-0.6909546062659823,-0.8741650122422517,-0.41083715177292995,-0.08526862301637639,-0.27251639855178933,-0.3077617327531266,0.3372799748676461,-0.07665623844642823,0.22734671278595026,0.5842051937449826,-0.4379717251703763,-0.40370719777424086,-0.4966749088338657,-0.9920351433409407,-1.120477598783159,-0.000981827102714045,-0.47161385770746883,-0.3052686485812184,-0.15196087164092265,1.2488154592448855,0.3782906051251503,1.2261704222958174,1.780598486337816,2.191558486224741,0.6578244316896269,0.6507534309957146,0.8204059162788048,1.0958926434564071,0.120787981519285,-0.46708356587592115,-0.060445953016123107,-0.3509191615738005,-0.34909410354275866,0.16787558019628573,-0.5202883701631866,-0.37754372673918823,-0.6417064696692724,0.46728452871165904,-0.41415840643290763,-0.270590376033596,0.16963293624022102,-0.5470433140776424,-0.8645533541807159,-0.4281274790511746,-0.7280785069329966,-0.214700911072369,0.8596875402147274,-0.19860274018519336,0.22603327752654717,-0.00022256719404918892,-0.31391427874270933,0.6809212645284313,1.4941058257161581,1.696072918328859,0.7251390514948582,0.5452523873381164,-0.14827944857829203,-0.08445159678788736,-0.07873416067505215,-0.1553099219163947,0.3251369627605232,-0.18438359615114858,0.045448897008215,0.17640714930643192,-0.7489180494457555,-0.5902419594118207,-1.0433941368611626,-0.39746272200861227,-0.9378342605574288,-0.12480247882554277,-0.10815213067811019,0.9686664023589109,0.2772251718511734,0.029358550124720488,-0.05835530038679228,-0.2974437239054006,0.3335994802199577,0.3931020289184885,-0.4426222406405203,0.25815450207195745,-0.1550904653012515,1.7750028884103475,1.3112546937323395,-0.10313405863584046,0.77348368766956,-0.31350429625189125,0.016217929412177264,0.04176625552836902,0.3202225702500876,-0.42699299186151496,-0.5066515747533704,-0.7210770680621628,-0.9491943908330532,-0.09545912755022472,-0.3757888925685688,-0.14869401956339465,-0.020204292070564792,0.4550317951444831,0.2108411474452806,0.1996248444327073,-0.27651083591626036,-0.23120504370985306,-0.17383668646488998,1.1052693235597202,0.4892967921515955,0.3192638324512155,0.028886040663269812,0.09920164038026703,0.3087412888367856,-0.08820262234795384,-0.09561995710550793,-0.7469569838076096,0.5133773336006325,0.46901253619394523,0.24577470490987421,0.5720761430755218,-0.4362602457903843,-0.20916279515584849,-0.06173233571145634,0.3971933907222219,-0.5956824949119162,0.04422498814444052,-0.09188721220798933,0.27847253060344446,-0.1118064572952356,0.5595044684145051,-0.2635933178686541,0.03277199455769349,-0.1665066179631376,0.7120275559667641,-0.19720202104606457,0.0680835935050032,-0.42302259054181834,0.43940264764993187,0.14656784105124968,0.6899301993615764,-0.4886613237941901,0.30305032407096777,-0.4709003106248586,0.4740916787561685,-0.20487330033874887,0.8983119486781669,0.3218684943054631,-0.45178773533931865,0.1147634195904775,0.00398504835345649,0.3312031369146207,0.06590096757201672,-0.3400569344147599,-0.07036756702946766,0.5614925008253803,-0.35212660726673367,-0.1424052304127782,0.47080076765761275,-0.4353817382428626,-0.05583436107440959,0.10260356210194348,0.20694034434823544,0.5826922374117078,0.40973714077190715,0.23080026184979907,0.33302664563137446,-0.5977204620307703,-0.23239801043955655,-0.5965317739481796,0.6974089741915149,-0.8344545639986986,-0.05768475917122488,-0.30912761491612584,0.9082120662474902,0.09614625768021062,-0.4171305916866586,-0.24096818885302454,-0.07827904429798223,-0.28571486565756843,0.4725649617334543,0.530088793640509,-0.07852259468097338,0.38769089971055043,0.4966319644661385,0.8593102770381343,0.9566560735496106,0.569187733388227,0.09447966573171339,0.5091739064748915,0.6450027478441327,0.10509355730119929,-0.12691591273904648,-0.11382917441870025,0.3028961430972953,0.3843171943204596,0.5230053938575963,-0.996217627138931,0.17984069409231637,-0.9735565534492812,-0.4242961598702411,-0.18544962334991066,0.30262423818628637,0.6375915490035226,0.20748991311582046,-0.4473830881504678,0.3670697580089802,-0.38215077860737506,-0.20558602731598516,0.8097262441606712,0.43982332521777656,0.26529161668829443,-0.9229561569291597,0.6585504143483436,-0.16296261890527153,0.8793496592193919,-0.12241139895360666,-0.3968468176373418,0.2889163026542738,0.16323381498056772,0.6625103536560648,-0.16376911986402995,0.3063917927047326,-0.8159369591202169,-0.28619417707292877,0.10890447354401833,-0.3862949926200199,0.2059605578743979,-0.44595072416005943,-0.44888972147445744,0.23292302436613344,0.5798792232333752,-0.36086847916315967,-0.17127980028291476,0.3731447924578401,0.40202548149859507,-0.5223234507568411,0.17692807936082253,0.31255212972944835,-0.36714620675087234,-0.6000028356290601,0.9679521848575865,0.41578292666660477,0.32202787846973296,0.7575702609792058,0.6411813459191674,0.3025773304499122,0.33647639836898996,0.19856326311552638,-0.052083181814360266,-0.15922136743280968,0.36339660828226444,-0.6548120328948551,0.6017265786913055,-0.654734682257773,-0.09882797778540509,0.6616198719239132,0.28978876334669,-0.10039578701430431,0.23062609848472335,-0.21091400557357548,0.16930689259192794,-0.3699122093907239,0.4712967519307426,-1.0612643730690918,-0.7592392390581671,-0.1868893488709987,-0.4949813491607726,0.18892211276919835,-0.6168078823573175,0.7682441934548585,0.13237856007583126,0.18542826912134674,0.6572069025603292,0.6187193256315197,-0.23032491175366582,0.3399563641606918,-0.3659862472956766,0.2965605132352915,0.7167946075522509,-0.5525169629433568,-0.20827497473370662,0.4369035012761889,-0.15895396648643312,-0.028766780235703615,-0.8573466789727376,0.21624529372990778,0.05969123589993508,0.04505419362517797,0.21831800482814134,-0.32064807084108327,-0.33924965639610305,-0.5571357956101995,-0.3551030432572297,-0.6904716269910077,-0.5722308913756001,-0.09765345596951171,-0.592033391206809,-0.3178269822608215,-0.5603376175478164,-0.03470370496725942,0.34390492620264873,-0.2250491329262421,-0.1267308064637162,0.22199633847620806,-0.1252748403139803,0.17847404354276625,-0.12252125702203971,0.026489767941254058,-0.35456778088074725,0.6218118622426231,0.3498787864386368,-0.8952891140047241,-0.0897244647204346,-0.1775318611180638,0.10643973462135904,0.34039370044452627,-0.1316258124377428,-0.23870539041739391,0.0847563638779696,0.36130071894952914,0.0200503687591126,-0.37640139446013304,-0.06029877680955825,-0.7045388381428616,-0.6925768299152747,0.09947456933115974,0.2757791771886537,-0.3603353967313633,-0.6250035949362712,0.28456070549717183,-0.6151266870503234,-0.348293764312809,-0.44681996498249427,-0.18466913321511172,-0.45801413690285203,0.812334092402658,-0.3856207137500896,-0.3646099464222521,0.34380299067364267,-0.3464196154426867,-0.48282143163233676,0.27026548669452677,0.1477111662133086,-0.17850642129631256,0.4118861952485021,-0.03280878119124755,-0.38915352337770337,-0.07911363939003256,0.4561925376685405,0.068831973717071,0.7916109244488783,-0.03716050713558572,0.2634221423707599,-0.31379337006998537,-0.14622499316216533,-0.5923383000992413,-0.41367887831003514,-0.11794808017522057,-1.1056954655585207,0.35204862603039005,0.20607747627509343,-0.07230031850349641,-0.2268351426305954,0.06972843601196718,-0.7676629003527031,-0.1466994587932264,0.08686253064411845,-0.4550853030837019,0.3076965830743218,0.07755132451816048,-0.01234425582191869,0.2879457646800889,-0.06756891458783622,-0.07803906519533226,-0.49677395794622053,-0.21691246674812226,0.5789686676985738,0.09809559314064296,-0.48806027325080215,0.4239581778085794,0.6641017350098805,-0.2562222916655748,-0.2826615335479795,0.5268458388520864,-0.06528940757236136,0.30273995500140144,0.132187390021617,-0.03661299590875038,-0.46318018660999505,-0.21029560028362096,0.49230184579231334,0.2607735629672694,-0.23972849726016085,0.46159115372578646,0.4040767995760991,0.14709469165227476,0.4472182684219986,0.3755058474629395,-0.2560715329386261,-0.353504145793449,-0.3557065627901149,0.11874725199508414,0.04271796794625157,0.2968665505199325,0.13175947789990342,-0.19228975369520657,-0.3599641922227207,-0.6957804357685248,-0.07054527682265023,-0.7291988175339581,-0.8468632737790177,-0.07418652380832967,-0.7500045783612826,-1.2758736338433805,-0.11677254786966078,-0.07002727948887677,-0.04191853413415477,-0.5468432615591232,-1.066309908112026,-0.42685992647917187,-0.224654902950205,-0.09412550410906034,-0.00685370810063151,-0.04774974548192528,0.09795175751512106,-0.017428919678080187,-0.39699318109582815,0.2564856021053433,0.3941178320809302,0.3529952135244445,0.3788300910041122,-0.37465397295965047,0.14897164830492973,0.2680624445152258,0.33916592814982754,-0.29914758552245996,-0.24421725419615042,-0.11060071180088149,0.17723289648978305,0.1530743190876542,0.2831497926343305,-0.03192242229000786,-0.6468216273243306,-0.9095665536762986,-0.9908208228141417,-1.5480654528413371,-1.7063388441410676,-1.3496467147966578,0.08924319077273427,-0.2778721700215227,-0.3260446474536218,-0.040846503122169725,-0.23828940252613834,-0.4772556919428528,-0.09315572950578235,0.08198949382309213,-0.20290255178913652,-0.18584093072726715,0.18654278906554744,0.15632194541944386,0.08162793618979657,-0.2726634964272832,0.32482000667525296,0.27075516043683234,0.5153321676999003,0.24103232049024037,-0.2482668850269256,-0.46176778669441726,0.028565112230379705,-0.7786859763197425,-0.7910680070426634,-0.14796422845551044,-0.2089502905456332,-0.4009944185415789,-0.6797545999657697,-0.5916161769471354,0.3418281386809111,-0.3540561076652145,0.22676750318737815,-0.2074162289018982,0.24222220782622683,0.4489126350534684,-0.11174127736523935,-0.46871443234815025,-0.4068523897152624,0.2468511441617689,-0.48642527221664233,0.05791359442143058,-0.20415069780308873,-0.06337592994966912,0.4365064262665932,-0.03674792655342663,0.25057116243493543,0.47936292310829115,-0.10990470062922356,0.1313842317327863,-0.024190166791346522,-0.5174348870553495,-0.4778373915136365,-0.2634689260583559,0.5715735360587871,0.44844956351849424,-0.26391965378820836,-0.40420746193907614,-0.46319834357182504,0.08144165002123223,0.11116485779827377,-0.007125711522278169,-0.18383057772457445,-0.010601402079819345,0.2602770572099039,0.2981579363930803~,0.016439697119783016,0.5287657394111013,0.14114994410873968,0.17816644459521078,-0.029128506393264492,0.27608306276127603,-0.21397301981491215,-0.3057960637911805,-0.39921404323768817,0.5090876563910133,-0.21047779787842683,-0.35240105353098994,0.4742336808361411,0.3986126414854644,-0.14015229662961845,0.2705263171915662,-0.4138663095599344,0.004432876645774729,-0.013531154296086693,0.24287698747123884,-0.2024974389691925,0.41707969207526374,0.44249852191909333,-0.2789787780603237,-0.31350385927995084,-0.23045855820330538,-0.2878395430080365,-0.06053229780008629,-0.3197242571696275,-0.263001921036511,0.331102704653084,0.39659491504700894,0.04165917087847779,0.010573853018671062,0.41977114742112187,-0.3139529798510919,0.519015577793823,0.06108468471655933,-0.10578327178342925,0.40265011021088637,0.14114457595684457,-0.03526768585256081,-0.29871168302253764,-0.4904960978593892,0.33520524052037015,0.17375223635808562,-0.44886922111927724,-0.2943278003470379,0.13446213240441007,0.1897717730672455,-0.33135142240957155,-0.4585228615592775,-0.023998426661196674,0.472100585149714,-0.020016177641127463,0.27998948074062724,-0.29872380177801516,-0.43642704221287665,0.00842284560267765,-0.2029298428938452,0.30928924146297554,-0.1265788783672363,0.30844623170693763,0.30105070812510126,0.053842434698799665,0.140284267171927,0.37368266217019125,0.3679921983790801,0.10882570256147957,-0.09113673598110175,-0.24129749339896422,-0.44889849586911135,0.19004904011120174,0.36356939342394357,0.10374734410197248,0.12649593431173745,-0.5753674694250817,-0.07621110542954479,0.040252084785480466,0.4991466911729653,0.3620578258679783,-0.4332554769582468,-0.3868823059360694,0.04159649462476184,0.44183608213841963,0.15062692939683733,0.43866592230790213,-0.17631671259356438,-0.19553851585011048,0.12354315960407478,-0.30309233020356896,0.042369315179686944,0.40977201480086045,0.03342798135167323,-0.23399382481415196,0.7333223577745682,-0.22007514357190874,-0.6197730271207468,-1.1647805183673439,-0.3627942422202836,-0.10833014282406464,-0.7957636402629951,-0.692740326689246,-0.5718001883716812,0.19875310493702827,-0.0011969034020673254,0.0017430274023356633,0.4616634651237836,0.48616110348107505,-0.10256016233832309,0.31019529497121967,-0.1837367321233643,0.4371893210829837,0.30849666610968346,-0.04982708344891713,-0.03754803500821605,0.5073907188874158,0.07403464420392733,0.44385828474883265,-0.3146687462244814,-0.3449488718277838,0.06605907692568892,-0.28568547070990097,0.28536146072090113,0.23515339226946158,0.059686424646920797,-0.5788183972099231,-0.4052238360683733,0.3508750320919645,-0.5853575707812494,-0.035871516354353095,0.2854783636254709,0.13663292752773273,-0.016448070012535086,0.2764344154781484,0.06201448108682437,0.014237016960981584,-0.10904972480212634,0.2488874345453899,-0.17357914377513928,0.41924052687697455,-0.302223098912473,0.49718662196860786,0.5103459598234729,-0.35632230350294847,0.45219493138736083,0.04470455548432833,-0.38770677722739977,0.4473844699380034,0.011742497994288592,0.24664173655261698,0.2732644246257864,0.6783682263912014,1.2262100257916746,-0.16081239367396302,-0.45746716467138887,0.21305707502078264,-0.1392767145627369,0.03342170176128538,0.2165492381721071,-0.2869111136470988,-0.04259047641981028,-0.20852804914576284,0.020455050669292478,0.34617511464608214,0.1608861003345837,-0.2119440399107124,-0.3182472632492039,0.3052884265693676,-0.28591388327367945,0.03148947931581111,0.007665868126394275,0.3020336361870919,0.026062810104081104,0.26161165867767616,-0.1385535536776414,-0.6551472383401695,-0.07661127120979207,0.9612538749861003,-0.8194188235264156,0.15551454100086098,0.3992841997115155,0.09676362845829303,-0.03764002659698586,0.3319862052520826,-0.05947042319300563,-0.39963285814263594,0.02035047486334343,-0.1346684278339161,-0.2357228114155813,0.3048091951851778,0.049350971615356294,-0.19232479296971397,-0.2836933721420778,-0.09217170640750594,0.20444778213946324,-0.09207631158953632,0.18449399278457657,-0.2596259893421378,0.4978455328836223,0.6482293721363556,0.1415432319319157,-0.027999836944105187,0.5157305686609223,-0.10105732797750366,-0.11405811560182978,0.07921666803583872,-0.0415281971302512,0.43304249702715153,0.22753775705044804,0.4687041091712411,-0.8569016865915662,0.38987916829622826,-0.057581906534403725,-0.1214595736620404,0.3354074616026035,0.0853974277201452,0.048156376947057856,-0.9852587503705125,-0.3766401830484921,0.33291181945181547,0.16162650509007478,-0.40928770093982275,-0.1068398918611059,0.19382193264536604,-0.2278140277451464,0.13659683410700857,-0.5543339958756789,-0.16541292309750172,-0.611110212785357,0.17898813673775146,0.563014304397843,0.30116760719529084,-0.13524000696717225,0.5802421546491426,-0.05619299967330732,-0.17223599545991386,0.4462705284488168,1.0241354388110882,-0.06892379249417617,-0.17116122027235228,-0.41426321120207654,0.4417688439330314,-0.4249967433879715,0.16269273547176166,-0.02946215938546164,0.3348187391265196,-0.27416686901866466,-0.3758857326187234,0.012981350207625168,0.1466694359909208,-0.19574819516117867,0.17345436887003118,0.008791527811016773,-0.0707186650284546,-0.38940345287219824,0.12451251624657003,0.6473614404958719,-0.5750608661769342,-0.49095749425455965,-0.4034319111888338,0.43241981353766185,0.028398805419226035,-0.33560635501733127,1.0924515964726613,0.185728134434827,-0.002149715227222703,0.13814126840124075,0.48368813855803233,-0.045729558136412926,1.0266906852885496,-0.3714460754923255,0.11783973524574792,-0.0804261450120432,-0.08905141975325308,0.3266304373364341,-0.5766728664688923,-0.3098849567611884,-0.3102053497485033,-0.3229380839776302,-0.2377892175324976,0.4107429530388108,