#~,-0.5048940052425355,-0.13704013895021283,0.12748585418982716,-0.2757383484903056,0.0004393995222059529,0.08214944860526564,-0.2895417698962868,0.43161296571397206,-0.407865778097877,0.02690183476929839,-0.34151505816591293,0.37080927287278515,0.28225264667391686,-0.23562504710477494,0.11345548087994943,0.19386334772945463,-0.49780649352641165,0.3629051971239204,-0.2483431740896091,0.2230702824178804,-0.4846087198079269,0.13541988014368345,-0.2117264719245614,-0.49505242318399983,0.10072533844966684,0.005456889871756155,-0.2206823186504291,-0.4405944876087496,-0.4691669083495575,-0.329621932266332,0.30049645583133405,0.0009722057783653747,-0.14401823583297518,-0.4704056420743324,-0.43597120300704056,-0.40203103764970555,-0.4964710509134947,0.06192642823736221,-0.0456053455858699,-0.16878982645082558,-0.5842874016524561,-0.4433262904271745,-0.01564123991588139,-0.5377450195255201,-0.07469582542630478,-0.23588079886956698,-0.047631053689261044,0.20035079885023355,0.05360406440232944,0.17270935256089232,-0.22767364883422114,0.4485683736992426,0.08040208006000539,-0.13388262561562597,0.35065946929713315,0.019963165246528365,-0.45501740469228086,0.0031323914102880978,-0.42498469814654066,-0.06846863307358185,0.19533239297461474,0.0715237275078817,-0.26887040651376354,-0.5667008577533723,-0.240243583066144,-0.15537635590097115,-0.6363914245378129,-0.11939990442429028,-0.09916361310024291,0.054978064730026775,0.010386414812711506,-0.3549690188159017,0.2630131339274705,-0.06740717648829711,-0.08372020163489814,0.2761014938373324,0.3065712530268137,0.20559425040260262,0.09117931336493516,-0.004205940460174459,-0.32688765510887713,0.1830494250958602,0.27399110618829453,-0.021415785340853165,0.038004424955480995,-0.31734839383956054,0.41197105773930526,0.3261516750422639,-0.1964902264077954,-0.3349017903678289,-0.1619976415196782,-0.34237128386842386,-0.2519146014621314,-1.0207148529955126,-1.1503163858714838,-1.0344619992657833,-0.3958845602619547,-0.03465191517114024,0.17458830865512664,-0.35587163361161767,-0.406018377995578,-0.6876367592779533,-0.31803162283673314,-0.5810707331602325,-0.5872514595515469,-0.6568280951406998,-0.48886122658805736,0.3231670525773626,-0.07617673231265569,-0.1337887884112989,0.36537508568367555,0.12253034673149323,-0.3038841656111629,0.1470386130989506,0.45302914085364093,-0.10756882820371406,-0.4539916745842973,-0.28091680974364147,-0.13529619187801736,-0.557329094896287,-0.5122028939595112,-1.4080893799192593,-0.5416186714509102,-0.9042332810730739,-0.08532620018477319,-0.3463752755187108,-0.44774498995387596,-1.3470505779870958,-1.9294755114060735,-1.9201596428485233,-1.634414722011065,-1.34002261591643,-1.2907282533644315,-2.0403501477804302,-1.1932673311598976,-0.7262368846371596,-0.5638489892736182,0.18758019626474987,-0.5091474462204747,-0.08792254394901873,-0.15337649905831957,0.15103185833038602,0.1266765438471979,-0.32996410080671507,-0.4240775147325722,-0.3587533631410351,-0.050098248429436144,-1.4143604517940682,-0.6627175805962265,-1.12899928753646,0.18598282688844586,-2.2840347636439344,-5.670176069791933,-7.601596131764867,-6.570021011404403,-6.041443211640405,-6.032379678813891,-7.219829135654351,-7.900957550376818,-7.037272799047978,-5.246846554285028,-3.8140497747690425,-2.917102752928468,-1.8456631808136035,-1.6760468184264712,-0.5688714747930163,-0.5722295706320253,-0.6830657084196369,0.3653005614759091,-0.4036488047213625,0.39355179080839947,-0.18672829706815064,-0.8012066033915709,-0.06885784099292039,-0.6038305063690268,-1.6699161329528207,-0.4255075311693276,0.17632534931479443,-0.39264022417845196,-3.9128958703801566,-8.754679524953664,-18.571495460806922,-14.525709676109454,-8.377107757421674,-8.94100224044679,-9.274181762302966,-1.1798131329321948,-2.1895767142878086,-3.260596878254952,-1.0051681229745124,-2.1520246511794703,-1.0850377901934165,-2.1583757728801842,-2.16406086219975,-0.29522453421383926,-0.45419010015777517,-0.2955212865906938,-0.17165255918649844,0.09224330838774195,0.6380838302854913,0.7451765395790189,1.3415954662146234,2.450617604187662,5.307314727852637,7.210116799109809,5.262165332419385,1.3654732658755175,-1.5853043732991157,-10.202128923161725,-17.596516926968107,-20.22517045026134,-16.587435811598475,-4.001800916628554,-3.1033523633157976,2.422019023449362,10.246135401367262,3.6478674187245548,0.5874825813584718,2.9145062326804396,0.9345104630401192,-1.1675117023718615,-1.6903178260217697,-0.2626294267466842,-0.45840603436115607,-0.2094580038170231,-0.49652153171962926,0.2263523749840822,1.7028914397791026,3.4542343031271883,2.690234048707182,4.831840742131649,8.090338544938305,7.034006421111227,5.4010818026914045,5.998156206718009,-1.1650678240999868,-3.3825661743905058,-2.745334657448459,-2.5303428973798634,-1.33406035357589,6.980057046885991,8.522116582988302,7.429918262116375,6.699847786391787,6.944473433404387,5.123227482703406,1.383800690604393,0.3085997285162716,-3.154908609832034,-1.4750638534734737,-0.8569173966338876,-0.5232545658719409,-0.5146402005709224,-0.11873555962103623,1.0705425700635254,3.2028440242782006,5.679187845291165,7.002567413216502,7.1783310224889565,8.998440063712666,10.126667381397912,7.723965267030702,4.360856046671373,2.5109553255880144,7.036102668447311,11.641400446913035,7.562831554258044,5.606627124703413,12.0531668888851,14.398865915994104,10.769957311736519,7.247941032015671,8.49119005762927,2.599408410523773,0.5535691187120722,-1.5551653475114424,-2.1856939441021583,-0.2666333519252063,0.28050472499034723,0.4215382349121596,0.4574767551083078,0.2810974098771846,1.8481993668531846,3.7870144202607983,7.433410292737846,8.05499081888998,8.199699188666742,10.799837874556335,8.549672574034819,3.1630486477676594,0.07045230711999656,0.06504576704770282,10.845571005333671,9.58740649267418,6.927859463674986,3.491649940699903,12.862099876573126,15.7934051533941,12.42121493085546,10.129660248054538,6.849903318484722,2.7633474948483863,0.28430608598184043,-0.1741849566748302,0.12812096014535307,0.6833652394902767,-0.1368636838524801,0.13824414831824108,-0.3857502859320339,0.45590260655125464,1.4632204026608968,2.3086228757574054,5.160521425147855,4.180725470776451,3.396806233437,5.430059797456666,-1.1258802539235226,-3.8514127624388443,-4.473354089846042,0.6933991698072979,3.6578854996657206,-3.176677083573518,-8.822932433891692,-6.857366409011877,7.19468852201912,13.871537461619676,15.082623787198125,3.057063683885399,0.34990677427181816,0.7241382003467707,0.4531569837606039,-3.2189698492501138,-1.571310344503363,-0.4735107708413351,-0.39061920564459246,-0.4915010232394053,0.1979944093885897,0.1681514365212708,0.5176580798607008,2.135672011556484,4.624086595173888,1.2602010965017711,-0.36624295757866837,2.1773716776837446,-1.7036656094370608,-7.676912143248451,-8.045601376021786,-6.797537922495927,-11.507193230794373,-18.754300950527668,-22.66101820512627,-11.062189863098942,-2.093363072476212,5.958932217539469,2.7705665901131344,-2.989252931714335,1.1109719888412313,3.6442699088877095,-1.2835100709260732,-5.987549642334505,-1.1991227220782612,0.21017485782521345,-0.3781662086412073,0.14144955675781834,-0.33069739408912363,-0.26214880199485874,1.560810153812751,2.0728044522895153,3.339052422670759,0.1998933468791254,0.9730830295496706,2.5419425495854755,-3.037920663446479,-11.49520832831672,-13.380260215535035,-13.40703216937059,-20.85417837004799,-24.556957706903937,-25.772568486216343,-7.779743143981002,-4.696219858232341,5.613543475882995,-1.1134000186594517,-0.5182647805906028,7.887241477393893,4.41994683349044,-3.835149193595693,-5.001210126054931,-0.3815981086699053,-0.47144805129745015,-0.4627223795407029,-0.05378637588383245,0.3373369220793028,0.1492311228819604,1.120047646596146,1.29465173541958,1.45049629049917,-0.07349248854975822,-3.0451637921954777,-3.0262135484234087,-3.7185874830579166,-16.727516651312392,-17.429702718658042,-18.565181366851103,-24.21993285342185,-28.59641396133166,-21.077830114602442,-3.501962595795432,0.7902393554463265,2.9151587870855606,1.7184840558135241,1.858278405955522,7.215300397549622,2.955253220179541,-4.486368202489628,-1.9622359040605475,-0.0073055233994310164,0.3669316397558649,0.223309914075904,-0.11835160659290904,-0.42461150543244547,0.26267674464038365,-0.13792724232325218,0.41095419947074313,-1.3948497232205317,-2.306359062542187,-4.357814335524268,-8.020139312268352,-11.582702433877472,-15.954544102484382,-20.332135726580837,-21.4649377244459,-20.5183269851518,-19.520823756843285,-9.729143873988415,1.2022337933181,1.2384605463656835,6.191156981210211,6.331345122550678,8.315366038928072,8.229994246644404,4.07954528548583,-0.45270830176411464,-1.7764852759727576,-0.32728610602818503,-0.03646295130844756,-0.47809435313734516,0.030943527588014927,-0.10240844621780361,0.04244339065044132,0.14749418817267687,0.734199122539325,-0.11878319185458447,-3.6623420063447387,-3.713272112179335,-9.128325520275549,-9.925777360168128,-12.762926463974065,-22.666794020462046,-23.822278526339588,-16.344895459142627,-10.19578948080347,-6.5988106668252176,-0.16884400229359073,5.922587546488371,5.818096249711924,6.768232334181641,5.158841855148329,5.292815677601636,2.1256439976568147,-1.9079387469656885,-2.002975947588069,-0.4839874934150471,0.1377449695416771,-0.4360359679443309,-0.25366602937698174,-0.01895696673503288,0.17188861184043225,-0.261566621869704,0.41327582515128275,-2.6604172861818958,-3.1168405439885465,-4.330782251875669,-8.171539675515602,-7.129231198357917,-4.706436566375909,-10.23545178041895,-11.732017941176915,-11.763408177813693,-5.712836756188354,-4.1921684059921684,2.154889449350132,0.052371718232700336,5.205962220421226,0.6033308844504633,-2.6688474170769902,-2.116901105022049,-2.5430875914204947,-3.2472138286248713,-0.7490665681975238,0.06472594415765594,0.3790717780136441,-0.4866210732093425,-0.17592296000938107,0.40348647179765956,-0.2913394747737384,-0.1625955386526702,-1.035546365916177,-3.33561624538548,-3.5463451169271236,-4.617612868711262,-6.327194488148459,-6.345266682510205,-4.704855306559198,-5.006047944694619,-6.911825555894905,-6.027595959517776,-0.616817618012099,-3.054988480854182,7.200818810582119,-1.2267194373896477,-4.937624846665046,-9.142391400207314,-8.524442447661208,-5.42851252274841,-5.390188971726094,-4.467493211644563,-2.3163053129131033,-0.42424527162733294,0.3084290218215371,0.09145785884416206,0.05648781648835817,-0.4337924712872631,0.12013811475327575,0.10806520773082348,0.3367843489119772,-2.6755500595986974,-4.709548715613788,-6.359636141782162,-7.469453407955623,-9.786249769483174,-6.924514368539521,-2.889779870884932,-0.8658570356525116,3.3519200558702233,5.662269481589455,2.6446162705558276,2.9796540550697883,-3.0434018490771053,-8.910206588440266,-10.002564313080345,-9.478073860201267,-5.255217141583902,-5.239535462684822,-5.200517837873671,-2.1949124098751103,-0.29944434999210623,0.5096877594803714,-0.292546045655187,-0.06001645990316706,-0.104592758008363,-0.22273014284581627,0.22104232519232733,-0.31782455508093616,-1.6351325312266378,-4.1920045981117875,-7.716655544305146,-12.273163193050642,-10.345485404890386,-5.148837623838975,-3.112771631201963,-2.6515106001282875,2.310256359514636,1.0740338154272455,0.48853174270900823,2.570770589095566,-5.367340650446731,-11.14964180119546,-13.51928933935778,-8.357948460320774,-5.088459132753141,-2.922440866351406,-1.6779851883425874,-0.9906867185755498,-0.318897478611121,0.3651635556760061,-0.16480090056679247,-0.45906218305404384,-0.2952555130657681,-0.10451685893339775,-0.5376608128673238,0.08171289204120985,-1.7949131937249967,-4.202521927105863,-8.201586042322845,-12.457799278247752,-6.982086002414843,-2.806472959169761,-2.222449187702395,-3.7084972932458786,-0.8850444324390548,1.524883855473569,-1.9104994138927394,5.562191066575412,-4.809989889882054,-7.442772359399058,-7.993056436851805,-5.920015883312913,-4.831875267341307,-2.8747611319992163,-1.6439472867870306,-0.406758609071712,0.29319085645948406,-0.41976615439536274,-0.09616694040579217,-0.3174792573215974,0.26937728882978856,0.09482128931510929,0.1966706766066325,-0.3464207397542317,-1.6702724769751558,-2.772198124864904,-6.55003136509693,-6.227775972351048,-0.38492975677590796,-1.9443994938170368,-2.206497871696332,-0.6906416865547691,4.124955735480856,3.0401817636234556,1.4374121531331483,3.329041441852808,-1.4831618648919156,-5.256047032613079,-3.6895681989964353,-4.904975505427119,-4.919532128796182,-2.637210031949717,-2.087563117140158,-0.5618735235324029,0.02027889016525768,-0.26716805004694255,-0.32972971490471575,0.296059771563607,-0.2431957809364962,-0.4069319454280477,-0.10106484802457931,-0.13373205953340533,-0.6703655482204716,-1.059790287668816,0.65429553975705,3.8119353661309674,2.821183140823624,-4.026137677627689,-2.248823016622101,3.4061494134624377,4.587769210523809,1.373537699150519,2.334850366669071,3.626361999586678,-0.7484343339313599,-7.330281025793063,-2.3911233032487917,-5.332830862689045,-5.371667263486796,-3.152263557293027,-1.0254482389590167,-0.4097479557394845,-0.05882312195096277,0.5118509790986225,-0.2661650178560305,0.00857503621668381,-0.5257619605552761,-0.06306531989452854,-0.34570804949071915,-0.1672238153620175,-0.11290872916389799,1.119862861915612,6.278226742012596,7.425602463264233,5.146380824371951,-2.010837045810752,-5.694239771638612,-0.04414922623269217,5.164438845155068,2.6395499553501645,3.582209765658283,7.689497770511824,-0.964049393781568,-5.5887581995428,-2.7272494742111264,-5.224471032781717,-3.209809873613472,-2.0196920393053412,-1.5011956854595376,-0.38803479939036517,-0.5341118770930199,0.07919010591173674,-0.19016220662711525,-0.5037401523473891,-0.18272307244513813,-0.4239541947425906,0.21918447246869147,0.471117415262583,-0.4382627261146509,0.40175010121475285,6.188326030012779,6.857098635813597,3.3122721506437265,2.1522932747258814,-1.371660778516022,6.210601906417003,9.016211825524557,4.371199991903493,7.466981458404772,9.37427777556456,2.9387325175331713,-4.173888225202162,0.6001364256755014,1.2305977484843498,1.411466941923569,-0.4784132723542471,-0.6042625489911134,0.1690344514981679,-0.019307462493084508,0.043014940621351486,-0.17271851840733904,0.43458858937684014,0.08769835140843933,0.29952325445460154,0.40040399570657365,-0.08071749939525645,0.05584486233586403,-0.05031888812942278,-0.3459947459409787,-1.1445355073048231,0.7581578929461503,0.3492908770346963,-2.3547073192025083,0.3570374225109178,-0.9289120759135837,-1.241089892606404,1.5540286749639747,5.579881196083071,4.949320852987975,2.536318692763515,2.415493452998793,1.1314033253394224,0.7411396464865359,-0.08786161557483764,-0.015255280823050216,0.00559693272842573,-0.059039886918689784,-0.4527655476507058,-0.405334752075517,-0.5216553527683851,-0.3347116286480067,0.3767159790643218,-0.31620550891520743,-0.201275536590311,0.10078448815438142,-0.26593881969763405,0.07039814737228066,-0.34516193964255176,0.08821381177749292,-0.6229309380865186,-0.5197930281898719,-0.45313140061966745,-0.25169868668752965,0.897638480643565,0.2912610377468306,0.03439800914452558,0.747416278953379,1.0111639351555868,0.3705536844068352,-0.06620381889391701,-0.44073149391730104,0.4167544632644519,-0.3295113643212078,0.12757471571105886,0.208551849553737,0.3725445657116004,0.29576234607759005,0.06312943896478022~,-0.18153718915718425,0.22827942450680444,-0.06774985582885237,0.028902516984743908,-0.009677687728024097,0.031324974324432514,0.2608683753393178,0.11337249781736965,0.16459099769636748,-0.4640195993448988,0.12625203169924562,-0.22261474313587756,0.34576601533474804,0.1927248993034749,0.3532165596390131,-0.38234401808770435,0.2547344963105632,0.3130795188944126,0.2452802705726208,0.2735377975630858,-0.3631484870809454,0.29733050084227447,0.40483298928614997,-0.05711255147499749,-0.07939333180891586,0.12755952115378108,-0.46535345680106754,0.5220912918581901,0.12602800033650985,-0.3968534834555702,0.08124307333746095,-0.19759420449880782,0.19561062414830516,-0.19896510823560298,-0.41465914261906167,-0.3602169965345558,0.282345715583231,0.3802423589494848,0.21128943361691807,0.43537057844901794,0.06950465973712153,0.22938262556101602,-0.05279043769231958,-0.60107279470659,-0.35406517779851393,0.4516497440625173,-0.03417797629602121,0.12217915668746393,0.39462075922460316,0.39542742636612893,-0.17565042831667732,0.41725502321773916,-0.0015651504974367103,-0.055471033038714805,-0.14841009985441367,-0.3865788213620612,-0.2264400078192136,0.2179870153574206,0.06778698349432147,-0.163599728742029,-0.25470014295510995,0.14313861929694913,-0.27562000601637027,-0.044603354242335684,0.22439226350428823,-0.49493299563022464,-0.429964213084823,-0.8640802384409461,-0.7484256193627995,-1.31732063371198,-0.9893675042059362,-0.9407324962096265,-0.960118370526163,-0.931691193447863,0.01623828181628124,-0.29919956793243635,-0.7371619723940164,-0.8449950292091847,-0.8914820200089654,0.051003445114156935,0.09473985994031532,0.36619543257763026,-0.003465126807759437,-0.09473025043864737,-0.4056850749893669,0.08478884789801228,-0.18870572310351186,-0.12446993214562359,0.1679670266544314,0.027525257882867936,-0.3497228902757764,-0.11354726954999345,-0.5591241767370833,-1.7781088301929278,-2.563412161704033,-2.8349768585359607,-2.878697194944422,-2.9068501877859094,-2.3468354668985634,-2.4271901870311985,-3.672720886049399,-2.9460870377541215,-1.6685223862791327,-0.8488482758554295,1.0907272723892323,1.0790107975099625,-0.09097330600927424,-0.26086654023964057,-0.3758646359565383,0.07836030005077539,0.2498314357408284,-0.4356251208288745,0.14032285692436733,0.19574157777624912,-0.017603841402911744,-0.23388511203322582,0.068811873175026,-0.3065783333181995,-0.1589364206561268,-0.4762065756444838,-1.610788839898412,-2.946836149374554,-3.2635304854222515,-4.811594034043651,-3.864149507182361,-2.9416962871876398,-2.4876729533087976,-1.7173278268279455,-3.226414883694874,-3.890497054361711,-3.4348865524812333,-2.607316289971295,1.522996817983125,2.7972826250809724,2.7241721685348432,0.44595010215593084,0.8145805191289067,0.6210222147421056,0.24136002390304978,0.2596535748686951,0.052844140303485936,-0.46435278410697745,0.026812264003778532,0.04936476873605888,-0.6656426284416342,-0.5717838492939202,0.04316036020241422,-1.2428620264648627,-2.5920665916161756,-1.6179747629974188,-4.233059804630398,-4.8756230555894975,-0.1943185586160215,0.5688346257393639,-0.18776221646595942,1.4976156503647235,4.25261921323976,0.661131671400884,-0.6625641990069829,0.20799746587564966,5.061916833261213,8.280942685972699,7.8304068517416345,5.226666763362108,1.451429270449094,0.9786677448928652,-0.3303190187119099,0.1584977842303773,0.42407680689476634,0.3771675702481654,0.3972540373536656,-0.02771960761593991,-0.32374247873405393,-0.2917903493324297,-1.0668247853154906,-1.9024819888244424,-0.47575176496833893,1.1424793928025858,1.1395218774370974,0.3077483914186409,3.3686617536560233,3.269426262193319,-2.7358783005665233,-4.5705962961848465,-4.150692410046156,-3.870878028355888,-3.594269432138548,3.198690778445908,3.0542977955068835,10.189369170596844,12.594369394486437,11.793839164233281,4.76738477737568,0.3731452901593831,0.18730379913392792,-0.11897500129826816,0.46925654649200055,-0.30627339839020273,0.3370084433678082,-0.7636542749764894,-1.0347072409760172,0.520640902135872,-0.4056630139701232,-0.1043071118946961,1.499866705350555,3.2425597461179088,0.06452118283567407,-0.32360465831048435,2.345794075735753,5.752647387667364,-0.7113762455883195,-0.9872334644819295,-0.06575970674367453,-0.2316143436661129,-0.7105225759284675,0.8144508007865477,3.7571019609378595,6.612421201464866,13.067920322361093,13.2525721267051,9.56810979104068,1.4251947842728314,-0.36713993082997015,-0.3293604046203789,0.48488835471140734,-0.06959289425486029,0.009901691786040338,-1.2302808508871885,-1.5748402294091337,1.3389984691298944,1.0220401744021275,2.968468245668033,8.111820265856508,9.813587236479096,7.062815403499174,5.482997384481718,7.154959884566029,4.812616472622391,-2.7032320669734196,-4.550524957873331,-3.1771065058892356,-2.7272820588408693,-2.764674484360033,-0.39958625313771134,6.403755174821382,6.341757719419387,10.415374717220221,11.640590630479721,9.40098062205327,2.2225912152331024,-0.20362682690787637,0.5390542073247263,-0.40795404888670894,0.43948114995282034,-0.4353758884015313,-1.8659829058595312,-1.7627617550435233,1.0990014317671393,2.6153283499917235,5.316220288810714,10.155649549439916,13.509642423927929,8.460371971556432,10.357335549709585,10.579280719692568,6.672906081916199,-4.914817599227726,-12.354122057818545,-9.11121446632731,-10.80586457921142,-9.027483840652016,-1.7758515980571066,-1.1599377850095967,6.030797919197775,10.034924800893059,8.727958721809845,7.006994318866511,2.016181583249449,0.2935508495472674,-0.10515605695373155,-0.4593382568740483,0.32381115785926884,-0.043428055606141006,-1.1630991542597597,-0.835740803214761,2.038032398322044,2.6129179955367983,4.255953488221133,11.525110215040803,14.900097668657411,15.938849720242917,15.185932224201945,14.147694091938131,6.048574710252989,-9.85322285594706,-15.991594249052532,-10.313799378282955,-18.166611286894554,-11.981049341131603,-8.92037840330791,-1.5184810391346304,3.2401575554705615,7.3156337741444935,5.905742316800308,3.6101337111202136,1.118589985058092,-0.385767626326784,0.03576610739623716,0.19938107945308103,-0.4756190514628046,-0.07495447575868393,-0.3287719378224831,0.9343918402869017,2.2740069725886976,1.7238511437997917,3.287663059444739,14.211888265535494,18.424786900238043,23.367713872097177,24.8754778533593,23.868713066853502,14.811173768221186,-1.3740916141601822,-6.031233790126707,-5.969721803968374,-2.653780910983366,2.5898343377075537,1.8799746120897787,5.385474205520486,3.245264297076257,5.694369761699942,4.590743144469388,2.82000496194248,0.365353993371273,0.19686165010450474,0.35535797944413267,-0.25999586789624407,-0.2895056511821145,-0.4713135580475018,-0.3743759786626616,1.1334292121010494,0.37262085602041767,1.2777535378174862,2.9972867075126373,9.6449684394232,16.40119362922815,18.39349521752477,19.29340623707968,20.81311417121588,10.627144542841997,2.6783118230654814,-0.19670516982649855,1.6447675402036095,5.172766181849589,3.5513951216739046,11.748019359753334,7.3289537000272755,6.3497216133783265,5.796924616842931,0.9587907228772735,0.7970718906015288,0.9433348632196935,0.5650727019035133,-0.032304436204026545,0.21975235285900913,-0.3744461702445066,0.14969675188794776,0.17822755333391946,-0.761340264016106,0.20982528006071485,3.4374160030490843,0.2707692737894039,2.5686553548139153,8.152965133750277,9.451585640603394,13.236312777228449,15.142170952017564,13.30128477029819,1.9923270793961636,2.133873647278083,7.7793115351151965,8.28293384063267,5.730553459946602,4.030612831800675,3.370000719121986,3.68463325320606,5.22211597381295,0.881388191658239,0.023455330195520117,0.4378834128888335,-0.12149265843502147,0.27940542809183316,-0.4607096362866403,0.5422072604084323,-0.38736226912608773,0.25775897003335485,-0.39667180360467197,0.9682258401103125,4.244654510238512,2.2111411303559616,-0.22883095550684554,2.760156061135779,3.3766785522647655,8.494264258738836,14.91533555010832,10.643210455254355,4.664367261975895,7.569313366771576,11.791679934464787,7.041079447331041,3.1345346164676924,3.547950769677887,1.1713109511500561,-2.0568124142391793,1.302551538979386,1.3590712254779302,0.8320520425306647,-0.2475013504719004,0.2118644766786205,-0.2084148619031701,-0.13511408099481287,-0.023224908271212312,0.3199550257842623,0.8482080595455045,-0.40177989097521527,0.2310943015399077,2.901475818812466,3.6029143492339686,-2.5901658931007527,-2.0896461098632466,1.9589302771637822,7.505462051791772,16.52042559571432,13.620656252410095,7.490577833465928,9.090084061752712,10.076766659551481,5.624540815554691,1.956521361286679,-0.8687297829812983,-8.311053648220577,-6.299570079266885,-1.2451139160503493,1.2871052616440835,0.7908151116173975,-0.6313790196126302,0.49518404138427313,0.050509922103172795,-0.08783654727922682,-0.2783896613896978,0.34809122215466304,-0.1272383207399645,-3.225090562293106,-0.015477081350108383,2.1439250258882603,1.7156919035243254,-5.887205560597963,-4.275956568472913,-1.2131390073855413,6.281192893903811,14.252506962639384,11.13390967230402,4.10536307599317,6.799408700308141,4.994925601805362,2.6446945258993275,-2.0139349720073283,-7.679414008820566,-11.900824141652524,-6.962637000776282,-0.7857897259522452,1.485145805616376,0.40552637940563424,-0.1503322047434532,0.34863934987274287,0.6136487224860535,0.034398921944411145,0.07081231907393085,0.3059324458600387,-0.7674650739238865,-3.1024543355520393,0.7927610831742056,5.148358178448702,-3.212599159560413,-7.758867780062416,-1.3367340377974888,1.0228999400932464,5.90784546804683,10.800775828058562,5.770814024474228,1.9168713806674789,3.4068036116975198,2.7699369549000683,-1.5564880337278115,-4.869127402613407,-5.825387105169541,-9.482275872879066,-5.078564615348457,0.681205557325338,1.2416976693228947,0.8881818553376642,-0.1293985844848466,-0.0008511032528750524,-0.1839844804766515,-0.2865699345609377,-0.39107507592914625,0.2222106522994973,-0.8406340875680075,-4.37047217231343,1.9039287025422922,-0.21679962556416416,-4.51994486019033,-5.801030483111801,-2.501310332765124,0.8162449281420044,6.099510741864302,0.9101771523421477,2.6947526482805344,-2.0857190145276605,1.631098317767691,1.6709694505708683,-2.0068916352447954,-5.841844879620899,-4.703530271430648,-6.467980742995049,-1.7057997868993195,1.4316115021050544,0.40921978001639064,-1.1386464453996334,-0.6385111471377906,0.37448472410779804,0.2745320289223531,0.4113320240969588,-0.30322401341049504,0.1058385206384392,-1.8691438260543158,-2.3673185079730845,-0.3959685245933161,-2.0632409094614963,0.33832426003104843,-0.8161005216773287,-5.861133664162557,2.5243585139986275,0.9711679134225383,-3.2422790334174536,-2.3523886710371276,-1.9286941938990776,3.9368733312925506,2.371079621168783,0.6021681337478391,-4.704867575826639,-1.67972495187434,-4.311518202112231,0.8565836730068416,1.1687349006664864,0.8153342597962213,-0.7348452884590437,-0.29135251652619476,0.0783949635740791,-0.031414188776816496,0.49090353772668904,-0.23079130058659694,-0.7263347834371506,-1.6682880240700784,-0.8064261580979346,-0.21080737193955443,0.23548291713279965,3.381662719418855,2.1422915198523,-0.4539270182799944,7.947551545986777,1.7633633118914505,-1.761525971210174,2.211957851920109,0.6039399740622066,5.241317006380156,4.415949857892145,2.790096073238633,5.0021626531022365,-0.2981175868209014,-2.4802185665381447,1.6282924392502363,1.489783085720443,0.8423986365936971,-0.00941414647610611,-0.033914526736127756,-0.22335300836349467,0.29084306453399467,-0.019117228056824778,0.34979994826111543,0.05068951338156141,-0.22672306432854852,-1.4048460322758636,1.8579636085176525,0.052262949732537485,3.3198486950206587,2.504137942222361,5.963589003518875,11.248843357587488,13.492645321304245,10.5360973322169,10.47965287506479,3.588419014375643,8.540726409186966,7.130710996069129,7.6828412932304255,6.7733555716755705,0.2691796415236216,1.3703274885363195,1.0222643399937126,0.3527468393839423,-0.5229272790937299,-1.4345809794319262,-0.17328745026083311,0.2578281387301402,0.3147797243668961,-0.36145938877909833,0.33200979905729733,-0.16052601568435976,-0.20941982682120716,-1.1056920715587304,-1.786115945958204,0.47538857481646435,-4.5710699659303256,-4.006786453857697,-1.955486152241916,5.3618373346811925,9.595178868318664,14.269418242492794,12.84611107055156,8.52269472950018,8.911234837591612,10.348124328559035,7.7092195532378245,6.18798337775987,4.328068743067948,-1.2535043951858544,-2.2715521459827333,-0.16823495201394914,0.09426854027255435,-0.4434850780028625,-0.24112749080556742,-0.5542102186827326,-0.08871779006601807,0.4609108722541877,-0.32004422610411776,0.34658103877313007,0.0518965519788627,-0.29746635079130684,-2.7544189758244215,-3.418684356861533,-2.572443466186798,-3.1319358417841294,-6.1666220046966265,-2.2493607486026783,2.7364295242420678,8.6123218171761,11.193180349087779,10.008599985797483,10.25373569128259,8.570184727668536,5.506449238808295,4.681166374004533,1.4755307998921574,-1.1403635652538737,-2.7876365050683534,-0.8157074549630998,-0.028475291438426868,-0.07998778139589538,-0.11063763692607788,-1.3117920615689196,0.32136080731943417,-0.3455805480471851,-0.3514008542732022,-0.17945888681627342,-0.2701205374358732,-0.20703632766745614,-1.1181557943100857,-3.3215656373746336,-5.0522094275235885,-4.697715093452838,-3.3741318148957538,-1.554464336725096,1.307109537642962,1.3732464380860987,4.356081285959367,7.504052004875904,7.39489882701492,7.044451789633,1.2985878484093774,-1.5419135400382125,-2.169869056632739,-1.874221958197605,-3.0031307798957108,-1.0964078468154883,0.20170439345538083,0.06783551006299982,0.41554398972266093,-0.09510089468732079,0.09431036320295466,0.36319668944315514,0.5181413238158308,-0.3703729124069885,0.08306932691210907,-0.07401702382150417,-0.882535982189479,-0.8805935822289944,-1.4247941847980772,-1.7878471449903524,-1.5464799131342624,-3.098121035880362,-3.1197583682166505,-2.138352478604059,-2.003789321609843,-2.2763656575746483,-0.6836994759288357,-2.0605434355892642,-2.4953015746766054,-2.6280109077664484,-2.278273506987194,-1.0987376740507684,-3.3755502001481714,-0.42187027043239894,-0.4175696324748603,-0.4993829935140272,-0.3227936388915059,0.4851457843183974,-0.1398252905834676,-0.1763267870161796,-0.10240251317772424,0.2704199355037952,-0.24181701847862486,-0.3201475275771609,0.01987756531826601,-0.23259297433670295,-0.654478074985018,-1.1850115400402055,-1.1235516225627507,-2.1692441599566648,-2.8040929003931763,-2.0057729109222167,-1.233407679237022,-2.1644088106719557,-0.8527581137675903,-1.0613255812442342,-0.9379863430683217,-0.8816996860437262,-1.901383311316533,-0.7219827240231759,-0.14875758549510656,0.28279273461318516,0.5115694528758199,0.13738479534120232,0.3316179202093073,-0.25997062022845596,-0.20296735058615284,-0.35474776293043486,-0.011174176900548914,0.09484691251138819,0.12316079063752548,-0.22554374916920295,-0.2534109617515967,0.4635742007675015,0.1805218545907491,0.39026904475402624,0.3793286005723238,0.32523856444073346,0.27097226490631976,-0.027131862353096677,-0.36138506308888796,0.0159214575347453,-0.21358960954749476,-0.17237057594388638,-0.7866849163402911,0.04472861425774829,0.4945548931656976,0.2740875992102676,0.43896483205720777,-0.40687930970474656,-0.4267925495697889,0.21593275026644876,-0.45619696345721805,0.42780451388390195,0.009100087082432887~,-0.4899549177935153,-0.4878148040966458,0.4632039113948023,0.4273061654306054,0.4348970759787205,0.3892571551929612,-0.1537146226096039,-0.15037914722868867,0.32892569245650904,-0.4096952998122205,0.30916555514584654,-0.24913746259365016,-0.3951831145311113,0.07736396701329362,-0.25001191141718476,-0.10874157572072107,-0.18260928901988743,0.2996828559813306,0.4612256399014939,0.2071239952101543,0.3361551833065384,0.37751908460704564,0.43815313838122205,0.02417198656429154,-0.4290607867356877,-0.5148350289004721,0.05080247383171367,0.09887911671118887,0.3845446316406438,0.36127766330882816,-0.3324237389785619,-0.2873042555621217,0.350715888033468,-0.5112429925382013,-0.09161359278747946,-0.1805167611435583,-0.2807836187026696,-0.612946919829445,0.14904805655710557,-0.21391882587651492,0.6185892256432488,-0.32570378677019646,0.04163276538192689,0.48812833106043485,-0.2290915180992911,-0.4976153514877283,-0.16169717153878402,-0.3897305634765359,-0.500989993686816,0.30718983017514395,-0.0089639023864086,0.4628601998273846,0.15180517870277194,-0.44633464243638676,0.4587178584870141,-0.01846547573058886,0.3231113299656364,0.05382450171835439,0.4330391157091936,-0.5059475581876655,-0.22519553913449164,0.28247913833504357,0.12356460589988762,-0.6773569592922359,-0.5681922612269485,-1.4104851400177074,-1.2247802472352158,-0.2005025071240666,-0.6330505597369371,-0.057231259752136734,-0.3254826302446848,-0.3165177560471544,-1.0927128924713463,-0.059329525917483535,-0.9321413510663115,-0.5110951095911445,-0.18120325556495234,0.5839608026734643,0.1273741701594456,-0.07194297593282548,0.35943704601340964,-0.1379179187914128,0.382954875661521,-0.09411071897499115,0.1807162379380729,-0.4341433808884372,-0.38170455164667905,-0.17146980133678313,0.3327206033775259,0.2262996476191171,0.13479328468663215,-0.3005074145106271,-1.0301179951167885,-2.458764536247065,-2.7844667731671944,-3.004254685764076,-3.685094164657883,-3.573361621868927,-4.436437443362621,-7.0663666276485015,-5.041479817340845,-4.691827175369707,-3.0218605832810623,-0.1400554190616628,0.04039053532747861,-1.0405279216856125,-0.909020521184585,-0.5203719845820026,0.30904701850668054,-0.38997149912929036,-0.3561153109005427,-0.24794432162975605,0.044079403143192364,0.17499262779788716,-0.0664567519527022,0.19771633502846098,0.42418894639576216,-0.2413347310443243,-0.40196373823932446,-1.784838978382127,-4.1011716236764215,-6.2547729242234995,-9.633245853380945,-10.131980231691463,-6.382782633476677,-9.944666332278972,-11.80883745057171,-9.764584298195095,-5.845760454315846,-2.930605169177879,-0.43410580080422617,-3.664161260032842,-5.150760616279503,-1.7663723915219656,-1.55154878413855,-1.3289547443282328,-0.6818073056962146,0.6066700012647637,-0.14830271490680108,0.35934251195658795,-0.45815577217228165,-0.09997643608515763,0.09774056451852156,0.22151671646638407,-0.48579382564529267,0.39470762678700044,-1.708079774022252,-3.3651727757479937,-6.059153927344494,-7.974950308524579,-13.517481849701515,-10.97714580550781,-10.044239070469231,-6.844679212729672,-8.152568969808744,-10.945446731170842,-4.321208660988746,-3.387373516664058,0.934490393082445,1.2662186259394261,-2.7692866894851624,-2.906751095963585,-6.135868001132057,-3.3130053955743297,-1.1967320479711718,0.39097227945349533,-0.32853252071455663,-0.004614293833993724,0.41902472279425496,-0.2633732386855554,-0.2057061279268815,-0.15578151005452698,0.17855170727754432,-0.015211816641556656,-1.7874401184529554,-0.6528057334286314,-1.8247683578364178,-2.383228310108421,-0.9045307200857711,0.4014953266320581,0.1344422303588364,7.033861978638036,9.62333308222058,6.960758617977754,9.483144648486698,5.4716906259760325,2.0053537078462162,2.148887932833053,-0.8314529624743601,-3.1545859952623663,-3.0265780918434295,0.10067422297276184,0.8319467521562951,0.9098842937704665,0.23818455356378304,-0.3405841279633872,-0.4764137758398235,0.09832074196621313,-0.3627312474228015,-0.9754882971773831,-0.19659713087546982,-0.9518083517353177,-0.31841996506028863,2.518650790490656,0.5433647236184481,1.1077043932455966,1.8513660796985179,-0.4220631509629244,-2.6094603182555045,6.283723989350798,10.740787772050103,9.905876172668323,9.447409423517716,9.676742490154716,9.313868034700961,4.584918865799429,2.2253853507616848,1.8550053341786754,2.9191500535129395,3.5955177138644157,1.5108968212850984,0.697754178532831,-0.17103507639076848,0.27500469696538693,0.3655568238603558,0.2940772620588104,-0.03666648457781724,0.00030825460898086936,0.5753321462897844,0.32427991332073314,2.7377888924565283,3.236311564983348,-1.3074485849006874,-1.256032551683222,-1.5083728428549983,-6.321769454003305,-8.563591378871594,0.09344716156241686,-2.948844752526693,-6.949061963854424,1.1925927008316406,2.1027902888840693,10.889947872538201,10.268889059413446,7.208852221881942,7.632188046323265,7.285915365563753,5.331014121336557,2.5823403068705444,0.4573142048125599,-0.035809133238848795,0.45924547429582285,-0.007890110331630982,-0.13476770189115025,-0.016442884502367354,1.335058570274765,1.0034170998212335,-1.0565696050668154,2.7006884838776557,3.2810302049634927,-1.160931226732147,0.7437469251740308,-0.8588103239369035,-1.2655712702853974,2.0615613524770904,5.41909118030954,-3.910023083737935,-9.404131403010705,-0.5158869754497234,5.5767712428967515,16.59996713920651,16.210480270973946,12.529382724457069,9.009312321145229,8.201729348295862,5.887293091827207,3.4305706789088735,0.4385636669549896,0.2695922484810553,-0.16238435873396645,0.1166064317888289,0.102220647276735,0.516365210339146,1.6720918796604434,2.008041426354879,1.3669588482181712,2.908348537964221,2.502756999697445,3.008824553968,5.07546112434675,6.506786743656513,12.421074080542311,12.272359336638598,2.2237205740723938,-5.807506215591982,-6.577556051717,5.065156489263482,7.6740544943472795,14.610939359542185,16.915304027660977,14.556484812326186,9.632984394171714,9.475882960942743,5.431243632424486,1.2078326003094517,-0.9026169009695089,-0.6002340126676069,-0.5141823034367029,0.3822919468106577,0.04176664319494403,0.7017000398746668,0.2868529937715908,0.7404095170027368,2.752953847147052,4.081729912714243,9.97561042984291,10.29949900570795,8.333609733992157,13.084504587612807,15.604741028808133,11.628141489245065,7.040260624897753,-2.2501104597953665,-3.989671445387423,3.168403529256873,12.110724050445132,9.750592222908613,9.489592640742705,11.378698469092932,11.214423379323156,11.859840121605702,5.552097535090155,-0.20348435220663724,-0.7979482576779762,0.3373530798421225,0.3360808041044553,0.1193215177168109,-0.3483577411306713,0.29901641473180945,0.1853806277716898,-0.05246289982630772,4.442570603616645,7.933250178080996,13.004899555306437,10.13540302128846,9.146054585380522,10.604027004747277,12.433493897656414,6.742208267409146,3.1843402985892837,-6.3786295705185285,-5.096455618649124,1.0186168875523431,4.839022658448817,0.4391386238228363,2.9484602315912296,5.0792344813573225,9.495753696510645,10.330889273128156,5.3202397348469335,1.6677882235701078,0.10225436693639052,1.2032736422757215,0.2884510493128251,-0.33453762964080513,0.42634053121508797,0.22627657539786927,-0.19403165747141946,-1.2503817349806405,5.399524310729661,10.320881359380305,11.841504507838794,7.589610560516984,4.515648203847541,5.961943442902435,6.120475227390582,3.9548086938148908,1.3369787610459969,-5.4178734132806134,-1.7143752113886899,-1.759015890124391,-4.280600377794291,-0.8618488673910648,-0.014822703543360191,1.621069971994177,5.829176595550239,5.565763734680468,4.144636591571182,2.7039678231497635,0.5411863589513107,0.15400967435484475,0.7400300197903726,-0.0547474932359089,-0.16936581607718448,-0.05498388329946805,-0.8624770068054449,-0.7722518999472024,3.962700579200166,8.224781509690237,13.432959660722615,9.615542361893553,2.430379846854796,-1.7133837975190878,0.6923447988873701,1.3620808704634526,-5.1681311895930655,-7.44389093394457,0.4223416817839363,0.7549607814363755,-1.3836907566828545,-3.0723592790540506,-2.464768185335817,0.6627364418532129,5.665957939691124,3.5340268489023527,4.080798710048331,3.0814894936432387,-1.2207356118163355,-0.6508432110331174,-0.19956168826392023,-0.3314002685423224,-0.20864674473741593,0.35714627881369665,0.26794547671896224,-0.10602976383522646,3.222493364634397,4.693566513475851,9.782911913990024,11.329158898883547,7.067594039490617,2.2805249065444313,-1.3482103836451036,-1.6734067386660023,-4.012331575790232,-3.80419561306873,1.3734699265281263,2.430274114229584,0.848782159261789,-0.057929009580697216,-0.33312177638010276,2.566669291659693,4.7242469319232345,3.3894715518908414,1.131583608122943,-0.07782068987313107,-3.4708645122272985,-1.0391335599782574,-0.346366710500995,-0.24779695161417553,-0.2043897412246081,-0.26171209220850233,-0.7758889594536285,-3.1294609348952016,-0.9347932708869632,1.607904098262233,5.191474748715126,6.11674687400329,5.446035206459804,1.3496030181665912,0.08731083427950699,1.0065746680874768,-5.513735478820009,-8.454041638474255,-3.5134576747355384,-2.375965003422633,-0.3080496473898658,-0.805517823483169,2.0753058872218806,0.9153119280704423,2.4857766363453258,1.9076873367279856,-1.414718577221149,-1.36476200849895,-2.7052781995749906,-0.5569874339643941,-0.3070625148708044,0.4327322330703942,0.2694113804272597,-0.19239429469106928,-1.4747346394000835,-2.785226976844344,-3.1522790101092175,-2.255095763982126,-4.450570433113339,-3.4778461276762527,-1.4423714751580576,-2.9197419368225077,1.0733754698449471,-7.169992899338842,-13.08427879590121,-11.610538716497143,-5.686246324402769,0.8714961013091912,2.53598642787203,-2.980002647182787,-1.2189912105541127,-2.486350773433749,-1.781742539217473,-0.4678319225433843,-6.04336542028126,-3.3728677230278756,-1.5549703641483317,0.29624640981330835,0.06246258879260227,-0.48451494912232984,0.3193881673547473,-0.476920518296238,-2.676954481257304,-4.4710462670101885,-6.73900789209392,-6.721512336470518,-5.510110814059356,-4.037681085762513,-8.034121536570689,-4.510697005620479,-11.137467418169516,-20.069765119076195,-18.73853378767434,-11.655416948435883,-6.496639157432804,-0.6345564416392238,3.9003574341322236,-3.0210839684338016,-4.402631518491148,-4.666999650486042,-4.4587570053574614,-4.268532379281917,-5.526608712981444,-3.2205050201878334,-0.8484063159437286,0.037044798333105707,0.43860402858370784,0.07913021349997026,0.368645154299055,-0.3724233428100169,-2.9281509118798112,-5.000472882222174,-8.490599676338508,-7.993500282103978,-4.619557858881483,-4.155630120537509,-7.724635930382885,-8.118519957750703,-20.016385119122276,-23.232542116426853,-12.021738731189036,-5.141663349494881,-4.027085304400165,-2.375159232441435,0.015222366968742523,0.8446351480835468,-3.070446454080902,-5.914266470961182,-6.7926122555447455,-5.030625036530772,-3.5503203205562137,-1.6422093562099596,-0.9481396443281515,-0.4486447074539039,-0.34377482035584495,-0.0723941944595147,-0.11247677662573712,-0.4923523273022072,-2.7255272666188497,-5.998653687031615,-7.306284007178638,-8.423838107301076,-7.412507496041479,-3.8706824864748253,-0.36639218655526923,-1.9090401446415846,-12.841470180626889,-10.089982070349196,-2.117695931148856,0.1215327521802733,-3.2014835411217537,-3.6532317840634767,-0.19094716488365363,3.0933604753363118,-3.09634451581279,-10.254222380082457,-11.31562454348797,-9.24914450465908,-5.113785376617489,-3.462259825639536,0.12258784695464342,-0.22076175549477717,-0.40264798881853725,0.1662804242937141,-0.48047859370475,-0.3269453290312792,-1.3408756809663693,-2.394792062378863,0.23052081993812576,-0.20905154246343666,-3.908921707149084,0.5389652027703918,2.888477866167105,-4.593061216254674,-1.3172412280083055,0.23041362948762142,-1.453258787006307,-3.7591347856617716,-1.546226065855786,-0.9242278439397518,-0.42118481792925505,-1.9731067944023597,-4.557353197641181,-6.771817148531723,-10.22906840558254,-7.314801347307374,-4.717606434318711,-4.559719436482256,-0.5358095722973427,-0.2677475306309194,0.3979879972264707,0.2866110418524398,0.023846389558646288,1.2798680056505285,2.0921209441577404,0.9985260159636815,1.7594301351537724,1.117319351454043,0.2010200934538029,3.26823116297513,4.742204361074276,4.140087135396432,4.472883400678762,6.506329976222806,4.085586827236166,-0.7597334289690721,-1.2186173500246373,-1.901066733660187,-4.738328730040252,-5.23894561346869,-4.025374271279868,-4.148244456773653,-4.733100432155407,-3.090635365124698,-3.6944945458602985,-1.5890418749921662,-0.03531436286576415,0.350568348213333,-0.07701246299116715,-0.15694885598760855,-0.28163991067616745,0.5989057704447188,2.086640764207893,1.1268576615828736,0.7798403258596938,1.996216726360983,2.29237431000712,6.201197119566501,10.323111457128176,11.05970302035842,13.543508903938243,14.384684839758517,8.95373509989714,1.9961393258296762,0.4567768725269659,1.1922694904505344,0.4941805649052641,-0.7357613541710893,-0.2019829370143505,-0.6241920947276537,-2.3168286459795207,-0.8219920362593646,-1.184293454769055,-0.7128164074395958,-0.4378567719689056,-0.43145748935020334,-0.08174728226409272,-0.46526306595179956,-0.48765466138228275,0.2630792252374762,0.4778723144023903,0.5661094452861506,1.4068121765292194,2.7880029382844995,3.7448259221025224,5.56327006015278,8.64521990423767,8.780922908991066,9.870647116770973,11.379427570444934,8.971876417895114,1.2238664238170742,2.2874441779678163,6.875754065691498,5.743579026690601,5.731994078955326,2.852300550811309,0.9709708534955912,0.6137708766952462,-0.05138402575868596,-0.35703878245343657,-0.6483064654098809,0.15585628062073556,0.0778108828350405,0.10845442368739486,0.02278946791736772,0.297220329349971,0.22525953363668494,-0.39847834680364674,-0.131545130697615,0.18192254136250152,2.1148785921095556,2.6478746822883648,0.8385733599403633,2.4710861371812434,0.09122171576453733,-0.8645450950674683,0.674439767785478,2.9384957772155533,2.0212999968920453,2.1909163877651316,5.092533234642681,4.771943017771108,3.3801344289827004,-0.441014488858524,-1.4165939031723145,0.21516729307751292,0.7984396048537523,0.38173442350150133,0.26235132869832517,0.1362981628907554,-0.44586166368339897,0.07518101259850157,-0.43713098913603865,0.16803162664161836,0.4149724793086026,0.30810358092565904,0.3083649781254578,-0.3772679772014964,-0.3665126510254258,0.4017530366824639,0.8771861458022794,0.4090346909246174,-0.7638102773738368,-0.9630709573317155,-0.40882736519116947,-0.18501043504163076,1.5764887864535555,1.5083833125022905,0.9336359682703409,0.2963229165105307,-0.21788276476060978,-0.7991610793292495,-2.1739817500815763,-0.595262976300215,0.052109595238510484,-0.13928477143017648,-0.2774773657378947,-0.23241460432417865,0.4459610682505606,-0.41931955392440756,-0.2950758993407101,0.03662041340910162,-0.10601408692968584,0.08910345940224029,0.2591497065188869,-0.0748589680315501,0.3631932423863077,0.4006278108392993,-0.15417815885030023,0.038524896745666906,-0.2486209009402785,0.3775947503354667,-0.4123339233006225,-0.20198968034212025,0.31159702048887605,0.15655306867638533,0.2236942043984442,-0.19636286817045084,-0.16326005110743952,0.2594542091141596,-0.18598077196603657,0.14217696046357792,-0.3223765757386443,-0.2709380934500064,0.002568327376565376,-0.33497965222793846,-0.457085709034706,-0.3242646466960194~,-0.14841411543524324,0.29372854353099487,0.18365714175940534,0.19893044886347216,0.42952446678898715,0.27934232545674365,0.2190619204867878,0.1295223944470263,0.46213498228263106,0.05819936690766251,0.2759236737873777,-0.37863867642531135,-0.42692055221010616,-0.19170064267744347,0.09426038869051656,-0.09642926085533274,-0.12669735878782806,0.06405165596985898,0.25852880851003,-0.23480596689119948,-0.22845428085810143,0.35208012732663474,-0.07654128908947364,0.32037516041279457,0.4686860434838894,-0.053540951055936016,-0.3953551458654394,-0.3322332727277003,-0.2288581160171394,0.3704634952861764,0.2496695775851651,-0.2633089299607325,0.40013417390601813,0.4276785717227508,0.04684880111124088,-0.2996970719257628,-0.13300876990465116,0.45183295069788204,0.3583442392624936,0.19478992595357672,0.4111547245674103,-0.3914001473638853,-0.23367117335936488,0.022093441122503665,0.584787134434269,-0.276310548339011,0.02770430636675173,-0.33625183289582883,0.3368639716107453,-0.17219562622921855,-0.04375289148459774,0.3456590154736163,-0.2959296701046569,0.3740058725707155,0.40456390641271445,-0.4897679744792117,-0.11179602300619695,0.03879448171995437,0.1418555593782734,0.19620297501881825,-0.29889916871056593,-0.16700485724120082,0.11940289045673998,-0.002528916211446049,-0.19950101502843956,-0.2678655638316822,-0.3169980920644661,0.39171474193666944,0.5196514059413717,0.6083140683867738,0.13831383816513054,0.3541497684666736,0.5768833279557704,0.428021442211018,-0.2677480778561377,-0.5951460599796304,-0.0440016434848304,0.43889400922715105,0.38505939156908,0.32909710264190467,-0.04804683834538468,-0.17066772645525902,-0.02251787653723746,0.11789292475717802,-0.4306561990943112,0.2657827011881776,-0.0065429332105740225,0.029450444062956643,-0.3018995045156287,-0.4438677633796725,0.261182739337555,-0.02861050836602378,0.0717399107032672,-0.4771515245770146,0.1549356002687284,0.102571940091587,0.8477459294437192,0.8295457397590571,0.7411387359340007,0.0929702749822041,0.5316552660665925,0.15443255824949043,0.8321199949722852,-0.3777488835226158,-0.890496147206932,-0.07770149375117283,0.23949542979207197,0.20889290629909374,0.26674576145502604,-0.14732371996400845,0.4013238801722582,-0.33297008136085593,-0.11435974426739329,0.20688316549246694,0.3971106670816375,0.056909033528002834,-0.06084358443148223,-0.26350561008922646,0.09378078570756258,-1.1121701899758125,-1.0240991706995854,-0.5210040818704381,-0.8782613949403919,-0.8613548482614145,-0.23538644040158999,0.41223841375112713,0.21479580320670041,1.3732156308158492,2.188117431162068,3.1082940249709465,1.8376150973836591,-0.6359082150605928,-0.4178708649235652,-0.33936222896334095,-0.5959600304772419,0.35636306674663687,0.16995556550304888,0.27399019957200665,0.05353422396230413,-0.19199524178469643,0.07196432225984842,0.49530260412624694,0.058801529677106334,-0.11992084037862395,-0.35572778373606145,0.11706549852599077,-0.5501093176790053,-2.5031140177919746,-3.8356993649534563,-3.273336275987775,-0.001622080956442663,1.3528506377678953,3.604519312132846,3.874908057596392,3.9180438500134356,4.223421019209628,4.476890732009075,4.666303860531272,4.875717533902736,0.6095229555928663,1.588155200178894,-0.1612183395634029,0.21688728197597493,-0.009813716209765705,-0.1300992261695917,0.15987932146564476,0.4246020369468496,0.33473194858917693,0.019262925388485088,0.43214239396915,-0.45586960114342534,-0.4342328776877154,-0.8058365866999292,-1.2853926063969574,-2.894428475741916,-4.4141419627895555,-3.9796021378607547,-1.505356901588496,-0.328461010074193,0.6316927361076106,3.937991739876787,5.883389825343363,7.013626893955036,3.777094114714,3.643236584412973,5.306217147872107,3.9095546132195413,3.7675635715698537,3.7476849532807592,2.3653969230131966,0.07987641084556225,-1.3229299844555686,-0.6777154740511189,-0.2907708519821264,0.4581329407149862,0.1021642892992133,0.30827427956719455,0.3837066454075487,-0.31489267595338444,-0.31443147770412605,-1.2718836697573712,-2.206298635017586,-2.090827917276196,-2.871261673243746,-1.6021762029166624,1.1208710767711176,1.7668567497075425,2.3310038838788714,4.941061371756315,3.065311084546277,4.537812436617454,4.488943082603684,4.668993725067466,2.002468494631005,2.8143929316915384,4.973965004344637,6.214839633130505,4.366665488450217,1.7369965768590125,-0.13326864686940326,-0.3839547434017176,-0.020235510656955495,-0.14631603279731162,-0.4259562150865598,0.08687950319335774,0.16466947907680904,0.16693317449625225,-0.007111513497332909,-0.2476554254550265,-1.6786680235300693,-1.5207404984705142,-2.0646087587378044,0.39552342053411443,-2.135250873538018,-0.4833831681927663,1.421876991069107,1.7039245719525002,1.5544671312830907,1.7434890861937207,3.7370009905260893,1.9343670534555617,3.005394482114664,1.8411224663085768,0.6433933259174555,3.5993162628926085,4.093683190940229,1.6380165898882622,-0.22704892066454715,0.08194284700123704,-0.008132553159715308,0.11139428379081194,0.28199423297440573,-0.24285056967872426,0.2924154173383249,0.16781415144191258,-0.7654877143131196,-0.25509766953321283,-1.1526669467446755,0.8403356805818637,-0.2879947115213645,-1.4621317408661747,-1.0136017263223376,-0.6113298006378582,3.113907800218023,-0.9139037404587602,0.8605811310188861,2.7695589391180135,1.3545914920932554,0.028169308822436397,-0.7126781903599781,-0.90628136143442,-0.5841932861959697,0.99517268347294,2.833551675058206,2.854836912015143,1.0502489467365899,0.6468304001571307,0.8042128120510796,1.0355288336533637,0.34761785034102166,0.13088254270713945,-0.5348907500942454,-0.7121712131637387,-0.3937181565392112,-0.8674062864107951,0.8457435111572565,1.9456063016699923,0.39936152319936663,-0.1701878912802351,-0.14812246888952635,0.6068692338508409,-0.21829468323066922,-1.7806160468293404,0.3371167845320809,-0.6599683608086503,-3.2223697556420556,-4.632045768890535,-3.4876488288279237,-2.4550062364317045,-1.9411749257757305,-0.8839589248359963,2.000649653548315,3.4071148334534667,2.4017912156194465,1.846056171232447,0.24021935757835505,0.1562311559069077,-0.30751044021826995,-0.1571404386077764,-0.39469685825598133,-0.023718583048999844,-0.24254250122389887,-0.41413030149971103,1.3790305971009693,2.612323635619307,0.34233492397741744,-0.10120122940202186,-0.5718752776914348,-1.159477631182745,-0.8838305886969672,-3.212477381519178,-2.315495037504133,-3.1079832551320505,-6.233229029963907,-6.344463878323139,-5.600601132228849,-2.3430033678918587,-2.2220235856686616,-2.148276549654725,1.3458240140259485,2.91099430337234,3.314902849168966,1.883038693779239,0.026597653759949214,0.6165037189463144,-0.12572333427113422,-0.22802792942782368,-0.00018303662144635187,-0.13273110071080094,-0.036058137863697284,-0.3982584529915229,1.5520709378010868,2.0793442636967447,-0.5500256608500275,-2.0827866387354907,-0.8552070545109759,-3.740508636956564,-4.660293588024581,-4.1418210488866025,-3.4340714998964827,-2.885870513057955,-6.557114587596116,-4.8379777198254565,-2.0919238947460004,-3.4709177135291696,-2.4962695790721936,-0.8170930293113415,1.472443487484543,4.202591849242245,2.598547748917565,1.7093917234884666,0.24946694862073182,0.4155287259410883,0.22609031181021882,0.3392954071446491,-0.03047895114865263,0.15655353274329029,0.7209587343100584,0.12178272841512124,1.2307814071477141,0.07610534132060355,-1.3974445732841358,-1.9641166911444774,-2.7622135370165712,-3.629648626095702,-3.954746082974557,-0.11067173057358601,0.6205009407260085,-2.0300583582234792,-2.095702389273577,-1.3611291917439392,-3.4370186432521512,-4.669286094965178,-4.615869257721003,-0.7728038195417093,1.4101252983363348,3.1742501286436378,1.8999665023939738,0.41323818938971696,-0.621362894169019,-0.14335839974976572,0.2239239554743015,-0.4118001086315818,-0.4775870665275963,-0.01905879456510177,0.6623140760876686,-0.7188725425651638,-0.16052753612528614,0.7102517283441837,-0.369894305474374,-2.1093217570467018,-4.104422518784943,-2.9418417296337007,-0.3379177739769138,-1.3820701264642918,0.9235395405368444,0.9965900483926428,0.5001695583494714,-1.2022553019718425,-4.422811384585555,-4.252965817600957,-4.89739388820971,-3.341304513861724,-0.008042850284778105,-0.5077665560151254,0.1365832429041902,-0.07375144662683562,-0.45463560470381154,-0.17952517248115124,0.196482799969066,0.015408299663263392,-0.24196518440243514,-0.5425405743695079,0.07554922679099745,-0.9948151067626937,-0.05612633129449533,-0.7517695634892589,-1.0582114562980478,-0.7250118185951033,-0.6484980334189568,0.10220695510252198,-0.5856035446205656,-2.0376363617036226,1.161532489223313,0.5643923085071878,-0.12731469886396962,-3.513611716382813,-3.1383747486690723,-0.762334913679548,-4.9158787114436855,-5.505712283645799,-3.5311830367335006,-1.059218341151496,-0.4607652657748799,0.4588521284563243,-0.44977150291579043,-0.32732880041247814,0.26343913650224676,-0.3586583879398706,-0.06003852792380587,-0.405779427073871,0.015073552451311997,0.2790687208964881,0.8158019934193482,-1.9075582544925835,-1.7773080019065102,-1.5661866509618496,-0.09912726606302133,0.23711104829300525,-0.07840762177807858,-0.40314202328345894,-0.08473407181443691,-0.04403668007980599,-2.329828866407499,-4.000379102835026,-1.723340264592698,1.1860187677976621,-1.5902043261102239,-4.1875455292303,-3.896067248240995,-1.38818988168679,-0.26589904250232144,1.578560587266314,0.13231247990136594,0.2624684509185366,0.46281298353465133,-0.48490322164788724,-0.09237570664006944,-0.2200774129433116,0.3423364024238884,0.8840189831721623,2.320637380668007,-1.108910779314113,-2.6365716410811864,-2.156993233878845,-0.9465776328400481,1.8823964103209079,0.5010718189480847,1.0721476011275675,0.4704921925421007,-3.5581894486955012,-5.8247892067924605,-2.258298025171869,1.9092420482704884,2.3888677568830476,1.9361160601819782,-1.3659872232045442,-2.295668471072183,-0.6005620706269027,0.4065484055412911,1.8722602041542868,0.7883199725419926,0.3445795638312943,0.24458425683705948,-0.021866784883895506,0.0907412604192886,-0.3743090114626562,0.5962468056291095,1.8401217171156483,2.0905558458816365,1.3292458723243321,0.9516788905705554,-1.1369206865517854,-1.555186832833014,1.0212385442327823,0.16666387909282465,-0.5284294015009952,-1.2445262765077136,-3.725078567058096,-3.8718210580127854,1.0662494245624652,3.6560828255251616,3.1175484839605963,4.5003478526811325,3.2495975091800804,-0.14746183999820534,1.0919704427042278,1.7004965059572117,1.3298841745811822,0.22781716081704126,-0.4511995239998531,-0.28674162236730694,-0.1619109460278696,0.17659936800055978,0.12133956196864988,0.07402686266924371,2.4681691150017775,2.7541053649673195,2.8019620090617408,4.081279964011856,2.2725960040781508,0.8274184479561515,0.6678355843603935,-1.0521374022867778,1.018711016233776,-1.1330544517381984,-2.9121983182077873,1.4698755212869106,3.368113109048554,3.4228493049109283,3.7891225689757513,3.119082757760219,1.864425296471665,-0.0952090834007211,1.6641752828635616,3.094569971813156,1.1991634897751624,0.4806705164841004,-0.03163347017110375,0.35902872599495494,-0.02184887549011177,0.12919788232310656,-0.40175619870934065,0.08224093191755494,2.072232489101367,4.084174789712815,4.493944413947259,6.262877542179485,5.715654962316336,3.383588606153384,-0.06220381653672426,-0.8828346905286282,0.003210270524398708,0.29609966902485496,-0.5077391027823785,2.3843341427811233,4.338401230963156,1.9754432044434254,1.9871172226427032,4.077477644439763,1.641307880109138,2.0766560944509416,2.6255653543534923,2.7291454334770817,0.7357818103015764,-0.4024689378138294,0.4931497111769158,-0.17723065920957987,-0.17980796773804458,0.4928422537596058,0.12624692603317264,0.37080314598225617,1.5926371649326954,3.8438528460150607,5.185366004287294,7.569589809978937,5.708767344663193,3.3391371643386414,1.6342876292793589,1.7852476821519905,1.541919878334704,0.9018241278741856,0.4776465737878508,0.034004269750313273,2.0875222148340606,2.1119549478475,-0.3588964577445058,0.8497120725418691,0.4358635204615413,1.513086536943594,2.013901707867074,1.4748258022268954,0.36019391821246394,0.22033529522102857,-0.4118189486952108,0.3684623466216851,0.3696272455600259,0.17826646577133767,0.4721550614283087,0.4851659706741681,1.0633767797210187,3.289565954816131,4.921028691761744,3.5856512901240687,1.8006177396200422,-0.5633901449219405,1.1786691473882007,3.1305695058180345,4.4878148194047895,3.3909661410755843,1.019624099711606,1.863103494939165,1.0536758797953611,0.04129514978660203,-0.11888659361435483,-0.9591499610194726,-0.06680108508408955,-0.09235312844529414,2.119307529435337,1.583729700871787,0.6221544285817959,0.23965506991067057,0.4168688998371604,-0.31596424747256435,0.26198393333651493,-0.43353986861676996,0.26187714465559875,-0.023620012568513878,1.1010304219084233,1.0616190798922949,1.824903617717641,1.0855719399247223,0.26274309280141506,-0.3349550690635966,0.5083146793444389,2.1230576148930815,5.263261373416656,7.470196573972613,3.3157206681712377,2.3375356555244204,1.827082939259687,1.3162360728616938,1.895720289585328,0.683580079005011,-0.5724972361290206,0.36035830702554467,1.0795147575340036,1.7083060343908418,-0.009521403241829344,0.30330577562655053,0.4689598635963207,0.3450437468591142,0.36180737043868616,-0.3213455545198848,-0.29385758984908006,0.3067411766270744,0.5733713043121221,0.35494041128939596,-0.2705424102868476,-1.4176148696847033,-0.9271077687085393,-1.0317223579898618,-2.343625036076009,-0.48099897816016807,2.4675963778330603,3.6015850813428694,4.216529154556667,1.6685926095553218,2.69386403962355,1.2197064068452013,2.841499733686642,1.5164326833523496,1.1280308771100467,2.086961008932025,0.9163804872453779,1.65786565450915,0.6534888451081737,0.29470005278090156,-0.28540623314740254,-0.18265055202226915,-0.06458058801657587,0.4870013895004205,-0.11355192813558544,0.061238379943149825,-0.3630525777453634,-0.8078797310743349,-1.1580991798816438,-1.3432840121186116,-2.218838249376343,-1.0097653554881738,0.6424098969469367,0.5673383686628164,-0.653698291168321,-1.2497767466587766,-0.7077219027688489,-0.9658966301181542,1.4755846266317436,1.1671775937181668,1.9106482408376582,1.4967439954061919,2.2775450605620153,0.9810155915527218,0.8941013613039633,-0.08557663369079722,0.2242070877251219,-0.26207375337924255,-0.3747293551036995,0.27429589277686384,-0.29401603285514444,-0.18026316749500698,0.468346680003078,0.06410314729386794,-0.7006491424136035,-0.3936263007506198,-0.19598087408739157,0.25930084204480747,0.2491590783343738,-0.3550458845152047,-0.324737581215049,0.4062706633373628,0.2741125388781082,0.5149805979269798,-0.16401488986105037,-0.15859181486144558,1.786240170480177,0.7184267423101165,1.4731710478392168,1.117970944677856,1.291221998024349,1.1149898712074091,0.32038853575611415,-0.24418520567029323,0.3000613638156804,-0.07182416625748789,0.48180689741739946,0.35121289897882846,0.1714423449003734,-0.08969444110543778,0.4015673091818236,0.46462064435170725,0.44852768328576825,0.16710688302771143,-0.20181643144297348,-0.11844915944750249,-0.10911973492417563,-0.1649503150406703,-0.07451747720918885,-0.260357947032776,0.5005245694975963,0.3953181936356648,-0.18166977891215705,0.03258445147155019,-0.43913301807575256,-0.16758580190298922,0.24885034312114984,0.3577071418373892,0.8015751329002021,-0.24191508767444062,-0.2756251991317604,0.37269378968320477,0.39296055779697847,-0.22773156689841484,0.0909241649668169,0.36832471957976276~,0.013427072433769236,-0.05741007279469594,0.3917486401195313,-0.08998947953280356,-0.0021511766041218522,-0.41887899316261196,-0.25687805005108794,-0.5179107616940435,-0.3550012822097412,0.15324487453076074,-0.1856290617207466,-0.009442797363019262,0.3343884381851608,0.37046538117503186,0.26588290229317507,-0.5401868792518065,-0.1670433370989789,0.18835957820323018,0.36026888430866194,0.14939727303034295,0.15244068353315832,0.2886746509053559,0.24209497806778502,0.31105624039756424,0.39002655763133537,0.043496665777401175,0.3217432580098673,0.14413025309403849,-0.5235558457294155,-0.4076457349437426,0.00048104651199355064,0.1584089612182099,-0.2457345906391188,-0.22869817543519294,-0.2041404347100194,-0.3582021931360994,-0.579969419398464,-0.12277468475528498,0.31974450358215,0.41062509049955964,-0.19760408926721562,-0.3890512837149556,-0.04068613491513032,-0.32045359172924737,-0.2983250540623769,0.43914172665597,0.33564331422906385,-0.5795123811540995,-0.2322214142731293,0.2935991877963288,-0.542608444393225,-0.43638175334347545,-0.04962551308750536,-0.44194806925493074,-0.5674721827682354,0.0965888598195771,0.3942762413294251,-0.4928325608913245,-0.5568367393266326,-0.2104315478497476,-0.14155911663066056,0.35181823343602797,-0.0766612855455102,0.3477531994837756,0.03742354769589539,-0.10915081516726398,-0.3142235693229522,-0.12129874379531373,-0.36707305178239125,-0.2577230311328426,-0.28997064284378615,0.5584773732510798,0.7198573256453307,0.15349010146281264,0.46979132389797595,0.24808645112018884,-0.038733102214488474,0.2951764254244724,-0.009371144219780535,-0.05874313017243103,0.41587223412425234,-0.43072648965866267,-0.07444597172893425,-0.499269573539107,0.19522921334050153,0.22470194487901402,0.3622122035846332,-0.2122195292752399,0.19716965850170934,-0.24454155580197956,-0.3389508024538806,-0.2910537205343693,-0.7514666692256378,0.18242562997453557,1.143541594641765,2.8128894612914435,4.334697793581574,4.8964052500460475,6.653278383294345,4.924088452356264,2.2693697783080062,0.3902659643842149,0.6400794387095492,0.012255778646914484,1.0166140688294771,-0.11292943184535771,0.5444874018196886,0.37381231476888627,0.42605399271367206,0.3948736537379356,0.35580932903296286,-0.5310582997080538,0.09429699608964737,-0.3206352537896818,0.2714734167631191,-0.1604772539461452,-0.19554912780881145,0.502229932489814,1.3140977339554063,0.36779102631594973,0.8139454527900037,2.7343947864962086,7.595503006215492,8.350960251598176,6.959426563177505,5.153117787124969,5.173883259008665,6.4525647058324855,2.0770852778286066,1.7484103889995042,5.24752288020862,2.0206198688008277,-0.9634481291457209,-0.7960995352218558,-1.0598566635316904,-2.118610113967055,-1.5668629973675952,-0.017199194260230366,0.3923146164855275,0.01798191125667703,-0.0870866752102131,0.2192681027380981,0.05991245647099216,0.11508936671916296,0.5133545846824642,1.5652970020613026,2.7754197348975063,2.4556322339698937,2.5851572920224646,7.671720890164198,9.688135604592464,6.2031732439284095,6.74654142684154,4.4482667487094405,4.259678635141653,3.0510110688873566,-3.257335631462935,-5.456087449749946,-3.191540765350499,-1.617439358491764,-2.1707173810260425,-1.7739796955606575,-0.8546586690912342,-1.0136921415945297,0.04288448504335802,-1.1187150290621228,0.2468799634913031,0.3423490759428754,-0.2940707619269008,-0.1732354754355227,0.033828768680267386,-0.04175544196272943,1.0903005686796856,0.7452287683098112,1.6806327755650157,2.320187318531218,3.2569599275082615,7.887716453186755,6.457110723692486,6.485589126821127,5.917736013882086,7.0022199311387086,6.274877573426579,6.004878817503911,-1.9618018883120065,-5.281807422645133,-5.259394329705333,0.6545428622302,-2.093577875434043,-1.9168229340728802,-0.436158382414261,0.5362703802120679,-1.2252147584358324,-1.4295308147134453,-0.14102950963030877,-0.3972976825155143,0.10243086543597035,-0.5609843370044265,-0.41530218498168053,-0.2703661266580428,1.2615058379475939,-0.26462667019797886,0.6983379541470816,2.7275234562627357,2.9408445459264114,3.1806566160110337,4.258173035246577,3.213920808259315,2.795139110139997,2.0159179331774704,1.8060454112727191,1.4364820662816158,-3.622055799575129,-6.453557064166027,-6.565190370067457,-1.3355328813673717,0.45546756147556655,-2.421786320592344,-2.7403558763297293,-1.0130170089709856,-1.1241709836142373,0.3730355739492851,-0.4500125260810887,0.08991370192784251,-0.5655418270152327,0.005084587116475543,-0.6395653099707991,0.3217372645292395,-0.542985912992288,-0.9204514111198013,-0.9890993461783624,-0.42420909279770974,-1.138235143533412,-3.2444273259578718,1.2044721474453353,2.156212798439576,0.4432216500818684,-1.288130372626566,1.2552936445287928,2.130997370732239,-3.1171211143840925,-4.5331374752027225,-5.078214108544521,-1.7244114916170203,-1.9481604530974777,-0.23425822424325224,-4.635595578910276,-4.542976510809147,-3.5146095407707763,0.8929322675314834,0.7460135040634516,-0.572501014754711,0.08339161820383176,-0.5861368113365133,-0.35697279642615537,-0.48196010315961824,-1.3100429787599135,-1.9294452355010618,-2.9268985587938916,-3.2141631717843193,-4.312421663583652,-0.050322575073947495,0.5619500443398844,-4.5368538463479435,-7.863104372786596,-7.740320139593135,1.9581753236441093,5.758628751639616,0.6479568997212601,-3.7373379375491114,-5.737117184586002,-2.419400513213432,-1.367649493106523,-2.273396597878212,-5.63275738485161,-7.826298879669448,-3.4885136104779533,1.3295775756013184,0.3031615454241251,-0.5788375089578788,-0.11628115461045446,-0.007494264568001733,0.3339840441219395,-0.45705557535239744,-1.5869592543375703,-3.818420875593321,-5.297293869051241,-6.152561770067998,-6.521385211712979,-1.4400529272679166,-7.942489343707193,-17.78821945578518,-17.127707039671954,-7.354826421266439,2.243013554181168,2.7306373929133247,0.18043242729075304,-4.7143760927366545,-4.8894758701166126,-2.5458932444250473,-3.632206377756694,-5.8393798379255415,-7.871674451351517,-8.508619129648128,-0.8022136144379239,0.5056357010357566,0.13372297838227018,0.3440860952596094,0.08249925944423689,-0.22693246028907493,-0.16858899253833748,-0.6092884981962909,-2.619030238452096,-4.470127617915356,-7.389001194598516,-10.203439271899644,-11.66599663274017,-12.774831606987016,-18.921716188056994,-24.27815143237586,-17.8306670447619,-3.130070440320341,6.15943989407942,5.391005630244033,-1.0837503872584249,-3.561308239843659,2.061920946000016,1.25205644959815,-3.0588187063898418,-7.066769006799209,-9.824680760447903,-8.280910920144347,-0.5285426011866758,0.7821164100569703,0.03405448219299859,-0.07321292299890858,0.10922252309705655,-0.5233884509852726,-0.023138580217719206,-0.6527315573083913,-2.035174996869848,-4.221217194979489,-8.922960289361283,-12.705592511182997,-15.228706088240159,-16.95084969720081,-24.836089636785672,-22.248393470390468,-9.584023013987018,2.584561508152904,6.831776237148749,3.508787966831438,-3.189011738633856,-4.029205143984252,-0.3966977338332344,-2.4081497078840477,-4.3926771699821,-7.154924038295657,-10.144386188403592,-8.058759038712772,-1.279594532259253,0.7152963130057935,-0.03273166386028151,0.29443629842968017,-0.350010708068401,-0.1757445262845238,0.21480921710795986,-0.26600238558909706,-2.0258094362135415,-4.028682458393906,-11.31914508027915,-12.593389585472659,-13.275966276767958,-14.944250501510796,-18.167442561668246,-14.111814107081411,-2.5748390056547916,5.971824878473891,9.305456071030044,4.526572937187318,0.1529691146569231,-1.4383835622327132,-0.7930566939448555,-1.6569317220023267,-3.197056365164019,-4.457371006778745,-5.154436219526932,-4.845782898096321,-1.9316043357478252,-0.07422013697990976,0.9151495795053811,0.10495119848470524,-0.48088983530451673,-0.1673601933489384,-0.3588512862699661,-0.3020856366668709,-1.0484912096500523,-4.921830997574927,-11.735008384932273,-12.054843110025633,-11.655797640385003,-13.31208925398874,-11.382747933161758,-3.7682907532386145,0.4477067968594345,5.38530194123493,10.472657243778396,6.8254217495037155,4.0821899355251325,1.6134288504598826,-2.6752144095176646,-2.3391558366883665,-0.27386709139579757,-2.245622190508917,-3.5590357354170923,-2.902164788709201,-2.3880001072527084,0.5105800186225289,0.5443974527252278,0.301064337876545,0.13404089454192086,-0.3211407792363726,0.10696964338199602,-0.019476980026805514,0.18410712047528155,-3.5961776047246357,-9.583437188133127,-10.246383256783835,-7.482373137807224,-9.801970430717583,-8.580426456374719,-1.955080757568741,3.3167918500126055,8.055720390729064,8.12132140133457,8.46625182358902,3.86510266047211,-2.9165925709333513,-4.0695392573298435,0.9133111738998415,-1.8763841523537614,-4.183775639385255,-3.3089019785959595,-1.302303353625747,-0.5516485713130508,2.134210265247436,0.8813661315184441,-0.5413260423913202,0.14160466487019746,-0.16061234650582903,0.32658287011364656,1.299891598534008,1.4211160050036271,0.5788290002791066,-3.1117921271356117,-2.6208624237193328,-3.192369402591682,-4.663584869084359,-0.8240776415334938,4.187770850538784,5.069888171217341,6.861908861830673,10.611461107818593,7.736356694606372,0.5722148564126255,-6.060120001208838,-8.11700079161606,-3.1552793852422827,-2.2850791683585316,-2.92581366896969,-1.0971020055361604,1.6125483586082696,1.495315669794332,2.847791288322494,0.24738684349248025,-0.2523639339663696,0.17379813061235955,0.40040770923287233,0.44854879788761537,1.740155673565815,2.8395019669958605,4.909993227277748,1.07455953276067,-2.7040927322243924,-4.194252147612104,-3.9274741385612426,-1.5074993030776704,0.4367728214154692,7.0899138733346945,10.37019041110443,8.500715028141457,4.117545018863476,3.114153722391242,-7.937039378384555,-11.83477185516031,-0.8116007200109336,0.6932207543777662,3.4600995735616364,2.2956742184891437,1.9378648355385293,1.2349465231114103,1.7963874820609536,-0.1804423434906562,-0.18541834716137895,0.2668967140288409,0.16271707513305467,-0.43754213143533405,2.741241027976992,4.5918541473005785,5.764921661812337,0.16017308088040455,-1.9096786037732651,-2.86130503705262,-1.771692959710522,-2.695481994628579,1.7847270127815031,6.858275185271579,6.737973416726655,4.182729163661458,7.328372896700583,3.5488749497170455,-5.448099363001153,-7.3752314032472315,-2.8885471186054827,3.6813416733638786,5.434473207729493,2.629420558384186,3.8437050435929327,3.4093513952992542,2.195453260041103,-0.45780376571515075,-0.49388555696318226,0.13408608543653305,0.26453428472247437,0.3034025648029128,2.221441157298502,4.6945026862124495,0.7850153123904647,0.04751949748078751,-1.6595035995184364,1.0412587619195344,0.2987091511923751,-0.3382491771252428,3.5973670100073543,4.991440200218958,1.900311048815322,3.8980362852581116,5.896839848882079,3.754867345872846,-2.712073009319742,-7.1549636380944195,-0.8706064204310748,3.617796119697784,3.993681697535754,2.9952843080393796,4.252608855317575,4.712142565357072,2.074743766929221,0.10410524743537389,-0.20634436675977785,0.319468980435272,-0.041064493659934094,-0.04917561763960561,1.2438752344607753,4.165632760337298,-0.12023210521083866,1.2536122817421744,2.294927632411063,4.924458125226339,3.228814249260607,2.161734189765934,1.0470607584934026,0.08731714511592932,-0.1165666542832673,-4.525812872490859,2.2168537946898277,2.279282238850105,-5.547466897974434,-2.2459598729255776,2.7430854226344215,7.033207374398661,2.3608872672637737,1.4372651560712584,2.590954182140133,2.697210461398267,0.5692656297020351,-0.15589197984326408,0.043793009259636834,-0.27918920169385536,-0.3271193112235024,0.04978711837246928,0.9650077177985837,4.021910910236648,0.10577454067931835,1.0296080895949948,3.5074414029824026,2.578158460561113,2.5462616596179353,4.751006733626674,-0.43892584453942324,0.1439300367002586,-5.085737910354567,-7.464755235000306,-4.410387531053528,-3.971644791646452,-2.767910164743814,0.5640561399792018,3.292418815196902,2.244959635545789,1.9431192157032904,0.08855031588612516,1.5038316181648212,1.0789151905089374,0.33299470849147933,-0.39257727917968166,-0.0711522184182275,0.24981878350968384,-0.10320470161399384,-0.1691628057403671,0.6517167872904727,3.423174207153813,0.06333387118430787,1.1786938942655762,1.7813548507223311,1.4351730378213574,2.219150454385761,2.67031544428395,-0.8217598581575931,-3.7061503654181447,-9.269888678262271,-8.373935100428426,-6.356341665306267,-4.434630677735722,-3.97899481945673,-1.9300284126170562,-1.7911922051403337,-0.005147236136344663,1.1784629000075522,1.4296014918269715,1.3000355927668352,-0.3955537889863777,-0.079288320307791,-0.4795309044519226,0.19735693113095593,-0.5627652689124759,-0.5653764249677848,-0.2317754624128569,-0.2434852459567167,1.5580831863816564,3.0144020030268153,0.3464227067023178,0.21052479366795845,3.137196319828335,5.067235547747464,0.4191514861328594,-1.5316349906869493,-6.326869905387833,-8.06029846888907,-9.373839183244105,-7.86388827110504,-6.730199093958667,-8.108246442305317,-4.820925295807256,-4.789390816089464,-1.5353943231066038,0.6121727440336089,1.1042892593956832,1.7254192550043066,1.3644775611627675,0.6524641013489005,-0.182141226558155,-0.1327483945035572,-0.028534677083770617,-0.46094518702472026,0.3233101177516986,-0.3909446816467466,-0.09431057486919472,0.17935489998761114,-0.03402360543198022,-0.09141419446553635,3.7417833598121826,3.415621217832938,4.3529127601354975,1.5093878212573926,-0.6320394606170505,-3.4807674295841102,-5.168984255847787,-5.201371639644073,-3.6711993623142853,-5.7753983720196125,-5.465027387007459,-3.5539093776885298,-1.357574022890212,-0.09119341200010443,0.8337178129674138,0.9178743358258368,-0.10625651343737465,-0.4718288588995006,-0.41098372017892343,0.249044631608124,-0.4113316274109459,0.12261590001271,0.23159732122770266,-0.3587880348272185,-0.473248331929259,-0.5936341287434808,-0.13684370296028567,-0.006500219541786152,2.964185533313642,3.9488819240938238,1.3147394610352543,-0.25298533027565095,-1.9776967895888355,-2.6826224298937342,-3.6391238560060493,-2.532562476219376,-2.539516661084333,-1.4837505034764114,-1.866961916087284,-2.4865116629770667,-0.40834841709530634,-0.9773214828424723,0.11804518922352417,-0.019148827719054143,0.3441380699872992,0.08686454611717243,0.3910273300175528,-0.2779326907440986,0.11012356048517805,-0.15075404548525034,0.26628939827168735,-0.4389749892494464,0.27105526206403374,0.2506320221448263,-0.884924181689387,-0.09058922877877247,0.3002733052707246,-0.6765457634772398,-1.779914289720745,-1.160577981706899,-0.18349502420378688,-0.8184651257576755,-0.8927532792013534,-1.0780280817790229,-0.6275006397322078,-0.46358578181003257,-1.0105302680424717,-0.7082103035729381,-0.6731463729474417,-0.6540288569067816,-0.2548915798073331,-0.2051984361025036,0.07032054731734491,-0.463456231879338,-0.47195817232075105,0.015102484682720614,-0.37536858777629317,-0.1791336891883767,-0.47663731704491547,-0.40949076482498165,-0.47832561622165376,-0.05425394055825382,0.18015420643132884,0.2020763205927969,0.07856383891048994,-0.002764961849283788,-0.2962329996862475,-0.05718655630959697,-0.46734936578207936,-0.2853295354415158,-0.02284622800923552,0.25563448287570495,-0.00342790681425047,-0.4334786555944979,-0.7233200963951348,0.16141772800347426,0.1388596455655175,0.33019725213821144,0.3818067795796743,-0.14563698516863255,-0.35372205130923956,-0.09262761758178475,-0.35920382456545236,0.06975354308857282~,0.17897279993353843,-0.0654769449416291,-0.3147125441147992,0.1504514360915457,-0.36782621610508914,-0.15966815384945293,-0.36651407704361294,-0.23089274558164175,-0.03809109923895952,-0.43880854597281127,0.39856629463509785,0.4438420155548347,0.1923670663589232,-0.21522351190126487,-0.39281636453701285,0.07328113812660221,-0.08900607111258892,-0.42899428703034315,0.136900167949699,-0.054309008974485165,0.03495358402944854,0.37254206809199997,0.40349688402298234,-0.0831709584756496,-0.2980339967907345,0.45073108136206896,-0.36514311299561397,0.4621994944309319,0.533332098507201,-0.10730301462602727,0.4910531349152185,-0.27966822189950324,-0.35608508606386624,0.31501945647514884,0.036460845559933584,0.022599475421156163,0.13747175285324137,-0.08925301118944425,0.5285226116555525,-0.0927243407191565,0.09627107731498065,-0.07911737020359631,0.3335844827313832,-0.04295441326031753,-0.3452037102825238,0.5409404006670935,0.0997830802423404,0.0777936309224018,0.44500407578675305,0.1776195004817459,-0.40689264134734215,-0.3510167804336341,-0.2704942997679908,0.31188718278388317,0.10599332294471932,0.3393614718446408,-0.2809294821368308,0.46206517428843397,-0.26371418653147694,0.4176880422085366,-0.019999717622072286,-0.3984818788422601,0.2518263123967929,0.08026657187243871,0.5337520452654737,-0.4037756395558656,0.13798616727047852,0.14468078027865852,0.3538889114296696,-0.2801934547883727,0.10536735571852279,-0.06608695543418616,0.08481120236203843,-0.3004867078252203,-0.5571673277422513,-0.12643784319697507,-0.37245539107852355,0.3354661656603285,-0.2328070401947081,0.17121481194143007,0.19764522066076534,0.09721573342190161,0.3924148405715022,0.1887099793984915,-0.16030337961906366,-0.08891256580435312,0.2605929919632458,-0.14884916996998027,0.09061559621608022,0.5662794585904515,-0.3664875358864877,0.35687489109447473,0.1763710441775174,-0.0533113002032457,-0.5063817440325125,-0.312920904763323,-0.32306808188789726,-0.03277101680535193,0.26153963337223846,-0.2731532601635637,-0.360818031572958,-0.4867944847034773,0.6411293983724334,-0.00401473942210407,0.26616447299803964,-0.016610636552764905,0.5018594723628838,-0.43180165384657143,0.2436415425244153,-0.4085855473802028,-0.4028378207924834,0.19769561347970604,-0.0035657205585200766,-0.02782550984084146,-0.2832343174482667,0.1508266541835099,-0.2137490163093188,-0.1308668799849226,0.5830636203531513,0.6748209826113435,1.5505814992620959,2.1380872582049792,1.300381787220036,1.445836723924449,1.847064053331663,2.5200169076411862,1.0334020638865336,0.43663755558354567,-0.14178829445666388,0.6229689340593219,0.3165664762518534,-0.34563243819193107,-0.28140057113047207,-0.6152040004964353,-0.6514850672680979,-1.0116363923029508,0.09394295535555043,-0.006771349567049416,0.571236573224202,-0.03920615471344746,0.4293800559534282,0.3849404603043983,-0.39492091533004337,0.26546828235390363,0.14411180802379642,0.670511547543173,0.16215919211454335,1.6491616799883428,2.283303955286809,3.5570347140319964,4.875036238514433,3.9138658417443555,1.7028178296594665,1.294144627272175,1.7770452254516822,-0.1306771754973895,-2.3082458706784768,-3.2379424580454406,-1.814744752464549,-0.5738172660017015,-1.8546895475809193,-2.661612264085937,-2.308729047082823,-1.3908875118133823,0.2628704432383232,0.3349563410621932,-0.4913057903553568,-0.2727001049221701,0.13754611341453377,-0.26307065234289073,-0.36914358872168535,-0.37496360928457684,0.12631318815309506,-0.365705433217457,0.836395425031519,1.2988188402987932,1.669308199237763,2.8349441243276954,4.984813588993039,2.5272774467459667,2.6708497701367344,1.221773597605877,2.541304836672061,0.3996107391046116,-0.5319555151081378,-1.7604363673536028,-0.5173494877464365,-1.1410263619397818,-0.6065132116394901,-2.7760232676510115,-1.6351692686011197,-1.4011413210914478,-0.7823778279589858,0.13506213020029514,-0.24528385039019499,-0.31454022957259775,-0.28196520600611286,0.284815826318685,0.05001649375679651,-0.30159284401644654,0.06000562252845541,0.23768232599050967,0.9382524067461212,1.5070278446742456,1.5673814725222193,0.5867059545556336,0.45421729258409776,0.6391074184387144,1.1109803993533425,2.944053925309543,2.1988378506731423,2.3516335601479765,3.374261195080403,2.2402399979294305,0.19855084187754332,0.2889064473204354,-1.363600270575951,-2.591835538185199,-2.1649030732804735,-3.1393451399701986,-1.2407286125888013,0.04795233727544922,-0.018258455015361764,-0.1362744982765548,-0.23081694748326037,-0.16647974152410727,-0.2938536178703039,0.5095206730048503,0.643400019884865,0.7487094057803472,1.3462581491059693,2.027531578694176,1.18003988575177,-1.0259932535862688,-0.1414178822631542,-0.7105940856574704,2.791432612058526,5.4620578708984056,4.948208219787654,3.6754261027768758,6.1819668516143205,4.2154747107813595,1.7254514938931813,0.6198482804531366,-1.2344307920801845,-3.720948512411838,-3.7284553987982103,-3.1388933455767076,-1.8900896675893157,-0.876227214933532,0.02466940136732238,0.506722094653335,-0.03488574161978708,-0.1251687961560721,-0.332049007487696,0.596354618770966,0.1965071378172249,0.28157779153622065,0.8710047388102465,0.3676114285098003,-0.06175092787671339,0.8598283992119722,-0.38428120270315913,1.3174157339594497,2.886450241242262,5.876379503523515,6.49770920160773,7.739570920549755,8.44206598134808,4.53587808256668,1.8581252314862036,0.5688054620259027,-0.29717050947332535,-2.549811829777432,-2.404603402245864,-1.6913452826702438,-1.665042716668498,-1.2481227628298295,-0.25230591648831363,-0.17239861916496468,0.3372460456826845,-0.2730840115742309,-0.37342241717228075,0.0688938096031813,1.428825863973188,1.3357992106966796,1.8451758068027502,1.084595174488073,-0.39789246365222714,-0.7656652448275792,0.6464992013988721,-0.8287233381779419,0.5039217859580386,4.146811916236459,6.95332776425961,6.03012685327282,6.944181393940114,5.280748931221904,2.9557301235067808,0.6395251998013494,0.13157726007100956,-0.9443461201283403,-0.15064721671437514,-0.9455358239144039,-0.4482769783983293,0.13531017819248298,0.24904905604549835,0.5395201691671412,0.1701689629612581,0.24250276121843523,-0.17306838257529727,-0.13454948541959488,1.3598399013717068,1.4545237055655702,0.8126689278097698,1.306315941458087,-0.5476072845837888,0.5021675439028916,1.010971609827431,0.5105753240652493,-0.6062672944634663,4.093871591550264,7.63412124731685,7.673418117735956,6.8506763003662,4.229435317901473,3.6768962087460912,0.4249617391753017,0.6680330174262721,0.673007246026915,0.3620695053381802,-0.09167524665793132,0.09906788812377193,0.2090106717196673,0.19905450440849448,0.047822046925886735,-0.09132912939001951,0.5015092464732664,0.12352300139401605,0.20165164230529195,0.6065637258587266,0.6115068955271197,0.2940957443564879,0.15286097743346708,-0.3564989520615267,0.021394753179837495,0.4216670651587751,-1.89707922195235,-1.584043236602201,1.8527030074721196,6.063727602276314,8.376443562831124,6.739268146928026,6.22879973334035,3.5488912087720097,1.5372909696437198,1.4603578423627612,1.0875573817393491,0.10264417562555947,0.31329932893396056,-0.0009030353178430849,0.5152024571515558,0.008829719530042612,-0.2014189773176513,-0.19845190547799818,-0.3839280018138054,0.044285959209314954,0.37036276483063285,0.7956048757277732,0.3458297086559746,-0.42093746651128616,-0.1938139631024523,-0.6574858632666966,-0.8390761414554034,-3.2794468605895535,-3.9847892804461917,-2.8251314081129597,2.003464730191984,4.691840670809389,4.225813803184707,6.524017666588917,5.658362960970579,3.38857580358051,1.5644895073320921,1.2635800214910216,1.7416704162541332,0.6542516184053394,0.3338009452480583,-0.3766603855055402,0.3923993133983564,0.40938921217809704,-0.11071637425518918,0.006280342910222043,0.4738658067088629,0.5733135309865324,-0.031275060836001095,0.022489105560939207,0.16463395528313166,0.4759361302310399,-0.49392976398241945,-1.3731212145438914,-4.786284814825832,-4.357399470176858,-5.663985752555256,-2.4079398566686496,2.964968531869718,4.491358563578402,3.8019733172475787,3.851376945562121,2.488973642091639,2.724828038746056,1.0973711923436251,0.24547971394518536,1.369847615617423,1.3970458695878158,0.36996618618563365,0.022172002328238034,0.31806068384848596,0.20290096748351608,-0.18070899548372904,0.4347585288882757,-0.11453100919625937,-0.2550779158783091,0.2503844569165228,-0.013397430837665505,0.013180919630991543,-0.8710433929470531,-0.6061772613694691,-0.19365678633179514,-1.1914083116068273,-1.8228510373068816,-1.0853955188175999,1.8483253306617178,5.41799567625413,4.10729534104275,2.1102054009933724,1.4382201947845006,1.5091721909360147,2.772343191978231,1.7464103912113598,0.10585837645090883,1.0576397524459296,1.0164572226185837,0.5069289125636937,-0.43519526260790414,-0.5845412004420594,-0.3876457075948495,-0.2388816111854978,0.23436044128329497,-0.41074681876828867,0.10706628232851545,0.45461365520972724,0.5777560635683867,-0.7706487580313347,-1.178418548184164,-0.6811117822097377,-2.233876461844403,-1.138232980829923,0.7027666696601654,2.3627531474854733,2.806559424690433,4.357830150934834,2.231752113722254,-1.0000658614355924,0.10213086468374681,-0.016654334678696602,2.54415395240554,2.245944632410622,0.21425335112480332,-0.5422171305572278,-0.32321584380999846,0.4113137806840487,-0.24998971457576866,-0.2899601298525423,-0.36404938954762395,0.3047404217653683,-0.384859112414522,0.38287261251010224,-0.404057198477106,-0.1846060647515741,0.11064373334129625,-0.5435408222663501,-1.8310319153403736,-1.6229225513320267,-1.1096108075635402,-0.9232872483058542,-0.4316195751690872,1.2731515521183059,2.513383349079006,2.639449959220508,2.6626037597955086,0.3349847857673042,-1.0125284538763755,-1.2314762483936155,-0.01285517303059034,2.442339004686275,2.0662010420158055,-0.905662758777437,-0.9751932133173484,-0.49650828188854107,-0.32763189858188446,-0.2998168880816588,-0.055488878218277624,0.13393611833047653,0.059606403802153846,-0.24195979186724126,-0.40451615109995886,0.22925680791284817,0.5399939933348563,-1.0338535423603308,-1.6018245893407135,-1.3990094681103038,-0.577782275683783,-0.48021657190983397,0.08722343523389188,0.07193216947854432,2.2244979591503506,3.157739651572932,1.8954984958703285,0.3290409430556994,-1.716997881439655,-1.2804356353379767,0.21548788507307495,2.7825023480404134,3.013849657158901,0.14302000222743064,0.09371355090491727,-0.6516189889537393,-0.27697452343041046,-0.3262828558473535,-0.1722976715677555,-0.16318389547768175,-0.32596284648579354,0.0265862222636287,-0.4264590031287808,0.4535070763382154,1.243410646064656,-1.2601808543666462,-1.8709891528914837,-2.822806556014527,-1.6583657319984908,-0.38559810517935517,-0.8415700777163501,0.14899503662025762,0.7675431407852501,2.0341753830733658,0.9558655290430343,-0.6922209369990375,0.3996212023447222,1.6861100381756633,0.8176371016785382,2.1563623697098,1.3918498635495926,-1.0236220692511504,-0.9206564033485203,-0.8636114056250491,-0.34735826355265204,0.38156272105332983,-0.04601364809897379,-0.12359567366560278,0.14932213269976558,0.22597331501231038,0.039328091158528596,0.7973764782466524,1.2392107173948597,-1.1016317866362038,-2.3180463731230985,-2.0915661315663514,0.057274433469059256,0.8762113897007521,-0.10457287247562173,-1.138957757591857,-1.1347294787148017,1.4292836041629433,1.8845934595664946,2.5173978994883632,2.629461799718852,2.6558252155168542,0.19334707069895674,1.130406787812488,-0.44316785268700265,-1.8226740424802266,-0.6560816141508404,-0.9332804941167924,-0.6482622476520785,-0.2858732581389279,0.15179152540149798,0.5440735584957783,0.5385571767381631,0.16311352362660253,0.48868309570536,-0.07864711602287727,0.5843084935171239,-0.6874262028460266,-1.3262425331884802,0.20786568597401123,1.0986624553398965,1.593327727054001,1.3610172759799664,-0.684380387622258,0.19818477323424122,4.797540399341204,6.797374208636905,5.510760150152487,4.391458947565932,2.2733456922394026,0.984148613976507,-0.328742913487161,-1.5340179828063445,-0.9070748047066406,-0.7233462277884768,-0.40851907971910856,-0.3828933479759892,0.5431532205314424,0.17693947010880196,0.40038005807045385,0.25392937168017315,-0.41277806089807,0.5398662081835657,-0.18763672783797627,0.2241059948640249,0.38807822487204063,0.243040146646547,2.1149408400699583,1.2048880134981168,0.5482987012208765,1.1039271965533977,-0.17311859563442752,-0.42949396979209153,3.503499598787801,4.88670026567604,3.286113434301843,3.7937277456513594,1.4531649192299647,-0.8762869688681088,-2.4999318728815947,-0.695009783412544,-0.4887560272881304,-0.3093357465520456,-0.04792116010184988,-0.3360696297500616,0.45138497015011875,0.08777035032178766,0.1118079509318919,-0.3871304606406387,-0.11729382020789815,-0.42899911422702275,0.0018742255935214947,0.7703905223131862,0.523470029229406,0.541365227993196,0.6601742878487183,-0.005894418280313315,1.5603033817264798,1.579766816425419,0.581545288942462,1.4967833327739097,2.0257789505635557,1.9972740463986722,2.5920259190909936,2.91334418017596,1.1663421316942129,-0.7196898200880475,-1.5000230101968388,-0.14864319000166457,0.5062701215654083,0.46417453766977446,-0.384854542371785,0.18582596785727423,0.03241500078868987,0.5213833678533071,-0.21224125290322265,-0.008853528335228756,-0.2994449041521502,0.35453927892528164,0.1885077802145359,0.39422029378145546,0.8787149397489885,0.7205417699052333,1.267553511490546,0.430980536646207,-0.3013723026123458,-0.9943977125488836,-1.378859200815786,-2.2063836296235153,-1.2161278222126368,-0.04836642749551492,1.604542266385461,2.1573005087331976,2.476320800318762,0.29081813914368887,-0.7534388756809374,0.7269167260082544,0.9340523246968175,0.49825787972686647,0.15097742252361004,-0.2916276564042638,0.1649976207502991,-0.1300782432398842,0.16794746538343913,0.204887019593823,-0.3488522347181895,0.25214157366150575,0.3149467801290495,0.41783208546997347,-0.14707203645958974,0.5860417578793244,1.0453707350562846,0.8750779928130392,-0.06665355476200441,-0.35087414503031994,1.6858102730488156,1.6809662294812457,2.261612831596654,1.8044953976517322,1.2751065075705073,1.782669943436943,1.357070309178338,1.316538469925693,1.069213676553463,1.1499083967914618,0.6143924205186162,0.25474737528094504,0.5604536797819232,-0.14270987590229184,0.34649257285653934,0.16877055878850444,-0.14386866426645767,-0.08322828498628983,-0.4128883522878629,-0.12392720537750165,-0.1936654303839887,0.030051046327836065,0.05509419587690381,-0.1792044794123427,0.47034214293496673,-0.061785332399702936,0.18310793698101402,0.5412435139840062,0.6211994484125816,1.569054522000441,1.1556594170510965,0.867164020425679,0.7822534348596129,0.36574072305763106,0.5646884923461063,0.5171989164665848,0.37640509486795,0.8466955849043397,1.111985785700299,-0.29329837228929145,0.09481137755994899,-0.37788304326675926,-0.1293386911662951,0.05128842540017689,0.5000905886550472,-0.28487302339835585,-0.32138241311678906,0.08945462770513819,-0.3327756559411248,0.507179798201955,-0.15455237109107756,0.5317373256841159,-0.29793460544498446,-0.16740236575467288,0.3654364794214769,0.15833578088203443,0.37968557612855847,0.3976725232837617,-0.3508924967969905,0.06098536568695491,0.3640635976348108,0.4884438302373833,-0.266462030179853,-0.17008379946465724,0.06774569722955431,0.46228845797395063,-0.20967359687730636,0.2117172926490149,0.05650215836129373,0.44145503287041865,0.23210739795953955,0.5090560576930889,-0.3485566465589369~,0.25634906277712194,-0.23341784489611178,0.3591733662656525,-0.24467488152696287,0.18879640654105562,0.3344113974993321,0.22766479813392865,0.2117376427758227,0.01868093890206029,0.15533329861374817,0.42649806295894704,0.21333681671218163,0.5051545578510921,-0.0790487409791603,0.015156755230508747,0.3027783912186029,-0.051371023693277965,-0.16559158618351838,-0.07323001006949868,-0.3573300807521805,-0.032009682445162974,0.07856233666565866,-0.32896658027231657,-0.4012912419867803,0.3410035757548105,0.20766842142472103,0.07519628241894118,-0.3086942977141323,0.1626849908176341,-0.21307718305551393,0.04707574279913443,0.5247842591847989,0.4202690070725091,0.4278437820502074,0.022535082023943484,-0.19835124340375432,-0.11594641529705342,-0.19315005025627574,-0.08493142911386976,-0.022874962501662488,0.30925968929817677,0.003138149400235553,0.01657145058987588,0.4449276311901767,-0.42113359076345885,-0.2137522322112025,0.030299530069054045,-0.23544730341540604,-0.19168044579781773,0.2872253488200986,0.18888008085936847,0.4451980124809332,-0.07357376510064582,0.1873995525498136,-0.0019375982834627598,0.5197764475729953,0.49060526611519256,0.40680820913056,-0.0005025708933823966,-0.2110074907374384,0.43089742838027584,-0.08154853733219593,0.29409915729968855,0.2180995786698492,0.5190822658139145,0.16178421288616618,-0.02291809912072374,0.21461093163841824,-0.49054245151065,-0.6172472219586445,-0.35147077421665257,0.4094578222768102,-0.08028685187725486,-0.22333660826838944,-0.0332516048532453,-0.5519046528617425,-0.15160554897548764,-0.5099571625462265,0.33491710297686417,0.06012861211155652,0.2550397615656573,-0.1922797226403189,0.4234078230527068,-0.06948762544124713,0.5230093057561953,0.5798569598538859,0.5111448943659436,0.5699471922507542,-0.31555945320345474,0.6462896387806166,0.30522655967905565,-0.04898499187040037,-1.0815713307264705,-0.9075772304174525,-0.14354350008430325,0.280884794564964,1.6308416357644349,2.8232065642527115,1.8227414287282522,-1.2326708376984055,-2.0350567526165806,-1.877049077908223,-3.5641301579713422,-3.2075599879568175,-2.670420765252035,-0.5489638128715598,-0.29474263970200093,0.38101924134996434,-0.21726235941462332,0.07432240367190922,0.21406814919255007,0.5807661974963214,0.5317976646486249,0.1855087782858323,-0.4005719933788154,-0.27278978046224794,0.4669339440223529,-0.18248256454563244,-2.5240396338471824,-4.174133105758015,-4.112473470233487,-3.876154563352137,0.9919651700924332,5.310785067172488,4.672794962743926,5.7357820654010565,6.635768015881984,8.139562015708284,0.46731808678412645,-2.9793712447750615,-1.678498594594082,-4.088342832700073,-6.377860174107028,-4.831641591835513,-2.847689036566091,-1.476023643878484,-0.9661219515354076,-0.007003223049124263,-0.0969782865871043,0.30950046835990636,0.4550582612404304,-0.17626211078786608,0.4628001916691842,-0.15471259230746728,1.5743821531878706,-1.476768532805095,-5.580779777032209,-5.27525680441336,-5.032029141913736,-1.5598388973526376,4.203534696701622,2.7810131936880973,1.661825740257915,2.6243480400539783,-1.784700715882872,-4.391002067244306,-12.722458019081207,-11.572508200254447,-6.983977030081366,-5.614264311071626,-9.363331309872043,-6.59025216794561,-3.025278606969991,0.05179502255370786,1.5791008832844913,1.152132422742969,0.6302452899006092,0.265697664328936,-0.15380414587196528,0.4259796881591878,0.19646600998036703,2.98910341449706,4.026507967251797,1.464446358006666,-4.378744917471945,-6.0414182984219975,-0.8430740179483388,0.040311918217889334,1.3166330931004864,0.37619470823559437,-0.4762738408703824,3.4468952702004163,10.049190549282086,0.91390894114295,-4.210651076368729,3.279740525085285,8.401992466269439,1.544739907552306,-3.052646937639213,-4.435298189712265,-2.5045345374484005,3.6237238647267422,4.615448344957229,3.3465558834071905,1.2786608281284766,-0.35344717971958556,0.2529822974001869,-0.2571788406466909,0.6117125103850909,3.402084016119049,4.88763703741256,1.8352929198532189,-4.69188614307261,-2.833509750796552,-0.1645346912398305,1.307451076445395,-2.5410957323929337,-7.003392627369255,4.530937097099901,10.90007243792943,13.620717339033623,13.11778531648765,7.093877378837674,5.264596878431387,11.277071513350233,8.025049270943361,3.19829342745826,2.9694793751719812,0.1382266486058682,3.3867886379051373,4.263621095837083,3.508477596749359,1.9873332571731082,0.5043605052162816,0.37280363116277665,-0.22723377964384217,0.4043431506133956,1.5420249079319321,0.8837015662227569,0.7722239107326867,-1.4377302406568495,-6.686888816768689,-7.940107419196455,-5.346883732726405,-9.237226188554962,-1.7482172338642692,5.331540020514276,10.178486337267106,14.180962828965496,10.750336066778765,7.5304918036474735,5.323775371861965,1.4911587455552002,1.5474021158111333,7.009211763083865,4.052090627367984,-0.7272000838500439,-0.7993238017892478,1.0157852087644943,2.0487223621929185,1.509474889912022,0.012177752233859793,0.17485602818290102,0.2957072178345968,-0.02700366646773638,-0.4823929225310846,-0.7507497366895887,-1.567891530132399,-1.7629715543823663,-5.641067873839264,-5.478515562683827,-7.51270257985282,-6.769404407737437,-6.391603347146697,-0.7480690574286986,11.900216724427223,18.442892850728498,15.002872984217605,7.4171548924513795,8.64458293679217,-1.3901347636325851,-2.5122908084472697,5.240366142774542,3.8671466767071534,-0.44597607182773524,-3.7284920909379955,-2.3395145905748658,0.7755056639441159,0.9767140266505668,0.6263301096521751,0.0672253095122088,0.3271407194397647,0.3283070015462156,0.4248837792639401,0.14759470652945,-1.0931497090795426,-3.177165267139322,-3.4849717141381604,0.21436463476333478,-3.3219577124553896,-8.752168671067963,-11.704580717357679,-3.565482020884953,8.378362690350578,14.82660693105686,12.730683825282785,8.298798505871487,10.590585136849528,2.560364693776148,-1.4728797220969314,0.7801220143598124,-0.7046180951542889,-3.9841290548542925,-2.2827762105506064,-1.4573928708741486,-0.3693374140383636,-0.28365227028458073,-0.24949271573610055,0.1636091340877337,-0.21295934917486053,0.498268261633489,1.706644051481601,2.6685055902611885,0.6647098163933479,-3.39368708110793,-2.270546700156242,-1.7783479724925861,-6.2134354082206364,-10.656880950774436,-8.903578938680695,-2.311884476740602,9.420761170386484,15.746420225329818,15.129380260355383,12.31010605773753,16.43711349759135,5.422370080100367,1.1308645249882208,-3.6259151040344464,-3.385603051648667,-3.2710902869064733,-1.8784037551346475,-0.03562834582792676,-0.49580789400220854,-0.41079293446310566,0.19883992719314303,-0.22178714717067777,-0.29960217493682517,0.5971781283482891,3.1764239611864626,2.9805910511569906,2.020444749956746,-3.0718176181446695,-3.0487605198685848,-0.7164577399266023,3.357558286551636,-0.45914876622869655,-6.210426815913915,-6.175182468731794,8.824355939806091,18.756513770187556,17.890191749222147,11.212391493842423,7.475011998897648,2.369247624239256,-0.748869895616455,-4.0222993636634055,-3.583727953528596,-3.078451075316324,-0.8546655746191136,-0.8932679057861426,0.2613908189249687,-0.1297728790187618,0.18823190388354588,0.5413880428844893,-0.20669974863950474,1.1119625955759533,2.411640615598551,1.4149288497817634,1.6699190139684785,-4.640585682579847,-6.722157743717593,2.375478166612123,11.722518482927129,3.8253411720184354,-1.190345883934701,-7.551961682541222,2.1104345914560665,10.156031038015387,7.587945814122232,4.5547601446485695,6.0416638125886415,3.914173355523419,-3.663876115451205,-6.714184506124997,-5.743381075881437,-7.276742651933193,-2.4829934331527967,-1.2816424480780495,-0.0564549591226256,-0.014330491876951035,0.29087041651245965,0.3292455331787309,0.7577379676709334,1.859214863027235,0.8082422438218785,-0.5066862384706292,-3.2430323976063007,-13.62362423842208,-9.559693182902436,5.763943410449621,10.810541793451584,1.9041217016279313,-5.424226844961298,-12.294874259348358,-4.855491260557752,-2.0361357671834353,-0.35556902052263367,-5.689015603519994,3.1457784212634685,4.625016475830924,-5.796663241277623,-6.20540306967135,-6.36056456877834,-8.746670743123758,-3.134011478652118,-0.6481507628235043,-0.18164702247822873,-0.33161915792807756,-0.4570401072791856,-0.2921077229502082,0.893566716559001,0.40201704785327075,0.3976595914280465,